FANN_FLO_2.1
num_layers=3
learning_rate=0.700000
connection_rate=1.000000
network_type=0
learning_momentum=0.000000
training_algorithm=2
train_error_function=1
train_stop_function=0
cascade_output_change_fraction=0.010000
quickprop_decay=-0.000100
quickprop_mu=1.750000
rprop_increase_factor=1.200000
rprop_decrease_factor=0.500000
rprop_delta_min=0.000000
rprop_delta_max=50.000000
rprop_delta_zero=0.100000
cascade_output_stagnation_epochs=12
cascade_candidate_change_fraction=0.010000
cascade_candidate_stagnation_epochs=12
cascade_max_out_epochs=150
cascade_min_out_epochs=50
cascade_max_cand_epochs=150
cascade_min_cand_epochs=50
cascade_num_candidate_groups=2
bit_fail_limit=3.49999994039535522461e-01
cascade_candidate_limit=1.00000000000000000000e+03
cascade_weight_multiplier=4.00000005960464477539e-01
cascade_activation_functions_count=10
cascade_activation_functions=3 5 7 8 10 11 14 15 16 17 
cascade_activation_steepnesses_count=4
cascade_activation_steepnesses=2.50000000000000000000e-01 5.00000000000000000000e-01 7.50000000000000000000e-01 1.00000000000000000000e+00 
layer_sizes=3 4 6 
scale_included=0
neurons (num_inputs, activation_function, activation_steepness)=(0, 0, 0.00000000000000000000e+00) (0, 0, 0.00000000000000000000e+00) (0, 0, 0.00000000000000000000e+00) (3, 4, 5.00000000000000000000e-01) (3, 4, 5.00000000000000000000e-01) (3, 4, 5.00000000000000000000e-01) (0, 0, 0.00000000000000000000e+00) (4, 4, 1.00000001490116119385e-01) (4, 4, 1.00000001490116119385e-01) (4, 4, 1.00000001490116119385e-01) (4, 4, 1.00000001490116119385e-01) (4, 4, 1.00000001490116119385e-01) (0, 0, 1.00000001490116119385e-01) 
connections (connected_to_neuron, weight)=(0, 5.73418235778808593750e+00) (1, 7.66383743286132812500e+00) (2, -9.98434162139892578125e+00) (0, 6.31807708740234375000e+00) (1, 6.26626777648925781250e+00) (2, -5.34856033325195312500e+00) (0, -6.96212673187255859375e+00) (1, 2.36374282836914062500e+00) (2, 6.20636367797851562500e+00) (3, -4.12757825851440429688e+00) (4, 3.50082302093505859375e+00) (5, -2.40536832809448242188e+00) (6, 5.04147434234619140625e+00) (3, -3.34062623977661132812e+00) (4, 2.38228321075439453125e+00) (5, 4.49666595458984375000e+00) (6, 3.33940219879150390625e+00) (3, -7.68275213241577148438e+00) (4, 4.55573177337646484375e+00) (5, -2.93668222427368164062e+00) (6, 7.60810470581054687500e+00) (3, -7.44760990142822265625e+00) (4, -1.22428512573242187500e+00) (5, -5.25308179855346679688e+00) (6, -6.88453149795532226562e+00) (3, -8.70253562927246093750e-01) (4, 9.19644546508789062500e+00) (5, -7.80993843078613281250e+00) (6, 2.30998611450195312500e+00) 
