FANN_FLO_2.1
num_layers=3
learning_rate=0.700000
connection_rate=1.000000
network_type=0
learning_momentum=0.000000
training_algorithm=2
train_error_function=1
train_stop_function=0
cascade_output_change_fraction=0.010000
quickprop_decay=-0.000100
quickprop_mu=1.750000
rprop_increase_factor=1.200000
rprop_decrease_factor=0.500000
rprop_delta_min=0.000000
rprop_delta_max=50.000000
rprop_delta_zero=0.100000
cascade_output_stagnation_epochs=12
cascade_candidate_change_fraction=0.010000
cascade_candidate_stagnation_epochs=12
cascade_max_out_epochs=150
cascade_min_out_epochs=50
cascade_max_cand_epochs=150
cascade_min_cand_epochs=50
cascade_num_candidate_groups=2
bit_fail_limit=3.49999994039535522461e-01
cascade_candidate_limit=1.00000000000000000000e+03
cascade_weight_multiplier=4.00000005960464477539e-01
cascade_activation_functions_count=10
cascade_activation_functions=3 5 7 8 10 11 14 15 16 17 
cascade_activation_steepnesses_count=4
cascade_activation_steepnesses=2.50000000000000000000e-01 5.00000000000000000000e-01 7.50000000000000000000e-01 1.00000000000000000000e+00 
layer_sizes=192 11 6 
scale_included=0
neurons (num_inputs, activation_function, activation_steepness)=(0, 0, 0.00000000000000000000e+00) (0, 0, 0.00000000000000000000e+00) (0, 0, 0.00000000000000000000e+00) (0, 0, 0.00000000000000000000e+00) (0, 0, 0.00000000000000000000e+00) (0, 0, 0.00000000000000000000e+00) (0, 0, 0.00000000000000000000e+00) (0, 0, 0.00000000000000000000e+00) (0, 0, 0.00000000000000000000e+00) (0, 0, 0.00000000000000000000e+00) (0, 0, 0.00000000000000000000e+00) (0, 0, 0.00000000000000000000e+00) (0, 0, 0.00000000000000000000e+00) (0, 0, 0.00000000000000000000e+00) (0, 0, 0.00000000000000000000e+00) (0, 0, 0.00000000000000000000e+00) (0, 0, 0.00000000000000000000e+00) (0, 0, 0.00000000000000000000e+00) (0, 0, 0.00000000000000000000e+00) (0, 0, 0.00000000000000000000e+00) (0, 0, 0.00000000000000000000e+00) (0, 0, 0.00000000000000000000e+00) (0, 0, 0.00000000000000000000e+00) (0, 0, 0.00000000000000000000e+00) (0, 0, 0.00000000000000000000e+00) (0, 0, 0.00000000000000000000e+00) (0, 0, 0.00000000000000000000e+00) (0, 0, 0.00000000000000000000e+00) (0, 0, 0.00000000000000000000e+00) (0, 0, 0.00000000000000000000e+00) (0, 0, 0.00000000000000000000e+00) (0, 0, 0.00000000000000000000e+00) (0, 0, 0.00000000000000000000e+00) (0, 0, 0.00000000000000000000e+00) (0, 0, 0.00000000000000000000e+00) (0, 0, 0.00000000000000000000e+00) (0, 0, 0.00000000000000000000e+00) (0, 0, 0.00000000000000000000e+00) (0, 0, 0.00000000000000000000e+00) (0, 0, 0.00000000000000000000e+00) (0, 0, 0.00000000000000000000e+00) (0, 0, 0.00000000000000000000e+00) (0, 0, 0.00000000000000000000e+00) (0, 0, 0.00000000000000000000e+00) (0, 0, 0.00000000000000000000e+00) (0, 0, 0.00000000000000000000e+00) (0, 0, 0.00000000000000000000e+00) (0, 0, 0.00000000000000000000e+00) (0, 0, 0.00000000000000000000e+00) (0, 0, 0.00000000000000000000e+00) (0, 0, 0.00000000000000000000e+00) (0, 0, 0.00000000000000000000e+00) (0, 0, 0.00000000000000000000e+00) (0, 0, 0.00000000000000000000e+00) (0, 0, 0.00000000000000000000e+00) (0, 0, 0.00000000000000000000e+00) (0, 0, 0.00000000000000000000e+00) (0, 0, 0.00000000000000000000e+00) (0, 0, 0.00000000000000000000e+00) (0, 0, 0.00000000000000000000e+00) (0, 0, 0.00000000000000000000e+00) (0, 0, 0.00000000000000000000e+00) (0, 0, 0.00000000000000000000e+00) (0, 0, 0.00000000000000000000e+00) (0, 0, 0.00000000000000000000e+00) (0, 0, 0.00000000000000000000e+00) (0, 0, 0.00000000000000000000e+00) (0, 0, 0.00000000000000000000e+00) (0, 0, 0.00000000000000000000e+00) (0, 0, 0.00000000000000000000e+00) (0, 0, 0.00000000000000000000e+00) (0, 0, 0.00000000000000000000e+00) (0, 0, 0.00000000000000000000e+00) (0, 0, 0.00000000000000000000e+00) (0, 0, 0.00000000000000000000e+00) (0, 0, 0.00000000000000000000e+00) (0, 0, 0.00000000000000000000e+00) (0, 0, 0.00000000000000000000e+00) (0, 0, 0.00000000000000000000e+00) (0, 0, 0.00000000000000000000e+00) (0, 0, 0.00000000000000000000e+00) (0, 0, 0.00000000000000000000e+00) (0, 0, 0.00000000000000000000e+00) (0, 0, 0.00000000000000000000e+00) (0, 0, 0.00000000000000000000e+00) (0, 0, 0.00000000000000000000e+00) (0, 0, 0.00000000000000000000e+00) (0, 0, 0.00000000000000000000e+00) (0, 0, 0.00000000000000000000e+00) (0, 0, 0.00000000000000000000e+00) (0, 0, 0.00000000000000000000e+00) (0, 0, 0.00000000000000000000e+00) (0, 0, 0.00000000000000000000e+00) (0, 0, 0.00000000000000000000e+00) (0, 0, 0.00000000000000000000e+00) (0, 0, 0.00000000000000000000e+00) (0, 0, 0.00000000000000000000e+00) (0, 0, 0.00000000000000000000e+00) (0, 0, 0.00000000000000000000e+00) (0, 0, 0.00000000000000000000e+00) (0, 0, 0.00000000000000000000e+00) (0, 0, 0.00000000000000000000e+00) (0, 0, 0.00000000000000000000e+00) (0, 0, 0.00000000000000000000e+00) (0, 0, 0.00000000000000000000e+00) (0, 0, 0.00000000000000000000e+00) (0, 0, 0.00000000000000000000e+00) (0, 0, 0.00000000000000000000e+00) (0, 0, 0.00000000000000000000e+00) (0, 0, 0.00000000000000000000e+00) (0, 0, 0.00000000000000000000e+00) (0, 0, 0.00000000000000000000e+00) (0, 0, 0.00000000000000000000e+00) (0, 0, 0.00000000000000000000e+00) (0, 0, 0.00000000000000000000e+00) (0, 0, 0.00000000000000000000e+00) (0, 0, 0.00000000000000000000e+00) (0, 0, 0.00000000000000000000e+00) (0, 0, 0.00000000000000000000e+00) (0, 0, 0.00000000000000000000e+00) (0, 0, 0.00000000000000000000e+00) (0, 0, 0.00000000000000000000e+00) (0, 0, 0.00000000000000000000e+00) (0, 0, 0.00000000000000000000e+00) (0, 0, 0.00000000000000000000e+00) (0, 0, 0.00000000000000000000e+00) (0, 0, 0.00000000000000000000e+00) (0, 0, 0.00000000000000000000e+00) (0, 0, 0.00000000000000000000e+00) (0, 0, 0.00000000000000000000e+00) (0, 0, 0.00000000000000000000e+00) (0, 0, 0.00000000000000000000e+00) (0, 0, 0.00000000000000000000e+00) (0, 0, 0.00000000000000000000e+00) (0, 0, 0.00000000000000000000e+00) (0, 0, 0.00000000000000000000e+00) (0, 0, 0.00000000000000000000e+00) (0, 0, 0.00000000000000000000e+00) (0, 0, 0.00000000000000000000e+00) (0, 0, 0.00000000000000000000e+00) (0, 0, 0.00000000000000000000e+00) (0, 0, 0.00000000000000000000e+00) (0, 0, 0.00000000000000000000e+00) (0, 0, 0.00000000000000000000e+00) (0, 0, 0.00000000000000000000e+00) (0, 0, 0.00000000000000000000e+00) (0, 0, 0.00000000000000000000e+00) (0, 0, 0.00000000000000000000e+00) (0, 0, 0.00000000000000000000e+00) (0, 0, 0.00000000000000000000e+00) (0, 0, 0.00000000000000000000e+00) (0, 0, 0.00000000000000000000e+00) (0, 0, 0.00000000000000000000e+00) (0, 0, 0.00000000000000000000e+00) (0, 0, 0.00000000000000000000e+00) (0, 0, 0.00000000000000000000e+00) (0, 0, 0.00000000000000000000e+00) (0, 0, 0.00000000000000000000e+00) (0, 0, 0.00000000000000000000e+00) (0, 0, 0.00000000000000000000e+00) (0, 0, 0.00000000000000000000e+00) (0, 0, 0.00000000000000000000e+00) (0, 0, 0.00000000000000000000e+00) (0, 0, 0.00000000000000000000e+00) (0, 0, 0.00000000000000000000e+00) (0, 0, 0.00000000000000000000e+00) (0, 0, 0.00000000000000000000e+00) (0, 0, 0.00000000000000000000e+00) (0, 0, 0.00000000000000000000e+00) (0, 0, 0.00000000000000000000e+00) (0, 0, 0.00000000000000000000e+00) (0, 0, 0.00000000000000000000e+00) (0, 0, 0.00000000000000000000e+00) (0, 0, 0.00000000000000000000e+00) (0, 0, 0.00000000000000000000e+00) (0, 0, 0.00000000000000000000e+00) (0, 0, 0.00000000000000000000e+00) (0, 0, 0.00000000000000000000e+00) (0, 0, 0.00000000000000000000e+00) (0, 0, 0.00000000000000000000e+00) (0, 0, 0.00000000000000000000e+00) (0, 0, 0.00000000000000000000e+00) (0, 0, 0.00000000000000000000e+00) (0, 0, 0.00000000000000000000e+00) (0, 0, 0.00000000000000000000e+00) (0, 0, 0.00000000000000000000e+00) (0, 0, 0.00000000000000000000e+00) (0, 0, 0.00000000000000000000e+00) (0, 0, 0.00000000000000000000e+00) (0, 0, 0.00000000000000000000e+00) (0, 0, 0.00000000000000000000e+00) (0, 0, 0.00000000000000000000e+00) (192, 4, 5.00000000000000000000e-01) (192, 4, 5.00000000000000000000e-01) (192, 4, 5.00000000000000000000e-01) (192, 4, 5.00000000000000000000e-01) (192, 4, 5.00000000000000000000e-01) (192, 4, 5.00000000000000000000e-01) (192, 4, 5.00000000000000000000e-01) (192, 4, 5.00000000000000000000e-01) (192, 4, 5.00000000000000000000e-01) (192, 4, 5.00000000000000000000e-01) (0, 0, 0.00000000000000000000e+00) (11, 4, 5.00000000000000000000e-01) (11, 4, 5.00000000000000000000e-01) (11, 4, 5.00000000000000000000e-01) (11, 4, 5.00000000000000000000e-01) (11, 4, 5.00000000000000000000e-01) (0, 0, 0.00000000000000000000e+00) 
connections (connected_to_neuron, weight)=(0, -8.02851390838623046875e+00) (1, 1.70456123352050781250e+00) (2, 1.53523445129394531250e+00) (3, 6.44296646118164062500e+00) (4, -7.80763435363769531250e+00) (5, 6.40898895263671875000e+00) (6, -3.46622180938720703125e+00) (7, 6.95869064331054687500e+00) (8, -4.11983442306518554688e+00) (9, 9.65435409545898437500e+00) (10, -8.14886093139648437500e-01) (11, 3.13441276550292968750e-01) (12, -9.52631950378417968750e+00) (13, 9.81098937988281250000e+00) (14, -7.84939861297607421875e+00) (15, -9.19871139526367187500e+00) (16, 7.58065986633300781250e+00) (17, 1.09090232849121093750e+00) (18, 2.58210849761962890625e+00) (19, -1.90682888031005859375e+00) (20, -8.41233062744140625000e+00) (21, -1.58140659332275390625e+00) (22, -2.33729362487792968750e+00) (23, -4.36122798919677734375e+00) (24, -6.26318931579589843750e-01) (25, 2.97123050689697265625e+00) (26, 2.48188877105712890625e+00) (27, 9.59042549133300781250e+00) (28, 4.59459018707275390625e+00) (29, 4.67191696166992187500e-01) (30, -1.42500877380371093750e-01) (31, -9.73238849639892578125e+00) (32, -7.82824563980102539062e+00) (33, -8.60726547241210937500e+00) (34, 6.71057701110839843750e+00) (35, 1.75631141662597656250e+00) (36, 7.80172348022460937500e+00) (37, 3.68963432312011718750e+00) (38, -1.28499794006347656250e+00) (39, 2.79848194122314453125e+00) (40, -7.10128974914550781250e+00) (41, 7.90011596679687500000e+00) (42, 3.99533176422119140625e+00) (43, -6.62760925292968750000e+00) (44, 7.71110725402832031250e+00) (45, 6.14593315124511718750e+00) (46, -5.82632112503051757812e+00) (47, 5.29176616668701171875e+00) (48, -2.76316547393798828125e+00) (49, 6.75578689575195312500e+00) (50, -6.61506175994873046875e+00) (51, -1.17549610137939453125e+00) (52, -4.82561874389648437500e+00) (53, 1.04764461517333984375e+00) (54, 4.46327590942382812500e+00) (55, 4.54806327819824218750e+00) (56, -5.98112583160400390625e+00) (57, -4.81607818603515625000e+00) (58, 4.13848876953125000000e+00) (59, 8.61346435546875000000e+00) (60, 7.41235733032226562500e+00) (61, -6.00401163101196289062e+00) (62, 8.88107681274414062500e+00) (63, 9.58411216735839843750e+00) (64, -4.61127758026123046875e+00) (65, 5.59165477752685546875e+00) (66, 1.34042263031005859375e+00) (67, -6.80955410003662109375e+00) (68, 8.83601188659667968750e+00) (69, -9.94457530975341796875e+00) (70, -2.26151466369628906250e-01) (71, -8.26527786254882812500e+00) (72, 7.95554161071777343750e+00) (73, -9.13233280181884765625e+00) (74, -4.89288806915283203125e+00) (75, 5.66664886474609375000e+00) (76, 7.01359939575195312500e+00) (77, -7.19209671020507812500e-01) (78, 9.58415031433105468750e-01) (79, -5.74956560134887695312e+00) (80, -3.96342182159423828125e+00) (81, 4.34335327148437500000e+00) (82, 3.07493782043457031250e+00) (83, 1.21096038818359375000e+00) (84, -4.60900211334228515625e+00) (85, -2.46178579330444335938e+00) (86, -4.24097728729248046875e+00) (87, -5.90126991271972656250e-01) (88, 4.48337936401367187500e+00) (89, 9.89751052856445312500e+00) (90, -1.97666263580322265625e+00) (91, 1.89573669433593750000e+00) (92, -6.10650062561035156250e+00) (93, -3.09558582305908203125e+00) (94, 1.47984886169433593750e+00) (95, -7.17778205871582031250e-01) (96, -7.50393104553222656250e+00) (97, -7.17972850799560546875e+00) (98, 2.67440032958984375000e+00) (99, -8.66791915893554687500e+00) (100, -7.12430334091186523438e+00) (101, 9.34500312805175781250e+00) (102, -6.93319797515869140625e+00) (103, -9.16876125335693359375e+00) (104, -9.78732872009277343750e+00) (105, -1.82608604431152343750e+00) (106, 6.49788856506347656250e+00) (107, 7.22627067565917968750e+00) (108, 7.45470428466796875000e+00) (109, -2.54369640350341796875e+00) (110, -8.52329444885253906250e+00) (111, -6.50871658325195312500e+00) (112, -8.20034217834472656250e+00) (113, 4.55164432525634765625e+00) (114, -1.71402263641357421875e+00) (115, -2.80934476852416992188e+00) (116, -7.91014194488525390625e+00) (117, -9.53873443603515625000e+00) (118, 6.60052680969238281250e+00) (119, 6.57323837280273437500e+00) (120, -9.64122295379638671875e+00) (121, 2.46514415740966796875e+00) (122, -1.53102493286132812500e+00) (123, -5.74772262573242187500e+00) (124, 1.52827930450439453125e+00) (125, 9.94882392883300781250e+00) (126, 3.53449916839599609375e+00) (127, 4.02434921264648437500e+00) (128, -7.23090457916259765625e+00) (129, -3.99283313751220703125e+00) (130, 2.98705768585205078125e+00) (131, -4.35520792007446289062e+00) (132, -4.64782905578613281250e+00) (133, 8.42323112487792968750e+00) (134, -8.92248821258544921875e+00) (135, -4.43515777587890625000e+00) (136, -3.40285348892211914062e+00) (137, -7.02608108520507812500e+00) (138, -7.20888710021972656250e+00) (139, -5.94814825057983398438e+00) (140, 4.30222511291503906250e-01) (141, -5.73218154907226562500e+00) (142, -2.45686483383178710938e+00) (143, 2.22988033294677734375e+00) (144, -6.94606781005859375000e-01) (145, -7.75462150573730468750e+00) (146, 9.42053604125976562500e+00) (147, -9.09067916870117187500e+00) (148, -7.29335498809814453125e+00) (149, 6.02106285095214843750e+00) (150, 7.48255729675292968750e+00) (151, 4.29642772674560546875e+00) (152, -9.35507011413574218750e+00) (153, -4.04846620559692382812e+00) (154, -2.68230104446411132812e+00) (155, 2.17320919036865234375e+00) (156, -4.09964227676391601562e+00) (157, -9.14780139923095703125e+00) (158, -3.80244064331054687500e+00) (159, -1.33054733276367187500e+00) (160, -3.14063358306884765625e+00) (161, -8.44601058959960937500e+00) (162, 4.31424522399902343750e+00) (163, 2.21153736114501953125e+00) (164, 5.95673179626464843750e+00) (165, -9.20972442626953125000e+00) (166, 7.77637863159179687500e+00) (167, -3.42563199996948242188e+00) (168, -6.23580551147460937500e+00) (169, -9.43250656127929687500e+00) (170, 2.90839290618896484375e+00) (171, 4.19441699981689453125e+00) (172, -5.16468811035156250000e+00) (173, 8.16935539245605468750e+00) (174, -3.57570314407348632812e+00) (175, -6.34522581100463867188e+00) (176, -9.58526611328125000000e+00) (177, -4.15516757965087890625e+00) (178, -5.43590497970581054688e+00) (179, 8.08488464355468750000e+00) (180, -8.13410377502441406250e+00) (181, -7.95334625244140625000e+00) (182, -9.23944187164306640625e+00) (183, -7.48917388916015625000e+00) (184, -2.00181198120117187500e+00) (185, 3.50450038909912109375e+00) (186, 4.68403530120849609375e+00) (187, 3.89854526519775390625e+00) (188, 4.35669898986816406250e+00) (189, -9.11840534210205078125e+00) (190, -7.43200111389160156250e+00) (191, -8.78393459320068359375e+00) (0, -7.56441593170166015625e+00) (1, 6.88224411010742187500e+00) (2, 3.42760181427001953125e+00) (3, -7.58719444274902343750e+00) (4, 7.67251968383789062500e+00) (5, 1.20398139953613281250e+00) (6, -1.01282596588134765625e+00) (7, -8.56328487396240234375e+00) (8, 1.77147483825683593750e+00) (9, 9.61339378356933593750e+00) (10, 5.63113212585449218750e+00) (11, 6.60678672790527343750e+00) (12, 7.78274917602539062500e+00) (13, -7.94457054138183593750e+00) (14, -9.73843860626220703125e+00) (15, 8.19748306274414062500e+00) (16, -2.09973812103271484375e+00) (17, -5.17434358596801757812e+00) (18, -8.68113899230957031250e+00) (19, -2.33841896057128906250e-01) (20, -3.12768936157226562500e+00) (21, -2.49433755874633789062e+00) (22, 2.27698421478271484375e+00) (23, 4.87049770355224609375e+00) (24, -8.98983764648437500000e+00) (25, -3.03898000717163085938e+00) (26, 6.79353523254394531250e+00) (27, 5.36686134338378906250e+00) (28, -2.15738487243652343750e+00) (29, 3.72232627868652343750e+00) (30, 6.58292579650878906250e+00) (31, 2.78200149536132812500e-01) (32, -1.78071308135986328125e+00) (33, 1.05295181274414062500e-02) (34, 2.69100570678710937500e+00) (35, -4.10819292068481445312e+00) (36, -8.78548812866210937500e+00) (37, -8.32182025909423828125e+00) (38, -2.67147827148437500000e+00) (39, 2.98598670959472656250e+00) (40, -8.70842647552490234375e+00) (41, -7.04034614562988281250e+00) (42, -4.07226562500000000000e-01) (43, 9.07432174682617187500e+00) (44, -7.65492630004882812500e+00) (45, -1.45665168762207031250e-01) (46, 7.27180480957031250000e+00) (47, 2.91534519195556640625e+00) (48, 4.67999076843261718750e+00) (49, 8.59066581726074218750e+00) (50, -7.31849670410156250000e+00) (51, -8.44769859313964843750e+00) (52, -3.90367174148559570312e+00) (53, 4.95848751068115234375e+00) (54, 6.42280006408691406250e+00) (55, -2.89350891113281250000e+00) (56, -8.08049201965332031250e+00) (57, -4.80815649032592773438e+00) (58, -7.52664709091186523438e+00) (59, -2.37875938415527343750e-01) (60, 6.52888679504394531250e+00) (61, 9.05628013610839843750e+00) (62, -9.95967674255371093750e+00) (63, -5.25182676315307617188e+00) (64, -9.33191299438476562500e-01) (65, 2.73132896423339843750e+00) (66, -2.46000719070434570312e+00) (67, 2.81320571899414062500e-01) (68, 4.40950870513916015625e+00) (69, 7.96850204467773437500e+00) (70, -6.73269271850585937500e+00) (71, 5.70108127593994140625e+00) (72, -9.07184410095214843750e+00) (73, 2.86007976531982421875e+00) (74, 4.77540397644042968750e+00) (75, -4.05676126480102539062e+00) (76, -7.28558540344238281250e+00) (77, 2.04720878601074218750e+00) (78, 8.85858345031738281250e+00) (79, 7.39440536499023437500e+00) (80, 6.37875556945800781250e-01) (81, -8.45991325378417968750e+00) (82, 8.94670677185058593750e+00) (83, 6.73420333862304687500e+00) (84, 6.49857521057128906250e+00) (85, 5.36950588226318359375e+00) (86, -6.15930461883544921875e+00) (87, 8.41808319091796875000e+00) (88, -9.43865013122558593750e+00) (89, -3.68595170974731445312e+00) (90, -1.81979370117187500000e+00) (91, 7.09023475646972656250e+00) (92, -4.62967205047607421875e+00) (93, -1.77947044372558593750e+00) (94, -8.16159057617187500000e+00) (95, 4.43713665008544921875e+00) (96, -9.04814147949218750000e+00) (97, 2.47838973999023437500e+00) (98, -5.28154230117797851562e+00) (99, 5.36136722564697265625e+00) (100, 4.46891784667968750000e-01) (101, -2.01423549652099609375e+00) (102, 1.06244945526123046875e+00) (103, 1.37504768371582031250e+00) (104, -9.15415477752685546875e+00) (105, -4.16214704513549804688e+00) (106, 7.31828689575195312500e+00) (107, -6.43974018096923828125e+00) (108, 7.88506126403808593750e+00) (109, 6.17687034606933593750e+00) (110, -9.04533481597900390625e+00) (111, -1.47706317901611328125e+00) (112, 7.71695518493652343750e+00) (113, 9.90137100219726562500e+00) (114, -4.74285888671875000000e+00) (115, 4.21553134918212890625e+00) (116, 5.27087783813476562500e+00) (117, 6.68271064758300781250e+00) (118, 2.63361454010009765625e+00) (119, 5.83222866058349609375e+00) (120, 5.41188430786132812500e+00) (121, -9.18617916107177734375e+00) (122, 2.92246437072753906250e+00) (123, -9.21778678894042968750e+00) (124, -9.65649604797363281250e-01) (125, 4.76087474822998046875e+00) (126, 5.21934986114501953125e+00) (127, -1.37910842895507812500e-02) (128, -2.76073455810546875000e+00) (129, 9.93780708312988281250e+00) (130, -4.65242385864257812500e+00) (131, 7.68615722656250000000e+00) (132, -2.07642745971679687500e+00) (133, 6.41002464294433593750e+00) (134, -4.10524368286132812500e-01) (135, -1.23058319091796875000e+00) (136, -7.75212192535400390625e+00) (137, -3.62050819396972656250e+00) (138, 2.32967758178710937500e+00) (139, -9.86705970764160156250e+00) (140, -7.44363880157470703125e+00) (141, 3.28434181213378906250e+00) (142, -1.34412288665771484375e+00) (143, -9.72668170928955078125e+00) (144, 3.18571567535400390625e+00) (145, 3.91301822662353515625e+00) (146, 4.48884963989257812500e+00) (147, -1.54340648651123046875e+00) (148, -6.98914527893066406250e+00) (149, -2.87753629684448242188e+00) (150, -5.71117782592773437500e+00) (151, 8.42273902893066406250e+00) (152, -2.06371593475341796875e+00) (153, 7.21128654479980468750e+00) (154, 9.20495223999023437500e+00) (155, 6.97063446044921875000e+00) (156, 1.97216224670410156250e+00) (157, 4.42430210113525390625e+00) (158, -3.04315710067749023438e+00) (159, 9.21142768859863281250e+00) (160, 4.36211109161376953125e+00) (161, -5.60822486877441406250e-01) (162, 6.89758491516113281250e+00) (163, 9.02865409851074218750e+00) (164, -1.28555583953857421875e+00) (165, -4.04120874404907226562e+00) (166, 1.05509948730468750000e+00) (167, 9.62323188781738281250e-01) (168, -2.51955699920654296875e+00) (169, -6.61522197723388671875e+00) (170, 1.09526252746582031250e+00) (171, 4.89464473724365234375e+00) (172, 6.66912078857421875000e+00) (173, 9.75113868713378906250e+00) (174, 5.16796302795410156250e+00) (175, -1.45164489746093750000e-01) (176, 3.66415882110595703125e+00) (177, -3.43187332153320312500e-01) (178, 8.31142807006835937500e+00) (179, 6.67501258850097656250e+00) (180, 6.77927589416503906250e+00) (181, -7.39974784851074218750e+00) (182, 5.09775257110595703125e+00) (183, -5.28444051742553710938e+00) (184, 9.81153869628906250000e+00) (185, 4.30270576477050781250e+00) (186, -8.31380653381347656250e+00) (187, 1.78370189666748046875e+00) (188, -1.27299118041992187500e+00) (189, -1.35696315765380859375e+00) (190, 9.95130538940429687500e-01) (191, -6.91088008880615234375e+00) (0, -9.05254364013671875000e+00) (1, -2.10728406906127929688e+00) (2, -4.62519693374633789062e+00) (3, -3.38099479675292968750e-01) (4, 3.85150623321533203125e+00) (5, 6.42990303039550781250e+00) (6, -9.37577629089355468750e+00) (7, -3.81020975112915039062e+00) (8, 9.81468009948730468750e+00) (9, 1.71948623657226562500e+00) (10, -8.91556549072265625000e+00) (11, 6.48380088806152343750e+00) (12, 1.47062683105468750000e+00) (13, 8.56487274169921875000e+00) (14, -3.66136264801025390625e+00) (15, -4.86521530151367187500e+00) (16, -4.09078979492187500000e+00) (17, -5.34993314743041992188e+00) (18, -8.19020271301269531250e+00) (19, -7.31151390075683593750e+00) (20, 4.41451454162597656250e+00) (21, 6.90755081176757812500e+00) (22, -2.59595441818237304688e+00) (23, -2.93814134597778320312e+00) (24, -3.04459762573242187500e+00) (25, -9.09760475158691406250e-01) (26, 8.84556007385253906250e+00) (27, 9.93726539611816406250e+00) (28, 7.73327636718750000000e+00) (29, -1.59309387207031250000e-01) (30, -6.97361469268798828125e+00) (31, 8.68073272705078125000e+00) (32, 7.73340606689453125000e+00) (33, -1.59881210327148437500e+00) (34, -1.65736675262451171875e+00) (35, 1.58491516113281250000e+00) (36, -5.16890811920166015625e+00) (37, -1.03314304351806640625e+00) (38, 7.77470397949218750000e+00) (39, -5.35422706604003906250e+00) (40, -9.31365680694580078125e+00) (41, 8.85913848876953125000e+00) (42, -8.87042522430419921875e+00) (43, 2.15696907043457031250e+00) (44, 5.11153697967529296875e+00) (45, -2.53178787231445312500e+00) (46, 7.29175376892089843750e+00) (47, -8.97925186157226562500e+00) (48, 2.11827945709228515625e+00) (49, 9.10155105590820312500e+00) (50, -6.29076623916625976562e+00) (51, 9.36859893798828125000e+00) (52, 6.00910186767578125000e+00) (53, 1.11327838897705078125e+00) (54, -3.56954288482666015625e+00) (55, -2.78064060211181640625e+00) (56, -9.79648113250732421875e+00) (57, -4.72398233413696289062e+00) (58, -2.84337472915649414062e+00) (59, 7.93679428100585937500e+00) (60, 5.11670970916748046875e+00) (61, 1.83011054992675781250e-01) (62, 6.61752700805664062500e+00) (63, 2.85011672973632812500e+00) (64, 8.58419990539550781250e+00) (65, -5.03983879089355468750e+00) (66, -5.56496906280517578125e+00) (67, -6.58470821380615234375e+00) (68, 3.92701816558837890625e+00) (69, -7.79026412963867187500e+00) (70, -1.93893527984619140625e+00) (71, 4.61336231231689453125e+00) (72, -8.93112468719482421875e+00) (73, -8.09360504150390625000e-01) (74, -3.22966814041137695312e+00) (75, 6.18041229248046875000e+00) (76, 6.65884971618652343750e+00) (77, -5.93791437149047851562e+00) (78, 7.20116043090820312500e+00) (79, -1.22286891937255859375e+00) (80, -6.83636283874511718750e+00) (81, -9.08960533142089843750e+00) (82, -1.85427093505859375000e+00) (83, 9.17273902893066406250e+00) (84, 2.02367401123046875000e+00) (85, 4.57618618011474609375e+00) (86, -3.60790061950683593750e+00) (87, 2.22719192504882812500e+00) (88, 9.85220336914062500000e+00) (89, 3.54872417449951171875e+00) (90, 1.63988113403320312500e-01) (91, 4.96891403198242187500e+00) (92, -6.26826381683349609375e+00) (93, -3.21848440170288085938e+00) (94, -2.18096971511840820312e+00) (95, -7.68406486511230468750e+00) (96, 1.74167633056640625000e+00) (97, 2.25406169891357421875e+00) (98, -4.26877307891845703125e+00) (99, -4.33130455017089843750e+00) (100, 4.46379756927490234375e+00) (101, 3.42210292816162109375e+00) (102, -9.71794223785400390625e+00) (103, 5.53267192840576171875e+00) (104, -7.01706981658935546875e+00) (105, -2.94761085510253906250e+00) (106, 1.71308517456054687500e+00) (107, 9.64178085327148437500e+00) (108, 1.11447525024414062500e+00) (109, -1.08575439453125000000e+00) (110, -1.58108711242675781250e+00) (111, 4.27811241149902343750e+00) (112, -1.75359725952148437500e-01) (113, 6.56464195251464843750e+00) (114, 3.45085239410400390625e+00) (115, -8.15168571472167968750e+00) (116, 3.64739418029785156250e-01) (117, 9.84295082092285156250e+00) (118, 4.07550716400146484375e+00) (119, 9.93033409118652343750e-01) (120, 3.39167594909667968750e+00) (121, -5.76050567626953125000e+00) (122, -4.03805303573608398438e+00) (123, 7.12341117858886718750e+00) (124, 1.02100944519042968750e+00) (125, 3.78097724914550781250e+00) (126, 9.43934822082519531250e+00) (127, -7.23731327056884765625e+00) (128, -3.96496105194091796875e+00) (129, -4.82942533493041992188e+00) (130, -1.56861782073974609375e+00) (131, -8.14405059814453125000e+00) (132, 8.96286582946777343750e+00) (133, -1.28656005859375000000e+00) (134, 6.03150749206542968750e+00) (135, 8.30069160461425781250e+00) (136, 5.76583003997802734375e+00) (137, -2.25540590286254882812e+00) (138, -8.41242122650146484375e+00) (139, -3.11969518661499023438e+00) (140, 6.65884017944335937500e+00) (141, 6.49166107177734375000e-03) (142, -8.84158229827880859375e+00) (143, -3.51651906967163085938e+00) (144, -3.42886638641357421875e+00) (145, 4.60926914215087890625e+00) (146, -1.66820526123046875000e+00) (147, 7.71196174621582031250e+00) (148, 4.45221996307373046875e+00) (149, -7.59269809722900390625e+00) (150, -1.29500389099121093750e+00) (151, -2.15610313415527343750e+00) (152, -3.35320425033569335938e+00) (153, 4.66694355010986328125e+00) (154, -5.03269100189208984375e+00) (155, 7.66780662536621093750e+00) (156, -1.55207920074462890625e+00) (157, -5.59334373474121093750e+00) (158, -9.56950759887695312500e+00) (159, 4.48295974731445312500e+00) (160, -4.22769546508789062500e-01) (161, -1.13812541961669921875e+00) (162, 4.98179531097412109375e+00) (163, -1.45990371704101562500e+00) (164, 7.57531547546386718750e+00) (165, 1.01330471038818359375e+00) (166, 4.85893249511718750000e-01) (167, 3.34114456176757812500e+00) (168, 8.75790023803710937500e+00) (169, 3.51094245910644531250e-01) (170, -9.77855014801025390625e+00) (171, 5.41674041748046875000e+00) (172, -7.92003583908081054688e+00) (173, -8.62013244628906250000e+00) (174, -8.09977912902832031250e+00) (175, -1.34890174865722656250e+00) (176, 5.98913669586181640625e+00) (177, 2.32015609741210937500e-01) (178, -3.63693904876708984375e+00) (179, 4.41356658935546875000e-01) (180, 2.63931751251220703125e+00) (181, 9.87729072570800781250e+00) (182, 8.28525352478027343750e+00) (183, 9.28611373901367187500e+00) (184, -2.65000343322753906250e-01) (185, -6.74743747711181640625e+00) (186, 6.95392036437988281250e+00) (187, 8.18292045593261718750e+00) (188, -2.34078073501586914062e+00) (189, 7.38441276550292968750e+00) (190, 2.66587924957275390625e+00) (191, 7.23645019531250000000e+00) (0, -3.75371265411376953125e+00) (1, -2.35232400894165039062e+00) (2, -4.22345304489135742188e+00) (3, -6.17839813232421875000e+00) (4, 8.66098022460937500000e+00) (5, 6.26243972778320312500e+00) (6, 7.16274642944335937500e+00) (7, 7.41888046264648437500e+00) (8, -1.66408634185791015625e+00) (9, 7.38419532775878906250e+00) (10, 2.83562088012695312500e+00) (11, 4.15877342224121093750e-01) (12, 8.76406288146972656250e+00) (13, 4.73584079742431640625e+00) (14, 9.06697463989257812500e+00) (15, 4.75319957733154296875e+00) (16, -5.03214263916015625000e+00) (17, -4.56996345520019531250e+00) (18, -4.80544281005859375000e+00) (19, 7.60717391967773437500e+00) (20, -9.50190639495849609375e+00) (21, -6.52018880844116210938e+00) (22, 6.89328956604003906250e+00) (23, 2.33093261718750000000e-01) (24, -3.26762580871582031250e+00) (25, 3.84720897674560546875e+00) (26, -1.58398628234863281250e+00) (27, 4.39159393310546875000e+00) (28, 1.23162174224853515625e+00) (29, -8.91810703277587890625e+00) (30, 1.62804317474365234375e+00) (31, 7.47790718078613281250e+00) (32, -1.27043056488037109375e+00) (33, 7.40459060668945312500e+00) (34, -8.70048904418945312500e+00) (35, -2.60945034027099609375e+00) (36, 3.66703128814697265625e+00) (37, 8.46225738525390625000e+00) (38, -5.19056987762451171875e+00) (39, -7.99705505371093750000e+00) (40, 5.84645366668701171875e+00) (41, 7.64505004882812500000e+00) (42, 4.96540260314941406250e+00) (43, 4.61051654815673828125e+00) (44, 2.38089084625244140625e+00) (45, 1.48579788208007812500e+00) (46, -6.36282920837402343750e-01) (47, 7.34874725341796875000e+00) (48, 6.91583442687988281250e+00) (49, 6.81720733642578125000e-01) (50, 4.95592308044433593750e+00) (51, 7.41392898559570312500e+00) (52, 8.03808593750000000000e+00) (53, 1.84921264648437500000e+00) (54, -3.80110263824462890625e+00) (55, -5.22954034805297851562e+00) (56, -4.30357837677001953125e+00) (57, 6.06303405761718750000e+00) (58, 9.16205215454101562500e+00) (59, 6.92804336547851562500e+00) (60, 7.14492797851562500000e+00) (61, 7.90096282958984375000e-01) (62, 4.40595149993896484375e+00) (63, -4.12550258636474609375e+00) (64, -1.80531215667724609375e+00) (65, 5.70546150207519531250e+00) (66, 3.26504707336425781250e+00) (67, -8.13827991485595703125e+00) (68, 4.16771888732910156250e+00) (69, 8.07447624206542968750e+00) (70, -6.13533496856689453125e+00) (71, 1.41725540161132812500e-02) (72, 5.71952724456787109375e+00) (73, 6.28348731994628906250e+00) (74, -5.37531042098999023438e+00) (75, -1.89958190917968750000e+00) (76, -2.23071479797363281250e+00) (77, 3.98840618133544921875e+00) (78, -4.55083274841308593750e+00) (79, -5.31487989425659179688e+00) (80, -1.45331859588623046875e+00) (81, -9.59490871429443359375e+00) (82, -7.90095233917236328125e+00) (83, -3.41523361206054687500e+00) (84, 2.25430393218994140625e+00) (85, -2.53931045532226562500e-01) (86, 1.35522556304931640625e+00) (87, 7.95072555541992187500e+00) (88, -9.46559143066406250000e+00) (89, 5.17279624938964843750e-01) (90, 4.87876892089843750000e+00) (91, -7.04596900939941406250e+00) (92, -8.69262313842773437500e+00) (93, -7.15279579162597656250e-01) (94, -1.17147159576416015625e+00) (95, -4.97935295104980468750e-01) (96, 5.95527362823486328125e+00) (97, -7.90642452239990234375e+00) (98, 1.36378383636474609375e+00) (99, 9.15789985656738281250e+00) (100, -9.83194732666015625000e+00) (101, 5.22844886779785156250e+00) (102, -8.27925682067871093750e-01) (103, 5.88757991790771484375e+00) (104, -2.89235782623291015625e+00) (105, 3.79676342010498046875e+00) (106, -6.01200199127197265625e+00) (107, 7.54258918762207031250e+00) (108, -2.21482944488525390625e+00) (109, -5.62834739685058593750e-01) (110, -6.03365802764892578125e+00) (111, 6.33185195922851562500e+00) (112, -1.57743453979492187500e-01) (113, -3.93461036682128906250e+00) (114, -7.08338165283203125000e+00) (115, -7.90343952178955078125e+00) (116, 5.81145858764648437500e+00) (117, 4.27184486389160156250e+00) (118, -9.95271301269531250000e+00) (119, -8.37943744659423828125e+00) (120, -5.21087503433227539062e+00) (121, 4.92605590820312500000e+00) (122, -5.42540645599365234375e+00) (123, -3.90349817276000976562e+00) (124, -5.78922414779663085938e+00) (125, 3.40312194824218750000e+00) (126, 5.59856605529785156250e+00) (127, -7.99041748046875000000e-01) (128, 5.49669742584228515625e+00) (129, -3.03764867782592773438e+00) (130, -1.64114093780517578125e+00) (131, 5.66474914550781250000e+00) (132, 3.71372890472412109375e+00) (133, 7.53093338012695312500e+00) (134, 1.55232906341552734375e+00) (135, 3.70273685455322265625e+00) (136, 1.32769680023193359375e+00) (137, 5.54032802581787109375e+00) (138, 2.98395824432373046875e+00) (139, 9.11286735534667968750e+00) (140, -5.02250671386718750000e+00) (141, 6.95030021667480468750e+00) (142, 5.44471931457519531250e+00) (143, 4.81974983215332031250e+00) (144, -6.98430919647216796875e+00) (145, 8.36133766174316406250e+00) (146, 6.91631126403808593750e+00) (147, 8.82715034484863281250e+00) (148, 2.63318443298339843750e+00) (149, 6.96359634399414062500e+00) (150, -9.55228805541992187500e+00) (151, 7.42230796813964843750e+00) (152, -6.30936241149902343750e+00) (153, -4.97769403457641601562e+00) (154, -6.48118972778320312500e+00) (155, 6.10042953491210937500e+00) (156, 8.42542648315429687500e+00) (157, 9.11737632751464843750e+00) (158, -4.69861316680908203125e+00) (159, 3.92212486267089843750e+00) (160, -3.92027139663696289062e+00) (161, 3.66024589538574218750e+00) (162, -4.13125038146972656250e-01) (163, -1.72947120666503906250e+00) (164, 1.19117927551269531250e+00) (165, -8.86079597473144531250e+00) (166, -8.02673339843750000000e+00) (167, -7.48112297058105468750e+00) (168, 6.67953109741210937500e+00) (169, 4.95722484588623046875e+00) (170, -8.36825466156005859375e+00) (171, -8.34297466278076171875e+00) (172, 1.90752601623535156250e+00) (173, 2.65148735046386718750e+00) (174, 6.47677421569824218750e+00) (175, 4.92321681976318359375e+00) (176, 5.43780326843261718750e+00) (177, 3.39308643341064453125e+00) (178, 3.75036716461181640625e+00) (179, -1.92901229858398437500e+00) (180, 2.42106056213378906250e+00) (181, 4.19808006286621093750e+00) (182, -4.50670385360717773438e+00) (183, -7.75366306304931640625e+00) (184, 9.22038459777832031250e+00) (185, -9.87893104553222656250e-01) (186, 8.34676551818847656250e+00) (187, 7.64581298828125000000e+00) (188, -1.87051582336425781250e+00) (189, -6.35184764862060546875e+00) (190, 1.56793785095214843750e+00) (191, 4.20921230316162109375e+00) (0, 7.30839729309082031250e+00) (1, -8.84518718719482421875e+00) (2, -7.52025890350341796875e+00) (3, -1.50042152404785156250e+00) (4, -7.70598316192626953125e+00) (5, -5.54699230194091796875e+00) (6, 1.01845455169677734375e+00) (7, 8.97354888916015625000e+00) (8, 9.41023254394531250000e+00) (9, 2.65019989013671875000e+00) (10, -9.36942577362060546875e+00) (11, 1.31775951385498046875e+00) (12, -2.73335456848144531250e-01) (13, 7.10734939575195312500e+00) (14, -3.75902223587036132812e+00) (15, 6.88521766662597656250e+00) (16, 5.00435829162597656250e-01) (17, -6.93722724914550781250e-01) (18, 3.23545551300048828125e+00) (19, -9.14288043975830078125e+00) (20, 4.18942546844482421875e+00) (21, 8.72875213623046875000e+00) (22, -6.89654350280761718750e+00) (23, 3.40981101989746093750e+00) (24, -2.25914144515991210938e+00) (25, -8.54977798461914062500e+00) (26, 1.05562400817871093750e+00) (27, 5.87034225463867187500e+00) (28, -4.90162611007690429688e+00) (29, -7.37643814086914062500e+00) (30, 7.95545578002929687500e-02) (31, -7.59322738647460937500e+00) (32, -6.22162437438964843750e+00) (33, 2.55929565429687500000e+00) (34, 9.06350135803222656250e-01) (35, -3.92760753631591796875e+00) (36, 7.01230239868164062500e+00) (37, -8.07519435882568359375e+00) (38, -4.95405864715576171875e+00) (39, 6.42253684997558593750e+00) (40, 4.57500553131103515625e+00) (41, -4.32348442077636718750e+00) (42, -2.25970411300659179688e+00) (43, -5.69832992553710937500e+00) (44, -7.21613502502441406250e+00) (45, 3.98127460479736328125e+00) (46, -5.33862113952636718750e-01) (47, 3.28430080413818359375e+00) (48, 3.97262001037597656250e+00) (49, -7.29840564727783203125e+00) (50, 4.14142036437988281250e+00) (51, -1.83795547485351562500e+00) (52, -8.56965351104736328125e+00) (53, 7.24487686157226562500e+00) (54, -8.42814445495605468750e+00) (55, -8.28795433044433593750e-01) (56, 8.69509696960449218750e+00) (57, 2.62747955322265625000e+00) (58, -4.95845222473144531250e+00) (59, -6.20652770996093750000e+00) (60, 5.25104141235351562500e+00) (61, 5.12110233306884765625e+00) (62, -3.79975557327270507812e+00) (63, 9.02941703796386718750e+00) (64, -2.31960201263427734375e+00) (65, 7.10659408569335937500e+00) (66, -4.89819002151489257812e+00) (67, -5.30729866027832031250e+00) (68, 9.03140068054199218750e+00) (69, 1.47751808166503906250e-01) (70, -8.88476181030273437500e+00) (71, 3.60640621185302734375e+00) (72, 5.82426738739013671875e+00) (73, -1.14446640014648437500e+00) (74, 7.90807723999023437500e+00) (75, 8.60813140869140625000e+00) (76, -7.16319179534912109375e+00) (77, -2.62578439712524414062e+00) (78, 1.89243412017822265625e+00) (79, 6.80942726135253906250e+00) (80, 7.58094787597656250000e-02) (81, -3.96614599227905273438e+00) (82, -5.02852678298950195312e+00) (83, 1.50615692138671875000e+00) (84, -6.72126960754394531250e+00) (85, -3.45667123794555664062e+00) (86, -9.32263755798339843750e+00) (87, -8.02617168426513671875e+00) (88, 9.17080879211425781250e+00) (89, -4.28108978271484375000e+00) (90, -4.23269939422607421875e+00) (91, 4.42185020446777343750e+00) (92, -9.15998744964599609375e+00) (93, -3.35292291641235351562e+00) (94, 3.45126724243164062500e+00) (95, -1.47958946228027343750e+00) (96, -9.25859451293945312500e-01) (97, 8.55307769775390625000e+00) (98, 3.21311187744140625000e+00) (99, -1.89445877075195312500e+00) (100, -1.29917144775390625000e+00) (101, 4.32835006713867187500e+00) (102, -8.28805160522460937500e+00) (103, -5.47490310668945312500e+00) (104, -6.81611537933349609375e+00) (105, 9.62002563476562500000e+00) (106, -6.86677074432373046875e+00) (107, -9.91945362091064453125e+00) (108, -3.00575971603393554688e+00) (109, 5.02566337585449218750e+00) (110, -7.16987848281860351562e+00) (111, 7.07004928588867187500e+00) (112, -4.06747722625732421875e+00) (113, -2.19840526580810546875e+00) (114, -1.42379283905029296875e+00) (115, -5.66175174713134765625e+00) (116, 4.34492301940917968750e+00) (117, -7.46431350708007812500e-01) (118, -3.68792295455932617188e+00) (119, 3.51573181152343750000e+00) (120, 4.97247886657714843750e+00) (121, 2.07937812805175781250e+00) (122, -2.06241798400878906250e+00) (123, 5.81249141693115234375e+00) (124, -5.95307683944702148438e+00) (125, -8.61114978790283203125e+00) (126, -5.66709804534912109375e+00) (127, 3.12106323242187500000e+00) (128, 9.94192695617675781250e+00) (129, 7.54601478576660156250e+00) (130, -8.77339458465576171875e+00) (131, -1.35724353790283203125e+00) (132, 1.87436485290527343750e+00) (133, -7.06144714355468750000e+00) (134, 3.16785335540771484375e+00) (135, 5.05824947357177734375e+00) (136, -7.44142198562622070312e+00) (137, 6.30108261108398437500e+00) (138, -8.92105770111083984375e+00) (139, -4.47182655334472656250e-01) (140, 1.32674694061279296875e+00) (141, -6.09093666076660156250e+00) (142, -3.37713146209716796875e+00) (143, 2.38626480102539062500e+00) (144, 1.71065807342529296875e+00) (145, 5.19907569885253906250e+00) (146, 6.72451210021972656250e+00) (147, -3.94441843032836914062e+00) (148, -5.54735517501831054688e+00) (149, -6.96340990066528320312e+00) (150, 9.57131385803222656250e+00) (151, 9.42512321472167968750e+00) (152, 5.11596775054931640625e+00) (153, -2.49110412597656250000e+00) (154, 5.23761653900146484375e+00) (155, 9.16289138793945312500e+00) (156, -1.10225391387939453125e+00) (157, 9.57051658630371093750e+00) (158, 2.28395462036132812500e+00) (159, -1.16032695770263671875e+00) (160, 7.11653137207031250000e+00) (161, 3.51056003570556640625e+00) (162, 7.48243141174316406250e+00) (163, -1.00910282135009765625e+00) (164, 6.44911193847656250000e+00) (165, 6.50283813476562500000e-01) (166, -5.95085430145263671875e+00) (167, 9.00769042968750000000e+00) (168, -3.04863214492797851562e+00) (169, -4.25033950805664062500e+00) (170, -1.43949127197265625000e+00) (171, 8.27811431884765625000e+00) (172, -9.62848663330078125000e-01) (173, 6.43032264709472656250e+00) (174, 6.64379119873046875000e-01) (175, -9.25218963623046875000e+00) (176, 3.82452964782714843750e-01) (177, -2.61110734939575195312e+00) (178, -3.19660854339599609375e+00) (179, 4.83509922027587890625e+00) (180, 9.31049346923828125000e+00) (181, -3.62529468536376953125e+00) (182, 4.26022243499755859375e+00) (183, -4.45854902267456054688e+00) (184, 3.88360118865966796875e+00) (185, -5.02161979675292968750e-01) (186, -5.02181577682495117188e+00) (187, -7.21865272521972656250e+00) (188, -9.31644439697265625000e-01) (189, 6.98829650878906250000e+00) (190, 1.62102127075195312500e+00) (191, -3.81511163711547851562e+00) (0, -9.62732315063476562500e-01) (1, -8.96548271179199218750e-01) (2, 5.17578601837158203125e+00) (3, -3.05202913284301757812e+00) (4, 9.75373649597167968750e+00) (5, 9.22493171691894531250e+00) (6, -5.27688074111938476562e+00) (7, -3.29489612579345703125e+00) (8, -5.64698028564453125000e+00) (9, 4.51617145538330078125e+00) (10, -5.01678133010864257812e+00) (11, 3.39017105102539062500e+00) (12, -3.00451278686523437500e-01) (13, -8.93204784393310546875e+00) (14, 4.13798236846923828125e+00) (15, -9.91799736022949218750e+00) (16, -6.96350812911987304688e+00) (17, -9.05862617492675781250e+00) (18, 4.91710090637207031250e+00) (19, 3.46197509765625000000e+00) (20, -2.68392086029052734375e+00) (21, -8.22676658630371093750e-01) (22, 9.00342559814453125000e+00) (23, -8.80031871795654296875e+00) (24, 8.67516136169433593750e+00) (25, -6.29223155975341796875e+00) (26, -6.01897144317626953125e+00) (27, -2.25648164749145507812e+00) (28, -9.30393409729003906250e+00) (29, 5.60204982757568359375e+00) (30, 3.92840766906738281250e+00) (31, 1.19492244720458984375e+00) (32, -5.29449844360351562500e+00) (33, -8.95807266235351562500e-01) (34, 8.14289283752441406250e+00) (35, -5.54076194763183593750e+00) (36, -1.67087554931640625000e+00) (37, -5.90144443511962890625e+00) (38, 1.16434192657470703125e+00) (39, 2.68214416503906250000e+00) (40, 8.61472702026367187500e+00) (41, 6.14756011962890625000e+00) (42, -3.92768383026123046875e+00) (43, -1.68572425842285156250e+00) (44, 1.79515933990478515625e+00) (45, -9.78970241546630859375e+00) (46, -1.60372066497802734375e+00) (47, 4.83165168762207031250e+00) (48, -8.84832859039306640625e+00) (49, -6.68661975860595703125e+00) (50, -1.70637321472167968750e+00) (51, -1.53225040435791015625e+00) (52, 2.49070358276367187500e+00) (53, -2.70294713973999023438e+00) (54, -3.32569122314453125000e-01) (55, 1.16586685180664062500e+00) (56, -5.45108842849731445312e+00) (57, 3.64845943450927734375e+00) (58, 8.90938568115234375000e+00) (59, 1.70088672637939453125e+00) (60, -7.49490737915039062500e-01) (61, 2.83779144287109375000e+00) (62, -7.10418987274169921875e+00) (63, 3.95601177215576171875e+00) (64, -8.05801486968994140625e+00) (65, -8.96129608154296875000e+00) (66, 8.41524887084960937500e+00) (67, 2.71109580993652343750e-01) (68, -4.86274003982543945312e+00) (69, -4.20408248901367187500e-01) (70, -7.04674625396728515625e+00) (71, -6.24801254272460937500e+00) (72, -4.27284669876098632812e+00) (73, -9.74431037902832031250e-01) (74, 2.06626319885253906250e+00) (75, 7.52231407165527343750e+00) (76, -7.64132499694824218750e-01) (77, -9.53745746612548828125e+00) (78, 2.35396480560302734375e+00) (79, -9.31271839141845703125e+00) (80, 4.39850807189941406250e+00) (81, -9.35240745544433593750e+00) (82, 8.85528755187988281250e+00) (83, 6.26662635803222656250e+00) (84, -2.05535554885864257812e+00) (85, -4.90148448944091796875e+00) (86, -2.56750631332397460938e+00) (87, 8.94946479797363281250e+00) (88, -7.82882070541381835938e+00) (89, -3.65812206268310546875e+00) (90, 6.50353431701660156250e-01) (91, 1.42168903350830078125e+00) (92, 9.17967033386230468750e+00) (93, 3.54616260528564453125e+00) (94, -4.62229919433593750000e+00) (95, -8.87834548950195312500e+00) (96, 4.58486747741699218750e+00) (97, -6.20704889297485351562e+00) (98, 1.39276409149169921875e+00) (99, -9.52598762512207031250e+00) (100, 3.37254238128662109375e+00) (101, 4.34601783752441406250e+00) (102, -6.52588558197021484375e+00) (103, 9.09969711303710937500e+00) (104, -6.62841320037841796875e+00) (105, 5.54037761688232421875e+00) (106, 6.62200927734375000000e+00) (107, 2.60745429992675781250e+00) (108, 6.00292015075683593750e+00) (109, -1.02402400970458984375e+00) (110, -7.00500774383544921875e+00) (111, 9.77884292602539062500e+00) (112, -3.76432418823242187500e-01) (113, -8.14971923828125000000e+00) (114, 6.04546928405761718750e+00) (115, 7.56821250915527343750e+00) (116, 3.73000144958496093750e-01) (117, -6.52203559875488281250e+00) (118, 6.51767921447753906250e+00) (119, 2.54417896270751953125e+00) (120, -1.80157661437988281250e-01) (121, -2.83196735382080078125e+00) (122, -6.03413105010986328125e+00) (123, -1.00048732757568359375e+00) (124, -9.28580474853515625000e+00) (125, -6.56430244445800781250e-01) (126, 1.21168136596679687500e-01) (127, 5.29906272888183593750e+00) (128, 3.13652133941650390625e+00) (129, -8.48606777191162109375e+00) (130, 5.02119064331054687500e+00) (131, -3.49093580245971679688e+00) (132, 5.85994911193847656250e+00) (133, 8.49530601501464843750e+00) (134, -4.39123868942260742188e+00) (135, 9.23153686523437500000e+00) (136, 4.03568363189697265625e+00) (137, -7.76922798156738281250e+00) (138, 1.83899116516113281250e+00) (139, 3.86037826538085937500e-02) (140, 1.20674705505371093750e+00) (141, 4.83398342132568359375e+00) (142, -1.82552337646484375000e-01) (143, -9.16968441009521484375e+00) (144, 6.68426322937011718750e+00) (145, -4.13708209991455078125e+00) (146, 8.39852905273437500000e+00) (147, -2.94273614883422851562e+00) (148, -6.59117698669433593750e-01) (149, 4.91620731353759765625e+00) (150, 9.60144424438476562500e+00) (151, 9.41089057922363281250e+00) (152, -7.91575956344604492188e+00) (153, -6.43268775939941406250e+00) (154, -1.83976268768310546875e+00) (155, -7.20156383514404296875e+00) (156, 2.91088199615478515625e+00) (157, 8.28140449523925781250e+00) (158, 8.09749984741210937500e+00) (159, -3.95259666442871093750e+00) (160, 9.79533576965332031250e+00) (161, 3.11869049072265625000e+00) (162, 2.55646705627441406250e+00) (163, 5.65528774261474609375e+00) (164, 1.61399555206298828125e+00) (165, 8.16522789001464843750e+00) (166, 4.88682365417480468750e+00) (167, -4.35032129287719726562e+00) (168, -9.60399913787841796875e+00) (169, -3.27418518066406250000e+00) (170, 5.68828201293945312500e+00) (171, 1.60274887084960937500e+00) (172, -8.44020080566406250000e+00) (173, -4.49427032470703125000e+00) (174, 2.43306541442871093750e+00) (175, 8.24406242370605468750e+00) (176, 1.36864757537841796875e+00) (177, 8.31593513488769531250e-01) (178, -4.69867277145385742188e+00) (179, -9.29046916961669921875e+00) (180, -4.25219821929931640625e+00) (181, -5.09722948074340820312e+00) (182, 9.87025451660156250000e+00) (183, -2.16795825958251953125e+00) (184, -1.52991771697998046875e+00) (185, -1.96950721740722656250e+00) (186, 6.30478858947753906250e-01) (187, -8.61903572082519531250e+00) (188, -3.68810176849365234375e+00) (189, -1.27202224731445312500e+00) (190, 9.14371109008789062500e+00) (191, -3.89276456832885742188e+00) (0, -8.15333175659179687500e+00) (1, -6.69151735305786132812e+00) (2, -8.23747730255126953125e+00) (3, 3.46066379547119140625e+00) (4, 8.15006446838378906250e+00) (5, 6.64934539794921875000e+00) (6, 9.11034202575683593750e+00) (7, 8.54606437683105468750e+00) (8, -6.62483835220336914062e+00) (9, 4.79862594604492187500e+00) (10, 1.48813247680664062500e-01) (11, -5.06503963470458984375e+00) (12, -9.69564437866210937500e+00) (13, -7.41812133789062500000e+00) (14, -6.82097721099853515625e+00) (15, 1.67300319671630859375e+00) (16, 3.41347217559814453125e+00) (17, -1.51965045928955078125e+00) (18, 2.38253498077392578125e+00) (19, 9.16127395629882812500e+00) (20, 3.38312053680419921875e+00) (21, 2.25278949737548828125e+00) (22, -3.00668430328369140625e+00) (23, -8.14679718017578125000e+00) (24, -9.10320186614990234375e+00) (25, 7.62379455566406250000e+00) (26, -9.95948982238769531250e+00) (27, -3.40481901168823242188e+00) (28, -3.64822769165039062500e+00) (29, -9.04347419738769531250e+00) (30, 2.70241737365722656250e+00) (31, -1.80155944824218750000e+00) (32, 6.47370338439941406250e-01) (33, 4.46494007110595703125e+00) (34, -8.34089565277099609375e+00) (35, -1.20256423950195312500e+00) (36, 1.11428642272949218750e+00) (37, -9.23055267333984375000e+00) (38, -2.65649938583374023438e+00) (39, 4.48944759368896484375e+00) (40, 5.56807231903076171875e+00) (41, 7.49231338500976562500e+00) (42, 9.42440795898437500000e+00) (43, 5.87242794036865234375e+00) (44, -9.92580604553222656250e+00) (45, -7.39656925201416015625e+00) (46, -2.45456838607788085938e+00) (47, 3.48766517639160156250e+00) (48, 1.08378028869628906250e+00) (49, 9.92796707153320312500e+00) (50, 2.64894008636474609375e+00) (51, -5.53309822082519531250e+00) (52, 2.18075656890869140625e+00) (53, 9.64225578308105468750e+00) (54, -3.67989540100097656250e+00) (55, 2.46403884887695312500e+00) (56, 7.26605033874511718750e+00) (57, -4.45727348327636718750e-01) (58, 9.05921936035156250000e+00) (59, -6.38217735290527343750e+00) (60, -9.78319168090820312500e+00) (61, 1.76163768768310546875e+00) (62, 1.81626319885253906250e+00) (63, 8.64180564880371093750e-01) (64, -3.77342224121093750000e+00) (65, 3.47536754608154296875e+00) (66, 9.66161537170410156250e+00) (67, 7.34086418151855468750e+00) (68, 4.24481487274169921875e+00) (69, -2.99488306045532226562e+00) (70, 1.83031082153320312500e+00) (71, -1.87112808227539062500e-01) (72, -5.50256824493408203125e+00) (73, 1.25471973419189453125e+00) (74, -4.31468486785888671875e+00) (75, -5.42837476730346679688e+00) (76, 3.85815048217773437500e+00) (77, 3.23074722290039062500e+00) (78, 8.05928993225097656250e+00) (79, -5.05806875228881835938e+00) (80, 3.15871334075927734375e+00) (81, 7.08230972290039062500e-01) (82, -5.91167449951171875000e-01) (83, -4.66053056716918945312e+00) (84, 3.50485801696777343750e-01) (85, 5.72893714904785156250e+00) (86, 7.80350875854492187500e+00) (87, -2.38346385955810546875e+00) (88, -4.71678924560546875000e+00) (89, 6.86273002624511718750e+00) (90, 4.49816417694091796875e+00) (91, -4.49998092651367187500e+00) (92, -1.37563228607177734375e+00) (93, -6.94937801361083984375e+00) (94, 6.36419868469238281250e+00) (95, 4.85094547271728515625e+00) (96, 6.52599143981933593750e+00) (97, 6.02581405639648437500e+00) (98, 2.19180965423583984375e+00) (99, 7.70806312561035156250e-01) (100, -6.96906805038452148438e+00) (101, -5.97787952423095703125e+00) (102, -9.41630744934082031250e+00) (103, -2.47163581848144531250e+00) (104, 5.27683925628662109375e+00) (105, -3.73099136352539062500e+00) (106, 2.09998989105224609375e+00) (107, -8.65009307861328125000e-01) (108, 9.49975395202636718750e+00) (109, 1.59279823303222656250e-01) (110, 4.07692146301269531250e+00) (111, 2.65846824645996093750e+00) (112, -9.13248920440673828125e+00) (113, -6.51424503326416015625e+00) (114, 7.99793815612792968750e+00) (115, 1.21799659729003906250e+00) (116, 9.21469116210937500000e+00) (117, 5.80144596099853515625e+00) (118, 8.83453178405761718750e+00) (119, -5.50209665298461914062e+00) (120, 2.66417694091796875000e+00) (121, 6.88924789428710937500e-02) (122, -2.07710266113281250000e-03) (123, -8.71145534515380859375e+00) (124, 3.11951351165771484375e+00) (125, -3.63787841796875000000e+00) (126, 6.13949012756347656250e+00) (127, -3.54495048522949218750e-01) (128, -7.61206293106079101562e+00) (129, -1.66870021820068359375e+00) (130, -9.58368968963623046875e+00) (131, -4.58113098144531250000e+00) (132, 2.35342025756835937500e+00) (133, -8.99999618530273437500e+00) (134, 2.94723224639892578125e+00) (135, -2.36973953247070312500e+00) (136, -2.73098850250244140625e+00) (137, -4.95277786254882812500e+00) (138, 6.76525115966796875000e+00) (139, -3.23123264312744140625e+00) (140, -2.80223560333251953125e+00) (141, 8.42172622680664062500e-01) (142, 9.42723655700683593750e+00) (143, 6.07401275634765625000e+00) (144, 4.32792758941650390625e+00) (145, 7.42517280578613281250e+00) (146, -2.70798969268798828125e+00) (147, 3.54261970520019531250e+00) (148, 3.22662067413330078125e+00) (149, -3.87345695495605468750e+00) (150, 8.04052352905273437500e+00) (151, -4.10920190811157226562e+00) (152, 6.19543457031250000000e+00) (153, -1.96155452728271484375e+00) (154, -2.82065773010253906250e+00) (155, -6.85050964355468750000e-01) (156, 4.40056800842285156250e+00) (157, -6.68116664886474609375e+00) (158, 8.96045494079589843750e+00) (159, 6.78850555419921875000e+00) (160, 1.65013313293457031250e+00) (161, 9.37676429748535156250e+00) (162, -7.79262638092041015625e+00) (163, -5.99644660949707031250e+00) (164, -9.62323188781738281250e+00) (165, 5.15460681915283203125e+00) (166, 1.63381481170654296875e+00) (167, -2.35421943664550781250e+00) (168, -9.79817104339599609375e+00) (169, -1.60093498229980468750e+00) (170, 4.41454792022705078125e+00) (171, 5.40833091735839843750e+00) (172, 9.24123764038085937500e+00) (173, 8.18607330322265625000e-01) (174, 1.48234462738037109375e+00) (175, 3.56916522979736328125e+00) (176, 1.26695728302001953125e+00) (177, 8.77435493469238281250e+00) (178, -2.88821506500244140625e+00) (179, -5.50642204284667968750e+00) (180, -5.09910202026367187500e+00) (181, -4.84769248962402343750e+00) (182, 3.84375572204589843750e-01) (183, -8.90366744995117187500e+00) (184, 3.19075298309326171875e+00) (185, 7.56371879577636718750e+00) (186, 4.11282539367675781250e-01) (187, -2.40867853164672851562e+00) (188, -9.11744785308837890625e+00) (189, -6.28262519836425781250e-01) (190, -5.62017440795898437500e+00) (191, 2.53268432617187500000e+00) (0, -1.25149822235107421875e+00) (1, -3.41279983520507812500e+00) (2, 6.53623962402343750000e+00) (3, -8.74730110168457031250e-01) (4, -8.25819301605224609375e+00) (5, -1.82994651794433593750e+00) (6, 6.77104949951171875000e+00) (7, -8.05636405944824218750e+00) (8, 6.56911849975585937500e+00) (9, 1.18559837341308593750e+00) (10, 7.35196876525878906250e+00) (11, 5.81035614013671875000e+00) (12, -4.97261905670166015625e+00) (13, -1.16568660736083984375e+00) (14, -6.20479583740234375000e-01) (15, 6.29433822631835937500e+00) (16, -2.39133262634277343750e+00) (17, 6.49130630493164062500e+00) (18, -9.21208381652832031250e+00) (19, 2.50956535339355468750e+00) (20, -8.35638618469238281250e+00) (21, 1.17229175567626953125e+00) (22, 3.60589885711669921875e+00) (23, 4.83436679840087890625e+00) (24, -1.26398944854736328125e+00) (25, -5.98281860351562500000e+00) (26, -7.57431173324584960938e+00) (27, -3.81437301635742187500e-01) (28, 3.38891887664794921875e+00) (29, -3.19448614120483398438e+00) (30, -7.84875202178955078125e+00) (31, -7.86257982254028320312e+00) (32, 3.39271450042724609375e+00) (33, 8.68748664855957031250e+00) (34, 1.26268959045410156250e+00) (35, 5.13452148437500000000e+00) (36, -3.14245939254760742188e+00) (37, -1.96625995635986328125e+00) (38, 7.07815742492675781250e+00) (39, -6.57334089279174804688e+00) (40, 9.21933937072753906250e+00) (41, 4.43012619018554687500e+00) (42, 9.23701477050781250000e+00) (43, -5.75328016281127929688e+00) (44, -6.73556184768676757812e+00) (45, -1.38346385955810546875e+00) (46, -9.45894241333007812500e+00) (47, 8.73105049133300781250e-01) (48, -4.89215850830078125000e+00) (49, -8.67102527618408203125e+00) (50, -6.61732816696166992188e+00) (51, -3.24854516983032226562e+00) (52, 2.50126743316650390625e+00) (53, 6.98857116699218750000e+00) (54, -8.41417789459228515625e+00) (55, -8.76272201538085937500e+00) (56, -8.99424839019775390625e+00) (57, -5.98848915100097656250e+00) (58, 8.55840682983398437500e-01) (59, 4.39467048645019531250e+00) (60, 8.17024230957031250000e-01) (61, 3.18030834197998046875e+00) (62, 6.53209114074707031250e+00) (63, -5.79026079177856445312e+00) (64, 1.69457626342773437500e+00) (65, -2.20521926879882812500e+00) (66, 9.34426116943359375000e+00) (67, 8.55211639404296875000e+00) (68, 5.82852077484130859375e+00) (69, 6.42241859436035156250e+00) (70, -8.02122402191162109375e+00) (71, 5.04786014556884765625e+00) (72, 8.52542877197265625000e-01) (73, -8.78420925140380859375e+00) (74, 9.29458045959472656250e+00) (75, 4.20085525512695312500e+00) (76, -1.67673110961914062500e-01) (77, 9.83563804626464843750e+00) (78, -5.00991201400756835938e+00) (79, 4.94016838073730468750e+00) (80, -9.96847152709960937500e-01) (81, -1.62724018096923828125e+00) (82, -8.30837631225585937500e+00) (83, 3.66587829589843750000e+00) (84, -4.63866949081420898438e+00) (85, -6.72255373001098632812e+00) (86, 4.90315628051757812500e+00) (87, -3.63291788101196289062e+00) (88, -2.71104288101196289062e+00) (89, -7.96500205993652343750e+00) (90, -9.23824787139892578125e+00) (91, 8.10598182678222656250e+00) (92, 8.76608657836914062500e+00) (93, 7.29384231567382812500e+00) (94, -7.68427848815917968750e+00) (95, 4.60662841796875000000e-01) (96, -4.91137695312500000000e+00) (97, -8.34001731872558593750e+00) (98, -9.87220764160156250000e-01) (99, -9.08285522460937500000e+00) (100, 8.08239936828613281250e+00) (101, 9.91555213928222656250e-01) (102, 5.96500492095947265625e+00) (103, -1.06505680084228515625e+00) (104, 2.20734691619873046875e+00) (105, 5.25958442687988281250e+00) (106, -6.94807434082031250000e+00) (107, -7.96032619476318359375e+00) (108, 5.09522151947021484375e+00) (109, -1.95798683166503906250e+00) (110, 6.97984123229980468750e+00) (111, 6.25983428955078125000e+00) (112, 6.41477394104003906250e+00) (113, 8.67146492004394531250e+00) (114, -7.42864608764648437500e-02) (115, -8.22389698028564453125e+00) (116, -8.05108737945556640625e+00) (117, -5.17113018035888671875e+00) (118, -1.85681438446044921875e+00) (119, -7.62129783630371093750e-01) (120, 5.87867736816406250000e-01) (121, -1.09506225585937500000e+00) (122, -2.65614748001098632812e+00) (123, -6.46047592163085937500e-01) (124, -3.80121946334838867188e+00) (125, -3.40425491333007812500e-01) (126, 1.13060188293457031250e+00) (127, 1.28740406036376953125e+00) (128, 1.31955623626708984375e+00) (129, -1.17260456085205078125e+00) (130, 2.20454883575439453125e+00) (131, -5.98043441772460937500e-01) (132, 9.81895065307617187500e+00) (133, -1.83044624328613281250e+00) (134, 8.33690071105957031250e+00) (135, 2.02629661560058593750e+00) (136, -6.57086133956909179688e+00) (137, -8.61117362976074218750e+00) (138, 4.06597137451171875000e+00) (139, 8.52436065673828125000e+00) (140, -5.69160461425781250000e-01) (141, 1.04581356048583984375e+00) (142, 4.78419494628906250000e+00) (143, -4.15438699722290039062e+00) (144, -2.82719612121582031250e-01) (145, -5.29009103775024414062e+00) (146, -2.37828397750854492188e+00) (147, 1.66619300842285156250e+00) (148, -4.61221694946289062500e-01) (149, 5.76490116119384765625e+00) (150, -9.09593582153320312500e+00) (151, -9.87335395812988281250e+00) (152, -5.33016014099121093750e+00) (153, -1.75208377838134765625e+00) (154, -5.19400596618652343750e-01) (155, 8.68619918823242187500e-01) (156, 7.90748977661132812500e+00) (157, -7.04785346984863281250e-01) (158, -7.84397602081298828125e+00) (159, -7.72953033447265625000e-01) (160, 8.12261009216308593750e+00) (161, 4.36057281494140625000e+00) (162, 8.62900543212890625000e+00) (163, 7.94156074523925781250e+00) (164, -7.46987342834472656250e+00) (165, 6.96590423583984375000e+00) (166, -3.21416854858398437500e-02) (167, 3.93688106536865234375e+00) (168, 8.35473060607910156250e+00) (169, -5.96617031097412109375e+00) (170, -5.51637363433837890625e+00) (171, -2.21442937850952148438e+00) (172, 5.07964324951171875000e+00) (173, 9.26782226562500000000e+00) (174, 3.63118267059326171875e+00) (175, -5.20307588577270507812e+00) (176, -6.02226877212524414062e+00) (177, -8.41563701629638671875e+00) (178, 6.46311759948730468750e+00) (179, 3.51650905609130859375e+00) (180, 7.01780128479003906250e+00) (181, 7.36718177795410156250e+00) (182, 3.64315605163574218750e+00) (183, -8.31235885620117187500e+00) (184, -4.38490200042724609375e+00) (185, -6.87624454498291015625e+00) (186, 2.55626106262207031250e+00) (187, -6.47741127014160156250e+00) (188, 2.41897010803222656250e+00) (189, 4.71228599548339843750e+00) (190, 7.38551330566406250000e+00) (191, 5.41581153869628906250e-01) (0, -9.27141189575195312500e-01) (1, 1.37864112854003906250e+00) (2, -1.51685810089111328125e+00) (3, 1.60298538208007812500e+00) (4, -1.65545463562011718750e+00) (5, 8.45100021362304687500e+00) (6, -7.62219142913818359375e+00) (7, -3.30072307586669921875e+00) (8, -7.51517009735107421875e+00) (9, -7.95412254333496093750e+00) (10, -2.47313690185546875000e+00) (11, 7.56447219848632812500e+00) (12, -8.88773918151855468750e-01) (13, -1.88396930694580078125e+00) (14, -7.63860225677490234375e+00) (15, -4.70856904983520507812e+00) (16, -6.31069183349609375000e-01) (17, 8.82451438903808593750e+00) (18, 8.80793952941894531250e+00) (19, -3.61326742172241210938e+00) (20, -2.11249876022338867188e+00) (21, 2.45109653472900390625e+00) (22, -1.92562675476074218750e+00) (23, -8.19320487976074218750e+00) (24, 5.57485198974609375000e+00) (25, -9.36936569213867187500e+00) (26, -4.67061662673950195312e+00) (27, -2.00617790222167968750e+00) (28, 5.34291934967041015625e+00) (29, 8.07901954650878906250e+00) (30, 8.53540229797363281250e+00) (31, -5.58422136306762695312e+00) (32, -5.42338371276855468750e-01) (33, -2.98145532608032226562e+00) (34, 6.01876449584960937500e+00) (35, 7.80220794677734375000e+00) (36, -4.53045558929443359375e+00) (37, 3.58101558685302734375e+00) (38, -5.49851560592651367188e+00) (39, -2.04562568664550781250e+00) (40, 5.62689304351806640625e+00) (41, 8.98633193969726562500e+00) (42, -4.48115253448486328125e+00) (43, 6.94059181213378906250e+00) (44, -2.89763593673706054688e+00) (45, -2.11975479125976562500e+00) (46, -7.76797580718994140625e+00) (47, 6.47129440307617187500e+00) (48, -3.29523944854736328125e+00) (49, -8.96003532409667968750e+00) (50, -7.14197254180908203125e+00) (51, -7.10354280471801757812e+00) (52, 3.49106216430664062500e+00) (53, 9.32401657104492187500e-01) (54, -5.29674768447875976562e+00) (55, -9.34086799621582031250e-01) (56, 1.56303501129150390625e+00) (57, 3.26356887817382812500e-02) (58, 7.05973625183105468750e+00) (59, -3.09404420852661132812e+00) (60, -1.88834381103515625000e+00) (61, 5.59513759613037109375e+00) (62, 1.32173538208007812500e+00) (63, 7.56931686401367187500e+00) (64, -7.38631725311279296875e+00) (65, -2.65950107574462890625e+00) (66, 5.37152481079101562500e+00) (67, -1.91677188873291015625e+00) (68, -9.07848548889160156250e+00) (69, 9.87300872802734375000e+00) (70, 6.03760147094726562500e+00) (71, 6.54840850830078125000e+00) (72, 8.85934257507324218750e+00) (73, -8.44355010986328125000e+00) (74, 3.48900222778320312500e+00) (75, -4.03829383850097656250e+00) (76, -5.63304901123046875000e-01) (77, 5.72102546691894531250e+00) (78, -7.56699848175048828125e+00) (79, 6.14145660400390625000e+00) (80, 6.76099014282226562500e+00) (81, -4.70897150039672851562e+00) (82, 9.03791427612304687500e+00) (83, 2.52051353454589843750e-01) (84, -9.30291748046875000000e+00) (85, -6.25883388519287109375e+00) (86, 9.31796455383300781250e+00) (87, -2.21353483200073242188e+00) (88, 3.77380275726318359375e+00) (89, 6.37770080566406250000e+00) (90, 4.69242095947265625000e+00) (91, -8.11454200744628906250e+00) (92, 1.97283840179443359375e+00) (93, -3.98584365844726562500e+00) (94, 9.45477485656738281250e+00) (95, 4.58652210235595703125e+00) (96, 3.35465526580810546875e+00) (97, 4.82629966735839843750e+00) (98, -7.33025026321411132812e+00) (99, 4.27617073059082031250e+00) (100, 4.69931030273437500000e+00) (101, 8.70735168457031250000e+00) (102, 8.24579238891601562500e-01) (103, 3.55865192413330078125e+00) (104, -9.73619842529296875000e+00) (105, -5.68641948699951171875e+00) (106, 9.52035713195800781250e+00) (107, -2.99502372741699218750e-01) (108, -9.96539402008056640625e+00) (109, -8.04664039611816406250e+00) (110, -4.15804624557495117188e+00) (111, 6.79559516906738281250e+00) (112, -2.75561237335205078125e+00) (113, -5.12013244628906250000e+00) (114, -2.95235300064086914062e+00) (115, -6.53218221664428710938e+00) (116, -1.37896633148193359375e+00) (117, -3.63438796997070312500e+00) (118, 1.25428295135498046875e+00) (119, -7.60516452789306640625e+00) (120, -7.25668716430664062500e+00) (121, -4.05329513549804687500e+00) (122, -5.71970605850219726562e+00) (123, 4.71615219116210937500e+00) (124, 1.96086025238037109375e+00) (125, -6.26493072509765625000e+00) (126, -6.97325706481933593750e-01) (127, -4.68448352813720703125e+00) (128, 8.56137084960937500000e+00) (129, 1.97242355346679687500e+00) (130, 9.59168624877929687500e+00) (131, 3.26068019866943359375e+00) (132, 6.79775238037109375000e-01) (133, 4.16265487670898437500e-01) (134, -3.18066787719726562500e+00) (135, 9.43576812744140625000e-01) (136, 4.72984695434570312500e+00) (137, -3.66030931472778320312e+00) (138, -9.35592460632324218750e+00) (139, 4.76445198059082031250e+00) (140, -1.70695018768310546875e+00) (141, -3.51397037506103515625e+00) (142, 1.56004810333251953125e+00) (143, 5.53743839263916015625e+00) (144, 1.36589622497558593750e+00) (145, 8.60769462585449218750e+00) (146, 9.00525474548339843750e+00) (147, 9.98693084716796875000e+00) (148, -5.02669286727905273438e+00) (149, 2.59538650512695312500e-01) (150, -7.61823368072509765625e+00) (151, -2.28337955474853515625e+00) (152, 6.20624351501464843750e+00) (153, -3.33794021606445312500e+00) (154, -7.56722736358642578125e+00) (155, -1.83289527893066406250e+00) (156, 3.97130012512207031250e-01) (157, 1.73544597625732421875e+00) (158, 3.48262023925781250000e+00) (159, -1.04150009155273437500e+00) (160, -6.29212951660156250000e+00) (161, 3.07430744171142578125e+00) (162, -7.78081989288330078125e+00) (163, 4.38764667510986328125e+00) (164, -6.50942611694335937500e+00) (165, -9.61487770080566406250e-01) (166, -4.66877603530883789062e+00) (167, 8.22041893005371093750e+00) (168, 5.37820339202880859375e+00) (169, -4.02470016479492187500e+00) (170, 2.98487186431884765625e+00) (171, -6.32874679565429687500e+00) (172, 2.46132946014404296875e+00) (173, -5.45508050918579101562e+00) (174, 9.20869064331054687500e+00) (175, -6.17277383804321289062e+00) (176, -2.82485771179199218750e+00) (177, 8.21394729614257812500e+00) (178, -6.18584299087524414062e+00) (179, -1.87407779693603515625e+00) (180, -1.52651405334472656250e+00) (181, -3.80407619476318359375e+00) (182, 5.84254264831542968750e+00) (183, -5.32027006149291992188e+00) (184, 2.85798454284667968750e+00) (185, 8.27531433105468750000e+00) (186, 2.84683418273925781250e+00) (187, -6.74488639831542968750e+00) (188, 1.07612609863281250000e-02) (189, -3.67054414749145507812e+00) (190, 2.21361351013183593750e+00) (191, 3.71863269805908203125e+00) (0, 9.40376281738281250000e+00) (1, 4.43279361724853515625e+00) (2, -1.89372158050537109375e+00) (3, -7.10566234588623046875e+00) (4, -6.52869319915771484375e+00) (5, 3.43750381469726562500e+00) (6, -8.88524246215820312500e+00) (7, 8.84951019287109375000e+00) (8, 9.41280364990234375000e+00) (9, 4.09962844848632812500e+00) (10, 2.15618801116943359375e+00) (11, 1.87413215637207031250e+00) (12, 8.64454841613769531250e+00) (13, -8.27054595947265625000e+00) (14, 5.70135784149169921875e+00) (15, -4.73425769805908203125e+00) (16, 9.94339942932128906250e+00) (17, 9.51551437377929687500e+00) (18, -7.69147872924804687500e-02) (19, -1.58311271667480468750e+00) (20, -4.28856086730957031250e+00) (21, -4.23437261581420898438e+00) (22, 3.09661769866943359375e+00) (23, 8.56942176818847656250e+00) (24, -5.95905780792236328125e+00) (25, -4.05654811859130859375e+00) (26, -8.69818878173828125000e+00) (27, 4.05170440673828125000e+00) (28, 2.27290725708007812500e+00) (29, 4.03814983367919921875e+00) (30, -2.22966432571411132812e+00) (31, 1.67667102813720703125e+00) (32, -1.52905559539794921875e+00) (33, 5.87661457061767578125e+00) (34, 4.57100868225097656250e+00) (35, 1.94225215911865234375e+00) (36, -6.85882568359375000000e-01) (37, 5.68576526641845703125e+00) (38, 7.91761398315429687500e-01) (39, -1.27307891845703125000e+00) (40, -2.14604377746582031250e-01) (41, 3.31252479553222656250e+00) (42, -9.39894676208496093750e+00) (43, -1.57005596160888671875e+00) (44, -1.54977321624755859375e+00) (45, 6.30241203308105468750e+00) (46, 2.27108001708984375000e-01) (47, 4.98538017272949218750e+00) (48, 5.81792736053466796875e+00) (49, -9.84980583190917968750e+00) (50, -6.59773254394531250000e+00) (51, -8.47063350677490234375e+00) (52, -4.08417844772338867188e+00) (53, 6.49888420104980468750e+00) (54, -9.90121078491210937500e+00) (55, -4.32357788085937500000e-02) (56, -7.55766344070434570312e+00) (57, -8.07667350769042968750e+00) (58, -5.99153232574462890625e+00) (59, 4.71524333953857421875e+00) (60, 5.96147632598876953125e+00) (61, 1.77880382537841796875e+00) (62, -3.60808515548706054688e+00) (63, -5.56757879257202148438e+00) (64, -2.34458160400390625000e+00) (65, -9.03707599639892578125e+00) (66, 6.37467193603515625000e+00) (67, 6.96953582763671875000e+00) (68, 6.64869117736816406250e+00) (69, -2.83356618881225585938e+00) (70, -4.30354309082031250000e+00) (71, -3.56591415405273437500e+00) (72, -9.52104091644287109375e+00) (73, -3.70248985290527343750e+00) (74, 4.86403083801269531250e+00) (75, 5.52093696594238281250e+00) (76, -7.40007781982421875000e+00) (77, -4.90886116027832031250e+00) (78, 5.06317138671875000000e-01) (79, 8.41784858703613281250e+00) (80, -4.75866746902465820312e+00) (81, 3.90858554840087890625e+00) (82, 9.94721603393554687500e+00) (83, 1.15715408325195312500e+00) (84, 4.07468795776367187500e-01) (85, -9.95399475097656250000e+00) (86, -8.88608169555664062500e+00) (87, 2.84980678558349609375e+00) (88, -8.03066825866699218750e+00) (89, -4.87761402130126953125e+00) (90, -2.43494939804077148438e+00) (91, 7.93080711364746093750e+00) (92, 6.90118980407714843750e+00) (93, 3.95696640014648437500e+00) (94, -7.63677072525024414062e+00) (95, -5.44339132308959960938e+00) (96, 4.91989040374755859375e+00) (97, 8.73790168762207031250e+00) (98, -8.47385501861572265625e+00) (99, 1.56858062744140625000e+00) (100, -4.09566402435302734375e+00) (101, -2.77739763259887695312e+00) (102, 8.00266647338867187500e+00) (103, -3.61670494079589843750e+00) (104, 3.52011203765869140625e+00) (105, 2.86669731140136718750e+00) (106, -8.09576702117919921875e+00) (107, 6.12003326416015625000e+00) (108, 7.95783615112304687500e+00) (109, 2.41055011749267578125e+00) (110, 4.53788375854492187500e+00) (111, -6.80083084106445312500e+00) (112, -3.68086481094360351562e+00) (113, 4.48510074615478515625e+00) (114, 4.35632324218750000000e+00) (115, 6.72660636901855468750e+00) (116, 4.53110599517822265625e+00) (117, 3.59811496734619140625e+00) (118, -4.23588752746582031250e-01) (119, 6.50043678283691406250e+00) (120, -9.40737152099609375000e+00) (121, 7.14146232604980468750e+00) (122, 4.43124485015869140625e+00) (123, 7.49381828308105468750e+00) (124, 1.09842777252197265625e+00) (125, 6.79447555541992187500e+00) (126, -7.94957256317138671875e+00) (127, -3.98168230056762695312e+00) (128, 5.53237628936767578125e+00) (129, -6.42342710494995117188e+00) (130, 7.58689880371093750000e+00) (131, -8.56328678131103515625e+00) (132, 7.99175262451171875000e-01) (133, 5.58956527709960937500e+00) (134, -2.17999219894409179688e+00) (135, -5.68071269989013671875e+00) (136, -1.54373741149902343750e+00) (137, -2.75759696960449218750e-01) (138, -9.56067848205566406250e+00) (139, -3.58590126037597656250e+00) (140, -7.86520862579345703125e+00) (141, 4.97720623016357421875e+00) (142, -3.86732101440429687500e-01) (143, -1.54607295989990234375e+00) (144, -5.37693977355957031250e-01) (145, -6.03040838241577148438e+00) (146, 7.40768623352050781250e+00) (147, -6.00658798217773437500e+00) (148, 9.43983459472656250000e+00) (149, 4.75694370269775390625e+00) (150, -9.50615119934082031250e+00) (151, -9.96753787994384765625e+00) (152, 1.89840698242187500000e+00) (153, 4.92509460449218750000e+00) (154, 7.52628135681152343750e+00) (155, -7.00316524505615234375e+00) (156, 1.71956920623779296875e+00) (157, 9.57670974731445312500e+00) (158, -9.84846115112304687500e-01) (159, -2.74805450439453125000e+00) (160, -6.84671878814697265625e+00) (161, -3.39794826507568359375e+00) (162, -1.31134128570556640625e+00) (163, 3.95245647430419921875e+00) (164, -7.80838298797607421875e+00) (165, 6.50866699218750000000e+00) (166, 8.27174377441406250000e+00) (167, 6.47879600524902343750e-01) (168, -3.76709222793579101562e+00) (169, 8.71106529235839843750e+00) (170, 7.06197738647460937500e+00) (171, -1.63230133056640625000e+00) (172, 3.68827247619628906250e+00) (173, -3.32475376129150390625e+00) (174, 6.82162666320800781250e+00) (175, -6.84942197799682617188e+00) (176, 6.44837379455566406250e-01) (177, -7.99784135818481445312e+00) (178, -2.85601043701171875000e+00) (179, 8.46719741821289062500e-02) (180, 6.75910377502441406250e+00) (181, -2.36216115951538085938e+00) (182, 1.17134094238281250000e-01) (183, -1.34249019622802734375e+00) (184, -7.43706655502319335938e+00) (185, -2.35658454895019531250e+00) (186, 1.65434551239013671875e+00) (187, 4.28250312805175781250e+00) (188, -2.77987623214721679688e+00) (189, -9.33050155639648437500e+00) (190, -8.46555137634277343750e+00) (191, 3.73405456542968750000e-01) (192, -2.72844934463500976562e+00) (193, 2.23107337951660156250e-01) (194, -5.67413854598999023438e+00) (195, -5.36832809448242187500e-01) (196, -3.26822519302368164062e+00) (197, -4.80177116394042968750e+00) (198, -9.88895225524902343750e+00) (199, 2.96468257904052734375e+00) (200, -8.69132900238037109375e+00) (201, 7.17302513122558593750e+00) (202, -8.66761875152587890625e+00) (192, 4.99694347381591796875e+00) (193, 4.28289890289306640625e+00) (194, 8.15400695800781250000e+00) (195, 8.14752006530761718750e+00) (196, 4.49310970306396484375e+00) (197, -9.84383392333984375000e+00) (198, -4.70848846435546875000e+00) (199, -5.42221784591674804688e+00) (200, 6.91526794433593750000e+00) (201, 2.92934989929199218750e+00) (202, 4.69491577148437500000e+00) (192, -4.42722034454345703125e+00) (193, 3.43726539611816406250e+00) (194, -7.66166830062866210938e+00) (195, 7.22712516784667968750e+00) (196, -2.25213050842285156250e-01) (197, 8.60130500793457031250e+00) (198, 7.89662361145019531250e+00) (199, 1.30923461914062500000e+00) (200, 9.93185997009277343750e+00) (201, -4.83182573318481445312e+00) (202, -8.46765708923339843750e+00) (192, -5.74227714538574218750e+00) (193, 4.63134288787841796875e+00) (194, -1.73588275909423828125e+00) (195, -3.14467144012451171875e+00) (196, 4.74238967895507812500e+00) (197, -8.77119922637939453125e+00) (198, -1.83600044250488281250e+00) (199, 1.91541671752929687500e+00) (200, -7.43881797790527343750e+00) (201, -6.83905696868896484375e+00) (202, -1.50242900848388671875e+00) (192, -9.28481006622314453125e+00) (193, -8.69153594970703125000e+00) (194, 2.56799697875976562500e-01) (195, -9.12864398956298828125e+00) (196, -3.40002441406250000000e+00) (197, 4.83458137512207031250e+00) (198, 7.78662490844726562500e+00) (199, 9.52932548522949218750e+00) (200, -4.70501899719238281250e-01) (201, -6.64059495925903320312e+00) (202, 5.02161026000976562500e+00) 
