FANN_FLO_2.1
num_layers=3
learning_rate=0.700000
connection_rate=1.000000
network_type=0
learning_momentum=0.000000
training_algorithm=2
train_error_function=1
train_stop_function=0
cascade_output_change_fraction=0.010000
quickprop_decay=-0.000100
quickprop_mu=1.750000
rprop_increase_factor=1.200000
rprop_decrease_factor=0.500000
rprop_delta_min=0.000000
rprop_delta_max=50.000000
rprop_delta_zero=0.100000
cascade_output_stagnation_epochs=12
cascade_candidate_change_fraction=0.010000
cascade_candidate_stagnation_epochs=12
cascade_max_out_epochs=150
cascade_min_out_epochs=50
cascade_max_cand_epochs=150
cascade_min_cand_epochs=50
cascade_num_candidate_groups=2
bit_fail_limit=3.49999994039535522461e-01
cascade_candidate_limit=1.00000000000000000000e+03
cascade_weight_multiplier=4.00000005960464477539e-01
cascade_activation_functions_count=10
cascade_activation_functions=3 5 7 8 10 11 14 15 16 17 
cascade_activation_steepnesses_count=4
cascade_activation_steepnesses=2.50000000000000000000e-01 5.00000000000000000000e-01 7.50000000000000000000e-01 1.00000000000000000000e+00 
layer_sizes=192 11 6 
scale_included=0
neurons (num_inputs, activation_function, activation_steepness)=(0, 0, 0.00000000000000000000e+00) (0, 0, 0.00000000000000000000e+00) (0, 0, 0.00000000000000000000e+00) (0, 0, 0.00000000000000000000e+00) (0, 0, 0.00000000000000000000e+00) (0, 0, 0.00000000000000000000e+00) (0, 0, 0.00000000000000000000e+00) (0, 0, 0.00000000000000000000e+00) (0, 0, 0.00000000000000000000e+00) (0, 0, 0.00000000000000000000e+00) (0, 0, 0.00000000000000000000e+00) (0, 0, 0.00000000000000000000e+00) (0, 0, 0.00000000000000000000e+00) (0, 0, 0.00000000000000000000e+00) (0, 0, 0.00000000000000000000e+00) (0, 0, 0.00000000000000000000e+00) (0, 0, 0.00000000000000000000e+00) (0, 0, 0.00000000000000000000e+00) (0, 0, 0.00000000000000000000e+00) (0, 0, 0.00000000000000000000e+00) (0, 0, 0.00000000000000000000e+00) (0, 0, 0.00000000000000000000e+00) (0, 0, 0.00000000000000000000e+00) (0, 0, 0.00000000000000000000e+00) (0, 0, 0.00000000000000000000e+00) (0, 0, 0.00000000000000000000e+00) (0, 0, 0.00000000000000000000e+00) (0, 0, 0.00000000000000000000e+00) (0, 0, 0.00000000000000000000e+00) (0, 0, 0.00000000000000000000e+00) (0, 0, 0.00000000000000000000e+00) (0, 0, 0.00000000000000000000e+00) (0, 0, 0.00000000000000000000e+00) (0, 0, 0.00000000000000000000e+00) (0, 0, 0.00000000000000000000e+00) (0, 0, 0.00000000000000000000e+00) (0, 0, 0.00000000000000000000e+00) (0, 0, 0.00000000000000000000e+00) (0, 0, 0.00000000000000000000e+00) (0, 0, 0.00000000000000000000e+00) (0, 0, 0.00000000000000000000e+00) (0, 0, 0.00000000000000000000e+00) (0, 0, 0.00000000000000000000e+00) (0, 0, 0.00000000000000000000e+00) (0, 0, 0.00000000000000000000e+00) (0, 0, 0.00000000000000000000e+00) (0, 0, 0.00000000000000000000e+00) (0, 0, 0.00000000000000000000e+00) (0, 0, 0.00000000000000000000e+00) (0, 0, 0.00000000000000000000e+00) (0, 0, 0.00000000000000000000e+00) (0, 0, 0.00000000000000000000e+00) (0, 0, 0.00000000000000000000e+00) (0, 0, 0.00000000000000000000e+00) (0, 0, 0.00000000000000000000e+00) (0, 0, 0.00000000000000000000e+00) (0, 0, 0.00000000000000000000e+00) (0, 0, 0.00000000000000000000e+00) (0, 0, 0.00000000000000000000e+00) (0, 0, 0.00000000000000000000e+00) (0, 0, 0.00000000000000000000e+00) (0, 0, 0.00000000000000000000e+00) (0, 0, 0.00000000000000000000e+00) (0, 0, 0.00000000000000000000e+00) (0, 0, 0.00000000000000000000e+00) (0, 0, 0.00000000000000000000e+00) (0, 0, 0.00000000000000000000e+00) (0, 0, 0.00000000000000000000e+00) (0, 0, 0.00000000000000000000e+00) (0, 0, 0.00000000000000000000e+00) (0, 0, 0.00000000000000000000e+00) (0, 0, 0.00000000000000000000e+00) (0, 0, 0.00000000000000000000e+00) (0, 0, 0.00000000000000000000e+00) (0, 0, 0.00000000000000000000e+00) (0, 0, 0.00000000000000000000e+00) (0, 0, 0.00000000000000000000e+00) (0, 0, 0.00000000000000000000e+00) (0, 0, 0.00000000000000000000e+00) (0, 0, 0.00000000000000000000e+00) (0, 0, 0.00000000000000000000e+00) (0, 0, 0.00000000000000000000e+00) (0, 0, 0.00000000000000000000e+00) (0, 0, 0.00000000000000000000e+00) (0, 0, 0.00000000000000000000e+00) (0, 0, 0.00000000000000000000e+00) (0, 0, 0.00000000000000000000e+00) (0, 0, 0.00000000000000000000e+00) (0, 0, 0.00000000000000000000e+00) (0, 0, 0.00000000000000000000e+00) (0, 0, 0.00000000000000000000e+00) (0, 0, 0.00000000000000000000e+00) (0, 0, 0.00000000000000000000e+00) (0, 0, 0.00000000000000000000e+00) (0, 0, 0.00000000000000000000e+00) (0, 0, 0.00000000000000000000e+00) (0, 0, 0.00000000000000000000e+00) (0, 0, 0.00000000000000000000e+00) (0, 0, 0.00000000000000000000e+00) (0, 0, 0.00000000000000000000e+00) (0, 0, 0.00000000000000000000e+00) (0, 0, 0.00000000000000000000e+00) (0, 0, 0.00000000000000000000e+00) (0, 0, 0.00000000000000000000e+00) (0, 0, 0.00000000000000000000e+00) (0, 0, 0.00000000000000000000e+00) (0, 0, 0.00000000000000000000e+00) (0, 0, 0.00000000000000000000e+00) (0, 0, 0.00000000000000000000e+00) (0, 0, 0.00000000000000000000e+00) (0, 0, 0.00000000000000000000e+00) (0, 0, 0.00000000000000000000e+00) (0, 0, 0.00000000000000000000e+00) (0, 0, 0.00000000000000000000e+00) (0, 0, 0.00000000000000000000e+00) (0, 0, 0.00000000000000000000e+00) (0, 0, 0.00000000000000000000e+00) (0, 0, 0.00000000000000000000e+00) (0, 0, 0.00000000000000000000e+00) (0, 0, 0.00000000000000000000e+00) (0, 0, 0.00000000000000000000e+00) (0, 0, 0.00000000000000000000e+00) (0, 0, 0.00000000000000000000e+00) (0, 0, 0.00000000000000000000e+00) (0, 0, 0.00000000000000000000e+00) (0, 0, 0.00000000000000000000e+00) (0, 0, 0.00000000000000000000e+00) (0, 0, 0.00000000000000000000e+00) (0, 0, 0.00000000000000000000e+00) (0, 0, 0.00000000000000000000e+00) (0, 0, 0.00000000000000000000e+00) (0, 0, 0.00000000000000000000e+00) (0, 0, 0.00000000000000000000e+00) (0, 0, 0.00000000000000000000e+00) (0, 0, 0.00000000000000000000e+00) (0, 0, 0.00000000000000000000e+00) (0, 0, 0.00000000000000000000e+00) (0, 0, 0.00000000000000000000e+00) (0, 0, 0.00000000000000000000e+00) (0, 0, 0.00000000000000000000e+00) (0, 0, 0.00000000000000000000e+00) (0, 0, 0.00000000000000000000e+00) (0, 0, 0.00000000000000000000e+00) (0, 0, 0.00000000000000000000e+00) (0, 0, 0.00000000000000000000e+00) (0, 0, 0.00000000000000000000e+00) (0, 0, 0.00000000000000000000e+00) (0, 0, 0.00000000000000000000e+00) (0, 0, 0.00000000000000000000e+00) (0, 0, 0.00000000000000000000e+00) (0, 0, 0.00000000000000000000e+00) (0, 0, 0.00000000000000000000e+00) (0, 0, 0.00000000000000000000e+00) (0, 0, 0.00000000000000000000e+00) (0, 0, 0.00000000000000000000e+00) (0, 0, 0.00000000000000000000e+00) (0, 0, 0.00000000000000000000e+00) (0, 0, 0.00000000000000000000e+00) (0, 0, 0.00000000000000000000e+00) (0, 0, 0.00000000000000000000e+00) (0, 0, 0.00000000000000000000e+00) (0, 0, 0.00000000000000000000e+00) (0, 0, 0.00000000000000000000e+00) (0, 0, 0.00000000000000000000e+00) (0, 0, 0.00000000000000000000e+00) (0, 0, 0.00000000000000000000e+00) (0, 0, 0.00000000000000000000e+00) (0, 0, 0.00000000000000000000e+00) (0, 0, 0.00000000000000000000e+00) (0, 0, 0.00000000000000000000e+00) (0, 0, 0.00000000000000000000e+00) (0, 0, 0.00000000000000000000e+00) (0, 0, 0.00000000000000000000e+00) (0, 0, 0.00000000000000000000e+00) (0, 0, 0.00000000000000000000e+00) (0, 0, 0.00000000000000000000e+00) (0, 0, 0.00000000000000000000e+00) (0, 0, 0.00000000000000000000e+00) (0, 0, 0.00000000000000000000e+00) (0, 0, 0.00000000000000000000e+00) (0, 0, 0.00000000000000000000e+00) (0, 0, 0.00000000000000000000e+00) (0, 0, 0.00000000000000000000e+00) (0, 0, 0.00000000000000000000e+00) (0, 0, 0.00000000000000000000e+00) (0, 0, 0.00000000000000000000e+00) (0, 0, 0.00000000000000000000e+00) (0, 0, 0.00000000000000000000e+00) (0, 0, 0.00000000000000000000e+00) (0, 0, 0.00000000000000000000e+00) (0, 0, 0.00000000000000000000e+00) (0, 0, 0.00000000000000000000e+00) (192, 4, 5.00000000000000000000e-01) (192, 4, 5.00000000000000000000e-01) (192, 4, 5.00000000000000000000e-01) (192, 4, 5.00000000000000000000e-01) (192, 4, 5.00000000000000000000e-01) (192, 4, 5.00000000000000000000e-01) (192, 4, 5.00000000000000000000e-01) (192, 4, 5.00000000000000000000e-01) (192, 4, 5.00000000000000000000e-01) (192, 4, 5.00000000000000000000e-01) (0, 0, 0.00000000000000000000e+00) (11, 4, 5.00000000000000000000e-01) (11, 4, 5.00000000000000000000e-01) (11, 4, 5.00000000000000000000e-01) (11, 4, 5.00000000000000000000e-01) (11, 4, 5.00000000000000000000e-01) (0, 0, 0.00000000000000000000e+00) 
connections (connected_to_neuron, weight)=(0, -1.00181579589843750000e-01) (1, -6.59997129440307617188e+00) (2, 4.74707603454589843750e+00) (3, -3.23321342468261718750e-01) (4, -6.35396575927734375000e+00) (5, -3.38969230651855468750e+00) (6, -5.27356052398681640625e+00) (7, -2.25745964050292968750e+00) (8, -2.27211427688598632812e+00) (9, 2.59487819671630859375e+00) (10, -7.77737760543823242188e+00) (11, 7.49313354492187500000e+00) (12, 4.16046619415283203125e+00) (13, -6.19508886337280273438e+00) (14, 4.83829498291015625000e+00) (15, 9.33835601806640625000e+00) (16, -4.07424736022949218750e+00) (17, 9.25909805297851562500e+00) (18, 6.37374877929687500000e+00) (19, 5.51779460906982421875e+00) (20, -8.31775856018066406250e+00) (21, 2.72381877899169921875e+00) (22, 4.44428634643554687500e+00) (23, -8.45825576782226562500e+00) (24, 6.14141464233398437500e-01) (25, 4.50955772399902343750e+00) (26, -9.59449863433837890625e+00) (27, -8.87786579132080078125e+00) (28, 2.77979946136474609375e+00) (29, -1.40691471099853515625e+00) (30, 6.62849426269531250000e+00) (31, -7.32038021087646484375e+00) (32, 1.99311351776123046875e+00) (33, 1.37557029724121093750e+00) (34, 2.35629749298095703125e+00) (35, 5.63914871215820312500e+00) (36, 7.98587799072265625000e+00) (37, 7.08273696899414062500e+00) (38, -6.61831092834472656250e+00) (39, -4.28623676300048828125e+00) (40, -3.22382926940917968750e-01) (41, -4.39568901062011718750e+00) (42, -6.79310321807861328125e+00) (43, -6.16191673278808593750e+00) (44, -5.90777397155761718750e-01) (45, 8.04519081115722656250e+00) (46, -6.82356023788452148438e+00) (47, 5.33497428894042968750e+00) (48, 7.30429077148437500000e+00) (49, 9.55018806457519531250e+00) (50, 8.52769851684570312500e-01) (51, 8.98653221130371093750e+00) (52, 2.27400779724121093750e+00) (53, -4.70294427871704101562e+00) (54, -9.47172355651855468750e+00) (55, -7.11185169219970703125e+00) (56, 9.80661201477050781250e+00) (57, -9.06622219085693359375e+00) (58, -5.98971700668334960938e+00) (59, 2.58641338348388671875e+00) (60, -4.73136901855468750000e-01) (61, -9.36122322082519531250e+00) (62, 5.26603221893310546875e+00) (63, -8.48002243041992187500e+00) (64, 2.01434707641601562500e+00) (65, -2.37766885757446289062e+00) (66, 7.15912628173828125000e+00) (67, 2.24113464355468750000e-04) (68, -5.29493093490600585938e+00) (69, -9.45918464660644531250e+00) (70, 5.71398830413818359375e+00) (71, 4.38268566131591796875e+00) (72, -3.85487318038940429688e+00) (73, 8.92088317871093750000e+00) (74, 8.22076797485351562500e+00) (75, 5.55434894561767578125e+00) (76, 6.96607589721679687500e+00) (77, -8.60279178619384765625e+00) (78, 8.89324188232421875000e-01) (79, 4.27036666870117187500e+00) (80, -9.05260372161865234375e+00) (81, -8.25790596008300781250e+00) (82, 3.25689888000488281250e+00) (83, 3.22140407562255859375e+00) (84, -2.96085023880004882812e+00) (85, 3.78517532348632812500e+00) (86, 6.10955238342285156250e+00) (87, -3.15423679351806640625e+00) (88, 4.71895313262939453125e+00) (89, -9.88016414642333984375e+00) (90, 9.43217658996582031250e+00) (91, -5.75418376922607421875e+00) (92, -9.24138736724853515625e+00) (93, 4.69820976257324218750e+00) (94, -4.23420619964599609375e+00) (95, 2.77295970916748046875e+00) (96, -7.67945957183837890625e+00) (97, -7.07507991790771484375e+00) (98, -7.22681617736816406250e+00) (99, -2.97439050674438476562e+00) (100, -6.53426456451416015625e+00) (101, 8.48717117309570312500e+00) (102, -8.59170436859130859375e+00) (103, -3.89138221740722656250e-01) (104, 7.40805625915527343750e+00) (105, 9.62906455993652343750e+00) (106, -4.83478832244873046875e+00) (107, 4.37413311004638671875e+00) (108, -8.97372722625732421875e+00) (109, 6.05453491210937500000e+00) (110, -1.35550022125244140625e+00) (111, -8.02632999420166015625e+00) (112, 7.79662895202636718750e+00) (113, -8.09860134124755859375e+00) (114, 5.19507408142089843750e+00) (115, -5.16421985626220703125e+00) (116, 5.68657398223876953125e+00) (117, 1.30462646484375000000e+00) (118, 1.68154335021972656250e+00) (119, 4.05526161193847656250e-01) (120, 1.42446136474609375000e+00) (121, 1.11371994018554687500e+00) (122, 4.65134239196777343750e+00) (123, 2.18307495117187500000e+00) (124, -4.18807029724121093750e+00) (125, -9.58286380767822265625e+00) (126, -5.04396629333496093750e+00) (127, -1.86752986907958984375e+00) (128, -6.65794324874877929688e+00) (129, -2.27078199386596679688e+00) (130, 5.15808010101318359375e+00) (131, -3.19220781326293945312e+00) (132, -3.78360986709594726562e+00) (133, 6.56637573242187500000e+00) (134, 6.41865539550781250000e+00) (135, -6.37555360794067382812e+00) (136, 6.19544029235839843750e+00) (137, -8.41613388061523437500e+00) (138, 7.99857902526855468750e+00) (139, 7.22171211242675781250e+00) (140, 7.63840103149414062500e+00) (141, -3.35692119598388671875e+00) (142, 9.19538307189941406250e+00) (143, 5.43503284454345703125e+00) (144, -1.45552253723144531250e+00) (145, 4.39045619964599609375e+00) (146, -9.72918701171875000000e+00) (147, -5.76894903182983398438e+00) (148, -4.30491638183593750000e+00) (149, 1.95235633850097656250e+00) (150, 4.63657760620117187500e+00) (151, 7.11954498291015625000e+00) (152, -6.93392372131347656250e+00) (153, -7.12080001831054687500e-01) (154, -6.97380065917968750000e-01) (155, -1.12199401855468750000e+00) (156, -2.94943809509277343750e-01) (157, 4.25865364074707031250e+00) (158, 7.01047515869140625000e+00) (159, 3.04711341857910156250e+00) (160, -8.01212787628173828125e+00) (161, 2.16855525970458984375e+00) (162, 9.85490608215332031250e+00) (163, -1.79573822021484375000e+00) (164, -1.26506900787353515625e+00) (165, 6.27355957031250000000e+00) (166, 1.82870864868164062500e+00) (167, -5.06962823867797851562e+00) (168, 7.85742568969726562500e+00) (169, -1.72711372375488281250e-01) (170, -7.84791469573974609375e+00) (171, 5.49582862854003906250e+00) (172, 6.47036743164062500000e+00) (173, -8.65253162384033203125e+00) (174, 9.30861473083496093750e-01) (175, -4.98515558242797851562e+00) (176, 5.73792552947998046875e+00) (177, 1.20167350769042968750e+00) (178, -7.54104614257812500000e-01) (179, -8.56698989868164062500e+00) (180, -6.84597015380859375000e+00) (181, -6.11752700805664062500e+00) (182, 8.55255508422851562500e+00) (183, -3.77989435195922851562e+00) (184, 3.17039203643798828125e+00) (185, -2.14482450485229492188e+00) (186, 5.09811115264892578125e+00) (187, -7.12455081939697265625e+00) (188, -7.88616991043090820312e+00) (189, 2.10858726501464843750e+00) (190, 5.92256164550781250000e+00) (191, -5.89829730987548828125e+00) (0, -5.72285699844360351562e+00) (1, 5.77746772766113281250e+00) (2, 2.30596446990966796875e+00) (3, 3.01207447052001953125e+00) (4, 2.05102825164794921875e+00) (5, -5.86532640457153320312e+00) (6, 7.94244575500488281250e+00) (7, -9.15460586547851562500e-02) (8, 3.96196079254150390625e+00) (9, -9.90546798706054687500e+00) (10, -4.59571647644042968750e+00) (11, 4.32329177856445312500e-01) (12, -8.55799961090087890625e+00) (13, 6.33514404296875000000e+00) (14, 5.44717311859130859375e+00) (15, 7.17992591857910156250e+00) (16, -2.46318149566650390625e+00) (17, -5.30693101882934570312e+00) (18, 8.61293601989746093750e+00) (19, 6.90848350524902343750e-01) (20, -1.42445850372314453125e+00) (21, 7.16549110412597656250e+00) (22, 6.91095352172851562500e+00) (23, -8.25406551361083984375e+00) (24, -4.97933292388916015625e+00) (25, 2.00906658172607421875e+00) (26, -5.37861633300781250000e+00) (27, -2.86550235748291015625e+00) (28, -5.88234710693359375000e+00) (29, -9.45605373382568359375e+00) (30, 1.23620033264160156250e+00) (31, -1.60520458221435546875e+00) (32, 6.32141304016113281250e+00) (33, -6.45783519744873046875e+00) (34, -8.59313011169433593750e+00) (35, -1.62755775451660156250e+00) (36, -2.32316207885742187500e+00) (37, 9.34931564331054687500e+00) (38, 8.28089523315429687500e+00) (39, -8.36120033264160156250e+00) (40, 9.44384765625000000000e+00) (41, -6.31482028961181640625e+00) (42, 2.07112884521484375000e+00) (43, -9.11415195465087890625e+00) (44, -9.97967624664306640625e+00) (45, -2.48169803619384765625e+00) (46, 8.06577491760253906250e+00) (47, -2.44285726547241210938e+00) (48, 2.21137142181396484375e+00) (49, 6.67870903015136718750e+00) (50, 8.24799156188964843750e+00) (51, -9.21308708190917968750e+00) (52, 3.84420108795166015625e+00) (53, 5.15894508361816406250e+00) (54, -7.46715259552001953125e+00) (55, 8.86486816406250000000e+00) (56, -2.83198833465576171875e+00) (57, -2.84576892852783203125e+00) (58, -4.00063323974609375000e+00) (59, 1.28566455841064453125e+00) (60, -2.30182313919067382812e+00) (61, 7.23556518554687500000e+00) (62, 9.68045997619628906250e+00) (63, -5.98040914535522460938e+00) (64, -9.22226810455322265625e+00) (65, -8.91266918182373046875e+00) (66, 2.39203357696533203125e+00) (67, -1.54543018341064453125e+00) (68, -9.56335353851318359375e+00) (69, 6.72928810119628906250e-01) (70, 9.33694839477539062500e-02) (71, 9.88049316406250000000e+00) (72, 4.35810947418212890625e+00) (73, -7.83550167083740234375e+00) (74, -9.23365783691406250000e+00) (75, 4.37843322753906250000e+00) (76, -3.17199707031250000000e-01) (77, 8.83211517333984375000e+00) (78, -8.06442451477050781250e+00) (79, -8.10582733154296875000e+00) (80, 5.51082706451416015625e+00) (81, -9.81643295288085937500e+00) (82, -7.31891441345214843750e+00) (83, -6.44970893859863281250e-01) (84, 5.34251308441162109375e+00) (85, -4.78606700897216796875e+00) (86, -1.78010272979736328125e+00) (87, -7.48947572708129882812e+00) (88, 2.36816406250000000000e+00) (89, 4.21926498413085937500e+00) (90, 3.79618835449218750000e+00) (91, -9.93365859985351562500e+00) (92, 1.45483112335205078125e+00) (93, 3.47664928436279296875e+00) (94, -5.91406822204589843750e+00) (95, 2.23256206512451171875e+00) (96, 4.56398010253906250000e+00) (97, 6.47796440124511718750e+00) (98, -9.31286716461181640625e+00) (99, 5.00062656402587890625e+00) (100, -2.84910583496093750000e+00) (101, 7.80502319335937500000e-01) (102, 4.88112068176269531250e+00) (103, -8.49099731445312500000e+00) (104, 2.94500064849853515625e+00) (105, 5.64746379852294921875e+00) (106, 5.88743591308593750000e+00) (107, -7.37219810485839843750e+00) (108, 4.47957992553710937500e+00) (109, 7.82301139831542968750e+00) (110, -5.47802639007568359375e+00) (111, -9.59396362304687500000e-03) (112, 8.00657844543457031250e+00) (113, -2.79694080352783203125e+00) (114, 9.34543418884277343750e+00) (115, 3.34909152984619140625e+00) (116, 2.41699218750000000000e+00) (117, -2.43466758728027343750e+00) (118, 5.85961532592773437500e+00) (119, -5.21484327316284179688e+00) (120, -8.21540260314941406250e+00) (121, -3.44194412231445312500e-01) (122, -5.14850187301635742188e+00) (123, 3.23942852020263671875e+00) (124, -6.86754465103149414062e+00) (125, -1.06256961822509765625e+00) (126, -4.52800893783569335938e+00) (127, 7.69643592834472656250e+00) (128, -4.58460521697998046875e+00) (129, -3.84087562561035156250e+00) (130, 2.69706249237060546875e+00) (131, 2.56628990173339843750e+00) (132, 6.93962669372558593750e+00) (133, -2.42181539535522460938e+00) (134, 4.07529258728027343750e+00) (135, -1.15373611450195312500e-01) (136, -6.77435207366943359375e+00) (137, -3.72714996337890625000e-02) (138, 2.51242828369140625000e+00) (139, 7.70522689819335937500e+00) (140, -2.21425962448120117188e+00) (141, 7.03440093994140625000e+00) (142, -2.30436563491821289062e+00) (143, -4.20768022537231445312e+00) (144, -5.76253843307495117188e+00) (145, -2.95893096923828125000e+00) (146, 9.14141082763671875000e+00) (147, 6.65445327758789062500e+00) (148, 4.60640144348144531250e+00) (149, 5.00102710723876953125e+00) (150, -8.56038856506347656250e+00) (151, 6.39099884033203125000e+00) (152, -5.34316682815551757812e+00) (153, -3.70889091491699218750e+00) (154, -3.69571685791015625000e-01) (155, -2.21071147918701171875e+00) (156, 5.22853946685791015625e+00) (157, 5.10241985321044921875e+00) (158, -4.51427507400512695312e+00) (159, -9.35606575012207031250e+00) (160, -8.73845577239990234375e+00) (161, 8.18278694152832031250e+00) (162, 3.21022415161132812500e+00) (163, 8.20116996765136718750e+00) (164, -4.23902797698974609375e+00) (165, -2.71448373794555664062e+00) (166, -1.91420269012451171875e+00) (167, -1.01338005065917968750e+00) (168, 7.24824523925781250000e+00) (169, -9.40177345275878906250e+00) (170, -3.30815219879150390625e+00) (171, -4.96601390838623046875e+00) (172, 7.63262748718261718750e+00) (173, 4.38748264312744140625e+00) (174, 8.26305389404296875000e-01) (175, -8.12990951538085937500e+00) (176, -8.57144832611083984375e+00) (177, -3.22828292846679687500e-02) (178, 8.52454376220703125000e+00) (179, 6.03495407104492187500e+00) (180, -5.03125524520874023438e+00) (181, 9.96415519714355468750e+00) (182, 2.42595386505126953125e+00) (183, -3.74422073364257812500e-01) (184, -3.74473524093627929688e+00) (185, -7.94361734390258789062e+00) (186, 7.41486549377441406250e+00) (187, -8.51619625091552734375e+00) (188, 7.15880203247070312500e+00) (189, -7.09940862655639648438e+00) (190, -7.87226152420043945312e+00) (191, 8.42034721374511718750e+00) (0, -8.91662025451660156250e+00) (1, 5.33796215057373046875e+00) (2, 6.62151718139648437500e+00) (3, -3.15564870834350585938e+00) (4, -7.37652111053466796875e+00) (5, -5.29268455505371093750e+00) (6, 5.83097076416015625000e+00) (7, 9.87172317504882812500e+00) (8, -4.69445848464965820312e+00) (9, -7.47718048095703125000e+00) (10, -5.09428977966308593750e+00) (11, -7.06182956695556640625e+00) (12, 6.91030120849609375000e+00) (13, 5.73201560974121093750e+00) (14, -5.19174003601074218750e+00) (15, 8.33885192871093750000e+00) (16, -4.30026721954345703125e+00) (17, -6.66719532012939453125e+00) (18, 4.37380695343017578125e+00) (19, 6.68478012084960937500e-01) (20, -6.70303964614868164062e+00) (21, -3.20023918151855468750e+00) (22, -9.70594406127929687500e+00) (23, -4.47774887084960937500e-01) (24, -1.14385604858398437500e+00) (25, 7.70892143249511718750e+00) (26, 1.03602886199951171875e+00) (27, -3.98505353927612304688e+00) (28, -9.39048576354980468750e+00) (29, 3.16376686096191406250e+00) (30, -5.56470632553100585938e+00) (31, -8.30710697174072265625e+00) (32, -1.49827003479003906250e+00) (33, -8.94318771362304687500e+00) (34, -1.46275520324707031250e+00) (35, 1.12520790100097656250e+00) (36, -4.23587274551391601562e+00) (37, -5.63178348541259765625e+00) (38, 9.96932983398437500000e-01) (39, 1.06966876983642578125e+00) (40, -3.10896444320678710938e+00) (41, 5.90264320373535156250e+00) (42, 4.00783920288085937500e+00) (43, -6.19866323471069335938e+00) (44, 1.63465881347656250000e+00) (45, 8.81609916687011718750e+00) (46, -7.85980987548828125000e+00) (47, 7.33439064025878906250e+00) (48, -7.85109615325927734375e+00) (49, 6.51399612426757812500e+00) (50, -1.99713134765625000000e+00) (51, -4.55413579940795898438e+00) (52, -6.68624114990234375000e+00) (53, -1.70307540893554687500e+00) (54, 4.99808883666992187500e+00) (55, 2.16990184783935546875e+00) (56, -3.99415254592895507812e+00) (57, -3.96588230133056640625e+00) (58, 8.18484878540039062500e+00) (59, -3.38463830947875976562e+00) (60, 9.19788360595703125000e+00) (61, -7.37985610961914062500e+00) (62, -1.69174575805664062500e+00) (63, -2.30038547515869140625e+00) (64, -6.32304477691650390625e+00) (65, 6.84549903869628906250e+00) (66, 8.82482337951660156250e+00) (67, -5.58917045593261718750e-01) (68, -8.78628444671630859375e+00) (69, -1.78243637084960937500e-01) (70, -9.48924827575683593750e+00) (71, -1.89524936676025390625e+00) (72, -4.27560091018676757812e+00) (73, 4.51859092712402343750e+00) (74, 1.90608882904052734375e+00) (75, 7.35905647277832031250e+00) (76, 3.33469009399414062500e+00) (77, 4.04627799987792968750e+00) (78, 4.69344997406005859375e+00) (79, 5.48359489440917968750e+00) (80, 5.60275077819824218750e-01) (81, -7.30368137359619140625e+00) (82, -9.07054138183593750000e+00) (83, 3.87403392791748046875e+00) (84, 9.93243217468261718750e-01) (85, 5.92754840850830078125e+00) (86, -3.95606327056884765625e+00) (87, 6.99909019470214843750e+00) (88, -8.03833389282226562500e+00) (89, -5.77121400833129882812e+00) (90, -6.38554859161376953125e+00) (91, -8.84044837951660156250e+00) (92, -3.15107011795043945312e+00) (93, 1.92270660400390625000e+00) (94, -1.14083385467529296875e+00) (95, 5.25885581970214843750e-01) (96, -1.23179435729980468750e+00) (97, -2.31600999832153320312e+00) (98, 9.96696853637695312500e+00) (99, -1.80788040161132812500e-02) (100, 7.50574493408203125000e+00) (101, -9.52227973937988281250e+00) (102, 8.08667182922363281250e+00) (103, -6.76985454559326171875e+00) (104, 4.99631118774414062500e+00) (105, -7.23934173583984375000e-03) (106, -9.41079711914062500000e+00) (107, -1.66899776458740234375e+00) (108, -5.96096038818359375000e+00) (109, 5.28265190124511718750e+00) (110, -6.18540382385253906250e+00) (111, 4.59931468963623046875e+00) (112, 7.97897148132324218750e+00) (113, -5.25594472885131835938e+00) (114, -1.52665138244628906250e+00) (115, -1.02778625488281250000e+00) (116, -9.32839584350585937500e+00) (117, 4.51728534698486328125e+00) (118, -4.02869606018066406250e+00) (119, -7.36672973632812500000e+00) (120, 8.74607086181640625000e+00) (121, -4.14243698120117187500e-01) (122, -6.20717859268188476562e+00) (123, -4.40499782562255859375e+00) (124, -8.49153804779052734375e+00) (125, 2.65198802947998046875e+00) (126, 6.12088775634765625000e+00) (127, 2.76667594909667968750e-01) (128, -9.66402244567871093750e+00) (129, 6.08785629272460937500e+00) (130, -9.74141120910644531250e+00) (131, 7.84172439575195312500e+00) (132, 6.56557655334472656250e+00) (133, 8.34526062011718750000e+00) (134, -8.92813110351562500000e+00) (135, 1.56188869476318359375e+00) (136, -1.66197776794433593750e+00) (137, -8.33892726898193359375e+00) (138, 9.89289093017578125000e+00) (139, 2.37706279754638671875e+00) (140, 6.94372558593750000000e+00) (141, -6.29251384735107421875e+00) (142, -3.02362203598022460938e+00) (143, 4.92269515991210937500e+00) (144, -1.54845809936523437500e+00) (145, 5.44972610473632812500e+00) (146, -6.10509061813354492188e+00) (147, -8.76853942871093750000e-01) (148, -3.29875946044921875000e-02) (149, -1.33786201477050781250e-01) (150, 1.75641536712646484375e+00) (151, -1.28691482543945312500e+00) (152, 9.45196914672851562500e+00) (153, 5.54923725128173828125e+00) (154, 4.30808734893798828125e+00) (155, -9.03956794738769531250e+00) (156, -1.79877567291259765625e+00) (157, 4.28976058959960937500e-01) (158, 1.23709869384765625000e+00) (159, -1.46279716491699218750e+00) (160, -3.48316812515258789062e+00) (161, 1.49568939208984375000e+00) (162, -3.62107324600219726562e+00) (163, -6.91759109497070312500e+00) (164, -1.59049034118652343750e-01) (165, -2.54920434951782226562e+00) (166, 4.64429759979248046875e+00) (167, 8.17897415161132812500e+00) (168, -8.88131141662597656250e-01) (169, 4.53718662261962890625e+00) (170, 5.56035995483398437500e-01) (171, -3.94440650939941406250e+00) (172, 8.24467277526855468750e+00) (173, 7.53241348266601562500e+00) (174, -9.02171134948730468750e+00) (175, -3.30378484725952148438e+00) (176, 2.98214054107666015625e+00) (177, -5.12680196762084960938e+00) (178, 5.81936073303222656250e+00) (179, -7.05084562301635742188e+00) (180, 4.73941230773925781250e+00) (181, -2.42422294616699218750e+00) (182, 1.66224002838134765625e+00) (183, 4.19138050079345703125e+00) (184, -6.87498569488525390625e+00) (185, -4.02967166900634765625e+00) (186, 5.15181255340576171875e+00) (187, 1.32624053955078125000e+00) (188, 6.39930534362792968750e+00) (189, -3.61108779907226562500e+00) (190, 9.86344146728515625000e+00) (191, -7.08386325836181640625e+00) (0, 7.88460159301757812500e+00) (1, -3.75763082504272460938e+00) (2, -4.00145435333251953125e+00) (3, -2.27444791793823242188e+00) (4, 3.69316577911376953125e+00) (5, -9.35715675354003906250e+00) (6, -4.09547376632690429688e+00) (7, -7.19496631622314453125e+00) (8, 5.18002986907958984375e+00) (9, 6.46056175231933593750e+00) (10, -1.13937282562255859375e+00) (11, 3.42470264434814453125e+00) (12, 3.99297714233398437500e+00) (13, -1.61084175109863281250e-01) (14, -9.87908172607421875000e+00) (15, -3.02488231658935546875e+00) (16, 4.71211433410644531250e+00) (17, 5.94027996063232421875e+00) (18, -7.57274627685546875000e-02) (19, -5.48474311828613281250e-01) (20, -6.48394250869750976562e+00) (21, -8.41348743438720703125e+00) (22, -6.35709285736083984375e+00) (23, -3.35892820358276367188e+00) (24, -2.44315910339355468750e+00) (25, 8.79471969604492187500e+00) (26, 7.96731185913085937500e+00) (27, -6.04385471343994140625e+00) (28, -4.81636762619018554688e+00) (29, 7.83075332641601562500e+00) (30, -3.12771749496459960938e+00) (31, -6.93176651000976562500e+00) (32, -5.92687606811523437500e+00) (33, 2.87082767486572265625e+00) (34, 7.93786048889160156250e-01) (35, 7.76628875732421875000e+00) (36, 3.51367092132568359375e+00) (37, 6.69831085205078125000e+00) (38, -9.42867660522460937500e+00) (39, -1.30630016326904296875e+00) (40, 3.15887451171875000000e+00) (41, -5.68049430847167968750e-01) (42, -7.88159656524658203125e+00) (43, -2.84814977645874023438e+00) (44, 9.27086639404296875000e+00) (45, -7.76067829132080078125e+00) (46, 4.12696838378906250000e+00) (47, 3.98297977447509765625e+00) (48, 8.17960166931152343750e+00) (49, -5.94875907897949218750e+00) (50, -6.56549358367919921875e+00) (51, -8.30434036254882812500e+00) (52, -4.36224651336669921875e+00) (53, -2.92258691787719726562e+00) (54, -1.66326808929443359375e+00) (55, 3.19459438323974609375e+00) (56, -4.12786674499511718750e+00) (57, -3.69595670700073242188e+00) (58, 7.15073966979980468750e+00) (59, 1.05576515197753906250e+00) (60, -5.86520195007324218750e+00) (61, -5.97697782516479492188e+00) (62, 4.12399864196777343750e+00) (63, -1.79207801818847656250e+00) (64, 6.89385032653808593750e+00) (65, -5.08221578598022460938e+00) (66, -4.02578830718994140625e+00) (67, 4.07521247863769531250e-01) (68, -8.38390445709228515625e+00) (69, -3.45446538925170898438e+00) (70, 9.10122299194335937500e+00) (71, 4.77497005462646484375e+00) (72, 5.97748470306396484375e+00) (73, -8.78037357330322265625e+00) (74, -8.07317924499511718750e+00) (75, 5.24835205078125000000e+00) (76, -6.54105186462402343750e+00) (77, 6.05378913879394531250e+00) (78, -7.68667221069335937500e-01) (79, -8.36145019531250000000e+00) (80, -9.89496994018554687500e+00) (81, 2.66583919525146484375e+00) (82, -6.66579008102416992188e+00) (83, -4.25721645355224609375e+00) (84, 9.74325180053710937500e+00) (85, 1.67094135284423828125e+00) (86, 8.93737792968750000000e+00) (87, -4.38461446762084960938e+00) (88, 7.97498512268066406250e+00) (89, 6.08811759948730468750e+00) (90, 6.67115020751953125000e+00) (91, -7.89021635055541992188e+00) (92, -9.88885879516601562500e+00) (93, 7.95149803161621093750e-01) (94, 3.17706108093261718750e-01) (95, 7.00499153137207031250e+00) (96, 5.71293449401855468750e+00) (97, 6.29191780090332031250e+00) (98, -2.58748674392700195312e+00) (99, 7.32902908325195312500e+00) (100, -7.16254711151123046875e+00) (101, -3.48626422882080078125e+00) (102, 2.10400009155273437500e+00) (103, 8.81493759155273437500e+00) (104, -2.26663827896118164062e+00) (105, 4.03081989288330078125e+00) (106, 4.06329059600830078125e+00) (107, 1.19230937957763671875e+00) (108, 8.46099853515625000000e-02) (109, -6.70537757873535156250e+00) (110, 2.83086013793945312500e+00) (111, 1.89639091491699218750e-01) (112, 5.96046161651611328125e+00) (113, 6.16506958007812500000e+00) (114, 5.93242263793945312500e+00) (115, 5.70371532440185546875e+00) (116, -2.16398763656616210938e+00) (117, 4.86980152130126953125e+00) (118, -8.68089962005615234375e+00) (119, -4.18900251388549804688e+00) (120, 9.57919120788574218750e-01) (121, 7.99025154113769531250e+00) (122, -2.07921934127807617188e+00) (123, 1.06906032562255859375e+00) (124, -1.21459770202636718750e+00) (125, 8.23848724365234375000e+00) (126, -1.92594814300537109375e+00) (127, -5.50166368484497070312e+00) (128, 4.53040504455566406250e+00) (129, 5.48656558990478515625e+00) (130, -8.17263412475585937500e+00) (131, 7.36785697937011718750e+00) (132, -7.99969863891601562500e+00) (133, 3.93136596679687500000e+00) (134, 6.18279457092285156250e+00) (135, -2.66337394714355468750e-01) (136, -2.03781366348266601562e+00) (137, 2.46085166931152343750e-01) (138, -9.07402706146240234375e+00) (139, 8.04679679870605468750e+00) (140, 3.54070758819580078125e+00) (141, 3.75683403015136718750e+00) (142, -1.76356410980224609375e+00) (143, -4.98829841613769531250e-01) (144, -7.80963897705078125000e-02) (145, -5.83114147186279296875e+00) (146, -4.79511547088623046875e+00) (147, 7.75791549682617187500e+00) (148, 9.03866004943847656250e+00) (149, -3.47601461410522460938e+00) (150, -6.43108606338500976562e+00) (151, -3.41987609863281250000e-03) (152, -5.48576307296752929688e+00) (153, 1.48969554901123046875e+00) (154, -8.93435955047607421875e+00) (155, 3.29963874816894531250e+00) (156, -2.71818161010742187500e-01) (157, -8.60307693481445312500e-01) (158, 7.79797554016113281250e+00) (159, -5.74141407012939453125e+00) (160, -5.37374162673950195312e+00) (161, 9.62534141540527343750e+00) (162, -8.37355709075927734375e+00) (163, -3.37344074249267578125e+00) (164, 3.55670833587646484375e+00) (165, 7.80923843383789062500e+00) (166, 6.36022377014160156250e+00) (167, -8.48110580444335937500e+00) (168, -1.94467735290527343750e+00) (169, 7.28619575500488281250e+00) (170, 9.56568908691406250000e+00) (171, -8.40396881103515625000e+00) (172, 1.04302978515625000000e+00) (173, -2.19787502288818359375e+00) (174, 1.09719944000244140625e+00) (175, -9.03506565093994140625e+00) (176, 1.97098350524902343750e+00) (177, 6.30208396911621093750e+00) (178, 8.72285079956054687500e+00) (179, 1.00964450836181640625e+00) (180, -7.17393016815185546875e+00) (181, -7.70823526382446289062e+00) (182, -8.99377536773681640625e+00) (183, -2.65969324111938476562e+00) (184, 3.78145885467529296875e+00) (185, -7.92813491821289062500e+00) (186, -9.36005401611328125000e+00) (187, -6.49035882949829101562e+00) (188, 1.21155834197998046875e+00) (189, 8.43791961669921875000e+00) (190, -2.23177242279052734375e+00) (191, 5.83781719207763671875e+00) (0, 8.06326293945312500000e+00) (1, -6.05329513549804687500e-01) (2, -7.53562355041503906250e+00) (3, 1.61997032165527343750e+00) (4, -2.79609155654907226562e+00) (5, 8.82459831237792968750e+00) (6, 3.13886547088623046875e+00) (7, 5.25923156738281250000e+00) (8, 6.11079597473144531250e+00) (9, 2.70455455780029296875e+00) (10, 6.85526275634765625000e+00) (11, -2.84617424011230468750e+00) (12, -9.49331951141357421875e+00) (13, -2.04753684997558593750e+00) (14, -1.88123989105224609375e+00) (15, 2.47766494750976562500e+00) (16, -5.74545288085937500000e+00) (17, -3.15838861465454101562e+00) (18, -6.51269054412841796875e+00) (19, -2.91938304901123046875e+00) (20, -8.66623878479003906250e-01) (21, -5.50646591186523437500e+00) (22, 4.42092418670654296875e+00) (23, -7.08516454696655273438e+00) (24, -3.43460083007812500000e+00) (25, 5.06086921691894531250e+00) (26, -3.57552289962768554688e+00) (27, 7.77695655822753906250e+00) (28, 3.49879169464111328125e+00) (29, 4.19270420074462890625e+00) (30, 3.61477375030517578125e+00) (31, 1.56205368041992187500e+00) (32, -6.41262531280517578125e+00) (33, 6.07914924621582031250e+00) (34, -6.81797504425048828125e+00) (35, 7.91283607482910156250e-01) (36, 4.90374946594238281250e+00) (37, 6.32089042663574218750e+00) (38, -3.94948482513427734375e+00) (39, 1.01454448699951171875e+00) (40, -9.74555015563964843750e-01) (41, -7.09422206878662109375e+00) (42, 8.16837120056152343750e+00) (43, -4.67874526977539062500e-01) (44, 8.58240127563476562500e-01) (45, -3.71286916732788085938e+00) (46, -7.99020957946777343750e+00) (47, 5.11278820037841796875e+00) (48, 3.12874221801757812500e+00) (49, -4.50290012359619140625e+00) (50, -7.80659484863281250000e+00) (51, -7.73788261413574218750e+00) (52, -9.36603546142578125000e-03) (53, 6.61432838439941406250e+00) (54, -4.82304716110229492188e+00) (55, 6.55603218078613281250e+00) (56, 1.67519950866699218750e+00) (57, 1.60142993927001953125e+00) (58, 4.33299064636230468750e+00) (59, -4.82601070404052734375e+00) (60, -4.20586538314819335938e+00) (61, -2.05223464965820312500e+00) (62, 6.73604393005371093750e+00) (63, -6.18491172790527343750e-01) (64, -5.97308397293090820312e+00) (65, 9.91806793212890625000e+00) (66, -9.82720661163330078125e+00) (67, 8.93066406250000000000e+00) (68, 6.23895835876464843750e+00) (69, -3.77669143676757812500e+00) (70, -5.47895431518554687500e-02) (71, -4.73559617996215820312e+00) (72, -8.70913505554199218750e-01) (73, -1.88641929626464843750e+00) (74, 4.79652976989746093750e+00) (75, 9.98732566833496093750e+00) (76, 4.40071201324462890625e+00) (77, 6.80632019042968750000e+00) (78, 5.10011577606201171875e+00) (79, -2.47054624557495117188e+00) (80, -7.69657993316650390625e+00) (81, 7.29351997375488281250e+00) (82, -2.08428382873535156250e-01) (83, 2.29405403137207031250e+00) (84, 3.90784931182861328125e+00) (85, 4.96852493286132812500e+00) (86, -1.14991283416748046875e+00) (87, -4.41695165634155273438e+00) (88, -3.43004465103149414062e+00) (89, -6.81692123413085937500e+00) (90, 7.57038116455078125000e-01) (91, 2.36408901214599609375e+00) (92, 1.13084316253662109375e+00) (93, -2.50691843032836914062e+00) (94, -8.25440025329589843750e+00) (95, 5.15775871276855468750e+00) (96, -2.58884954452514648438e+00) (97, -8.08160781860351562500e+00) (98, 4.08842563629150390625e+00) (99, -6.34989070892333984375e+00) (100, -1.85829925537109375000e+00) (101, -5.96636438369750976562e+00) (102, -1.08548736572265625000e+00) (103, 7.27078819274902343750e+00) (104, 2.14721679687500000000e+00) (105, -6.28895759582519531250e+00) (106, 7.25811386108398437500e+00) (107, -3.45207118988037109375e+00) (108, -9.48263740539550781250e+00) (109, 2.35823059082031250000e+00) (110, 4.07738304138183593750e+00) (111, -7.17921733856201171875e+00) (112, -3.48249435424804687500e-01) (113, -6.13104581832885742188e+00) (114, 5.11483669281005859375e+00) (115, -6.44040012359619140625e+00) (116, 8.83747863769531250000e+00) (117, -6.03507614135742187500e+00) (118, -8.57351303100585937500e-01) (119, -4.59256601333618164062e+00) (120, -2.85199785232543945312e+00) (121, 9.89968681335449218750e+00) (122, 7.77152442932128906250e+00) (123, 8.27884483337402343750e+00) (124, -2.60723161697387695312e+00) (125, 9.51712417602539062500e+00) (126, 3.43660545349121093750e+00) (127, 4.80391883850097656250e+00) (128, -8.56448459625244140625e+00) (129, -2.47496891021728515625e+00) (130, 8.45402717590332031250e+00) (131, -4.22782897949218750000e-01) (132, 1.55866622924804687500e+00) (133, -2.63145923614501953125e+00) (134, -3.15199565887451171875e+00) (135, -6.29411649703979492188e+00) (136, 1.07958316802978515625e+00) (137, -5.89388084411621093750e+00) (138, 2.53812789916992187500e-01) (139, 1.59694576263427734375e+00) (140, 6.46434783935546875000e+00) (141, -5.66880464553833007812e+00) (142, 4.41772842407226562500e+00) (143, -3.88390016555786132812e+00) (144, -1.79985046386718750000e+00) (145, -4.67435836791992187500e-01) (146, -3.24299812316894531250e-01) (147, -2.96237134933471679688e+00) (148, 3.49748802185058593750e+00) (149, 8.81834793090820312500e+00) (150, 2.44506263732910156250e+00) (151, -9.35450935363769531250e+00) (152, 8.71803474426269531250e+00) (153, 2.16586112976074218750e-01) (154, 8.92433547973632812500e+00) (155, -3.88919639587402343750e+00) (156, -2.66290664672851562500e-01) (157, 2.36094188690185546875e+00) (158, -9.08527755737304687500e+00) (159, 1.16922569274902343750e+00) (160, 9.88597297668457031250e+00) (161, 9.36874961853027343750e+00) (162, -9.25355720520019531250e+00) (163, 1.44464015960693359375e+00) (164, -3.26270961761474609375e+00) (165, -2.40555286407470703125e+00) (166, 5.15052318572998046875e+00) (167, 7.81687355041503906250e+00) (168, 1.70056724548339843750e+00) (169, -4.59566402435302734375e+00) (170, -5.86180686950683593750e-01) (171, -1.83508396148681640625e+00) (172, -2.64469146728515625000e-01) (173, -6.16845321655273437500e+00) (174, 4.28101634979248046875e+00) (175, 7.93568038940429687500e+00) (176, 3.36411094665527343750e+00) (177, -6.04328393936157226562e+00) (178, -5.02669048309326171875e+00) (179, -3.13840055465698242188e+00) (180, -7.22493553161621093750e+00) (181, 7.41837310791015625000e+00) (182, -2.49290990829467773438e+00) (183, -8.50689983367919921875e+00) (184, -2.36504077911376953125e+00) (185, -3.56857347488403320312e+00) (186, -2.39609670639038085938e+00) (187, 7.36866950988769531250e+00) (188, 8.79236793518066406250e+00) (189, -1.48137474060058593750e+00) (190, -1.46210575103759765625e+00) (191, 8.67834091186523437500e+00) (0, -2.11262416839599609375e+00) (1, -7.15662956237792968750e-01) (2, 1.22981071472167968750e-01) (3, 4.62466716766357421875e+00) (4, 6.87878417968750000000e+00) (5, -4.72649574279785156250e+00) (6, 2.44154071807861328125e+00) (7, -1.42064952850341796875e+00) (8, 6.77840232849121093750e-01) (9, -8.14463996887207031250e+00) (10, 6.74426651000976562500e+00) (11, -9.58662891387939453125e+00) (12, -4.31309366226196289062e+00) (13, 1.02528285980224609375e+00) (14, 8.34905242919921875000e+00) (15, 9.05101776123046875000e+00) (16, 4.98199939727783203125e+00) (17, -6.67763805389404296875e+00) (18, -4.08738327026367187500e+00) (19, 7.75706291198730468750e+00) (20, -9.25926494598388671875e+00) (21, 3.41970634460449218750e+00) (22, 9.25016403198242187500e+00) (23, -1.62430572509765625000e+00) (24, 9.85113143920898437500e+00) (25, -3.14593315124511718750e+00) (26, -4.25563716888427734375e+00) (27, 8.64350128173828125000e+00) (28, 5.37269210815429687500e+00) (29, 4.28225708007812500000e+00) (30, 7.32184219360351562500e+00) (31, -6.73993110656738281250e+00) (32, -6.43340587615966796875e+00) (33, -2.55517673492431640625e+00) (34, 7.88473510742187500000e+00) (35, -9.55462169647216796875e+00) (36, 2.71832656860351562500e+00) (37, 3.26275825500488281250e-01) (38, -9.75271224975585937500e-01) (39, -6.60383224487304687500e+00) (40, 2.18163490295410156250e+00) (41, -4.23100423812866210938e+00) (42, -6.19046068191528320312e+00) (43, 7.86854171752929687500e+00) (44, 6.79427909851074218750e+00) (45, -7.84140825271606445312e+00) (46, 6.91955947875976562500e+00) (47, 1.77627754211425781250e+00) (48, -4.51904582977294921875e+00) (49, -7.16782379150390625000e+00) (50, -4.66658592224121093750e-01) (51, -3.77831125259399414062e+00) (52, 6.25188255310058593750e+00) (53, -1.21649551391601562500e+00) (54, 4.59738254547119140625e+00) (55, 6.10301589965820312500e+00) (56, 5.63757133483886718750e+00) (57, -9.65825462341308593750e+00) (58, 4.74651813507080078125e+00) (59, 1.01026439666748046875e+00) (60, 4.62400341033935546875e+00) (61, 2.06835937500000000000e+00) (62, 4.27033329010009765625e+00) (63, 8.19059753417968750000e+00) (64, 9.51318359375000000000e+00) (65, 2.15506744384765625000e+00) (66, 8.63597679138183593750e+00) (67, 2.23151111602783203125e+00) (68, -7.51865673065185546875e+00) (69, -2.33929443359375000000e+00) (70, 5.62767887115478515625e+00) (71, 4.66297817230224609375e+00) (72, 3.42970085144042968750e+00) (73, 9.43721771240234375000e+00) (74, 2.53151988983154296875e+00) (75, 2.23980903625488281250e-01) (76, -8.40419006347656250000e+00) (77, -5.48920631408691406250e-01) (78, -7.99974155426025390625e+00) (79, -2.92323589324951171875e+00) (80, 2.28325557708740234375e+00) (81, 1.53359985351562500000e+00) (82, 3.29845333099365234375e+00) (83, -1.46486186981201171875e+00) (84, -9.68289566040039062500e+00) (85, -2.10416364669799804688e+00) (86, -5.36184549331665039062e+00) (87, 5.95467662811279296875e+00) (88, -1.76241874694824218750e+00) (89, 9.38467216491699218750e+00) (90, -3.03505945205688476562e+00) (91, -7.13841533660888671875e+00) (92, 1.45303249359130859375e+00) (93, -8.76472663879394531250e+00) (94, -8.94781780242919921875e+00) (95, 9.66216087341308593750e-01) (96, 3.39034080505371093750e+00) (97, 9.68815803527832031250e+00) (98, -6.80227184295654296875e+00) (99, 5.87168407440185546875e+00) (100, -2.65113592147827148438e+00) (101, 8.82540702819824218750e+00) (102, 5.34663200378417968750e-01) (103, -9.22143459320068359375e+00) (104, 8.26262474060058593750e+00) (105, -6.93381643295288085938e+00) (106, 1.00254631042480468750e+00) (107, 9.85843658447265625000e+00) (108, 2.51726245880126953125e+00) (109, 3.00280475616455078125e+00) (110, -3.06479930877685546875e+00) (111, -5.19948148727416992188e+00) (112, -5.46359586715698242188e+00) (113, -9.76634597778320312500e+00) (114, 3.33565711975097656250e+00) (115, -5.14649105072021484375e+00) (116, -1.87051010131835937500e+00) (117, 7.97381210327148437500e+00) (118, -9.19181442260742187500e+00) (119, 6.36707115173339843750e+00) (120, 7.35848426818847656250e+00) (121, -2.22687387466430664062e+00) (122, 9.22865676879882812500e+00) (123, -1.18848323822021484375e+00) (124, -9.91600990295410156250e-01) (125, -9.71916198730468750000e+00) (126, 9.77773475646972656250e+00) (127, -7.60125923156738281250e+00) (128, 9.96899604797363281250e+00) (129, -7.02453756332397460938e+00) (130, 8.27042579650878906250e+00) (131, -2.68213939666748046875e+00) (132, -8.19913005828857421875e+00) (133, -1.19491100311279296875e+00) (134, -1.90357398986816406250e+00) (135, -9.93650436401367187500e+00) (136, 1.87127208709716796875e+00) (137, 9.09897232055664062500e+00) (138, 9.92193031311035156250e+00) (139, -5.61146497726440429688e+00) (140, 2.10177612304687500000e+00) (141, -3.14286851882934570312e+00) (142, -8.10946464538574218750e-01) (143, 6.63818168640136718750e+00) (144, -2.90921449661254882812e+00) (145, -7.47528934478759765625e+00) (146, -8.50831031799316406250e+00) (147, 5.22027492523193359375e+00) (148, -9.50147724151611328125e+00) (149, -7.70012474060058593750e+00) (150, 1.58734703063964843750e+00) (151, 7.85700607299804687500e+00) (152, 7.30009078979492187500e-02) (153, 8.16002845764160156250e-01) (154, -3.33147573471069335938e+00) (155, 9.08139991760253906250e+00) (156, 1.09684085845947265625e+00) (157, -3.55374145507812500000e+00) (158, -8.51985836029052734375e+00) (159, 1.06583786010742187500e+00) (160, -5.78279495239257812500e-01) (161, 9.75056648254394531250e+00) (162, 8.38369750976562500000e+00) (163, 1.22259044647216796875e+00) (164, -1.44434356689453125000e+00) (165, -3.51987552642822265625e+00) (166, 1.28608608245849609375e+00) (167, -9.57307052612304687500e+00) (168, -4.42090320587158203125e+00) (169, 1.20801639556884765625e+00) (170, -5.18453550338745117188e+00) (171, 7.68087387084960937500e+00) (172, 8.06514739990234375000e+00) (173, 4.00451755523681640625e+00) (174, 4.31905460357666015625e+00) (175, -4.84406518936157226562e+00) (176, 6.52922821044921875000e+00) (177, 5.81074428558349609375e+00) (178, -9.62378978729248046875e+00) (179, 7.02775001525878906250e+00) (180, 8.11062049865722656250e+00) (181, 1.96355724334716796875e+00) (182, 4.88475799560546875000e+00) (183, -1.81637763977050781250e+00) (184, -7.22043991088867187500e+00) (185, -8.44671726226806640625e+00) (186, -2.73497629165649414062e+00) (187, 3.87640094757080078125e+00) (188, -2.00045967102050781250e+00) (189, -1.25483512878417968750e+00) (190, -5.05776071548461914062e+00) (191, 7.42126083374023437500e+00) (0, -1.50426673889160156250e+00) (1, -6.67406225204467773438e+00) (2, -1.35614871978759765625e+00) (3, 7.05138969421386718750e+00) (4, -1.93938255310058593750e-01) (5, 9.92993736267089843750e+00) (6, 7.47831726074218750000e+00) (7, 5.38515949249267578125e+00) (8, 1.13795375823974609375e+00) (9, -7.70621681213378906250e+00) (10, 3.06603145599365234375e+00) (11, -7.96895980834960937500e-01) (12, 6.29830169677734375000e+00) (13, -2.61491298675537109375e+00) (14, 4.35903739929199218750e+00) (15, 2.82753086090087890625e+00) (16, -6.80416822433471679688e+00) (17, 4.73524761199951171875e+00) (18, -1.44718170166015625000e-01) (19, -8.69354820251464843750e+00) (20, -3.30119419097900390625e+00) (21, -5.25995969772338867188e+00) (22, -5.09925842285156250000e-01) (23, -5.21635055541992187500e-01) (24, -3.70667695999145507812e+00) (25, 6.75509834289550781250e+00) (26, -6.64523315429687500000e+00) (27, 4.29286384582519531250e+00) (28, -4.49973726272583007812e+00) (29, -1.70299434661865234375e+00) (30, 1.71412467956542968750e+00) (31, 3.99599552154541015625e+00) (32, 1.62294387817382812500e+00) (33, -9.64202308654785156250e+00) (34, 1.04738616943359375000e+00) (35, -8.57099437713623046875e+00) (36, -9.71208667755126953125e+00) (37, -1.47429561614990234375e+00) (38, 6.81416511535644531250e+00) (39, 1.42586803436279296875e+00) (40, 8.19487571716308593750e-01) (41, -1.19802474975585937500e-01) (42, -9.37102794647216796875e+00) (43, -2.88221073150634765625e+00) (44, 7.26528358459472656250e+00) (45, 4.98800945281982421875e+00) (46, 9.94532012939453125000e+00) (47, -9.53888320922851562500e+00) (48, -2.76741981506347656250e-01) (49, -1.99397087097167968750e-01) (50, -8.23243141174316406250e+00) (51, 6.42206382751464843750e+00) (52, 4.54064369201660156250e+00) (53, 1.25764369964599609375e+00) (54, -4.09957075119018554688e+00) (55, -9.16603374481201171875e+00) (56, -1.98725891113281250000e+00) (57, -7.44804382324218750000e-01) (58, 5.12683010101318359375e+00) (59, 3.51300334930419921875e+00) (60, 7.55220222473144531250e+00) (61, -3.15904521942138671875e+00) (62, -2.49099969863891601562e+00) (63, -8.24854850769042968750e-01) (64, -2.80106830596923828125e+00) (65, 8.55638504028320312500e+00) (66, 6.04151725769042968750e-01) (67, -2.51315402984619140625e+00) (68, -2.91790962219238281250e+00) (69, -2.58168411254882812500e+00) (70, 8.91271400451660156250e+00) (71, 7.90157699584960937500e+00) (72, 7.29851341247558593750e+00) (73, 9.54168510437011718750e+00) (74, -4.98063278198242187500e+00) (75, 4.56379795074462890625e+00) (76, 4.52969551086425781250e+00) (77, -5.03531217575073242188e+00) (78, 5.02491474151611328125e+00) (79, -5.74704647064208984375e+00) (80, 4.76529121398925781250e+00) (81, 6.79248237609863281250e+00) (82, -9.32498264312744140625e+00) (83, -6.94066047668457031250e-01) (84, -1.94987392425537109375e+00) (85, -3.42455339431762695312e+00) (86, 1.39900207519531250000e-01) (87, 6.06286811828613281250e+00) (88, 5.83064270019531250000e+00) (89, -4.73326921463012695312e+00) (90, -4.24128532409667968750e-01) (91, 3.38284492492675781250e+00) (92, 2.10768604278564453125e+00) (93, 7.08487129211425781250e+00) (94, -7.44200992584228515625e+00) (95, 9.30661773681640625000e+00) (96, 5.64125728607177734375e+00) (97, 3.16214179992675781250e+00) (98, -3.20653676986694335938e+00) (99, -7.27665233612060546875e+00) (100, -9.41954231262207031250e+00) (101, -4.29382276535034179688e+00) (102, -9.37507438659667968750e+00) (103, 7.87897109985351562500e+00) (104, -4.75213766098022460938e+00) (105, -4.35570716857910156250e+00) (106, 2.44276905059814453125e+00) (107, 9.77755737304687500000e+00) (108, 6.08980178833007812500e-01) (109, -2.53231573104858398438e+00) (110, -5.96948862075805664062e+00) (111, -4.62572813034057617188e+00) (112, -5.73983287811279296875e+00) (113, -5.29447078704833984375e+00) (114, 4.68020534515380859375e+00) (115, 2.31029415130615234375e+00) (116, 1.28097629547119140625e+00) (117, -5.17989397048950195312e+00) (118, -1.62683963775634765625e+00) (119, -2.88838148117065429688e+00) (120, 8.68368148803710937500e-02) (121, 7.94903182983398437500e+00) (122, -9.50553703308105468750e+00) (123, -7.80547714233398437500e+00) (124, 5.03390407562255859375e+00) (125, -6.94754695892333984375e+00) (126, -8.49885940551757812500e+00) (127, 6.75162315368652343750e-01) (128, 6.21459388732910156250e+00) (129, -1.70539569854736328125e+00) (130, 3.39850902557373046875e+00) (131, 6.79505157470703125000e+00) (132, 4.00078201293945312500e+00) (133, 4.02343368530273437500e+00) (134, 4.67402362823486328125e+00) (135, 9.24864387512207031250e+00) (136, 9.66772651672363281250e+00) (137, -2.88320684432983398438e+00) (138, 9.02620124816894531250e+00) (139, 2.76708602905273437500e-01) (140, 4.58447647094726562500e+00) (141, -6.94328594207763671875e+00) (142, 5.65097904205322265625e+00) (143, 8.84464263916015625000e+00) (144, -2.23775672912597656250e+00) (145, 3.31186294555664062500e-01) (146, 1.15493774414062500000e+00) (147, 9.04321861267089843750e+00) (148, 5.15129184722900390625e+00) (149, 9.52809906005859375000e+00) (150, -3.84516239166259765625e+00) (151, -4.76187133789062500000e+00) (152, 7.47713088989257812500e+00) (153, -3.35069894790649414062e+00) (154, -2.56734848022460937500e+00) (155, 2.51103496551513671875e+00) (156, -2.98245429992675781250e-01) (157, -1.06620788574218750000e+00) (158, -6.81380271911621093750e+00) (159, -4.08365011215209960938e+00) (160, 7.22839736938476562500e+00) (161, 6.58470535278320312500e+00) (162, -7.28859806060791015625e+00) (163, 1.22917842864990234375e+00) (164, 6.08139991760253906250e-01) (165, 7.38542556762695312500e+00) (166, 4.77823257446289062500e-01) (167, 2.75868415832519531250e-01) (168, -5.49778032302856445312e+00) (169, -4.95975494384765625000e-01) (170, -9.44742393493652343750e+00) (171, 9.08669662475585937500e+00) (172, 2.56073856353759765625e+00) (173, 6.20355606079101562500e+00) (174, 7.93134117126464843750e+00) (175, -9.67701816558837890625e+00) (176, -3.46525907516479492188e+00) (177, -9.13721084594726562500e-01) (178, 9.36620140075683593750e+00) (179, -8.31396770477294921875e+00) (180, -1.38562297821044921875e+00) (181, -4.47896146774291992188e+00) (182, -3.07583856582641601562e+00) (183, -3.90849113464355468750e+00) (184, 2.17033958435058593750e+00) (185, 4.35681343078613281250e+00) (186, 8.60254287719726562500e+00) (187, -8.12790489196777343750e+00) (188, -6.70939397811889648438e+00) (189, -8.21125793457031250000e+00) (190, -2.21155595779418945312e+00) (191, -9.48099708557128906250e+00) (0, 8.37344741821289062500e+00) (1, 4.99846458435058593750e-01) (2, 1.74818134307861328125e+00) (3, -1.01841163635253906250e+00) (4, -2.11472749710083007812e+00) (5, -7.77399539947509765625e+00) (6, 9.25745582580566406250e+00) (7, 2.38749217987060546875e+00) (8, 1.73002910614013671875e+00) (9, 9.81003189086914062500e+00) (10, 1.47418880462646484375e+00) (11, -5.70923233032226562500e+00) (12, 6.01358604431152343750e+00) (13, -5.94470024108886718750e-01) (14, -5.38625049591064453125e+00) (15, -7.45167207717895507812e+00) (16, 8.49180793762207031250e+00) (17, -6.02005004882812500000e+00) (18, -5.76563930511474609375e+00) (19, -2.89381408691406250000e+00) (20, -4.99011039733886718750e-01) (21, 1.15852260589599609375e+00) (22, 3.19769477844238281250e+00) (23, -8.32867050170898437500e+00) (24, -4.48466444015502929688e+00) (25, 1.80024051666259765625e+00) (26, -6.45657634735107421875e+00) (27, -1.19405841827392578125e+00) (28, 3.58898162841796875000e+00) (29, 1.33186817169189453125e+00) (30, -6.75055503845214843750e-01) (31, 1.96242904663085937500e+00) (32, -8.16828536987304687500e+00) (33, -8.92687320709228515625e+00) (34, -9.05598258972167968750e+00) (35, -2.83012390136718750000e-01) (36, -6.70086956024169921875e+00) (37, -9.79852676391601562500e+00) (38, -7.89552021026611328125e+00) (39, 5.02915954589843750000e+00) (40, -9.98849487304687500000e+00) (41, 3.57866859436035156250e+00) (42, 9.31992721557617187500e+00) (43, 6.02509307861328125000e+00) (44, -7.01580142974853515625e+00) (45, -6.06632328033447265625e+00) (46, 8.57341957092285156250e+00) (47, -8.52399253845214843750e+00) (48, -2.08637237548828125000e+00) (49, -7.19221878051757812500e+00) (50, -1.41780662536621093750e+00) (51, 7.41461563110351562500e+00) (52, 3.96630287170410156250e+00) (53, -8.22011089324951171875e+00) (54, 9.08594512939453125000e+00) (55, 9.48163795471191406250e+00) (56, 3.58012866973876953125e+00) (57, -7.37063121795654296875e+00) (58, -1.71241950988769531250e+00) (59, -2.83088922500610351562e+00) (60, 3.96123600006103515625e+00) (61, 7.61252403259277343750e+00) (62, 9.13154029846191406250e+00) (63, 5.79295158386230468750e+00) (64, 8.68565177917480468750e+00) (65, -9.92444229125976562500e+00) (66, -4.49006080627441406250e+00) (67, -8.01521682739257812500e+00) (68, -9.72296905517578125000e+00) (69, -2.38558101654052734375e+00) (70, 7.01394271850585937500e+00) (71, -9.71146392822265625000e+00) (72, -8.80691242218017578125e+00) (73, 6.33386993408203125000e+00) (74, 6.31362915039062500000e+00) (75, -5.82271385192871093750e+00) (76, -9.73245239257812500000e+00) (77, 4.88704872131347656250e+00) (78, -4.34670686721801757812e+00) (79, -1.81882476806640625000e+00) (80, 7.69482994079589843750e+00) (81, 4.23548698425292968750e+00) (82, -4.40420866012573242188e+00) (83, 1.66113281250000000000e+00) (84, 6.01537513732910156250e+00) (85, -5.31826305389404296875e+00) (86, 1.14277267456054687500e+00) (87, -4.04496192932128906250e-01) (88, -2.68889427185058593750e+00) (89, 9.43035125732421875000e+00) (90, 6.76461410522460937500e+00) (91, -8.72765731811523437500e+00) (92, 7.04287910461425781250e+00) (93, 5.89615440368652343750e+00) (94, 7.06529426574707031250e+00) (95, 5.72853088378906250000e+00) (96, 5.97171306610107421875e+00) (97, -7.42476606369018554688e+00) (98, 7.71331214904785156250e+00) (99, 6.24874496459960937500e+00) (100, 1.89652442932128906250e-01) (101, 4.72725582122802734375e+00) (102, 6.53728103637695312500e+00) (103, 1.38274097442626953125e+00) (104, 1.06112670898437500000e+00) (105, 2.85090923309326171875e+00) (106, 5.56002712249755859375e+00) (107, 1.32867431640625000000e+00) (108, -2.26204156875610351562e+00) (109, -8.78668022155761718750e+00) (110, 9.50984954833984375000e+00) (111, -4.56721210479736328125e+00) (112, 5.44880580902099609375e+00) (113, -4.89435863494873046875e+00) (114, 7.09391975402832031250e+00) (115, 1.46418190002441406250e+00) (116, -2.12621688842773437500e-01) (117, -1.76330661773681640625e+00) (118, -8.94031333923339843750e+00) (119, 7.09848403930664062500e+00) (120, -2.33295392990112304688e+00) (121, 7.82430076599121093750e+00) (122, 8.37082672119140625000e+00) (123, -5.29007530212402343750e+00) (124, 3.72045612335205078125e+00) (125, 5.43612098693847656250e+00) (126, -9.56154441833496093750e+00) (127, -3.07831764221191406250e-01) (128, 8.01135444641113281250e+00) (129, 8.15176773071289062500e+00) (130, -4.05908727645874023438e+00) (131, -1.79899215698242187500e+00) (132, 2.87902545928955078125e+00) (133, -7.52180624008178710938e+00) (134, 9.58374786376953125000e+00) (135, -6.05984783172607421875e+00) (136, 5.32910346984863281250e+00) (137, 5.14377593994140625000e+00) (138, 5.26882743835449218750e+00) (139, -6.93293857574462890625e+00) (140, 6.35709571838378906250e+00) (141, 4.77867698669433593750e+00) (142, -1.50015068054199218750e+00) (143, 1.80590248107910156250e+00) (144, 9.88431930541992187500e+00) (145, -4.40622949600219726562e+00) (146, -6.72991466522216796875e+00) (147, -3.28302383422851562500e-01) (148, 3.83046340942382812500e+00) (149, -5.67022800445556640625e+00) (150, -3.22981786727905273438e+00) (151, -8.50249004364013671875e+00) (152, -7.84592676162719726562e+00) (153, -4.85899114608764648438e+00) (154, -3.79256534576416015625e+00) (155, 5.87452888488769531250e+00) (156, -9.42286968231201171875e+00) (157, -3.35411024093627929688e+00) (158, -4.43330192565917968750e+00) (159, 8.58848571777343750000e+00) (160, -5.20234107971191406250e+00) (161, 1.50761127471923828125e+00) (162, -3.21050596237182617188e+00) (163, 7.67668533325195312500e+00) (164, 3.98580551147460937500e+00) (165, -3.62675666809082031250e+00) (166, -8.38316345214843750000e+00) (167, -6.85091972351074218750e-01) (168, -8.48298072814941406250e+00) (169, 6.88566398620605468750e+00) (170, 2.38196945190429687500e+00) (171, 7.87411499023437500000e+00) (172, 1.66434192657470703125e+00) (173, -9.11818122863769531250e+00) (174, -3.19982528686523437500e-01) (175, 1.54866218566894531250e+00) (176, -3.52441024780273437500e+00) (177, 2.95010280609130859375e+00) (178, -8.77964019775390625000e+00) (179, -9.69394588470458984375e+00) (180, 7.27987480163574218750e+00) (181, -2.00945854187011718750e+00) (182, -8.19643592834472656250e+00) (183, 9.43394660949707031250e+00) (184, 3.13155078887939453125e+00) (185, -1.98900127410888671875e+00) (186, 5.30847740173339843750e+00) (187, 3.70868110656738281250e+00) (188, 4.65688896179199218750e+00) (189, -9.12482357025146484375e+00) (190, 2.29716682434082031250e+00) (191, 9.45454788208007812500e+00) (0, 2.38278770446777343750e+00) (1, 9.08666038513183593750e+00) (2, 7.13123130798339843750e+00) (3, -3.63140726089477539062e+00) (4, -4.54009580612182617188e+00) (5, 8.74806785583496093750e+00) (6, 5.68350219726562500000e+00) (7, -3.02307653427124023438e+00) (8, 5.63373279571533203125e+00) (9, -1.93452930450439453125e+00) (10, -5.14896154403686523438e+00) (11, -2.70192384719848632812e+00) (12, -1.05270957946777343750e+00) (13, 4.53105640411376953125e+00) (14, 8.84673690795898437500e+00) (15, 5.42288017272949218750e+00) (16, -2.51884031295776367188e+00) (17, -9.93290328979492187500e+00) (18, 5.72893524169921875000e+00) (19, -5.23896551132202148438e+00) (20, -1.94236183166503906250e+00) (21, 7.53249931335449218750e+00) (22, -5.80501699447631835938e+00) (23, -8.81081104278564453125e+00) (24, -4.45650243759155273438e+00) (25, 9.50345993041992187500e+00) (26, 4.89787006378173828125e+00) (27, -9.79961299896240234375e+00) (28, -9.62136268615722656250e+00) (29, -2.80496311187744140625e+00) (30, 9.65493392944335937500e+00) (31, 2.76142501831054687500e+00) (32, -3.71830224990844726562e+00) (33, 6.78616523742675781250e+00) (34, 9.13001823425292968750e+00) (35, 1.74160194396972656250e+00) (36, 5.53423595428466796875e+00) (37, 4.81351947784423828125e+00) (38, 8.71852493286132812500e+00) (39, 1.16796970367431640625e+00) (40, -7.12100982666015625000e+00) (41, -6.43043613433837890625e+00) (42, 8.46604537963867187500e+00) (43, 1.82628154754638671875e+00) (44, 8.10062026977539062500e+00) (45, 7.31278228759765625000e+00) (46, -2.75083827972412109375e+00) (47, -4.41822052001953125000e+00) (48, 7.37987899780273437500e+00) (49, -7.02190399169921875000e+00) (50, 3.42813491821289062500e-01) (51, -4.56248092651367187500e+00) (52, -9.48940563201904296875e+00) (53, 4.53779697418212890625e+00) (54, -3.37329196929931640625e+00) (55, -3.94590759277343750000e+00) (56, 4.04125785827636718750e+00) (57, -8.47542190551757812500e+00) (58, -3.74552059173583984375e+00) (59, 4.41989517211914062500e+00) (60, -1.28038501739501953125e+00) (61, -4.09058618545532226562e+00) (62, -2.81867980957031250000e+00) (63, 5.00131225585937500000e+00) (64, -7.30441951751708984375e+00) (65, -3.68866157531738281250e+00) (66, -3.25708580017089843750e+00) (67, 8.22981643676757812500e+00) (68, -8.87514209747314453125e+00) (69, -4.53855991363525390625e+00) (70, -6.02213859558105468750e-01) (71, -5.99615144729614257812e+00) (72, -9.68996047973632812500e-01) (73, -2.13616800308227539062e+00) (74, 5.83012962341308593750e+00) (75, -2.86837625503540039062e+00) (76, -4.82338476181030273438e+00) (77, -6.92070913314819335938e+00) (78, 2.71340370178222656250e+00) (79, -7.44350433349609375000e+00) (80, -3.94261312484741210938e+00) (81, -6.94378280639648437500e+00) (82, -2.00598621368408203125e+00) (83, -3.43201828002929687500e+00) (84, 7.59401321411132812500e+00) (85, 4.62072277069091796875e+00) (86, 2.62207508087158203125e+00) (87, 1.63527393341064453125e+00) (88, 6.14529991149902343750e+00) (89, 8.87655258178710937500e+00) (90, -3.94483137130737304688e+00) (91, -5.13508558273315429688e+00) (92, -5.21403312683105468750e+00) (93, 3.23648929595947265625e+00) (94, 9.86622619628906250000e+00) (95, -2.51845264434814453125e+00) (96, 9.54782676696777343750e+00) (97, -3.39085817337036132812e+00) (98, -4.28863573074340820312e+00) (99, -9.32731437683105468750e+00) (100, 2.07058143615722656250e+00) (101, 5.10914993286132812500e+00) (102, -5.32346630096435546875e+00) (103, -8.89841461181640625000e+00) (104, -7.02701759338378906250e+00) (105, -9.49333667755126953125e+00) (106, -1.76679134368896484375e+00) (107, -1.85040283203125000000e+00) (108, -6.41404533386230468750e+00) (109, -9.05338764190673828125e+00) (110, 7.06092834472656250000e-01) (111, -3.56657981872558593750e-01) (112, -5.99717044830322265625e+00) (113, 8.70010757446289062500e+00) (114, 6.21132278442382812500e+00) (115, -8.40315532684326171875e+00) (116, 3.32082939147949218750e+00) (117, -1.16660213470458984375e+00) (118, 3.23211765289306640625e+00) (119, -5.33870697021484375000e-01) (120, -2.29004812240600585938e+00) (121, 9.28728675842285156250e+00) (122, 4.33104419708251953125e+00) (123, 2.49591922760009765625e+00) (124, 2.52377605438232421875e+00) (125, 4.19727230072021484375e+00) (126, 9.97746658325195312500e+00) (127, 2.07160377502441406250e+00) (128, -9.19358634948730468750e+00) (129, -4.31116867065429687500e+00) (130, 2.74428939819335937500e+00) (131, 2.87699413299560546875e+00) (132, -9.20201778411865234375e+00) (133, 7.42082405090332031250e+00) (134, 3.97858047485351562500e+00) (135, -6.22903537750244140625e+00) (136, 7.92748641967773437500e+00) (137, -7.78821086883544921875e+00) (138, 1.92056274414062500000e+00) (139, -8.48655891418457031250e+00) (140, -6.84159851074218750000e+00) (141, -7.37334442138671875000e+00) (142, 1.15678310394287109375e+00) (143, -2.83876848220825195312e+00) (144, -8.67323684692382812500e+00) (145, -2.63189315795898437500e+00) (146, -1.24192333221435546875e+00) (147, 4.64759254455566406250e+00) (148, 6.20150375366210937500e+00) (149, -8.00980567932128906250e+00) (150, -5.88627815246582031250e+00) (151, -6.08854293823242187500e+00) (152, -8.72251892089843750000e+00) (153, 8.44476509094238281250e+00) (154, 6.40737533569335937500e+00) (155, 3.80125713348388671875e+00) (156, 2.64203739166259765625e+00) (157, 6.38484382629394531250e+00) (158, -4.12713956832885742188e+00) (159, 3.44845008850097656250e+00) (160, -7.92632579803466796875e+00) (161, 8.61714935302734375000e+00) (162, -3.67455434799194335938e+00) (163, -7.12834358215332031250e+00) (164, 6.03797340393066406250e+00) (165, -9.69597339630126953125e+00) (166, -3.35737895965576171875e+00) (167, 3.96545982360839843750e+00) (168, -7.48418426513671875000e+00) (169, 8.56318283081054687500e+00) (170, 5.47890090942382812500e+00) (171, -4.32578277587890625000e+00) (172, -8.81016063690185546875e+00) (173, -3.36431694030761718750e+00) (174, 2.83544921875000000000e+00) (175, -7.48339748382568359375e+00) (176, 4.00379085540771484375e+00) (177, -8.40647506713867187500e+00) (178, 7.16419410705566406250e+00) (179, 2.05294609069824218750e-01) (180, -6.41628074645996093750e+00) (181, -8.72208309173583984375e+00) (182, 4.11675167083740234375e+00) (183, -5.13880014419555664062e+00) (184, 9.72268104553222656250e+00) (185, 5.24128913879394531250e-01) (186, 8.66245651245117187500e+00) (187, 2.36472034454345703125e+00) (188, -3.09102916717529296875e+00) (189, -5.46468210220336914062e+00) (190, -4.18682861328125000000e+00) (191, -1.01735401153564453125e+00) (0, -6.84753227233886718750e+00) (1, 2.13861656188964843750e+00) (2, 1.85430145263671875000e+00) (3, 9.19044113159179687500e+00) (4, 2.44264316558837890625e+00) (5, 8.49692344665527343750e+00) (6, 3.15590000152587890625e+00) (7, 4.95845890045166015625e+00) (8, 7.06010627746582031250e+00) (9, -1.36519908905029296875e+00) (10, -9.36732387542724609375e+00) (11, 8.24994659423828125000e+00) (12, 5.27048492431640625000e+00) (13, 3.46812438964843750000e+00) (14, -9.23345088958740234375e+00) (15, -7.25725173950195312500e-01) (16, 5.06164932250976562500e+00) (17, 7.93074417114257812500e+00) (18, 9.47956848144531250000e+00) (19, 8.64536857604980468750e+00) (20, 9.20866012573242187500e+00) (21, 3.59632110595703125000e+00) (22, -6.49343109130859375000e+00) (23, 8.93134117126464843750e+00) (24, -5.87955045700073242188e+00) (25, -7.83097410202026367188e+00) (26, 1.29606246948242187500e+00) (27, 1.02942085266113281250e+00) (28, -3.29565572738647460938e+00) (29, 7.10923385620117187500e+00) (30, -9.98793315887451171875e+00) (31, -1.43188476562500000000e-01) (32, -7.52149581909179687500e-01) (33, 1.86636924743652343750e+00) (34, -9.52747344970703125000e-01) (35, -8.30950546264648437500e+00) (36, 3.63292694091796875000e-01) (37, -7.79684638977050781250e+00) (38, 6.64895248413085937500e+00) (39, -2.57660055160522460938e+00) (40, 8.37955474853515625000e-01) (41, 7.28162765502929687500e+00) (42, -4.32665395736694335938e+00) (43, -3.89156055450439453125e+00) (44, 7.49753952026367187500e-01) (45, -3.56010484695434570312e+00) (46, 5.38271427154541015625e+00) (47, -4.18859672546386718750e+00) (48, -5.62936115264892578125e+00) (49, 4.86228466033935546875e+00) (50, -5.54322767257690429688e+00) (51, -6.42070055007934570312e+00) (52, -1.54139423370361328125e+00) (53, -2.03665924072265625000e+00) (54, -7.48935794830322265625e+00) (55, 2.57905578613281250000e+00) (56, 1.32366180419921875000e-01) (57, 3.80670547485351562500e+00) (58, -6.39152336120605468750e+00) (59, 6.83670997619628906250e+00) (60, 9.15939331054687500000e-01) (61, -6.37945652008056640625e+00) (62, -3.30647706985473632812e+00) (63, -9.83620929718017578125e+00) (64, 5.48691177368164062500e+00) (65, 5.74077606201171875000e+00) (66, -8.14571571350097656250e+00) (67, -4.14979600906372070312e+00) (68, 7.94392967224121093750e+00) (69, 8.50323677062988281250e+00) (70, 3.27360343933105468750e+00) (71, -1.21811485290527343750e+00) (72, 5.78486633300781250000e+00) (73, 8.94695091247558593750e+00) (74, 4.89032459259033203125e+00) (75, -3.46537971496582031250e+00) (76, -4.61315441131591796875e+00) (77, 2.73038864135742187500e-01) (78, 2.34602451324462890625e+00) (79, -2.42515563964843750000e-01) (80, -4.86467647552490234375e+00) (81, 6.80279541015625000000e+00) (82, 3.33678340911865234375e+00) (83, 3.59392833709716796875e+00) (84, -5.23386287689208984375e+00) (85, 5.84742546081542968750e+00) (86, -3.82701539993286132812e+00) (87, 4.89850425720214843750e+00) (88, -3.45869064331054687500e-01) (89, -2.18539237976074218750e-01) (90, 1.73521518707275390625e+00) (91, -9.42992973327636718750e+00) (92, 3.40200519561767578125e+00) (93, 8.42873764038085937500e+00) (94, -9.26613903045654296875e+00) (95, -1.11108303070068359375e+00) (96, 4.16951370239257812500e+00) (97, -7.41185474395751953125e+00) (98, 4.73912143707275390625e+00) (99, 2.11344432830810546875e+00) (100, -8.90861701965332031250e+00) (101, -1.98727512359619140625e+00) (102, -9.10467052459716796875e+00) (103, 6.87624931335449218750e+00) (104, -3.04032468795776367188e+00) (105, 5.78565311431884765625e+00) (106, -6.58912992477416992188e+00) (107, 2.34652042388916015625e+00) (108, -3.94130706787109375000e+00) (109, 5.75689411163330078125e+00) (110, -7.89599514007568359375e+00) (111, 1.19401645660400390625e+00) (112, 2.55969047546386718750e+00) (113, 5.44078826904296875000e+00) (114, -5.21205472946166992188e+00) (115, 7.32582855224609375000e+00) (116, 1.28821468353271484375e+00) (117, 9.60930824279785156250e-01) (118, 2.22433185577392578125e+00) (119, -9.05765438079833984375e+00) (120, -9.25760841369628906250e+00) (121, -6.04045295715332031250e+00) (122, -8.48758411407470703125e+00) (123, 4.14439678192138671875e+00) (124, -7.61171483993530273438e+00) (125, -7.75372314453125000000e+00) (126, -6.96668624877929687500e+00) (127, 6.55779838562011718750e+00) (128, -5.16557741165161132812e+00) (129, 7.77243423461914062500e+00) (130, -1.32875633239746093750e+00) (131, -4.07419443130493164062e+00) (132, -4.21483945846557617188e+00) (133, -4.33426856994628906250e-01) (134, -7.19794464111328125000e+00) (135, 2.74483585357666015625e+00) (136, -4.64777278900146484375e+00) (137, -3.78707456588745117188e+00) (138, -4.90864324569702148438e+00) (139, 1.41092014312744140625e+00) (140, -8.03017997741699218750e+00) (141, -2.80463838577270507812e+00) (142, -7.39506340026855468750e+00) (143, 4.52951049804687500000e+00) (144, -7.36384963989257812500e+00) (145, -2.60711812973022460938e+00) (146, 1.85533714294433593750e+00) (147, 3.92436504364013671875e+00) (148, 8.35381317138671875000e+00) (149, -5.92033052444458007812e+00) (150, 4.86671066284179687500e+00) (151, 9.09620285034179687500e+00) (152, -1.96078395843505859375e+00) (153, 6.37912750244140625000e+00) (154, 3.24060058593750000000e+00) (155, 4.27500724792480468750e-01) (156, 8.62540435791015625000e+00) (157, 6.27391624450683593750e+00) (158, -3.01469850540161132812e+00) (159, -6.54017305374145507812e+00) (160, 4.04635047912597656250e+00) (161, 5.65654468536376953125e+00) (162, -6.14367485046386718750e-01) (163, 9.83151245117187500000e+00) (164, -4.77688217163085937500e+00) (165, 2.18768787384033203125e+00) (166, 2.57634735107421875000e+00) (167, 5.75344085693359375000e-01) (168, 8.40061187744140625000e+00) (169, 7.66770362854003906250e+00) (170, -8.01373481750488281250e+00) (171, -9.62956714630126953125e+00) (172, -5.13693380355834960938e+00) (173, -5.40879869461059570312e+00) (174, 4.89994239807128906250e+00) (175, -2.50078392028808593750e+00) (176, 1.98408317565917968750e+00) (177, -3.24471902847290039062e+00) (178, -8.57641887664794921875e+00) (179, 3.37896347045898437500e-01) (180, 8.34950447082519531250e-01) (181, 6.29029083251953125000e+00) (182, -5.65899848937988281250e-01) (183, 8.87416648864746093750e+00) (184, 2.66941928863525390625e+00) (185, -7.32529830932617187500e+00) (186, -6.98330879211425781250e-01) (187, 1.29482364654541015625e+00) (188, 8.94861602783203125000e+00) (189, 6.28697013854980468750e+00) (190, 4.75465011596679687500e+00) (191, 2.99496746063232421875e+00) (192, 1.94351387023925781250e+00) (193, -5.85971736907958984375e+00) (194, 2.82647800445556640625e+00) (195, 7.16663169860839843750e+00) (196, 6.32797050476074218750e+00) (197, -4.59717321395874023438e+00) (198, -2.25802230834960937500e+00) (199, 4.72858428955078125000e+00) (200, -6.92946910858154296875e+00) (201, -2.71758079528808593750e-01) (202, 5.09901714324951171875e+00) (192, -2.06640386581420898438e+00) (193, 4.31944370269775390625e+00) (194, -1.03950500488281250000e-03) (195, 5.43281269073486328125e+00) (196, -3.69647312164306640625e+00) (197, 6.75424194335937500000e+00) (198, 6.85639381408691406250e+00) (199, 6.64142227172851562500e+00) (200, -2.41080760955810546875e+00) (201, 3.14668655395507812500e+00) (202, -3.92447710037231445312e+00) (192, -3.53664064407348632812e+00) (193, -4.18389463424682617188e+00) (194, -1.24977588653564453125e+00) (195, 5.76502799987792968750e+00) (196, 7.11092758178710937500e+00) (197, -2.30115890502929687500e+00) (198, 2.05199813842773437500e+00) (199, 1.86557865142822265625e+00) (200, -9.30619144439697265625e+00) (201, -6.00448703765869140625e+00) (202, 6.00586128234863281250e+00) (192, 3.52028751373291015625e+00) (193, -8.83785438537597656250e+00) (194, 2.33383274078369140625e+00) (195, 8.92311286926269531250e+00) (196, -1.09587764739990234375e+00) (197, -2.93758344650268554688e+00) (198, -8.00635528564453125000e+00) (199, 8.63236427307128906250e+00) (200, -7.83856582641601562500e+00) (201, -7.27596282958984375000e-02) (202, 2.95180892944335937500e+00) (192, 2.16039562225341796875e+00) (193, -4.63994646072387695312e+00) (194, 9.25533485412597656250e+00) (195, -1.08536338806152343750e+00) (196, -7.78355216979980468750e+00) (197, 5.89675903320312500000e+00) (198, 6.50382804870605468750e+00) (199, 5.36313438415527343750e+00) (200, -8.02771854400634765625e+00) (201, -7.03281164169311523438e+00) (202, -8.82076072692871093750e+00) 
