FANN_FLO_2.1
num_layers=3
learning_rate=0.700000
connection_rate=1.000000
network_type=0
learning_momentum=0.000000
training_algorithm=2
train_error_function=1
train_stop_function=0
cascade_output_change_fraction=0.010000
quickprop_decay=-0.000100
quickprop_mu=1.750000
rprop_increase_factor=1.200000
rprop_decrease_factor=0.500000
rprop_delta_min=0.000000
rprop_delta_max=50.000000
rprop_delta_zero=0.100000
cascade_output_stagnation_epochs=12
cascade_candidate_change_fraction=0.010000
cascade_candidate_stagnation_epochs=12
cascade_max_out_epochs=150
cascade_min_out_epochs=50
cascade_max_cand_epochs=150
cascade_min_cand_epochs=50
cascade_num_candidate_groups=2
bit_fail_limit=3.49999994039535522461e-01
cascade_candidate_limit=1.00000000000000000000e+03
cascade_weight_multiplier=4.00000005960464477539e-01
cascade_activation_functions_count=10
cascade_activation_functions=3 5 7 8 10 11 14 15 16 17 
cascade_activation_steepnesses_count=4
cascade_activation_steepnesses=2.50000000000000000000e-01 5.00000000000000000000e-01 7.50000000000000000000e-01 1.00000000000000000000e+00 
layer_sizes=191 11 5 
scale_included=0
neurons (num_inputs, activation_function, activation_steepness)=(0, 0, 0.00000000000000000000e+00) (0, 0, 0.00000000000000000000e+00) (0, 0, 0.00000000000000000000e+00) (0, 0, 0.00000000000000000000e+00) (0, 0, 0.00000000000000000000e+00) (0, 0, 0.00000000000000000000e+00) (0, 0, 0.00000000000000000000e+00) (0, 0, 0.00000000000000000000e+00) (0, 0, 0.00000000000000000000e+00) (0, 0, 0.00000000000000000000e+00) (0, 0, 0.00000000000000000000e+00) (0, 0, 0.00000000000000000000e+00) (0, 0, 0.00000000000000000000e+00) (0, 0, 0.00000000000000000000e+00) (0, 0, 0.00000000000000000000e+00) (0, 0, 0.00000000000000000000e+00) (0, 0, 0.00000000000000000000e+00) (0, 0, 0.00000000000000000000e+00) (0, 0, 0.00000000000000000000e+00) (0, 0, 0.00000000000000000000e+00) (0, 0, 0.00000000000000000000e+00) (0, 0, 0.00000000000000000000e+00) (0, 0, 0.00000000000000000000e+00) (0, 0, 0.00000000000000000000e+00) (0, 0, 0.00000000000000000000e+00) (0, 0, 0.00000000000000000000e+00) (0, 0, 0.00000000000000000000e+00) (0, 0, 0.00000000000000000000e+00) (0, 0, 0.00000000000000000000e+00) (0, 0, 0.00000000000000000000e+00) (0, 0, 0.00000000000000000000e+00) (0, 0, 0.00000000000000000000e+00) (0, 0, 0.00000000000000000000e+00) (0, 0, 0.00000000000000000000e+00) (0, 0, 0.00000000000000000000e+00) (0, 0, 0.00000000000000000000e+00) (0, 0, 0.00000000000000000000e+00) (0, 0, 0.00000000000000000000e+00) (0, 0, 0.00000000000000000000e+00) (0, 0, 0.00000000000000000000e+00) (0, 0, 0.00000000000000000000e+00) (0, 0, 0.00000000000000000000e+00) (0, 0, 0.00000000000000000000e+00) (0, 0, 0.00000000000000000000e+00) (0, 0, 0.00000000000000000000e+00) (0, 0, 0.00000000000000000000e+00) (0, 0, 0.00000000000000000000e+00) (0, 0, 0.00000000000000000000e+00) (0, 0, 0.00000000000000000000e+00) (0, 0, 0.00000000000000000000e+00) (0, 0, 0.00000000000000000000e+00) (0, 0, 0.00000000000000000000e+00) (0, 0, 0.00000000000000000000e+00) (0, 0, 0.00000000000000000000e+00) (0, 0, 0.00000000000000000000e+00) (0, 0, 0.00000000000000000000e+00) (0, 0, 0.00000000000000000000e+00) (0, 0, 0.00000000000000000000e+00) (0, 0, 0.00000000000000000000e+00) (0, 0, 0.00000000000000000000e+00) (0, 0, 0.00000000000000000000e+00) (0, 0, 0.00000000000000000000e+00) (0, 0, 0.00000000000000000000e+00) (0, 0, 0.00000000000000000000e+00) (0, 0, 0.00000000000000000000e+00) (0, 0, 0.00000000000000000000e+00) (0, 0, 0.00000000000000000000e+00) (0, 0, 0.00000000000000000000e+00) (0, 0, 0.00000000000000000000e+00) (0, 0, 0.00000000000000000000e+00) (0, 0, 0.00000000000000000000e+00) (0, 0, 0.00000000000000000000e+00) (0, 0, 0.00000000000000000000e+00) (0, 0, 0.00000000000000000000e+00) (0, 0, 0.00000000000000000000e+00) (0, 0, 0.00000000000000000000e+00) (0, 0, 0.00000000000000000000e+00) (0, 0, 0.00000000000000000000e+00) (0, 0, 0.00000000000000000000e+00) (0, 0, 0.00000000000000000000e+00) (0, 0, 0.00000000000000000000e+00) (0, 0, 0.00000000000000000000e+00) (0, 0, 0.00000000000000000000e+00) (0, 0, 0.00000000000000000000e+00) (0, 0, 0.00000000000000000000e+00) (0, 0, 0.00000000000000000000e+00) (0, 0, 0.00000000000000000000e+00) (0, 0, 0.00000000000000000000e+00) (0, 0, 0.00000000000000000000e+00) (0, 0, 0.00000000000000000000e+00) (0, 0, 0.00000000000000000000e+00) (0, 0, 0.00000000000000000000e+00) (0, 0, 0.00000000000000000000e+00) (0, 0, 0.00000000000000000000e+00) (0, 0, 0.00000000000000000000e+00) (0, 0, 0.00000000000000000000e+00) (0, 0, 0.00000000000000000000e+00) (0, 0, 0.00000000000000000000e+00) (0, 0, 0.00000000000000000000e+00) (0, 0, 0.00000000000000000000e+00) (0, 0, 0.00000000000000000000e+00) (0, 0, 0.00000000000000000000e+00) (0, 0, 0.00000000000000000000e+00) (0, 0, 0.00000000000000000000e+00) (0, 0, 0.00000000000000000000e+00) (0, 0, 0.00000000000000000000e+00) (0, 0, 0.00000000000000000000e+00) (0, 0, 0.00000000000000000000e+00) (0, 0, 0.00000000000000000000e+00) (0, 0, 0.00000000000000000000e+00) (0, 0, 0.00000000000000000000e+00) (0, 0, 0.00000000000000000000e+00) (0, 0, 0.00000000000000000000e+00) (0, 0, 0.00000000000000000000e+00) (0, 0, 0.00000000000000000000e+00) (0, 0, 0.00000000000000000000e+00) (0, 0, 0.00000000000000000000e+00) (0, 0, 0.00000000000000000000e+00) (0, 0, 0.00000000000000000000e+00) (0, 0, 0.00000000000000000000e+00) (0, 0, 0.00000000000000000000e+00) (0, 0, 0.00000000000000000000e+00) (0, 0, 0.00000000000000000000e+00) (0, 0, 0.00000000000000000000e+00) (0, 0, 0.00000000000000000000e+00) (0, 0, 0.00000000000000000000e+00) (0, 0, 0.00000000000000000000e+00) (0, 0, 0.00000000000000000000e+00) (0, 0, 0.00000000000000000000e+00) (0, 0, 0.00000000000000000000e+00) (0, 0, 0.00000000000000000000e+00) (0, 0, 0.00000000000000000000e+00) (0, 0, 0.00000000000000000000e+00) (0, 0, 0.00000000000000000000e+00) (0, 0, 0.00000000000000000000e+00) (0, 0, 0.00000000000000000000e+00) (0, 0, 0.00000000000000000000e+00) (0, 0, 0.00000000000000000000e+00) (0, 0, 0.00000000000000000000e+00) (0, 0, 0.00000000000000000000e+00) (0, 0, 0.00000000000000000000e+00) (0, 0, 0.00000000000000000000e+00) (0, 0, 0.00000000000000000000e+00) (0, 0, 0.00000000000000000000e+00) (0, 0, 0.00000000000000000000e+00) (0, 0, 0.00000000000000000000e+00) (0, 0, 0.00000000000000000000e+00) (0, 0, 0.00000000000000000000e+00) (0, 0, 0.00000000000000000000e+00) (0, 0, 0.00000000000000000000e+00) (0, 0, 0.00000000000000000000e+00) (0, 0, 0.00000000000000000000e+00) (0, 0, 0.00000000000000000000e+00) (0, 0, 0.00000000000000000000e+00) (0, 0, 0.00000000000000000000e+00) (0, 0, 0.00000000000000000000e+00) (0, 0, 0.00000000000000000000e+00) (0, 0, 0.00000000000000000000e+00) (0, 0, 0.00000000000000000000e+00) (0, 0, 0.00000000000000000000e+00) (0, 0, 0.00000000000000000000e+00) (0, 0, 0.00000000000000000000e+00) (0, 0, 0.00000000000000000000e+00) (0, 0, 0.00000000000000000000e+00) (0, 0, 0.00000000000000000000e+00) (0, 0, 0.00000000000000000000e+00) (0, 0, 0.00000000000000000000e+00) (0, 0, 0.00000000000000000000e+00) (0, 0, 0.00000000000000000000e+00) (0, 0, 0.00000000000000000000e+00) (0, 0, 0.00000000000000000000e+00) (0, 0, 0.00000000000000000000e+00) (0, 0, 0.00000000000000000000e+00) (0, 0, 0.00000000000000000000e+00) (0, 0, 0.00000000000000000000e+00) (0, 0, 0.00000000000000000000e+00) (0, 0, 0.00000000000000000000e+00) (0, 0, 0.00000000000000000000e+00) (0, 0, 0.00000000000000000000e+00) (0, 0, 0.00000000000000000000e+00) (0, 0, 0.00000000000000000000e+00) (0, 0, 0.00000000000000000000e+00) (0, 0, 0.00000000000000000000e+00) (0, 0, 0.00000000000000000000e+00) (0, 0, 0.00000000000000000000e+00) (0, 0, 0.00000000000000000000e+00) (0, 0, 0.00000000000000000000e+00) (0, 0, 0.00000000000000000000e+00) (0, 0, 0.00000000000000000000e+00) (0, 0, 0.00000000000000000000e+00) (0, 0, 0.00000000000000000000e+00) (191, 4, 5.00000000000000000000e-01) (191, 4, 5.00000000000000000000e-01) (191, 4, 5.00000000000000000000e-01) (191, 4, 5.00000000000000000000e-01) (191, 4, 5.00000000000000000000e-01) (191, 4, 5.00000000000000000000e-01) (191, 4, 5.00000000000000000000e-01) (191, 4, 5.00000000000000000000e-01) (191, 4, 5.00000000000000000000e-01) (191, 4, 5.00000000000000000000e-01) (0, 0, 0.00000000000000000000e+00) (11, 4, 5.00000000000000000000e-01) (11, 4, 5.00000000000000000000e-01) (11, 4, 5.00000000000000000000e-01) (11, 4, 5.00000000000000000000e-01) (0, 0, 0.00000000000000000000e+00) 
connections (connected_to_neuron, weight)=(0, -4.10803270339965820312e+00) (1, -3.70180034637451171875e+00) (2, -9.41711235046386718750e+00) (3, 1.73679924011230468750e+00) (4, -4.97998189926147460938e+00) (5, 9.08794975280761718750e+00) (6, -9.54469966888427734375e+00) (7, 3.63579177856445312500e+00) (8, 4.39128875732421875000e-02) (9, 1.06201171875000000000e-01) (10, -6.83951377868652343750e-01) (11, -8.34499931335449218750e+00) (12, -3.61479234695434570312e+00) (13, -5.91369533538818359375e+00) (14, -7.37575531005859375000e+00) (15, 7.98450660705566406250e+00) (16, -7.05856895446777343750e+00) (17, -3.00852918624877929688e+00) (18, 1.39938354492187500000e-01) (19, 5.40052413940429687500e-01) (20, 1.82189464569091796875e+00) (21, 4.77858638763427734375e+00) (22, -9.86205196380615234375e+00) (23, -4.89000558853149414062e+00) (24, -7.28333806991577148438e+00) (25, 3.05353355407714843750e+00) (26, -5.11962938308715820312e+00) (27, -7.06695842742919921875e+00) (28, 2.75845623016357421875e+00) (29, -5.20237112045288085938e+00) (30, 3.15143013000488281250e+00) (31, 8.65042304992675781250e+00) (32, 1.09582901000976562500e+00) (33, 3.73431682586669921875e+00) (34, 3.87222290039062500000e-01) (35, 6.11584663391113281250e+00) (36, 2.82226657867431640625e+00) (37, 8.42523574829101562500e-01) (38, -2.48361587524414062500e-01) (39, -7.13382005691528320312e+00) (40, -9.05127525329589843750e+00) (41, 9.06768798828125000000e+00) (42, -5.47881984710693359375e+00) (43, -2.66606760025024414062e+00) (44, -6.84600782394409179688e+00) (45, -2.85457515716552734375e+00) (46, -4.68156003952026367188e+00) (47, -3.90457630157470703125e+00) (48, 4.13689613342285156250e+00) (49, 5.45837879180908203125e+00) (50, 6.63547515869140625000e+00) (51, -4.04120922088623046875e+00) (52, 2.36964225769042968750e-01) (53, 6.77342414855957031250e+00) (54, 1.06878471374511718750e+00) (55, 2.95362663269042968750e+00) (56, -1.73042297363281250000e-01) (57, 5.94915580749511718750e+00) (58, 5.88666820526123046875e+00) (59, -7.41458511352539062500e+00) (60, -9.25321483612060546875e+00) (61, -9.61902618408203125000e-01) (62, -8.76416110992431640625e+00) (63, 1.84261417388916015625e+00) (64, -7.22758579254150390625e+00) (65, 1.62306213378906250000e+00) (66, -2.04153823852539062500e+00) (67, 5.59468173980712890625e+00) (68, -7.53441476821899414062e+00) (69, 7.71010017395019531250e+00) (70, 8.46086120605468750000e+00) (71, -6.58568954467773437500e+00) (72, 6.77778625488281250000e+00) (73, -7.01795816421508789062e+00) (74, 7.48243331909179687500e-01) (75, 9.93177986145019531250e+00) (76, 1.27467155456542968750e-01) (77, 6.06668281555175781250e+00) (78, -3.97279644012451171875e+00) (79, -5.73563718795776367188e+00) (80, 1.52506065368652343750e+00) (81, -7.33732032775878906250e+00) (82, 2.23154067993164062500e-01) (83, -8.23797416687011718750e+00) (84, 9.43610382080078125000e+00) (85, -8.70806121826171875000e+00) (86, 4.71565246582031250000e+00) (87, -7.36937522888183593750e-01) (88, 7.24109458923339843750e+00) (89, 6.02320671081542968750e-01) (90, 1.84847736358642578125e+00) (91, 7.98788070678710937500e+00) (92, 9.64041709899902343750e+00) (93, 3.08431625366210937500e+00) (94, -1.69505119323730468750e-01) (95, -7.58716821670532226562e+00) (96, -5.29262256622314453125e+00) (97, 7.78895759582519531250e+00) (98, 8.00751304626464843750e+00) (99, -2.82703685760498046875e+00) (100, 5.49905681610107421875e+00) (101, 6.46837425231933593750e+00) (102, 5.87272644042968750000e-01) (103, 2.27684497833251953125e+00) (104, 9.45041656494140625000e+00) (105, -8.66448402404785156250e+00) (106, 2.20862483978271484375e+00) (107, -4.22116279602050781250e-01) (108, 7.40219879150390625000e+00) (109, 8.23582839965820312500e+00) (110, 3.84224605560302734375e+00) (111, -1.07273864746093750000e+00) (112, -9.10149192810058593750e+00) (113, -5.93460035324096679688e+00) (114, 6.89287185668945312500e-01) (115, -9.66538810729980468750e+00) (116, -4.64266109466552734375e+00) (117, -4.59506082534790039062e+00) (118, -4.02325630187988281250e-01) (119, -7.40156555175781250000e+00) (120, 6.00725936889648437500e+00) (121, -8.55384826660156250000e+00) (122, -9.41368484497070312500e+00) (123, 5.64767742156982421875e+00) (124, 4.53046798706054687500e+00) (125, 4.16810035705566406250e-01) (126, 8.06050872802734375000e+00) (127, 9.23784446716308593750e+00) (128, -1.79423236846923828125e+00) (129, 6.06802177429199218750e+00) (130, -3.58919191360473632812e+00) (131, -6.29517555236816406250e+00) (132, 2.53639698028564453125e+00) (133, 6.99808120727539062500e+00) (134, 5.98166942596435546875e+00) (135, 1.98681354522705078125e+00) (136, 8.33359718322753906250e+00) (137, -1.80970668792724609375e+00) (138, -8.43530273437500000000e+00) (139, 5.73579692840576171875e+00) (140, -3.57387781143188476562e+00) (141, 5.40694236755371093750e+00) (142, -5.33694219589233398438e+00) (143, -2.67537021636962890625e+00) (144, 9.47234153747558593750e+00) (145, 5.35234451293945312500e+00) (146, -2.34075784683227539062e+00) (147, -5.17031860351562500000e+00) (148, -9.24271583557128906250e+00) (149, 7.25691604614257812500e+00) (150, -2.57188367843627929688e+00) (151, 6.76454353332519531250e+00) (152, 8.70306777954101562500e+00) (153, -1.98556900024414062500e+00) (154, 2.41222095489501953125e+00) (155, 3.23353481292724609375e+00) (156, 8.43124198913574218750e+00) (157, 4.72730636596679687500e-01) (158, 2.47138118743896484375e+00) (159, -3.36298990249633789062e+00) (160, -3.45924806594848632812e+00) (161, 8.88218879699707031250e+00) (162, 3.41834068298339843750e-01) (163, 9.07714843750000000000e+00) (164, 5.88027000427246093750e+00) (165, -3.67649698257446289062e+00) (166, 1.06396293640136718750e+00) (167, 4.21386718750000000000e+00) (168, 4.51379680633544921875e+00) (169, 2.62866020202636718750e+00) (170, -5.03358840942382812500e-02) (171, -9.06008148193359375000e+00) (172, -1.96439743041992187500e+00) (173, 4.61272239685058593750e+00) (174, -1.73545169830322265625e+00) (175, -2.49205493927001953125e+00) (176, -3.49330902099609375000e-02) (177, 5.92379093170166015625e+00) (178, 2.33762741088867187500e+00) (179, 7.22351074218750000000e-01) (180, 3.18070793151855468750e+00) (181, 9.76574325561523437500e+00) (182, -2.51310491561889648438e+00) (183, 1.88377571105957031250e+00) (184, -2.21982526779174804688e+00) (185, 9.89911460876464843750e+00) (186, -4.88268804550170898438e+00) (187, -3.78858327865600585938e+00) (188, 3.71846199035644531250e-01) (189, 7.58869171142578125000e+00) (190, 2.84842586517333984375e+00) (0, 6.91259765625000000000e+00) (1, 6.47088050842285156250e+00) (2, -6.80973911285400390625e+00) (3, 5.98974704742431640625e+00) (4, 2.35115051269531250000e+00) (5, -4.86235618591308593750e-01) (6, -2.94629001617431640625e+00) (7, -3.43498229980468750000e+00) (8, -5.97243881225585937500e+00) (9, 9.68236923217773437500e+00) (10, 6.51468086242675781250e+00) (11, -5.03251981735229492188e+00) (12, -2.28202772140502929688e+00) (13, 1.12740421295166015625e+00) (14, 3.23202991485595703125e+00) (15, 5.22591781616210937500e+00) (16, -8.90752887725830078125e+00) (17, -8.44180107116699218750e-01) (18, -2.43645572662353515625e+00) (19, 1.81482315063476562500e+00) (20, -7.66347217559814453125e+00) (21, -2.67071247100830078125e+00) (22, 9.30171775817871093750e+00) (23, 4.22030353546142578125e+00) (24, 5.10946178436279296875e+00) (25, 9.20083427429199218750e+00) (26, 9.33761596679687500000e+00) (27, -8.67912101745605468750e+00) (28, -4.27320480346679687500e-01) (29, 6.92630767822265625000e+00) (30, 4.16930580139160156250e+00) (31, -3.51472187042236328125e+00) (32, 3.39718914031982421875e+00) (33, 7.35956573486328125000e+00) (34, -7.52497434616088867188e+00) (35, -4.25165939331054687500e+00) (36, -3.12666940689086914062e+00) (37, -4.71263885498046875000e-01) (38, 2.31335830688476562500e+00) (39, 9.00892257690429687500e-01) (40, -7.88893699645996093750e-01) (41, -1.17195987701416015625e+00) (42, 5.86837196350097656250e+00) (43, 6.92907905578613281250e+00) (44, 9.95544433593750000000e+00) (45, -8.99599075317382812500e-01) (46, 2.15499591827392578125e+00) (47, -8.95208454132080078125e+00) (48, 8.25621986389160156250e+00) (49, 9.71854209899902343750e+00) (50, 2.86273860931396484375e+00) (51, -9.40725135803222656250e+00) (52, -2.95217037200927734375e+00) (53, 2.16445541381835937500e+00) (54, 4.81305217742919921875e+00) (55, -7.84270858764648437500e+00) (56, 1.36528968811035156250e+00) (57, 4.15066814422607421875e+00) (58, -6.52182960510253906250e+00) (59, -9.06203079223632812500e+00) (60, 1.07697582244873046875e+00) (61, 7.64747619628906250000e+00) (62, -2.57675218582153320312e+00) (63, -5.52583456039428710938e+00) (64, 5.00704193115234375000e+00) (65, -1.01726531982421875000e-01) (66, 2.22505569458007812500e-01) (67, -8.11962795257568359375e+00) (68, 9.42700958251953125000e+00) (69, -7.46413612365722656250e+00) (70, 2.78126430511474609375e+00) (71, -1.36188411712646484375e+00) (72, 1.36390399932861328125e+00) (73, -1.35036373138427734375e+00) (74, -4.43280458450317382812e+00) (75, 1.31934833526611328125e+00) (76, 7.75003814697265625000e+00) (77, 7.72219276428222656250e+00) (78, 2.36726379394531250000e+00) (79, 6.00625801086425781250e+00) (80, 7.44073295593261718750e+00) (81, -4.76999759674072265625e+00) (82, 6.59900665283203125000e+00) (83, -5.51143646240234375000e+00) (84, 7.39445686340332031250e+00) (85, 1.41205978393554687500e+00) (86, -3.35414457321166992188e+00) (87, -1.24025249481201171875e+00) (88, -4.43727159500122070312e+00) (89, 1.24025344848632812500e-01) (90, -3.02282333374023437500e-01) (91, 6.63970375061035156250e+00) (92, -2.22849893569946289062e+00) (93, 7.12096595764160156250e+00) (94, -8.88613033294677734375e+00) (95, -7.22145700454711914062e+00) (96, -2.98076105117797851562e+00) (97, 1.33637523651123046875e+00) (98, -5.34108448028564453125e+00) (99, -3.55375099182128906250e+00) (100, 3.87223911285400390625e+00) (101, 7.44017982482910156250e+00) (102, 5.08436584472656250000e+00) (103, -4.76385593414306640625e+00) (104, -3.91018342971801757812e+00) (105, -9.34843921661376953125e+00) (106, 6.55549240112304687500e+00) (107, -6.16014575958251953125e+00) (108, 8.37375450134277343750e+00) (109, -1.07724285125732421875e+00) (110, 9.84611320495605468750e+00) (111, 5.81448745727539062500e+00) (112, 4.15276050567626953125e+00) (113, 6.44512176513671875000e+00) (114, -9.69694900512695312500e+00) (115, 1.54721832275390625000e+00) (116, -2.14281797409057617188e+00) (117, -3.05109405517578125000e+00) (118, -9.69303321838378906250e+00) (119, 3.41991043090820312500e+00) (120, 7.07293128967285156250e+00) (121, 4.68349456787109375000e-03) (122, 5.96151351928710937500e-02) (123, -5.15556716918945312500e+00) (124, -2.87435054779052734375e+00) (125, 1.17348575592041015625e+00) (126, -2.37702417373657226562e+00) (127, 4.14488887786865234375e+00) (128, -7.49013900756835937500e+00) (129, 2.28189086914062500000e+00) (130, -9.40886211395263671875e+00) (131, 6.38210105895996093750e+00) (132, -2.77929306030273437500e-01) (133, 5.67550277709960937500e+00) (134, -8.38175487518310546875e+00) (135, 5.81188774108886718750e+00) (136, 6.32706451416015625000e+00) (137, 8.17373847961425781250e+00) (138, 9.65174102783203125000e+00) (139, 4.70081806182861328125e+00) (140, -2.90350437164306640625e+00) (141, 9.49785423278808593750e+00) (142, 5.15305519104003906250e-01) (143, -8.75074481964111328125e+00) (144, 5.94297599792480468750e+00) (145, 8.18356513977050781250e-01) (146, 2.79647350311279296875e+00) (147, -6.19984149932861328125e+00) (148, 7.76726341247558593750e+00) (149, 3.10343933105468750000e+00) (150, 7.22006797790527343750e+00) (151, 4.84019470214843750000e+00) (152, -6.89187622070312500000e+00) (153, -2.72031688690185546875e+00) (154, 9.68462753295898437500e+00) (155, 2.33774185180664062500e-01) (156, 8.45316886901855468750e+00) (157, -2.69239664077758789062e+00) (158, -5.62133789062500000000e+00) (159, -9.03697013854980468750e+00) (160, 9.58949470520019531250e+00) (161, -5.03020000457763671875e+00) (162, 7.34513092041015625000e+00) (163, -6.88434600830078125000e-01) (164, -9.35469627380371093750e+00) (165, 8.96337509155273437500e+00) (166, -4.87654638290405273438e+00) (167, 6.97236824035644531250e+00) (168, 7.13711357116699218750e+00) (169, -5.22480487823486328125e+00) (170, 1.67318534851074218750e+00) (171, -5.76639080047607421875e+00) (172, -5.72694921493530273438e+00) (173, -7.81150913238525390625e+00) (174, -4.51713514328002929688e+00) (175, -9.78397274017333984375e+00) (176, 3.00684833526611328125e+00) (177, 8.27933883666992187500e+00) (178, -5.98381471633911132812e+00) (179, 7.74110794067382812500e-01) (180, 1.38277912139892578125e+00) (181, -8.76374626159667968750e+00) (182, -4.38569450378417968750e+00) (183, 4.49090385437011718750e+00) (184, -1.48406219482421875000e+00) (185, -4.70106601715087890625e+00) (186, -5.27532291412353515625e+00) (187, -3.03089380264282226562e+00) (188, 2.60653686523437500000e+00) (189, -8.96660804748535156250e-01) (190, -2.06786441802978515625e+00) (0, 2.19603157043457031250e+00) (1, 4.07313919067382812500e+00) (2, -4.72273397445678710938e+00) (3, -8.49240207672119140625e+00) (4, 4.71844291687011718750e+00) (5, -5.75935888290405273438e+00) (6, -3.36894893646240234375e+00) (7, 1.69081115722656250000e+00) (8, -8.62224483489990234375e+00) (9, 1.40624618530273437500e+00) (10, -6.63600349426269531250e+00) (11, -4.38863563537597656250e+00) (12, 5.67929744720458984375e+00) (13, -4.44751214981079101562e+00) (14, 1.09422874450683593750e+00) (15, 5.89532470703125000000e+00) (16, 8.55933570861816406250e+00) (17, -6.26431465148925781250e-01) (18, 9.91150856018066406250e+00) (19, -6.66552543640136718750e-01) (20, -9.24365234375000000000e+00) (21, -8.85223579406738281250e+00) (22, 4.94775295257568359375e+00) (23, 5.24725055694580078125e+00) (24, -3.36297988891601562500e-01) (25, -9.75331306457519531250e+00) (26, 9.97192764282226562500e+00) (27, 6.63280868530273437500e+00) (28, 2.85322380065917968750e+00) (29, -9.24733161926269531250e-01) (30, -5.43505573272705078125e+00) (31, -4.95074415206909179688e+00) (32, -6.85159301757812500000e+00) (33, -1.57790184020996093750e-01) (34, -3.44314622879028320312e+00) (35, 7.86684989929199218750e+00) (36, 4.08285140991210937500e+00) (37, 3.18790435791015625000e+00) (38, -4.42338943481445312500e-01) (39, 5.46060657501220703125e+00) (40, -5.40584850311279296875e+00) (41, 2.92165756225585937500e+00) (42, -8.92802906036376953125e+00) (43, -9.72655105590820312500e+00) (44, 8.47414588928222656250e+00) (45, 2.16619968414306640625e+00) (46, 6.16877365112304687500e+00) (47, 7.03348159790039062500e+00) (48, -8.46023178100585937500e+00) (49, 6.08028411865234375000e+00) (50, -3.63307142257690429688e+00) (51, -7.70388412475585937500e+00) (52, 7.22804832458496093750e+00) (53, -8.68531799316406250000e+00) (54, 7.54336547851562500000e+00) (55, -3.10825014114379882812e+00) (56, -8.43863105773925781250e+00) (57, 7.51529502868652343750e+00) (58, -6.47544097900390625000e+00) (59, 4.41459274291992187500e+00) (60, -3.40943861007690429688e+00) (61, -1.91049671173095703125e+00) (62, 9.46384811401367187500e+00) (63, -2.61031150817871093750e-01) (64, 7.93171310424804687500e+00) (65, -3.97929811477661132812e+00) (66, -2.39418172836303710938e+00) (67, 2.01456451416015625000e+00) (68, 9.20860671997070312500e+00) (69, 7.16347885131835937500e+00) (70, -2.52482891082763671875e+00) (71, -6.19724178314208984375e+00) (72, 8.51364135742187500000e-02) (73, -1.45285797119140625000e+00) (74, -5.92379331588745117188e+00) (75, -1.44071674346923828125e+00) (76, -9.28665828704833984375e+00) (77, -9.75501918792724609375e+00) (78, -4.40723562240600585938e+00) (79, -7.74688959121704101562e+00) (80, 6.32526397705078125000e+00) (81, 1.95969295501708984375e+00) (82, -5.45077371597290039062e+00) (83, 3.55331325531005859375e+00) (84, 3.27437496185302734375e+00) (85, -7.90740776062011718750e+00) (86, -9.55493736267089843750e+00) (87, 4.83574390411376953125e+00) (88, 9.60788536071777343750e+00) (89, -6.03037834167480468750e+00) (90, -7.49663352966308593750e-01) (91, -3.80155229568481445312e+00) (92, 2.05912494659423828125e+00) (93, -1.28581523895263671875e+00) (94, 5.93741607666015625000e+00) (95, -9.16194915771484375000e-03) (96, 4.73488712310791015625e+00) (97, -6.45676469802856445312e+00) (98, -7.99459743499755859375e+00) (99, 3.94349288940429687500e+00) (100, -9.29328536987304687500e+00) (101, -5.19426345825195312500e-01) (102, 7.74625205993652343750e+00) (103, 7.91851997375488281250e-01) (104, 8.02771568298339843750e+00) (105, -8.17754077911376953125e+00) (106, 9.35113525390625000000e+00) (107, 8.74105834960937500000e+00) (108, -7.93256044387817382812e+00) (109, -5.05610036849975585938e+00) (110, -9.00583171844482421875e+00) (111, 8.39270401000976562500e+00) (112, 6.90359306335449218750e+00) (113, -4.45660543441772460938e+00) (114, 1.94601631164550781250e+00) (115, 1.77967071533203125000e-01) (116, -2.36401319503784179688e+00) (117, 2.39107990264892578125e+00) (118, -4.98628807067871093750e+00) (119, -2.75612640380859375000e+00) (120, 6.36070060729980468750e+00) (121, 4.26404857635498046875e+00) (122, 3.44232177734375000000e+00) (123, -1.58017444610595703125e+00) (124, -7.02176666259765625000e+00) (125, -6.20262145996093750000e-01) (126, 8.41066360473632812500e+00) (127, 7.71312141418457031250e+00) (128, 2.92297363281250000000e+00) (129, -9.58393383026123046875e+00) (130, 1.65661430358886718750e+00) (131, 3.62968826293945312500e+00) (132, -1.03360176086425781250e-01) (133, -5.97133636474609375000e-01) (134, -5.57845973968505859375e+00) (135, -2.07564401626586914062e+00) (136, 1.22532558441162109375e+00) (137, -6.22732448577880859375e+00) (138, -3.33458614349365234375e+00) (139, 3.29276561737060546875e+00) (140, -1.28342437744140625000e+00) (141, -2.34041833877563476562e+00) (142, 1.68546867370605468750e+00) (143, -4.37983179092407226562e+00) (144, 3.20297718048095703125e+00) (145, -6.36851406097412109375e+00) (146, 5.79813575744628906250e+00) (147, -9.16103649139404296875e+00) (148, 6.02256584167480468750e+00) (149, -9.18815135955810546875e+00) (150, -1.91716289520263671875e+00) (151, 2.38326644897460937500e+00) (152, 5.07589721679687500000e+00) (153, -8.47484207153320312500e+00) (154, -9.19690704345703125000e+00) (155, 8.05413055419921875000e+00) (156, 9.04895782470703125000e-01) (157, 9.21375656127929687500e+00) (158, 5.76725101470947265625e+00) (159, -6.17213010787963867188e+00) (160, 9.62982177734375000000e+00) (161, -2.57613372802734375000e+00) (162, 7.45755767822265625000e+00) (163, -4.73536491394042968750e-01) (164, 6.82673263549804687500e+00) (165, -8.12090110778808593750e+00) (166, 7.45081901550292968750e+00) (167, -1.94794178009033203125e+00) (168, -4.34822559356689453125e+00) (169, -5.88376665115356445312e+00) (170, -8.65517616271972656250e+00) (171, 4.36834907531738281250e+00) (172, 1.77581501007080078125e+00) (173, 3.03029441833496093750e+00) (174, 9.98851776123046875000e+00) (175, -5.02120780944824218750e+00) (176, 6.66177940368652343750e+00) (177, 5.78665351867675781250e+00) (178, -4.18224477767944335938e+00) (179, 2.68434619903564453125e+00) (180, 6.59850120544433593750e+00) (181, 3.90059185028076171875e+00) (182, -4.93238687515258789062e+00) (183, 1.67439937591552734375e+00) (184, 5.42574977874755859375e+00) (185, -4.12929344177246093750e+00) (186, -2.71470069885253906250e-01) (187, -3.66935300827026367188e+00) (188, -4.91553688049316406250e+00) (189, -4.50421857833862304688e+00) (190, 1.58515930175781250000e-01) (0, -5.28571367263793945312e+00) (1, 2.91964721679687500000e+00) (2, -2.38392543792724609375e+00) (3, 4.24075031280517578125e+00) (4, -2.53620147705078125000e-01) (5, -5.04827499389648437500e-01) (6, 1.69157028198242187500e+00) (7, 7.79843902587890625000e+00) (8, 5.14694690704345703125e+00) (9, 5.80780410766601562500e+00) (10, 9.14326477050781250000e+00) (11, -4.84703063964843750000e-01) (12, -2.41638135910034179688e+00) (13, 2.17355728149414062500e+00) (14, -4.96185302734375000000e-01) (15, 2.56241035461425781250e+00) (16, -1.16466236114501953125e+00) (17, -4.70953178405761718750e+00) (18, 8.38016510009765625000e+00) (19, -8.48031616210937500000e+00) (20, -8.11102962493896484375e+00) (21, 2.28075885772705078125e+00) (22, -3.41270256042480468750e+00) (23, 3.56336975097656250000e+00) (24, -2.29349088668823242188e+00) (25, 2.45800399780273437500e+00) (26, -6.70810031890869140625e+00) (27, 4.03715610504150390625e+00) (28, 7.54246711730957031250e+00) (29, -1.21231937408447265625e+00) (30, -5.80432748794555664062e+00) (31, -7.74324703216552734375e+00) (32, -8.29267120361328125000e+00) (33, 1.81174755096435546875e+00) (34, 6.49750328063964843750e+00) (35, 1.45370960235595703125e+00) (36, -8.69307899475097656250e+00) (37, -1.81092643737792968750e+00) (38, -7.47851371765136718750e-01) (39, 6.45386695861816406250e+00) (40, -6.00312328338623046875e+00) (41, -1.60458755493164062500e+00) (42, -4.03083515167236328125e+00) (43, 1.58049583435058593750e+00) (44, -9.43102931976318359375e+00) (45, 5.47297954559326171875e+00) (46, -5.85709333419799804688e+00) (47, -5.95691680908203125000e-01) (48, -9.23655223846435546875e+00) (49, -7.47692680358886718750e+00) (50, 9.23992156982421875000e-01) (51, -7.34758186340332031250e+00) (52, 4.80383110046386718750e+00) (53, 7.51128959655761718750e+00) (54, 6.21578788757324218750e+00) (55, -7.48965835571289062500e+00) (56, -3.07073593139648437500e-02) (57, 9.50768661499023437500e+00) (58, 6.54749679565429687500e+00) (59, -2.48824071884155273438e+00) (60, -1.70463180541992187500e+00) (61, -9.25682926177978515625e+00) (62, -2.31487274169921875000e-01) (63, 2.69794464111328125000e-03) (64, 2.55491733551025390625e+00) (65, -3.73398351669311523438e+00) (66, -8.54359340667724609375e+00) (67, 3.86183834075927734375e+00) (68, 4.45508956909179687500e+00) (69, 7.08555221557617187500e-01) (70, 3.15706253051757812500e-01) (71, 8.45196533203125000000e+00) (72, 9.10396766662597656250e+00) (73, 6.28487014770507812500e+00) (74, 3.24621200561523437500e-02) (75, 9.67293739318847656250e+00) (76, 1.75785064697265625000e+00) (77, 4.17536830902099609375e+00) (78, -9.22753334045410156250e-01) (79, 2.52129745483398437500e+00) (80, 6.69844245910644531250e+00) (81, -9.99876117706298828125e+00) (82, 5.17371559143066406250e+00) (83, 1.50227451324462890625e+00) (84, 7.51252937316894531250e+00) (85, 1.38950347900390625000e+00) (86, 4.01261520385742187500e+00) (87, -2.51817893981933593750e+00) (88, 8.97190093994140625000e-01) (89, 5.60112953186035156250e-01) (90, 4.99358081817626953125e+00) (91, 9.19256019592285156250e+00) (92, 1.30328369140625000000e+00) (93, -5.23790693283081054688e+00) (94, -8.04743766784667968750e-01) (95, -6.14179849624633789062e+00) (96, 1.02810955047607421875e+00) (97, 6.51663780212402343750e-01) (98, 7.72003936767578125000e+00) (99, -4.51680135726928710938e+00) (100, -8.63978099822998046875e+00) (101, -1.96425437927246093750e+00) (102, -6.06483459472656250000e+00) (103, -9.53581333160400390625e+00) (104, -5.67938280105590820312e+00) (105, 3.96762752532958984375e+00) (106, -9.86287498474121093750e+00) (107, 6.07846641540527343750e+00) (108, -1.85700416564941406250e+00) (109, -7.85628318786621093750e-01) (110, -1.40023517608642578125e+00) (111, -5.15856122970581054688e+00) (112, -7.84388542175292968750e-01) (113, -6.22651863098144531250e+00) (114, 6.34371185302734375000e+00) (115, -3.27186059951782226562e+00) (116, 5.16298484802246093750e+00) (117, 3.56329917907714843750e-01) (118, 4.20996093750000000000e+00) (119, -3.93982410430908203125e+00) (120, -9.08355712890625000000e+00) (121, -7.96459197998046875000e-01) (122, -4.74726438522338867188e+00) (123, 2.21972656250000000000e+00) (124, 3.96563434600830078125e+00) (125, 4.44799137115478515625e+00) (126, 6.07792854309082031250e+00) (127, -5.00625658035278320312e+00) (128, -4.90034484863281250000e+00) (129, 3.79796886444091796875e+00) (130, 4.76942062377929687500e-01) (131, -3.54012632369995117188e+00) (132, -8.16628551483154296875e+00) (133, 4.41210746765136718750e+00) (134, -3.07593870162963867188e+00) (135, -3.84566831588745117188e+00) (136, -1.62026500701904296875e+00) (137, -2.93881416320800781250e+00) (138, -7.76720046997070312500e+00) (139, 6.52273178100585937500e+00) (140, 6.27555847167968750000e+00) (141, 8.32564353942871093750e-01) (142, -8.63582897186279296875e+00) (143, -4.50883102416992187500e+00) (144, 4.60604667663574218750e+00) (145, 7.70788383483886718750e+00) (146, 2.21930885314941406250e+00) (147, -2.30968475341796875000e-01) (148, -1.93578720092773437500e+00) (149, -3.57073116302490234375e+00) (150, 5.82920742034912109375e+00) (151, -1.01934432983398437500e+00) (152, 5.63281059265136718750e+00) (153, -8.91805648803710937500e+00) (154, -8.79961776733398437500e+00) (155, -4.01556015014648437500e-01) (156, 5.52993488311767578125e+00) (157, 7.27831077575683593750e+00) (158, 4.59218692779541015625e+00) (159, -9.37040901184082031250e+00) (160, 1.07627868652343750000e+00) (161, -4.93087053298950195312e+00) (162, -2.91053485870361328125e+00) (163, 2.90999317169189453125e+00) (164, 9.48123741149902343750e+00) (165, 4.01352596282958984375e+00) (166, 9.06432533264160156250e+00) (167, -2.13902759552001953125e+00) (168, -8.92528820037841796875e+00) (169, -8.70287513732910156250e+00) (170, -5.61629581451416015625e+00) (171, 7.35027122497558593750e+00) (172, 2.12968921661376953125e+00) (173, -4.25212526321411132812e+00) (174, -7.15856075286865234375e+00) (175, -3.26426410675048828125e+00) (176, -6.54424095153808593750e+00) (177, 5.06074810028076171875e+00) (178, 6.50476837158203125000e+00) (179, 1.51997184753417968750e+00) (180, -8.50998306274414062500e+00) (181, 2.33397579193115234375e+00) (182, -9.49937152862548828125e+00) (183, 7.12282562255859375000e+00) (184, 3.41591835021972656250e+00) (185, -8.29898929595947265625e+00) (186, -3.27872943878173828125e+00) (187, -1.05414581298828125000e+00) (188, 8.97932052612304687500e+00) (189, -8.68654251098632812500e+00) (190, -4.24554824829101562500e-01) (0, 5.56001663208007812500e-02) (1, -3.61741256713867187500e+00) (2, 6.66490936279296875000e+00) (3, -7.03440570831298828125e+00) (4, -4.13617563247680664062e+00) (5, 6.78436279296875000000e-01) (6, -7.97008037567138671875e+00) (7, 3.72479629516601562500e+00) (8, 1.75314903259277343750e+00) (9, -6.67295551300048828125e+00) (10, 8.10850143432617187500e+00) (11, -8.96580696105957031250e-01) (12, 5.45673370361328125000e+00) (13, -6.14362335205078125000e+00) (14, 1.94485759735107421875e+00) (15, -7.80752944946289062500e+00) (16, -2.68786430358886718750e+00) (17, -2.99439430236816406250e+00) (18, 8.69723701477050781250e+00) (19, 8.83210754394531250000e+00) (20, -1.50437831878662109375e+00) (21, 1.03121376037597656250e+00) (22, 9.33273696899414062500e+00) (23, -4.38155126571655273438e+00) (24, -5.55286788940429687500e+00) (25, -8.96625232696533203125e+00) (26, 2.33971977233886718750e+00) (27, 3.39298629760742187500e+00) (28, -9.98692989349365234375e+00) (29, 3.65317821502685546875e+00) (30, -7.03156852722167968750e+00) (31, 6.86702728271484375000e-02) (32, -9.96423435211181640625e+00) (33, 9.63334083557128906250e+00) (34, 3.03426456451416015625e+00) (35, -4.10041046142578125000e+00) (36, 3.11779022216796875000e-01) (37, 5.06418418884277343750e+00) (38, 9.62438583374023437500e+00) (39, -7.93507194519042968750e+00) (40, 8.39122772216796875000e+00) (41, 7.73288726806640625000e+00) (42, 1.16834735870361328125e+00) (43, 3.84796237945556640625e+00) (44, -8.41073513031005859375e+00) (45, -6.88679456710815429688e+00) (46, 6.04043197631835937500e+00) (47, -1.09859943389892578125e+00) (48, 1.18810653686523437500e-01) (49, 4.73766994476318359375e+00) (50, -2.26649188995361328125e+00) (51, 8.61443328857421875000e+00) (52, -4.23111581802368164062e+00) (53, -2.93375492095947265625e+00) (54, -5.76711702346801757812e+00) (55, 2.16016769409179687500e-01) (56, -1.90000724792480468750e+00) (57, 6.57260322570800781250e+00) (58, -6.39099693298339843750e+00) (59, -1.88693809509277343750e+00) (60, 2.25779533386230468750e-01) (61, -3.42256498336791992188e+00) (62, 8.18173217773437500000e+00) (63, 2.61545181274414062500e-01) (64, -3.78922271728515625000e+00) (65, 1.21599769592285156250e+00) (66, 6.16113471984863281250e+00) (67, 6.52255630493164062500e+00) (68, -3.71981811523437500000e+00) (69, 5.78552246093750000000e+00) (70, 8.58748435974121093750e+00) (71, -5.32858943939208984375e+00) (72, 3.51841068267822265625e+00) (73, -2.44169235229492187500e-01) (74, 8.51937294006347656250e+00) (75, 5.10767555236816406250e+00) (76, 2.86903762817382812500e+00) (77, 4.55980491638183593750e+00) (78, -5.99092388153076171875e+00) (79, -7.01215171813964843750e+00) (80, -7.02523231506347656250e-01) (81, 1.74258422851562500000e+00) (82, -8.39771747589111328125e+00) (83, 5.06636142730712890625e+00) (84, 8.80883026123046875000e+00) (85, -4.16483449935913085938e+00) (86, -4.71762180328369140625e+00) (87, -3.09117746353149414062e+00) (88, -7.59223175048828125000e+00) (89, -1.10861873626708984375e+00) (90, 5.02188587188720703125e+00) (91, 2.63354873657226562500e+00) (92, 5.46881675720214843750e+00) (93, 3.20361804962158203125e+00) (94, -7.10490608215332031250e+00) (95, -8.32040596008300781250e+00) (96, -5.58038425445556640625e+00) (97, 9.05622863769531250000e+00) (98, 8.20215034484863281250e+00) (99, 6.99797630310058593750e-01) (100, 4.84175205230712890625e+00) (101, 6.78963470458984375000e+00) (102, 5.37120819091796875000e+00) (103, -1.63983631134033203125e+00) (104, -3.45453405380249023438e+00) (105, 3.89058113098144531250e+00) (106, -6.53216075897216796875e+00) (107, 9.41450309753417968750e+00) (108, -1.54961204528808593750e+00) (109, -2.52308416366577148438e+00) (110, -7.59764766693115234375e+00) (111, 7.74786376953125000000e+00) (112, 9.21950149536132812500e+00) (113, -5.99536561965942382812e+00) (114, 2.81422615051269531250e+00) (115, 8.02832984924316406250e+00) (116, -1.60200119018554687500e-01) (117, 8.09660339355468750000e+00) (118, -5.06284666061401367188e+00) (119, 2.24756813049316406250e+00) (120, -3.01201486587524414062e+00) (121, 9.95903778076171875000e+00) (122, -5.11888313293457031250e+00) (123, -7.54319858551025390625e+00) (124, 3.16265678405761718750e+00) (125, -2.22378873825073242188e+00) (126, -5.86360454559326171875e+00) (127, 7.58227157592773437500e+00) (128, -3.16755914688110351562e+00) (129, -7.66145467758178710938e+00) (130, -1.71792984008789062500e+00) (131, -8.32580661773681640625e+00) (132, 9.12817955017089843750e+00) (133, -6.34672069549560546875e+00) (134, 3.43561172485351562500e-02) (135, -4.32635354995727539062e+00) (136, 7.54385948181152343750e+00) (137, 3.50219631195068359375e+00) (138, -4.91185092926025390625e+00) (139, -4.00575160980224609375e+00) (140, -9.02088832855224609375e+00) (141, -2.50949859619140625000e+00) (142, -6.25788688659667968750e+00) (143, -9.80138778686523437500e+00) (144, 1.49513626098632812500e+00) (145, 6.55633735656738281250e+00) (146, 8.22694206237792968750e+00) (147, -8.66506385803222656250e+00) (148, 4.65294265747070312500e+00) (149, -6.83590412139892578125e+00) (150, 3.58250522613525390625e+00) (151, -8.35907268524169921875e+00) (152, -6.87686538696289062500e+00) (153, 8.46362113952636718750e+00) (154, -5.90227079391479492188e+00) (155, 6.28579139709472656250e+00) (156, -3.76016759872436523438e+00) (157, -1.76587581634521484375e+00) (158, 3.86806488037109375000e+00) (159, 3.07227325439453125000e+00) (160, 5.72669029235839843750e-01) (161, -7.84986495971679687500e+00) (162, 4.74646663665771484375e+00) (163, -2.99150466918945312500e-01) (164, -4.19658565521240234375e+00) (165, -5.21917629241943359375e+00) (166, 5.37449550628662109375e+00) (167, -6.65272474288940429688e+00) (168, 8.28302001953125000000e+00) (169, -9.53735446929931640625e+00) (170, -6.58476829528808593750e-01) (171, 9.26213073730468750000e+00) (172, -2.04685354232788085938e+00) (173, 3.08363628387451171875e+00) (174, 9.46074295043945312500e+00) (175, 9.44828224182128906250e+00) (176, -3.60024452209472656250e-01) (177, 7.68768692016601562500e+00) (178, -9.21678066253662109375e+00) (179, -5.70708274841308593750e+00) (180, -9.14821720123291015625e+00) (181, 4.36572456359863281250e+00) (182, -4.06615495681762695312e+00) (183, -6.02508258819580078125e+00) (184, 2.82934570312500000000e+00) (185, 3.15752029418945312500e-02) (186, -9.73929023742675781250e+00) (187, 9.06917762756347656250e+00) (188, 8.26569938659667968750e+00) (189, 4.12877464294433593750e+00) (190, 2.14145183563232421875e+00) (0, -1.16163063049316406250e+00) (1, 6.27890968322753906250e+00) (2, -3.11208057403564453125e+00) (3, 8.53921890258789062500e+00) (4, -7.91767692565917968750e+00) (5, 1.66874408721923828125e+00) (6, 3.91371440887451171875e+00) (7, -4.57040119171142578125e+00) (8, -4.82368469238281250000e-02) (9, 4.37635993957519531250e+00) (10, 4.77112293243408203125e+00) (11, -7.86105155944824218750e-01) (12, -7.67049264907836914062e+00) (13, -2.14524030685424804688e+00) (14, -1.32536220550537109375e+00) (15, -8.22220993041992187500e+00) (16, 7.49473381042480468750e+00) (17, -3.63767576217651367188e+00) (18, -7.43899011611938476562e+00) (19, -8.21234703063964843750e+00) (20, -2.78589248657226562500e+00) (21, 6.92673301696777343750e+00) (22, -2.27850198745727539062e+00) (23, 1.18902397155761718750e+00) (24, -2.43921279907226562500e-01) (25, 7.75307083129882812500e+00) (26, 1.44973373413085937500e+00) (27, -1.17474269866943359375e+00) (28, 6.01877021789550781250e+00) (29, -4.42149162292480468750e+00) (30, -9.03328990936279296875e+00) (31, -5.14285945892333984375e+00) (32, -8.14258289337158203125e+00) (33, -2.14537096023559570312e+00) (34, -6.60364055633544921875e+00) (35, -6.06025981903076171875e+00) (36, 9.52337265014648437500e+00) (37, 7.31007385253906250000e+00) (38, -6.30661010742187500000e-01) (39, -5.24864196777343750000e-01) (40, 1.68643474578857421875e+00) (41, -5.85953807830810546875e+00) (42, 8.68903160095214843750e+00) (43, 4.01594257354736328125e+00) (44, 1.99522113800048828125e+00) (45, -2.63633060455322265625e+00) (46, 5.79373264312744140625e+00) (47, -5.10044097900390625000e-01) (48, 3.72599315643310546875e+00) (49, 8.35474205017089843750e+00) (50, 1.27760887145996093750e+00) (51, -9.05989837646484375000e+00) (52, 5.28147602081298828125e+00) (53, 8.99910736083984375000e+00) (54, 2.12912654876708984375e+00) (55, -4.96244478225708007812e+00) (56, 6.75217819213867187500e+00) (57, -6.42113924026489257812e+00) (58, 3.86281204223632812500e+00) (59, 2.77094936370849609375e+00) (60, -8.42631340026855468750e-01) (61, 4.82952213287353515625e+00) (62, 7.62808990478515625000e+00) (63, 1.01478576660156250000e+00) (64, -7.31584835052490234375e+00) (65, -8.97554969787597656250e+00) (66, 4.95452594757080078125e+00) (67, -7.79247522354125976562e+00) (68, 8.33452415466308593750e+00) (69, -5.67613458633422851562e+00) (70, 1.68266010284423828125e+00) (71, 2.09589004516601562500e-02) (72, -1.53567314147949218750e+00) (73, 3.71691703796386718750e-01) (74, -5.96309804916381835938e+00) (75, -9.54045104980468750000e+00) (76, 7.73536109924316406250e+00) (77, 9.83063507080078125000e+00) (78, -5.04951477050781250000e-02) (79, 1.46135520935058593750e+00) (80, 8.18537712097167968750e+00) (81, -8.77288627624511718750e+00) (82, 2.40145778656005859375e+00) (83, 3.46685409545898437500e+00) (84, -9.77377986907958984375e+00) (85, -5.46941614151000976562e+00) (86, 8.50440979003906250000e+00) (87, 6.97839736938476562500e+00) (88, -1.89055538177490234375e+00) (89, 2.36722183227539062500e+00) (90, -2.50651359558105468750e-01) (91, 7.26681327819824218750e+00) (92, -2.80325555801391601562e+00) (93, -2.62256050109863281250e+00) (94, -1.71840095520019531250e+00) (95, -1.19104385375976562500e-01) (96, -1.59811019897460937500e+00) (97, -6.76387453079223632812e+00) (98, 2.08842182159423828125e+00) (99, -3.26358556747436523438e+00) (100, -2.44000911712646484375e+00) (101, -6.22891759872436523438e+00) (102, 6.75737380981445312500e+00) (103, 6.02431678771972656250e+00) (104, 4.14277458190917968750e+00) (105, -9.20572280883789062500e+00) (106, 6.48386764526367187500e+00) (107, 1.87813663482666015625e+00) (108, -9.37508773803710937500e+00) (109, -3.56662797927856445312e+00) (110, -6.66050720214843750000e+00) (111, 8.81028938293457031250e+00) (112, -2.33951473236083984375e+00) (113, 5.74094963073730468750e+00) (114, 2.27714443206787109375e+00) (115, -2.11329460144042968750e+00) (116, -9.72846508026123046875e+00) (117, 7.81552314758300781250e-01) (118, -5.13489580154418945312e+00) (119, -1.61902046203613281250e+00) (120, -6.85122489929199218750e+00) (121, 4.61445331573486328125e+00) (122, -4.35220718383789062500e+00) (123, 3.45520019531250000000e-01) (124, -8.00810718536376953125e+00) (125, 3.92939186096191406250e+00) (126, -9.77358341217041015625e+00) (127, 3.93782615661621093750e-01) (128, 7.16551780700683593750e+00) (129, 2.31483650207519531250e+00) (130, 7.13019752502441406250e+00) (131, -5.27449178695678710938e+00) (132, 6.08592033386230468750e+00) (133, 3.88757228851318359375e+00) (134, -9.25017356872558593750e+00) (135, 2.28694915771484375000e-01) (136, 4.68184852600097656250e+00) (137, 7.23369407653808593750e+00) (138, -7.89316892623901367188e+00) (139, 5.30675983428955078125e+00) (140, -6.33293437957763671875e+00) (141, -4.55367612838745117188e+00) (142, 4.11705017089843750000e+00) (143, 1.32755184173583984375e+00) (144, -8.81272506713867187500e+00) (145, -3.60580635070800781250e+00) (146, 9.21425628662109375000e+00) (147, -8.54119110107421875000e+00) (148, 7.17574691772460937500e+00) (149, -5.92063903808593750000e+00) (150, -1.60212516784667968750e-01) (151, -9.67547798156738281250e+00) (152, 8.69381332397460937500e+00) (153, 5.48758029937744140625e+00) (154, 6.70042037963867187500e-01) (155, -9.31429290771484375000e+00) (156, -5.83027839660644531250e-01) (157, 8.96458625793457031250e-01) (158, 1.07948970794677734375e+00) (159, -3.41751003265380859375e+00) (160, -6.78870439529418945312e+00) (161, -1.79031276702880859375e+00) (162, 1.30799770355224609375e+00) (163, 9.29721641540527343750e+00) (164, -7.90274095535278320312e+00) (165, 2.05782413482666015625e+00) (166, -4.74090576171875000000e-01) (167, 6.77910804748535156250e+00) (168, -7.08481788635253906250e-01) (169, 1.63274002075195312500e+00) (170, 2.08586788177490234375e+00) (171, 2.95858383178710937500e+00) (172, 7.07906532287597656250e+00) (173, -3.79708194732666015625e+00) (174, -5.71386575698852539062e+00) (175, 8.26633834838867187500e+00) (176, 2.59711265563964843750e+00) (177, -6.49960899353027343750e+00) (178, 9.72514915466308593750e+00) (179, -2.27141380310058593750e-01) (180, -2.42024803161621093750e+00) (181, -4.35063362121582031250e-01) (182, 9.73806381225585937500e-02) (183, -3.72643375396728515625e+00) (184, -4.94748258590698242188e+00) (185, -9.23257637023925781250e+00) (186, -3.04072618484497070312e+00) (187, 4.46949005126953125000e+00) (188, 1.66388130187988281250e+00) (189, 8.03876304626464843750e+00) (190, -8.94801998138427734375e+00) (0, 4.87517738342285156250e+00) (1, -3.75154876708984375000e+00) (2, 2.35997772216796875000e+00) (3, 4.17239284515380859375e+00) (4, -1.65428924560546875000e+00) (5, -5.58219718933105468750e+00) (6, -6.30169773101806640625e+00) (7, -4.87518215179443359375e+00) (8, 3.70932102203369140625e+00) (9, 5.33104419708251953125e+00) (10, 7.21068572998046875000e+00) (11, -3.33209514617919921875e+00) (12, 2.41010856628417968750e+00) (13, -6.58639621734619140625e+00) (14, 9.54038619995117187500e-01) (15, 6.76447868347167968750e-01) (16, 6.01071548461914062500e+00) (17, 4.45443058013916015625e+00) (18, 4.01597023010253906250e-01) (19, -4.21642494201660156250e+00) (20, -7.96581745147705078125e+00) (21, 9.96653366088867187500e+00) (22, 5.88095664978027343750e+00) (23, -1.69225025177001953125e+00) (24, -4.98094940185546875000e+00) (25, 6.64838027954101562500e+00) (26, 5.26702308654785156250e+00) (27, 9.48854064941406250000e+00) (28, -1.68773841857910156250e+00) (29, 3.30578708648681640625e+00) (30, -9.45947837829589843750e+00) (31, -6.81256055831909179688e+00) (32, 9.55423736572265625000e+00) (33, 2.90049934387207031250e+00) (34, 7.35983276367187500000e+00) (35, -2.10005092620849609375e+00) (36, 7.31830215454101562500e+00) (37, -8.94186592102050781250e+00) (38, 3.02476596832275390625e+00) (39, 1.02762317657470703125e+00) (40, 6.38917732238769531250e+00) (41, 2.35452651977539062500e-01) (42, 7.69552803039550781250e+00) (43, -1.20071315765380859375e+00) (44, 3.64905738830566406250e+00) (45, -1.35043239593505859375e+00) (46, 9.47573471069335937500e+00) (47, -3.40228080749511718750e-01) (48, -6.89600229263305664062e+00) (49, -1.22668266296386718750e-01) (50, 5.44334793090820312500e+00) (51, -4.86181974411010742188e+00) (52, -1.56135559082031250000e-01) (53, 1.32430553436279296875e+00) (54, 3.44592952728271484375e+00) (55, 4.86291599273681640625e+00) (56, -2.02731513977050781250e+00) (57, -1.28704738616943359375e+00) (58, 4.35145759582519531250e+00) (59, 6.28494644165039062500e+00) (60, -7.98126029968261718750e+00) (61, 4.89197826385498046875e+00) (62, 9.47238731384277343750e+00) (63, -8.42702102661132812500e+00) (64, -2.20752191543579101562e+00) (65, 6.83221817016601562500e+00) (66, -5.27072906494140625000e-01) (67, -4.88921928405761718750e+00) (68, 7.89035224914550781250e+00) (69, -7.50230598449707031250e+00) (70, 6.13840293884277343750e+00) (71, 4.27953147888183593750e+00) (72, 2.73314571380615234375e+00) (73, 3.83393192291259765625e+00) (74, -6.92118167877197265625e+00) (75, -3.61779689788818359375e+00) (76, -7.51650142669677734375e+00) (77, -7.44544696807861328125e+00) (78, 6.04197502136230468750e+00) (79, -4.41250371932983398438e+00) (80, 2.43188476562500000000e+00) (81, 1.48532390594482421875e+00) (82, 7.25676536560058593750e-01) (83, -7.72424983978271484375e+00) (84, -7.19037055969238281250e+00) (85, -5.82839393615722656250e+00) (86, 7.13866615295410156250e+00) (87, 7.82314300537109375000e-01) (88, 2.88455963134765625000e+00) (89, 1.49012279510498046875e+00) (90, -2.93273830413818359375e+00) (91, 4.90329933166503906250e+00) (92, -3.61789846420288085938e+00) (93, -3.46035194396972656250e+00) (94, 6.47627830505371093750e+00) (95, 4.17457962036132812500e+00) (96, -6.62813282012939453125e+00) (97, -4.05079507827758789062e+00) (98, 9.28536033630371093750e+00) (99, -8.73778057098388671875e+00) (100, -1.55310153961181640625e+00) (101, 5.42376422882080078125e+00) (102, 5.54175090789794921875e+00) (103, -8.81995487213134765625e+00) (104, -7.42304801940917968750e-01) (105, 8.62056922912597656250e+00) (106, -2.43775129318237304688e+00) (107, 1.74119472503662109375e+00) (108, -8.82487773895263671875e+00) (109, -6.39577579498291015625e+00) (110, 7.32869148254394531250e+00) (111, 3.60700702667236328125e+00) (112, 5.08954906463623046875e+00) (113, -1.94563198089599609375e+00) (114, 5.88275623321533203125e+00) (115, 7.89917755126953125000e+00) (116, 2.22597312927246093750e+00) (117, 3.02142333984375000000e+00) (118, -1.31850814819335937500e+00) (119, -4.88946676254272460938e+00) (120, -5.48845338821411132812e+00) (121, 5.74875354766845703125e+00) (122, -9.98616695404052734375e+00) (123, 8.93649101257324218750e-01) (124, -7.71159791946411132812e+00) (125, 6.49011039733886718750e+00) (126, -4.93177175521850585938e+00) (127, -4.33973121643066406250e+00) (128, -7.56068468093872070312e+00) (129, -5.64641141891479492188e+00) (130, -3.07751131057739257812e+00) (131, 8.86213302612304687500e-01) (132, 9.77735328674316406250e+00) (133, -7.53575992584228515625e+00) (134, 2.06625938415527343750e+00) (135, -9.64951515197753906250e-01) (136, -8.91519069671630859375e+00) (137, 9.62850761413574218750e+00) (138, -9.22375679016113281250e+00) (139, -7.74006843566894531250e+00) (140, -6.76726770401000976562e+00) (141, 8.10493469238281250000e+00) (142, 5.86693859100341796875e+00) (143, 8.32228088378906250000e+00) (144, -3.84069728851318359375e+00) (145, 1.74969577789306640625e+00) (146, 6.22145843505859375000e+00) (147, 8.38527679443359375000e+00) (148, -5.22888088226318359375e+00) (149, -5.09704923629760742188e+00) (150, -6.50419044494628906250e+00) (151, -7.17334747314453125000e-01) (152, -9.34829521179199218750e+00) (153, -6.49035787582397460938e+00) (154, -9.82368564605712890625e+00) (155, -7.05989360809326171875e+00) (156, 9.99975204467773437500e+00) (157, -4.75545692443847656250e+00) (158, -1.39962482452392578125e+00) (159, -7.56093215942382812500e+00) (160, -4.01868820190429687500e-01) (161, 5.52286529541015625000e+00) (162, 3.32528209686279296875e+00) (163, -6.24515533447265625000e-01) (164, 7.98710441589355468750e+00) (165, -4.60845851898193359375e+00) (166, 8.41053390502929687500e+00) (167, 9.07191276550292968750e+00) (168, -4.97995042800903320312e+00) (169, 9.18677711486816406250e+00) (170, -8.66815471649169921875e+00) (171, -1.74721813201904296875e+00) (172, 7.29171180725097656250e+00) (173, 7.19878196716308593750e+00) (174, -3.42493677139282226562e+00) (175, -6.54898595809936523438e+00) (176, -1.05152130126953125000e+00) (177, -7.20347785949707031250e+00) (178, -8.16370964050292968750e+00) (179, 3.71959781646728515625e+00) (180, -2.30052661895751953125e+00) (181, -4.66789960861206054688e+00) (182, -6.99773597717285156250e+00) (183, -1.64882183074951171875e+00) (184, -1.15825748443603515625e+00) (185, -6.82142210006713867188e+00) (186, 1.29128456115722656250e+00) (187, -1.15850448608398437500e+00) (188, -1.57687950134277343750e+00) (189, 9.89166069030761718750e+00) (190, 1.28056240081787109375e+00) (0, 8.02125167846679687500e+00) (1, 5.41452503204345703125e+00) (2, -5.39415454864501953125e+00) (3, -2.60326337814331054688e+00) (4, 3.40162944793701171875e+00) (5, -2.61306762695312500000e-03) (6, -4.19272947311401367188e+00) (7, 2.47354412078857421875e+00) (8, 5.01743698120117187500e+00) (9, -5.00595235824584960938e+00) (10, 3.80538845062255859375e+00) (11, -6.72978019714355468750e+00) (12, -7.71424055099487304688e+00) (13, 1.00417232513427734375e+00) (14, -1.54717445373535156250e-01) (15, -4.26322650909423828125e+00) (16, 9.95265007019042968750e+00) (17, 2.64180564880371093750e+00) (18, -2.42693614959716796875e+00) (19, 3.67225074768066406250e+00) (20, -9.65872097015380859375e+00) (21, 2.90516376495361328125e+00) (22, 6.67451286315917968750e+00) (23, -1.30754280090332031250e+00) (24, -8.25309276580810546875e+00) (25, 9.85309219360351562500e+00) (26, 9.98374176025390625000e+00) (27, 5.88401794433593750000e-01) (28, -1.72378730773925781250e+00) (29, 9.87540245056152343750e+00) (30, -8.13103485107421875000e+00) (31, -3.70253515243530273438e+00) (32, 5.28992748260498046875e+00) (33, -3.52518939971923828125e+00) (34, 3.69420146942138671875e+00) (35, -1.30844211578369140625e+00) (36, 6.47219657897949218750e+00) (37, 9.50147247314453125000e+00) (38, -8.83489894866943359375e+00) (39, 1.48963546752929687500e+00) (40, -5.50447988510131835938e+00) (41, 4.97048950195312500000e+00) (42, 4.75985527038574218750e+00) (43, -3.21871995925903320312e+00) (44, -4.02533817291259765625e+00) (45, -5.39486217498779296875e+00) (46, 2.51805305480957031250e+00) (47, -4.07268714904785156250e+00) (48, 7.24694252014160156250e+00) (49, -9.90888214111328125000e+00) (50, 9.59956169128417968750e+00) (51, 7.58822250366210937500e+00) (52, 2.99628162384033203125e+00) (53, 6.27407646179199218750e+00) (54, -3.71932029724121093750e+00) (55, 4.74318885803222656250e+00) (56, 6.12716865539550781250e+00) (57, -3.73557806015014648438e+00) (58, -4.66840934753417968750e+00) (59, -5.59661817550659179688e+00) (60, -3.86017513275146484375e+00) (61, -2.79944419860839843750e+00) (62, 7.00846672058105468750e-01) (63, -8.57024669647216796875e+00) (64, 3.67536640167236328125e+00) (65, -5.60495090484619140625e+00) (66, 1.21311187744140625000e-01) (67, 1.47563934326171875000e-01) (68, -6.10347843170166015625e+00) (69, 1.28641223907470703125e+00) (70, -8.36279964447021484375e+00) (71, -1.60795783996582031250e+00) (72, -3.74309825897216796875e+00) (73, 6.39705467224121093750e+00) (74, 5.17332172393798828125e+00) (75, 2.23156356811523437500e+00) (76, -8.99780654907226562500e+00) (77, -2.30862522125244140625e+00) (78, 8.15887451171875000000e+00) (79, 8.24913597106933593750e+00) (80, -2.21750736236572265625e+00) (81, 7.75844001770019531250e+00) (82, 5.83735942840576171875e+00) (83, -9.22122573852539062500e+00) (84, 4.03251647949218750000e+00) (85, -7.88196086883544921875e+00) (86, 5.52196216583251953125e+00) (87, 1.59685134887695312500e-01) (88, -1.61753940582275390625e+00) (89, -9.14644622802734375000e+00) (90, 4.56306648254394531250e+00) (91, 4.52228641510009765625e+00) (92, -1.94589042663574218750e+00) (93, -4.73608541488647460938e+00) (94, 5.95203971862792968750e+00) (95, -8.27052307128906250000e+00) (96, -3.41036796569824218750e-01) (97, -3.92664957046508789062e+00) (98, 1.87704181671142578125e+00) (99, 3.55548477172851562500e+00) (100, 7.35976219177246093750e+00) (101, 3.51424217224121093750e+00) (102, -8.05247211456298828125e+00) (103, -6.38333606719970703125e+00) (104, -8.87041091918945312500e-02) (105, 7.12084770202636718750e+00) (106, 5.84822654724121093750e+00) (107, 9.13490295410156250000e-01) (108, -5.18777513504028320312e+00) (109, 4.00710296630859375000e+00) (110, -8.37373733520507812500e-01) (111, 2.59471797943115234375e+00) (112, 1.76554203033447265625e+00) (113, -5.00001478195190429688e+00) (114, 3.37349128723144531250e+00) (115, -4.20194149017333984375e+00) (116, -2.88197517395019531250e+00) (117, -1.10454559326171875000e+00) (118, 5.95774364471435546875e+00) (119, 5.50048542022705078125e+00) (120, -2.50991821289062500000e-01) (121, 5.20811080932617187500e-01) (122, 2.27727890014648437500e-02) (123, 7.80311775207519531250e+00) (124, 5.78472614288330078125e+00) (125, -4.02518796920776367188e+00) (126, 9.53259468078613281250e+00) (127, -4.55631017684936523438e+00) (128, 2.04816246032714843750e+00) (129, 1.40963649749755859375e+00) (130, 8.99917411804199218750e+00) (131, -5.92075347900390625000e-01) (132, -5.07612228393554687500e+00) (133, -9.05329799652099609375e+00) (134, 3.02458858489990234375e+00) (135, 4.83517360687255859375e+00) (136, 8.06755065917968750000e+00) (137, -1.12718582153320312500e+00) (138, -4.25133609771728515625e+00) (139, -7.12022399902343750000e+00) (140, -7.12008190155029296875e+00) (141, 4.91129016876220703125e+00) (142, 5.47449302673339843750e+00) (143, 4.64545917510986328125e+00) (144, 9.91127395629882812500e+00) (145, -1.15201473236083984375e+00) (146, -9.55648136138916015625e+00) (147, -2.97070026397705078125e+00) (148, 7.74344062805175781250e+00) (149, 6.40126228332519531250e+00) (150, -7.47021389007568359375e+00) (151, -2.50755119323730468750e+00) (152, -3.07792568206787109375e+00) (153, 2.55255794525146484375e+00) (154, -4.70443296432495117188e+00) (155, -7.29319953918457031250e+00) (156, 8.52736854553222656250e+00) (157, -5.17183828353881835938e+00) (158, -1.84950923919677734375e+00) (159, 5.75532913208007812500e-01) (160, 6.23779678344726562500e+00) (161, -2.85033464431762695312e+00) (162, 9.98345756530761718750e+00) (163, -8.83832454681396484375e+00) (164, -1.90363216400146484375e+00) (165, 3.00804519653320312500e+00) (166, 5.99685096740722656250e+00) (167, -3.83608055114746093750e+00) (168, -8.11913967132568359375e+00) (169, -8.25448608398437500000e+00) (170, -9.56304550170898437500e-01) (171, -5.23922204971313476562e+00) (172, 6.65680313110351562500e+00) (173, -5.48181056976318359375e+00) (174, 9.40623855590820312500e+00) (175, 6.56807899475097656250e+00) (176, 3.36617565155029296875e+00) (177, 9.84975624084472656250e+00) (178, -6.40262031555175781250e+00) (179, 1.10961532592773437500e+00) (180, 6.25102043151855468750e+00) (181, -3.87283468246459960938e+00) (182, 8.60206413269042968750e+00) (183, -6.82690429687500000000e+00) (184, 8.67972373962402343750e+00) (185, -6.10236883163452148438e+00) (186, -4.12010383605957031250e+00) (187, 7.20709419250488281250e+00) (188, -1.27420711517333984375e+00) (189, 4.03038597106933593750e+00) (190, -2.21737384796142578125e+00) (0, -5.03640937805175781250e+00) (1, -8.81994819641113281250e+00) (2, -2.23391675949096679688e+00) (3, -3.87473344802856445312e+00) (4, -7.23580360412597656250e-01) (5, -9.22587203979492187500e+00) (6, -7.87788343429565429688e+00) (7, 5.44033908843994140625e+00) (8, -7.34501123428344726562e+00) (9, -6.13236904144287109375e+00) (10, -5.51596546173095703125e+00) (11, -2.58423328399658203125e+00) (12, -9.47556495666503906250e+00) (13, -9.97775077819824218750e-01) (14, -3.17799472808837890625e+00) (15, 7.09251403808593750000e+00) (16, -7.63159990310668945312e+00) (17, -3.32823705673217773438e+00) (18, -9.31010532379150390625e+00) (19, 3.47801589965820312500e+00) (20, -7.07721662521362304688e+00) (21, -3.18294000625610351562e+00) (22, 2.08008003234863281250e+00) (23, -3.90412092208862304688e+00) (24, -4.50321578979492187500e+00) (25, 5.97771167755126953125e+00) (26, 1.97577571868896484375e+00) (27, -7.29612159729003906250e+00) (28, -5.29649543762207031250e+00) (29, -3.99383783340454101562e+00) (30, 4.86504554748535156250e-01) (31, -3.32904815673828125000e-01) (32, -2.81378555297851562500e+00) (33, 8.25258636474609375000e+00) (34, 5.79236125946044921875e+00) (35, 6.46263313293457031250e+00) (36, 9.02671623229980468750e+00) (37, 7.91447639465332031250e+00) (38, 1.90297222137451171875e+00) (39, -8.31829452514648437500e+00) (40, -8.21789169311523437500e+00) (41, 6.38700675964355468750e+00) (42, -9.02528762817382812500e-01) (43, -7.69345569610595703125e+00) (44, -4.61076784133911132812e+00) (45, 5.91947746276855468750e+00) (46, 9.39905929565429687500e+00) (47, -2.24236774444580078125e+00) (48, -7.40875959396362304688e+00) (49, -9.91104602813720703125e+00) (50, -8.76435184478759765625e+00) (51, -4.48597621917724609375e+00) (52, -3.09398603439331054688e+00) (53, 3.31572723388671875000e+00) (54, 1.60990238189697265625e+00) (55, 2.40279769897460937500e+00) (56, -7.06560134887695312500e-01) (57, -6.41432189941406250000e+00) (58, 5.10667705535888671875e+00) (59, 3.99694442749023437500e+00) (60, -4.08159255981445312500e-01) (61, -4.40681886672973632812e+00) (62, -6.33596086502075195312e+00) (63, 6.77805328369140625000e+00) (64, -6.15423154830932617188e+00) (65, 9.45639991760253906250e+00) (66, 3.24068737030029296875e+00) (67, -7.12751483917236328125e+00) (68, 7.37087821960449218750e+00) (69, -4.85633897781372070312e+00) (70, -5.44581031799316406250e+00) (71, 9.15298652648925781250e+00) (72, -8.46933174133300781250e+00) (73, 3.65166187286376953125e+00) (74, -8.54046821594238281250e+00) (75, -3.08009910583496093750e+00) (76, -4.28860664367675781250e-01) (77, -9.14140987396240234375e+00) (78, 4.67753314971923828125e+00) (79, 2.16237926483154296875e+00) (80, -9.05245590209960937500e+00) (81, 5.91318130493164062500e+00) (82, 7.67640304565429687500e+00) (83, -2.14644193649291992188e+00) (84, -7.71091461181640625000e-01) (85, -7.13693618774414062500e-01) (86, -9.74364376068115234375e+00) (87, 8.52234840393066406250e+00) (88, 2.87198448181152343750e+00) (89, 5.36303234100341796875e+00) (90, 2.51929283142089843750e+00) (91, -7.53617477416992187500e+00) (92, -9.04378604888916015625e+00) (93, 6.18333244323730468750e+00) (94, 9.24188041687011718750e+00) (95, -5.19801759719848632812e+00) (96, 5.63973331451416015625e+00) (97, 2.48256778717041015625e+00) (98, -2.32553243637084960938e+00) (99, 3.01061153411865234375e+00) (100, 7.62622833251953125000e+00) (101, 2.22865676879882812500e+00) (102, 2.16359806060791015625e+00) (103, 9.15689849853515625000e+00) (104, -4.11968135833740234375e+00) (105, 3.62312984466552734375e+00) (106, -3.92320156097412109375e+00) (107, 5.45145702362060546875e+00) (108, 4.48172092437744140625e+00) (109, -9.24566841125488281250e+00) (110, -2.38616275787353515625e+00) (111, 5.42926406860351562500e+00) (112, 6.66751289367675781250e+00) (113, -4.70975923538208007812e+00) (114, -6.71717739105224609375e+00) (115, -4.10357856750488281250e+00) (116, 4.57654666900634765625e+00) (117, -6.46082019805908203125e+00) (118, -5.58122920989990234375e+00) (119, -2.55146884918212890625e+00) (120, 8.90221214294433593750e+00) (121, 6.93806457519531250000e+00) (122, -8.76436233520507812500e-02) (123, 9.85842704772949218750e+00) (124, 3.12139606475830078125e+00) (125, -8.45764160156250000000e-01) (126, -5.33959102630615234375e+00) (127, -1.23887062072753906250e+00) (128, -8.36319541931152343750e+00) (129, 2.33487701416015625000e+00) (130, -8.22825908660888671875e+00) (131, 9.26303291320800781250e+00) (132, -5.43646621704101562500e+00) (133, 3.93533897399902343750e+00) (134, 8.41993141174316406250e+00) (135, 4.43853378295898437500e-01) (136, -2.44152975082397460938e+00) (137, -5.50326967239379882812e+00) (138, -4.10468864440917968750e+00) (139, -7.95980930328369140625e+00) (140, -4.74893808364868164062e+00) (141, 3.50914859771728515625e+00) (142, 7.46945381164550781250e+00) (143, -8.08142566680908203125e+00) (144, 8.79938888549804687500e+00) (145, -9.24772167205810546875e+00) (146, -2.18500375747680664062e+00) (147, 3.37593555450439453125e+00) (148, -5.70854234695434570312e+00) (149, 2.23376750946044921875e+00) (150, -9.17553234100341796875e+00) (151, -6.80632972717285156250e+00) (152, -8.28168869018554687500e-01) (153, 7.36824035644531250000e-01) (154, -6.94790315628051757812e+00) (155, -7.70677137374877929688e+00) (156, 9.89105987548828125000e+00) (157, -2.28749418258666992188e+00) (158, 1.05435848236083984375e+00) (159, -8.47213459014892578125e+00) (160, -9.95261669158935546875e+00) (161, 2.82609939575195312500e+00) (162, -9.20910072326660156250e+00) (163, -5.38908290863037109375e+00) (164, -3.23856067657470703125e+00) (165, 9.21083068847656250000e+00) (166, 5.05476951599121093750e+00) (167, 4.31991004943847656250e+00) (168, -6.29243850708007812500e+00) (169, -9.04991912841796875000e+00) (170, 6.36009979248046875000e+00) (171, -1.04137706756591796875e+00) (172, 4.45922946929931640625e+00) (173, 3.82955551147460937500e+00) (174, 8.77198219299316406250e-01) (175, 3.25861835479736328125e+00) (176, 4.58183383941650390625e+00) (177, 8.69219398498535156250e+00) (178, -3.36544561386108398438e+00) (179, 8.87329101562500000000e+00) (180, 9.25961494445800781250e-01) (181, -2.54097843170166015625e+00) (182, -7.93303728103637695312e+00) (183, -9.90220642089843750000e+00) (184, 8.19584655761718750000e+00) (185, -4.88094043731689453125e+00) (186, -7.60897779464721679688e+00) (187, 8.08690643310546875000e+00) (188, 2.83156585693359375000e+00) (189, 3.44538116455078125000e+00) (190, 9.61477088928222656250e+00) (0, 2.87894821166992187500e+00) (1, -3.72851991653442382812e+00) (2, -9.59432888031005859375e+00) (3, 7.48986625671386718750e+00) (4, 3.03291988372802734375e+00) (5, 9.61650276184082031250e+00) (6, 2.54463577270507812500e+00) (7, -2.64717054367065429688e+00) (8, -6.67593669891357421875e+00) (9, 3.49471664428710937500e+00) (10, -6.28707027435302734375e+00) (11, 2.28268623352050781250e+00) (12, -2.04605388641357421875e+00) (13, 7.54248619079589843750e+00) (14, -6.84011554718017578125e+00) (15, -8.78743553161621093750e+00) (16, 2.12432003021240234375e+00) (17, -8.14792156219482421875e+00) (18, -2.15288114547729492188e+00) (19, 9.97613906860351562500e-01) (20, 2.77803993225097656250e+00) (21, 5.30614089965820312500e+00) (22, 3.06457614898681640625e+00) (23, 2.87583351135253906250e+00) (24, 3.50198650360107421875e+00) (25, 8.18363571166992187500e+00) (26, 5.26685619354248046875e+00) (27, 1.58889293670654296875e+00) (28, 1.01520156860351562500e+00) (29, -1.28776359558105468750e+00) (30, 1.20366573333740234375e+00) (31, -6.10584926605224609375e+00) (32, 4.98371601104736328125e+00) (33, 1.60933589935302734375e+00) (34, -8.61598300933837890625e+00) (35, -1.98336410522460937500e+00) (36, 1.22583866119384765625e+00) (37, 3.92865276336669921875e+00) (38, 5.36946487426757812500e+00) (39, 4.54990100860595703125e+00) (40, -2.57663011550903320312e+00) (41, 9.08239555358886718750e+00) (42, -3.16741228103637695312e+00) (43, 5.37731647491455078125e+00) (44, 6.62488174438476562500e+00) (45, -7.52830505371093750000e-03) (46, 6.58987998962402343750e+00) (47, -1.25079727172851562500e+00) (48, 1.84455013275146484375e+00) (49, -5.56300067901611328125e+00) (50, 9.74681663513183593750e+00) (51, -5.37740993499755859375e+00) (52, 9.74314117431640625000e+00) (53, 2.81139087677001953125e+00) (54, 7.49842453002929687500e+00) (55, 3.24512672424316406250e+00) (56, 9.95027542114257812500e-01) (57, 2.76527881622314453125e+00) (58, -5.16597986221313476562e+00) (59, -7.98977041244506835938e+00) (60, -8.52248477935791015625e+00) (61, 6.03768539428710937500e+00) (62, -4.09561920166015625000e+00) (63, 6.46123123168945312500e+00) (64, -2.35297822952270507812e+00) (65, -2.71160268783569335938e+00) (66, -5.52213191986083984375e+00) (67, 8.87285995483398437500e+00) (68, -8.78294944763183593750e+00) (69, 9.84733390808105468750e+00) (70, 3.42276191711425781250e+00) (71, -1.35958003997802734375e+00) (72, 8.92972946166992187500e+00) (73, -9.74464988708496093750e+00) (74, -5.98226404190063476562e+00) (75, 5.55461120605468750000e+00) (76, 2.47821807861328125000e-01) (77, -9.39238357543945312500e+00) (78, -5.69618606567382812500e+00) (79, -7.90762758255004882812e+00) (80, -4.95538377761840820312e+00) (81, -5.94937038421630859375e+00) (82, -3.28503751754760742188e+00) (83, -5.21224308013916015625e+00) (84, 6.86202049255371093750e+00) (85, -5.78661346435546875000e+00) (86, 8.03288269042968750000e+00) (87, -2.14295101165771484375e+00) (88, 6.97866439819335937500e+00) (89, -7.13309574127197265625e+00) (90, -1.32720947265625000000e-01) (91, 8.45618057250976562500e+00) (92, 8.90459060668945312500e+00) (93, 5.77165985107421875000e+00) (94, 4.91741275787353515625e+00) (95, -3.44838762283325195312e+00) (96, -6.93994331359863281250e+00) (97, 9.39528083801269531250e+00) (98, -4.57552671432495117188e+00) (99, -5.72289276123046875000e+00) (100, 9.24261474609375000000e+00) (101, 8.84723472595214843750e+00) (102, 2.91752719879150390625e+00) (103, 8.17234420776367187500e+00) (104, 9.10258483886718750000e+00) (105, 6.93526268005371093750e+00) (106, 3.72695541381835937500e+00) (107, -6.49592399597167968750e-01) (108, 7.54288101196289062500e+00) (109, 8.03076934814453125000e+00) (110, 1.44278049468994140625e+00) (111, -7.41250371932983398438e+00) (112, -7.91860055923461914062e+00) (113, 8.15774154663085937500e+00) (114, -2.62474727630615234375e+00) (115, 8.94342041015625000000e+00) (116, -7.62887096405029296875e+00) (117, -4.59186315536499023438e+00) (118, -3.19952964782714843750e+00) (119, 9.34979438781738281250e+00) (120, -1.72495841979980468750e+00) (121, 6.66774749755859375000e+00) (122, 7.80597496032714843750e+00) (123, -2.82036828994750976562e+00) (124, 2.43940830230712890625e+00) (125, 2.72338867187500000000e+00) (126, 3.73124313354492187500e+00) (127, 5.49946498870849609375e+00) (128, 2.11866950988769531250e+00) (129, 9.15571594238281250000e+00) (130, 9.77657127380371093750e+00) (131, 1.36128520965576171875e+00) (132, 8.00295257568359375000e+00) (133, 2.69410037994384765625e+00) (134, -4.66371536254882812500e-01) (135, 7.10553741455078125000e+00) (136, -3.70636940002441406250e-01) (137, -6.73941564559936523438e+00) (138, -3.54405450820922851562e+00) (139, -2.82775640487670898438e+00) (140, -8.70864582061767578125e+00) (141, 7.89872550964355468750e+00) (142, -2.40260124206542968750e-01) (143, -6.62724590301513671875e+00) (144, 6.05646705627441406250e+00) (145, 7.13499259948730468750e+00) (146, -7.68382501602172851562e+00) (147, 8.42759704589843750000e+00) (148, -7.45687007904052734375e+00) (149, -8.83355140686035156250e-01) (150, 7.77739143371582031250e+00) (151, 8.18171501159667968750e-01) (152, -4.21560525894165039062e+00) (153, 5.58336734771728515625e+00) (154, 7.99780273437500000000e+00) (155, 8.22380256652832031250e+00) (156, -1.69324398040771484375e+00) (157, 1.72904682159423828125e+00) (158, 3.72326850891113281250e+00) (159, -9.57457351684570312500e+00) (160, 8.84763717651367187500e-01) (161, 3.49984073638916015625e+00) (162, 1.78671264648437500000e+00) (163, -1.11228275299072265625e+00) (164, -3.80605936050415039062e+00) (165, -8.67965888977050781250e+00) (166, -4.00674533843994140625e+00) (167, 5.82330417633056640625e+00) (168, -5.41907453536987304688e+00) (169, 2.44919967651367187500e+00) (170, -7.00445175170898437500e+00) (171, -4.12771987915039062500e+00) (172, 3.47925186157226562500e-01) (173, 2.75528812408447265625e+00) (174, -7.54966735839843750000e-01) (175, -3.59560728073120117188e+00) (176, -1.09718322753906250000e-01) (177, 1.56120872497558593750e+00) (178, -5.16801023483276367188e+00) (179, 2.43341159820556640625e+00) (180, -9.32214546203613281250e+00) (181, -7.39061832427978515625e+00) (182, -6.74841690063476562500e+00) (183, -3.53775072097778320312e+00) (184, 8.19274902343750000000e+00) (185, -8.75061416625976562500e+00) (186, -5.31394815444946289062e+00) (187, -3.50049448013305664062e+00) (188, 2.97843360900878906250e+00) (189, 8.40931892395019531250e+00) (190, -3.07506752014160156250e+00) (191, -6.13680171966552734375e+00) (192, 1.90916156768798828125e+00) (193, 8.71164321899414062500e+00) (194, 2.75091552734375000000e+00) (195, 8.10310173034667968750e+00) (196, -9.96801471710205078125e+00) (197, 8.74416923522949218750e+00) (198, 3.92640686035156250000e+00) (199, -5.38708925247192382812e+00) (200, 1.19336986541748046875e+00) (201, 6.92195510864257812500e+00) (191, 4.85191345214843750000e-01) (192, -8.45870590209960937500e+00) (193, -3.22756767272949218750e-01) (194, 9.73022460937500000000e+00) (195, -2.05431222915649414062e+00) (196, 9.56752395629882812500e+00) (197, 1.29143333435058593750e+00) (198, 2.77767753601074218750e+00) (199, 2.00093650817871093750e+00) (200, 1.96928691864013671875e+00) (201, 5.38705825805664062500e+00) (191, 5.25251960754394531250e+00) (192, 8.43153762817382812500e+00) (193, 3.57980728149414062500e+00) (194, 6.50190544128417968750e+00) (195, -6.88241100311279296875e+00) (196, -9.92068672180175781250e+00) (197, -5.19660949707031250000e-01) (198, -8.47309112548828125000e+00) (199, -2.99575376510620117188e+00) (200, 3.34353637695312500000e+00) (201, 3.43607044219970703125e+00) (191, -4.28410959243774414062e+00) (192, -3.90554809570312500000e+00) (193, 1.53917312622070312500e+00) (194, -4.25212430953979492188e+00) (195, -5.16137838363647460938e+00) (196, -4.53442096710205078125e+00) (197, 3.60786437988281250000e-01) (198, 6.03199005126953125000e+00) (199, -7.61246585845947265625e+00) (200, -9.15402221679687500000e+00) (201, 7.57328605651855468750e+00) 
