FANN_FLO_2.1
num_layers=3
learning_rate=0.700000
connection_rate=1.000000
network_type=0
learning_momentum=0.000000
training_algorithm=2
train_error_function=1
train_stop_function=0
cascade_output_change_fraction=0.010000
quickprop_decay=-0.000100
quickprop_mu=1.750000
rprop_increase_factor=1.200000
rprop_decrease_factor=0.500000
rprop_delta_min=0.000000
rprop_delta_max=50.000000
rprop_delta_zero=0.100000
cascade_output_stagnation_epochs=12
cascade_candidate_change_fraction=0.010000
cascade_candidate_stagnation_epochs=12
cascade_max_out_epochs=150
cascade_min_out_epochs=50
cascade_max_cand_epochs=150
cascade_min_cand_epochs=50
cascade_num_candidate_groups=2
bit_fail_limit=3.49999994039535522461e-01
cascade_candidate_limit=1.00000000000000000000e+03
cascade_weight_multiplier=4.00000005960464477539e-01
cascade_activation_functions_count=10
cascade_activation_functions=3 5 7 8 10 11 14 15 16 17 
cascade_activation_steepnesses_count=4
cascade_activation_steepnesses=2.50000000000000000000e-01 5.00000000000000000000e-01 7.50000000000000000000e-01 1.00000000000000000000e+00 
layer_sizes=3 4 6 
scale_included=0
neurons (num_inputs, activation_function, activation_steepness)=(0, 0, 0.00000000000000000000e+00) (0, 0, 0.00000000000000000000e+00) (0, 0, 0.00000000000000000000e+00) (3, 4, 5.00000000000000000000e-01) (3, 4, 5.00000000000000000000e-01) (3, 4, 5.00000000000000000000e-01) (0, 0, 0.00000000000000000000e+00) (4, 4, 1.00000001490116119385e-01) (4, 4, 1.00000001490116119385e-01) (4, 4, 1.00000001490116119385e-01) (4, 4, 1.00000001490116119385e-01) (4, 4, 1.00000001490116119385e-01) (0, 0, 1.00000001490116119385e-01) 
connections (connected_to_neuron, weight)=(0, -2.27245712280273437500e+00) (1, -7.48573017120361328125e+00) (2, 1.85957527160644531250e+00) (0, -7.11605644226074218750e+00) (1, 4.23988246917724609375e+00) (2, 8.98149871826171875000e+00) (0, -1.87189960479736328125e+00) (1, 3.18635940551757812500e-01) (2, -3.08856153488159179688e+00) (3, 5.41309738159179687500e+00) (4, 2.43197536468505859375e+00) (5, 3.39545249938964843750e+00) (6, -3.43937683105468750000e+00) (3, 8.39106559753417968750e-01) (4, 4.69805622100830078125e+00) (5, -2.81047821044921875000e+00) (6, -8.97028732299804687500e+00) (3, 9.30371856689453125000e+00) (4, 5.32128524780273437500e+00) (5, -1.33531570434570312500e-01) (6, 7.40659141540527343750e+00) (3, 4.47713851928710937500e+00) (4, -7.83036470413208007812e+00) (5, -4.69926261901855468750e+00) (6, -9.09265232086181640625e+00) (3, -8.51155662536621093750e+00) (4, -3.84115934371948242188e+00) (5, 3.25221061706542968750e-01) (6, 7.11390304565429687500e+00) 
