FANN_FLO_2.1
num_layers=3
learning_rate=0.700000
connection_rate=1.000000
network_type=0
learning_momentum=0.000000
training_algorithm=2
train_error_function=1
train_stop_function=0
cascade_output_change_fraction=0.010000
quickprop_decay=-0.000100
quickprop_mu=1.750000
rprop_increase_factor=1.200000
rprop_decrease_factor=0.500000
rprop_delta_min=0.000000
rprop_delta_max=50.000000
rprop_delta_zero=0.100000
cascade_output_stagnation_epochs=12
cascade_candidate_change_fraction=0.010000
cascade_candidate_stagnation_epochs=12
cascade_max_out_epochs=150
cascade_min_out_epochs=50
cascade_max_cand_epochs=150
cascade_min_cand_epochs=50
cascade_num_candidate_groups=2
bit_fail_limit=3.49999994039535522461e-01
cascade_candidate_limit=1.00000000000000000000e+03
cascade_weight_multiplier=4.00000005960464477539e-01
cascade_activation_functions_count=10
cascade_activation_functions=3 5 7 8 10 11 14 15 16 17 
cascade_activation_steepnesses_count=4
cascade_activation_steepnesses=2.50000000000000000000e-01 5.00000000000000000000e-01 7.50000000000000000000e-01 1.00000000000000000000e+00 
layer_sizes=191 11 5 
scale_included=0
neurons (num_inputs, activation_function, activation_steepness)=(0, 0, 0.00000000000000000000e+00) (0, 0, 0.00000000000000000000e+00) (0, 0, 0.00000000000000000000e+00) (0, 0, 0.00000000000000000000e+00) (0, 0, 0.00000000000000000000e+00) (0, 0, 0.00000000000000000000e+00) (0, 0, 0.00000000000000000000e+00) (0, 0, 0.00000000000000000000e+00) (0, 0, 0.00000000000000000000e+00) (0, 0, 0.00000000000000000000e+00) (0, 0, 0.00000000000000000000e+00) (0, 0, 0.00000000000000000000e+00) (0, 0, 0.00000000000000000000e+00) (0, 0, 0.00000000000000000000e+00) (0, 0, 0.00000000000000000000e+00) (0, 0, 0.00000000000000000000e+00) (0, 0, 0.00000000000000000000e+00) (0, 0, 0.00000000000000000000e+00) (0, 0, 0.00000000000000000000e+00) (0, 0, 0.00000000000000000000e+00) (0, 0, 0.00000000000000000000e+00) (0, 0, 0.00000000000000000000e+00) (0, 0, 0.00000000000000000000e+00) (0, 0, 0.00000000000000000000e+00) (0, 0, 0.00000000000000000000e+00) (0, 0, 0.00000000000000000000e+00) (0, 0, 0.00000000000000000000e+00) (0, 0, 0.00000000000000000000e+00) (0, 0, 0.00000000000000000000e+00) (0, 0, 0.00000000000000000000e+00) (0, 0, 0.00000000000000000000e+00) (0, 0, 0.00000000000000000000e+00) (0, 0, 0.00000000000000000000e+00) (0, 0, 0.00000000000000000000e+00) (0, 0, 0.00000000000000000000e+00) (0, 0, 0.00000000000000000000e+00) (0, 0, 0.00000000000000000000e+00) (0, 0, 0.00000000000000000000e+00) (0, 0, 0.00000000000000000000e+00) (0, 0, 0.00000000000000000000e+00) (0, 0, 0.00000000000000000000e+00) (0, 0, 0.00000000000000000000e+00) (0, 0, 0.00000000000000000000e+00) (0, 0, 0.00000000000000000000e+00) (0, 0, 0.00000000000000000000e+00) (0, 0, 0.00000000000000000000e+00) (0, 0, 0.00000000000000000000e+00) (0, 0, 0.00000000000000000000e+00) (0, 0, 0.00000000000000000000e+00) (0, 0, 0.00000000000000000000e+00) (0, 0, 0.00000000000000000000e+00) (0, 0, 0.00000000000000000000e+00) (0, 0, 0.00000000000000000000e+00) (0, 0, 0.00000000000000000000e+00) (0, 0, 0.00000000000000000000e+00) (0, 0, 0.00000000000000000000e+00) (0, 0, 0.00000000000000000000e+00) (0, 0, 0.00000000000000000000e+00) (0, 0, 0.00000000000000000000e+00) (0, 0, 0.00000000000000000000e+00) (0, 0, 0.00000000000000000000e+00) (0, 0, 0.00000000000000000000e+00) (0, 0, 0.00000000000000000000e+00) (0, 0, 0.00000000000000000000e+00) (0, 0, 0.00000000000000000000e+00) (0, 0, 0.00000000000000000000e+00) (0, 0, 0.00000000000000000000e+00) (0, 0, 0.00000000000000000000e+00) (0, 0, 0.00000000000000000000e+00) (0, 0, 0.00000000000000000000e+00) (0, 0, 0.00000000000000000000e+00) (0, 0, 0.00000000000000000000e+00) (0, 0, 0.00000000000000000000e+00) (0, 0, 0.00000000000000000000e+00) (0, 0, 0.00000000000000000000e+00) (0, 0, 0.00000000000000000000e+00) (0, 0, 0.00000000000000000000e+00) (0, 0, 0.00000000000000000000e+00) (0, 0, 0.00000000000000000000e+00) (0, 0, 0.00000000000000000000e+00) (0, 0, 0.00000000000000000000e+00) (0, 0, 0.00000000000000000000e+00) (0, 0, 0.00000000000000000000e+00) (0, 0, 0.00000000000000000000e+00) (0, 0, 0.00000000000000000000e+00) (0, 0, 0.00000000000000000000e+00) (0, 0, 0.00000000000000000000e+00) (0, 0, 0.00000000000000000000e+00) (0, 0, 0.00000000000000000000e+00) (0, 0, 0.00000000000000000000e+00) (0, 0, 0.00000000000000000000e+00) (0, 0, 0.00000000000000000000e+00) (0, 0, 0.00000000000000000000e+00) (0, 0, 0.00000000000000000000e+00) (0, 0, 0.00000000000000000000e+00) (0, 0, 0.00000000000000000000e+00) (0, 0, 0.00000000000000000000e+00) (0, 0, 0.00000000000000000000e+00) (0, 0, 0.00000000000000000000e+00) (0, 0, 0.00000000000000000000e+00) (0, 0, 0.00000000000000000000e+00) (0, 0, 0.00000000000000000000e+00) (0, 0, 0.00000000000000000000e+00) (0, 0, 0.00000000000000000000e+00) (0, 0, 0.00000000000000000000e+00) (0, 0, 0.00000000000000000000e+00) (0, 0, 0.00000000000000000000e+00) (0, 0, 0.00000000000000000000e+00) (0, 0, 0.00000000000000000000e+00) (0, 0, 0.00000000000000000000e+00) (0, 0, 0.00000000000000000000e+00) (0, 0, 0.00000000000000000000e+00) (0, 0, 0.00000000000000000000e+00) (0, 0, 0.00000000000000000000e+00) (0, 0, 0.00000000000000000000e+00) (0, 0, 0.00000000000000000000e+00) (0, 0, 0.00000000000000000000e+00) (0, 0, 0.00000000000000000000e+00) (0, 0, 0.00000000000000000000e+00) (0, 0, 0.00000000000000000000e+00) (0, 0, 0.00000000000000000000e+00) (0, 0, 0.00000000000000000000e+00) (0, 0, 0.00000000000000000000e+00) (0, 0, 0.00000000000000000000e+00) (0, 0, 0.00000000000000000000e+00) (0, 0, 0.00000000000000000000e+00) (0, 0, 0.00000000000000000000e+00) (0, 0, 0.00000000000000000000e+00) (0, 0, 0.00000000000000000000e+00) (0, 0, 0.00000000000000000000e+00) (0, 0, 0.00000000000000000000e+00) (0, 0, 0.00000000000000000000e+00) (0, 0, 0.00000000000000000000e+00) (0, 0, 0.00000000000000000000e+00) (0, 0, 0.00000000000000000000e+00) (0, 0, 0.00000000000000000000e+00) (0, 0, 0.00000000000000000000e+00) (0, 0, 0.00000000000000000000e+00) (0, 0, 0.00000000000000000000e+00) (0, 0, 0.00000000000000000000e+00) (0, 0, 0.00000000000000000000e+00) (0, 0, 0.00000000000000000000e+00) (0, 0, 0.00000000000000000000e+00) (0, 0, 0.00000000000000000000e+00) (0, 0, 0.00000000000000000000e+00) (0, 0, 0.00000000000000000000e+00) (0, 0, 0.00000000000000000000e+00) (0, 0, 0.00000000000000000000e+00) (0, 0, 0.00000000000000000000e+00) (0, 0, 0.00000000000000000000e+00) (0, 0, 0.00000000000000000000e+00) (0, 0, 0.00000000000000000000e+00) (0, 0, 0.00000000000000000000e+00) (0, 0, 0.00000000000000000000e+00) (0, 0, 0.00000000000000000000e+00) (0, 0, 0.00000000000000000000e+00) (0, 0, 0.00000000000000000000e+00) (0, 0, 0.00000000000000000000e+00) (0, 0, 0.00000000000000000000e+00) (0, 0, 0.00000000000000000000e+00) (0, 0, 0.00000000000000000000e+00) (0, 0, 0.00000000000000000000e+00) (0, 0, 0.00000000000000000000e+00) (0, 0, 0.00000000000000000000e+00) (0, 0, 0.00000000000000000000e+00) (0, 0, 0.00000000000000000000e+00) (0, 0, 0.00000000000000000000e+00) (0, 0, 0.00000000000000000000e+00) (0, 0, 0.00000000000000000000e+00) (0, 0, 0.00000000000000000000e+00) (0, 0, 0.00000000000000000000e+00) (0, 0, 0.00000000000000000000e+00) (0, 0, 0.00000000000000000000e+00) (0, 0, 0.00000000000000000000e+00) (0, 0, 0.00000000000000000000e+00) (0, 0, 0.00000000000000000000e+00) (0, 0, 0.00000000000000000000e+00) (0, 0, 0.00000000000000000000e+00) (0, 0, 0.00000000000000000000e+00) (0, 0, 0.00000000000000000000e+00) (0, 0, 0.00000000000000000000e+00) (0, 0, 0.00000000000000000000e+00) (0, 0, 0.00000000000000000000e+00) (0, 0, 0.00000000000000000000e+00) (0, 0, 0.00000000000000000000e+00) (0, 0, 0.00000000000000000000e+00) (0, 0, 0.00000000000000000000e+00) (0, 0, 0.00000000000000000000e+00) (0, 0, 0.00000000000000000000e+00) (0, 0, 0.00000000000000000000e+00) (0, 0, 0.00000000000000000000e+00) (191, 4, 5.00000000000000000000e-01) (191, 4, 5.00000000000000000000e-01) (191, 4, 5.00000000000000000000e-01) (191, 4, 5.00000000000000000000e-01) (191, 4, 5.00000000000000000000e-01) (191, 4, 5.00000000000000000000e-01) (191, 4, 5.00000000000000000000e-01) (191, 4, 5.00000000000000000000e-01) (191, 4, 5.00000000000000000000e-01) (191, 4, 5.00000000000000000000e-01) (0, 0, 0.00000000000000000000e+00) (11, 4, 5.00000000000000000000e-01) (11, 4, 5.00000000000000000000e-01) (11, 4, 5.00000000000000000000e-01) (11, 4, 5.00000000000000000000e-01) (0, 0, 0.00000000000000000000e+00) 
connections (connected_to_neuron, weight)=(0, 1.91676139831542968750e+00) (1, 5.73092365264892578125e+00) (2, 2.79663467407226562500e+00) (3, -4.47363328933715820312e+00) (4, 6.89784049987792968750e+00) (5, -6.71177864074707031250e-01) (6, -6.93055009841918945312e+00) (7, 8.65405082702636718750e+00) (8, -9.58236694335937500000e-01) (9, -7.80223369598388671875e+00) (10, 2.64950942993164062500e+00) (11, 8.27465057373046875000e+00) (12, -4.36089992523193359375e+00) (13, -8.80924510955810546875e+00) (14, 2.98429965972900390625e+00) (15, 4.68621349334716796875e+00) (16, -6.81029510498046875000e+00) (17, -5.18781471252441406250e+00) (18, -5.60615444183349609375e+00) (19, -1.90101432800292968750e+00) (20, 8.92168807983398437500e+00) (21, -1.92384529113769531250e+00) (22, -4.99293565750122070312e+00) (23, -8.84025287628173828125e+00) (24, 9.86916160583496093750e+00) (25, -1.83985328674316406250e+00) (26, 6.43811035156250000000e+00) (27, -9.37805080413818359375e+00) (28, 4.82838821411132812500e+00) (29, 9.77913284301757812500e+00) (30, -9.07541465759277343750e+00) (31, -3.25484991073608398438e+00) (32, 5.51005554199218750000e+00) (33, 3.72122001647949218750e+00) (34, 2.27151775360107421875e+00) (35, 2.40789604187011718750e+00) (36, -6.94995784759521484375e+00) (37, 5.34096717834472656250e+00) (38, 1.06194591522216796875e+00) (39, 2.09180545806884765625e+00) (40, 7.53873252868652343750e+00) (41, -6.28854274749755859375e+00) (42, 3.66457939147949218750e-01) (43, -6.82216644287109375000e+00) (44, -5.09778785705566406250e+00) (45, -6.64924287796020507812e+00) (46, 7.86404609680175781250e+00) (47, -1.90808296203613281250e+00) (48, -1.83705806732177734375e+00) (49, -7.74210834503173828125e+00) (50, 6.19090270996093750000e+00) (51, -2.91536951065063476562e+00) (52, 3.34047317504882812500e-01) (53, -8.80203247070312500000e+00) (54, -1.75562286376953125000e+00) (55, 2.03208923339843750000e-01) (56, -6.41885757446289062500e-01) (57, -5.31751108169555664062e+00) (58, 8.25157165527343750000e-01) (59, -5.81349754333496093750e+00) (60, -5.53837919235229492188e+00) (61, 1.74974346160888671875e+00) (62, 9.31653022766113281250e-01) (63, 9.97167587280273437500e+00) (64, -4.52903699874877929688e+00) (65, -6.79683017730712890625e+00) (66, 2.37957191467285156250e+00) (67, -1.47899436950683593750e+00) (68, 8.54413604736328125000e+00) (69, -6.55848026275634765625e+00) (70, -9.38718891143798828125e+00) (71, 6.08286857604980468750e+00) (72, -2.84702348709106445312e+00) (73, 9.79268074035644531250e-01) (74, 9.26070213317871093750e+00) (75, 2.05518817901611328125e+00) (76, 4.33002567291259765625e+00) (77, 7.12474822998046875000e+00) (78, -9.85289382934570312500e+00) (79, -7.50703144073486328125e+00) (80, 9.38264083862304687500e+00) (81, 6.33800888061523437500e+00) (82, -4.22401428222656250000e-01) (83, -2.83312797546386718750e-01) (84, 7.53597640991210937500e+00) (85, 7.82197570800781250000e+00) (86, 9.91989517211914062500e+00) (87, -3.10591030120849609375e+00) (88, -7.49553489685058593750e+00) (89, 7.45054244995117187500e-01) (90, 1.08059120178222656250e+00) (91, -3.03391361236572265625e+00) (92, -7.50520277023315429688e+00) (93, -7.98775529861450195312e+00) (94, -3.06223678588867187500e+00) (95, -2.03423976898193359375e+00) (96, -4.78458595275878906250e+00) (97, 9.31733512878417968750e+00) (98, 6.48676490783691406250e+00) (99, -6.24044895172119140625e+00) (100, -7.24114418029785156250e+00) (101, 7.09957695007324218750e+00) (102, 9.84242057800292968750e+00) (103, -8.81681442260742187500e-02) (104, -1.92115402221679687500e+00) (105, 9.10312271118164062500e+00) (106, -8.03297901153564453125e+00) (107, -7.59112834930419921875e+00) (108, 6.22787284851074218750e+00) (109, -7.88587379455566406250e+00) (110, -5.09815979003906250000e+00) (111, 5.61051273345947265625e+00) (112, 8.45213508605957031250e+00) (113, 4.47943878173828125000e+00) (114, -4.67279911041259765625e+00) (115, 5.98811149597167968750e+00) (116, 2.30141544342041015625e+00) (117, -4.75290250778198242188e+00) (118, -7.11779928207397460938e+00) (119, 4.80588054656982421875e+00) (120, 5.99215126037597656250e+00) (121, 3.96279335021972656250e+00) (122, -8.22803306579589843750e+00) (123, 8.48694801330566406250e+00) (124, 5.97503757476806640625e+00) (125, -1.29026985168457031250e+00) (126, -3.54729080200195312500e+00) (127, -8.80954742431640625000e+00) (128, -1.97293376922607421875e+00) (129, -7.06052494049072265625e+00) (130, -5.04999685287475585938e+00) (131, 7.85922050476074218750e-01) (132, -9.96094799041748046875e+00) (133, -5.20757675170898437500e+00) (134, -9.30224609375000000000e+00) (135, -1.88210296630859375000e+00) (136, -6.10445308685302734375e+00) (137, -7.33522510528564453125e+00) (138, 5.26768684387207031250e-01) (139, -9.87658119201660156250e+00) (140, -5.22109889984130859375e+00) (141, 5.42860984802246093750e+00) (142, 5.73393249511718750000e+00) (143, -6.76896333694458007812e+00) (144, -9.19513702392578125000e-02) (145, -8.93886756896972656250e+00) (146, 9.21914672851562500000e+00) (147, -7.79053688049316406250e+00) (148, -3.69177007675170898438e+00) (149, -7.89865207672119140625e+00) (150, 7.01534271240234375000e+00) (151, -7.69961833953857421875e+00) (152, 6.06414031982421875000e+00) (153, 8.78730964660644531250e+00) (154, -9.21266937255859375000e+00) (155, 2.03917884826660156250e+00) (156, -2.50295925140380859375e+00) (157, -2.75995969772338867188e+00) (158, 3.22963142395019531250e+00) (159, 5.52410697937011718750e+00) (160, 1.79514884948730468750e-01) (161, 8.17963409423828125000e+00) (162, -3.68997097015380859375e+00) (163, 2.18566894531250000000e-01) (164, -7.02794218063354492188e+00) (165, -2.99221706390380859375e+00) (166, 8.33646392822265625000e+00) (167, -3.13239526748657226562e+00) (168, -3.27442169189453125000e-01) (169, -1.13676643371582031250e+00) (170, -3.00897645950317382812e+00) (171, 4.45145988464355468750e+00) (172, -5.70815658569335937500e+00) (173, -7.27504444122314453125e+00) (174, 7.68249511718750000000e+00) (175, 4.19989204406738281250e+00) (176, -6.21391201019287109375e+00) (177, 6.90164375305175781250e+00) (178, 6.40935516357421875000e+00) (179, 9.43183898925781250000e-02) (180, 9.00299072265625000000e+00) (181, 3.42469882965087890625e+00) (182, 2.39470005035400390625e+00) (183, 5.06713294982910156250e+00) (184, 2.21200942993164062500e+00) (185, 3.18203067779541015625e+00) (186, -2.89368867874145507812e+00) (187, 9.70905113220214843750e+00) (188, -9.57792854309082031250e+00) (189, -9.66405773162841796875e+00) (190, 5.23315811157226562500e+00) (0, 6.01587295532226562500e-01) (1, 8.51557540893554687500e+00) (2, -8.45681381225585937500e+00) (3, -9.17984580993652343750e+00) (4, -8.51236534118652343750e+00) (5, -1.44903087615966796875e+00) (6, 9.15661811828613281250e+00) (7, -1.64476108551025390625e+00) (8, 8.22352790832519531250e+00) (9, -1.98014736175537109375e+00) (10, 5.34626197814941406250e+00) (11, 2.67498588562011718750e+00) (12, 2.31169700622558593750e+00) (13, 8.07121658325195312500e+00) (14, 3.57481956481933593750e-01) (15, -3.48841190338134765625e+00) (16, -8.14269351959228515625e+00) (17, -2.74087476730346679688e+00) (18, -7.07905673980712890625e+00) (19, 1.95162487030029296875e+00) (20, -3.73788356781005859375e+00) (21, 6.34564208984375000000e+00) (22, -5.65367460250854492188e+00) (23, -8.67075061798095703125e+00) (24, -1.44234752655029296875e+00) (25, 7.52835655212402343750e+00) (26, -1.56443977355957031250e+00) (27, -1.73329734802246093750e+00) (28, 7.95042800903320312500e+00) (29, -1.22849750518798828125e+00) (30, -6.50014019012451171875e+00) (31, -1.44798374176025390625e+00) (32, -2.71292018890380859375e+00) (33, -4.95695304870605468750e+00) (34, -6.27830505371093750000e-01) (35, -1.22528648376464843750e+00) (36, 3.59401607513427734375e+00) (37, -1.47121047973632812500e+00) (38, 7.12995338439941406250e+00) (39, 1.81754302978515625000e+00) (40, 6.54864120483398437500e+00) (41, 2.47621536254882812500e+00) (42, -5.50747013092041015625e+00) (43, -1.13966178894042968750e+00) (44, 5.47432899475097656250e-01) (45, 4.85001182556152343750e+00) (46, 5.37192726135253906250e+00) (47, 2.40473937988281250000e+00) (48, -7.89086294174194335938e+00) (49, 8.29286956787109375000e+00) (50, -5.64363527297973632812e+00) (51, -1.62874603271484375000e+00) (52, 4.63851165771484375000e+00) (53, -1.29730987548828125000e+00) (54, -2.99496650695800781250e-01) (55, -6.80383491516113281250e+00) (56, -3.76895332336425781250e+00) (57, 8.13606262207031250000e+00) (58, 1.46286678314208984375e+00) (59, -5.81852436065673828125e+00) (60, -3.09243345260620117188e+00) (61, 4.96272754669189453125e+00) (62, 2.73349189758300781250e+00) (63, 4.19464683532714843750e+00) (64, -9.99422550201416015625e+00) (65, -7.89433860778808593750e+00) (66, -7.03063964843750000000e+00) (67, 3.59979152679443359375e+00) (68, 6.34450912475585937500e-01) (69, -9.90068721771240234375e+00) (70, -4.58266544342041015625e+00) (71, -2.81690740585327148438e+00) (72, 2.57552719116210937500e+00) (73, -9.01355743408203125000e-02) (74, 6.04343032836914062500e+00) (75, -6.87703895568847656250e+00) (76, -5.24012374877929687500e+00) (77, 1.41535758972167968750e+00) (78, 5.52770042419433593750e+00) (79, -3.13098669052124023438e+00) (80, -2.91771888732910156250e-01) (81, 9.88406562805175781250e+00) (82, 5.24026775360107421875e+00) (83, -5.65325927734375000000e+00) (84, -1.41324520111083984375e+00) (85, -5.05922937393188476562e+00) (86, -2.45709419250488281250e+00) (87, 4.81780147552490234375e+00) (88, -6.92316532135009765625e+00) (89, 9.00577354431152343750e+00) (90, 8.99927711486816406250e+00) (91, -1.55982971191406250000e-02) (92, 3.96850109100341796875e+00) (93, 1.73276901245117187500e+00) (94, -5.82095193862915039062e+00) (95, 3.97427558898925781250e+00) (96, 3.83843040466308593750e+00) (97, -2.85159158706665039062e+00) (98, -2.42593288421630859375e+00) (99, -5.52711915969848632812e+00) (100, -2.75227832794189453125e+00) (101, 2.99140071868896484375e+00) (102, 1.65597343444824218750e+00) (103, 9.82324981689453125000e+00) (104, -7.09873390197753906250e+00) (105, -2.30059576034545898438e+00) (106, -7.05379009246826171875e+00) (107, -2.33885765075683593750e+00) (108, 9.11476135253906250000e+00) (109, 8.47390937805175781250e+00) (110, 4.53015518188476562500e+00) (111, -1.17701053619384765625e+00) (112, 8.35797500610351562500e+00) (113, -2.29577064514160156250e-01) (114, 3.16973114013671875000e+00) (115, -3.05526924133300781250e+00) (116, 4.71119403839111328125e+00) (117, -9.28736305236816406250e+00) (118, -8.23746776580810546875e+00) (119, 7.78802871704101562500e+00) (120, 9.71840858459472656250e+00) (121, -9.23819065093994140625e+00) (122, -2.22757005691528320312e+00) (123, 3.68691062927246093750e+00) (124, 2.49457836151123046875e+00) (125, 1.95147895812988281250e+00) (126, -2.33881282806396484375e+00) (127, -3.66699171066284179688e+00) (128, 9.09988594055175781250e+00) (129, 5.23525333404541015625e+00) (130, 8.05889129638671875000e-01) (131, -3.65239191055297851562e+00) (132, -1.77334403991699218750e+00) (133, -7.53813743591308593750e+00) (134, -3.82914257049560546875e+00) (135, 1.12792110443115234375e+00) (136, 1.61267280578613281250e-01) (137, -8.82932662963867187500e-01) (138, 8.78906250000000000000e+00) (139, -7.23970413208007812500e-01) (140, -2.40902185440063476562e+00) (141, 3.31921958923339843750e+00) (142, 8.09902000427246093750e+00) (143, -4.05104637145996093750e+00) (144, -6.91035747528076171875e+00) (145, 1.26875114440917968750e+00) (146, 2.89368343353271484375e+00) (147, 7.80083656311035156250e+00) (148, 1.98138809204101562500e+00) (149, 4.65621662139892578125e+00) (150, 5.58886528015136718750e+00) (151, 1.69979763031005859375e+00) (152, 5.41802597045898437500e+00) (153, -6.63870429992675781250e+00) (154, -4.61329126358032226562e+00) (155, -2.08739519119262695312e+00) (156, 5.31277370452880859375e+00) (157, 3.04789543151855468750e+00) (158, 4.24561214447021484375e+00) (159, 4.41266059875488281250e+00) (160, -1.71685028076171875000e+00) (161, -4.94849729537963867188e+00) (162, -9.23973083496093750000e+00) (163, 6.50980567932128906250e+00) (164, -2.48663425445556640625e+00) (165, -3.06887388229370117188e+00) (166, -2.36227273941040039062e+00) (167, 7.67463302612304687500e+00) (168, 6.04819297790527343750e+00) (169, -3.57320928573608398438e+00) (170, -3.04933738708496093750e+00) (171, -6.36082792282104492188e+00) (172, 9.74600982666015625000e+00) (173, -4.95031738281250000000e+00) (174, -4.11873817443847656250e-01) (175, -7.16434669494628906250e+00) (176, 6.31843376159667968750e+00) (177, -7.51818990707397460938e+00) (178, -9.36351013183593750000e+00) (179, -1.70017814636230468750e+00) (180, 7.13802719116210937500e+00) (181, 6.22535514831542968750e+00) (182, 9.99961853027343750000e+00) (183, 2.55605316162109375000e+00) (184, 9.58664894104003906250e+00) (185, -4.61367177963256835938e+00) (186, -9.53134250640869140625e+00) (187, 4.89942455291748046875e+00) (188, 8.43422317504882812500e+00) (189, 4.71427059173583984375e+00) (190, -6.87914848327636718750e-01) (0, -3.28262567520141601562e+00) (1, 9.76577186584472656250e+00) (2, 7.23543167114257812500e-02) (3, -6.77281999588012695312e+00) (4, -2.72086143493652343750e+00) (5, 7.00347900390625000000e+00) (6, 8.64907264709472656250e-01) (7, -5.04622840881347656250e+00) (8, 3.05167388916015625000e+00) (9, 7.29169845581054687500e+00) (10, 1.90443420410156250000e+00) (11, 6.69084548950195312500e+00) (12, 7.03770828247070312500e+00) (13, 6.95411682128906250000e+00) (14, -3.72102880477905273438e+00) (15, 9.87336158752441406250e+00) (16, 3.27255153656005859375e+00) (17, -1.23921871185302734375e+00) (18, -9.49014854431152343750e+00) (19, -8.42762756347656250000e+00) (20, -4.10119199752807617188e+00) (21, 6.73520660400390625000e+00) (22, -8.42800807952880859375e+00) (23, 8.45486068725585937500e+00) (24, 6.32185745239257812500e+00) (25, -3.04167985916137695312e+00) (26, 8.92351913452148437500e+00) (27, 1.22128105163574218750e+00) (28, -4.60745573043823242188e+00) (29, 3.63779067993164062500e+00) (30, -9.46663379669189453125e+00) (31, 2.10991859436035156250e+00) (32, 3.40356349945068359375e+00) (33, 6.05720520019531250000e-01) (34, 5.33709907531738281250e+00) (35, -9.31729793548583984375e+00) (36, -2.39079952239990234375e+00) (37, -3.79799413681030273438e+00) (38, -4.36352634429931640625e+00) (39, -9.33912563323974609375e+00) (40, -6.50629615783691406250e+00) (41, 7.54090690612792968750e+00) (42, 7.35172080993652343750e+00) (43, -9.46858787536621093750e+00) (44, 4.49502563476562500000e+00) (45, -6.36930799484252929688e+00) (46, -9.59522533416748046875e+00) (47, -2.23242425918579101562e+00) (48, 2.39147377014160156250e+00) (49, -9.08537387847900390625e+00) (50, -6.60051345825195312500e-01) (51, 8.29028129577636718750e+00) (52, 7.64983177185058593750e+00) (53, 9.11940574645996093750e-01) (54, 6.74514389038085937500e+00) (55, 3.97169017791748046875e+00) (56, 7.87026023864746093750e+00) (57, 5.66866302490234375000e+00) (58, -4.80702829360961914062e+00) (59, -6.73719549179077148438e+00) (60, -6.93546295166015625000e-01) (61, -4.27366209030151367188e+00) (62, 5.37272167205810546875e+00) (63, -7.28998279571533203125e+00) (64, 6.33205795288085937500e+00) (65, 7.09820747375488281250e-01) (66, -6.60728073120117187500e+00) (67, -6.05874061584472656250e+00) (68, 6.91182518005371093750e+00) (69, -9.70807075500488281250e-01) (70, -5.39786577224731445312e+00) (71, -9.59447002410888671875e+00) (72, -3.42989826202392578125e+00) (73, -8.04614543914794921875e+00) (74, -9.06305694580078125000e+00) (75, -8.93487262725830078125e+00) (76, -4.41545295715332031250e+00) (77, -8.65828323364257812500e+00) (78, -1.16729736328125000000e+00) (79, 7.97602081298828125000e+00) (80, -7.74365711212158203125e+00) (81, 8.17265129089355468750e+00) (82, 6.26630210876464843750e+00) (83, 9.90617561340332031250e+00) (84, -9.15408134460449218750e-01) (85, 3.01144695281982421875e+00) (86, 3.87786579132080078125e+00) (87, -3.04514694213867187500e+00) (88, -1.31989002227783203125e+00) (89, 9.07083702087402343750e+00) (90, 2.17657089233398437500e-01) (91, 7.98656272888183593750e+00) (92, -5.20282411575317382812e+00) (93, -4.40962028503417968750e+00) (94, -9.30341911315917968750e+00) (95, -8.87076568603515625000e+00) (96, 6.30020141601562500000e+00) (97, -5.91069984436035156250e+00) (98, -4.92950630187988281250e+00) (99, 3.21202754974365234375e+00) (100, 3.11849308013916015625e+00) (101, -3.27372550964355468750e-01) (102, 3.61755847930908203125e+00) (103, 9.68859481811523437500e+00) (104, 1.62648296356201171875e+00) (105, 4.55450057983398437500e+00) (106, -9.24627685546875000000e+00) (107, 7.21102905273437500000e+00) (108, 5.89621734619140625000e+00) (109, -4.13573265075683593750e-01) (110, 5.18704986572265625000e+00) (111, 8.15256118774414062500e+00) (112, -2.24092197418212890625e+00) (113, 1.45335292816162109375e+00) (114, 8.05873680114746093750e+00) (115, 6.84366989135742187500e+00) (116, -5.53519964218139648438e+00) (117, 1.93660354614257812500e+00) (118, -6.20147657394409179688e+00) (119, 3.14490985870361328125e+00) (120, 1.00744152069091796875e+00) (121, 4.01618099212646484375e+00) (122, 1.13147354125976562500e+00) (123, 5.80461692810058593750e+00) (124, 9.60655975341796875000e+00) (125, 1.82805538177490234375e+00) (126, 6.93385124206542968750e+00) (127, 5.90676212310791015625e+00) (128, 5.91735553741455078125e+00) (129, -7.99565410614013671875e+00) (130, -8.81210327148437500000e-01) (131, -9.64150428771972656250e-01) (132, 1.67697429656982421875e+00) (133, -7.26365232467651367188e+00) (134, -1.27555465698242187500e+00) (135, -6.69654321670532226562e+00) (136, 7.29084777832031250000e+00) (137, -5.21831512451171875000e-01) (138, -9.48551368713378906250e+00) (139, 3.18706607818603515625e+00) (140, 9.06459426879882812500e+00) (141, 5.70153713226318359375e+00) (142, 1.33962726593017578125e+00) (143, -3.17632675170898437500e+00) (144, -2.84510993957519531250e+00) (145, -6.01635932922363281250e-01) (146, -6.33265590667724609375e+00) (147, 1.61969089508056640625e+00) (148, -8.66503238677978515625e+00) (149, -2.53413200378417968750e+00) (150, -5.23539876937866210938e+00) (151, 2.34240913391113281250e+00) (152, -8.51795101165771484375e+00) (153, 5.89607620239257812500e+00) (154, -1.85297489166259765625e+00) (155, -8.91139030456542968750e+00) (156, -2.27586936950683593750e+00) (157, -4.91912269592285156250e+00) (158, 6.99537086486816406250e+00) (159, -6.35851383209228515625e+00) (160, -2.91477680206298828125e+00) (161, -3.88583850860595703125e+00) (162, 2.67733573913574218750e+00) (163, 8.76219558715820312500e+00) (164, -1.14949035644531250000e+00) (165, -8.59821891784667968750e+00) (166, -7.93434619903564453125e+00) (167, -3.85864257812500000000e+00) (168, 8.79949569702148437500e-01) (169, -7.41985940933227539062e+00) (170, 9.32842254638671875000e+00) (171, -5.54561614990234375000e-02) (172, 8.28167724609375000000e+00) (173, 6.68050765991210937500e-01) (174, 6.76821708679199218750e+00) (175, -4.56343173980712890625e+00) (176, -9.93358421325683593750e+00) (177, -9.56443786621093750000e+00) (178, 7.05625915527343750000e+00) (179, -8.59861660003662109375e+00) (180, -2.09857034683227539062e+00) (181, -8.17914009094238281250e+00) (182, 3.74379158020019531250e+00) (183, -6.16521835327148437500e-01) (184, 7.71693611145019531250e+00) (185, -8.10918235778808593750e+00) (186, 4.72087860107421875000e-01) (187, -4.55893325805664062500e+00) (188, -3.02830505371093750000e+00) (189, -2.53253984451293945312e+00) (190, -9.17447090148925781250e-01) (0, 4.05691719055175781250e+00) (1, 3.58162117004394531250e+00) (2, -8.24011135101318359375e+00) (3, 2.81911468505859375000e+00) (4, -7.56786918640136718750e+00) (5, -6.83832979202270507812e+00) (6, 4.88476848602294921875e+00) (7, -1.42651176452636718750e+00) (8, 4.04162025451660156250e+00) (9, 7.46490859985351562500e+00) (10, -2.09808778762817382812e+00) (11, -6.01383495330810546875e+00) (12, 5.74658584594726562500e+00) (13, 8.56996345520019531250e+00) (14, -9.24561691284179687500e+00) (15, -8.81684494018554687500e+00) (16, 8.63637924194335937500e+00) (17, -8.81005573272705078125e+00) (18, 8.23941421508789062500e+00) (19, -9.96223735809326171875e+00) (20, -9.08625602722167968750e-01) (21, -9.93972587585449218750e+00) (22, 3.78155422210693359375e+00) (23, 8.47485351562500000000e+00) (24, 7.77721023559570312500e+00) (25, 5.67237281799316406250e+00) (26, -1.05305957794189453125e+00) (27, -6.78172349929809570312e+00) (28, -7.35593223571777343750e+00) (29, 6.41440200805664062500e+00) (30, 2.30082988739013671875e+00) (31, 6.70098495483398437500e+00) (32, -3.97777557373046875000e-03) (33, 4.06071758270263671875e+00) (34, -4.79899406433105468750e-01) (35, 2.42815399169921875000e+00) (36, 7.22238922119140625000e+00) (37, -5.59513092041015625000e+00) (38, -8.99835777282714843750e+00) (39, 1.26400852203369140625e+00) (40, -8.13022136688232421875e+00) (41, -1.09644508361816406250e+00) (42, 5.25017356872558593750e+00) (43, 7.61636543273925781250e+00) (44, -2.52648162841796875000e+00) (45, 6.00455665588378906250e+00) (46, 8.79952049255371093750e+00) (47, -3.89010238647460937500e+00) (48, 7.19449996948242187500e+00) (49, 7.03893470764160156250e+00) (50, -3.85233926773071289062e+00) (51, -3.71412467956542968750e+00) (52, 7.09920883178710937500e+00) (53, 9.92921638488769531250e+00) (54, -5.23927211761474609375e+00) (55, 4.87641906738281250000e+00) (56, 5.60158824920654296875e+00) (57, 3.70766830444335937500e+00) (58, 8.09469604492187500000e+00) (59, 8.24565696716308593750e+00) (60, 1.22070312500000000000e-01) (61, 3.95524024963378906250e-01) (62, 4.94664192199707031250e+00) (63, -9.88190746307373046875e+00) (64, -5.54375696182250976562e+00) (65, -5.53325796127319335938e+00) (66, 2.54624557495117187500e+00) (67, -8.32136821746826171875e+00) (68, -1.12838840484619140625e+00) (69, 3.54788780212402343750e+00) (70, 2.94264030456542968750e+00) (71, 7.41390228271484375000e-01) (72, -7.54855728149414062500e+00) (73, -1.80718612670898437500e+00) (74, -1.64224433898925781250e+00) (75, -7.50398635864257812500e-02) (76, -5.80262947082519531250e+00) (77, -2.84272432327270507812e+00) (78, 6.03485870361328125000e+00) (79, -8.60812854766845703125e+00) (80, -5.80378961563110351562e+00) (81, -7.81748104095458984375e+00) (82, -2.32225370407104492188e+00) (83, -8.70458030700683593750e+00) (84, -7.88826560974121093750e+00) (85, 2.43847465515136718750e+00) (86, 6.17183685302734375000e+00) (87, 7.71332168579101562500e+00) (88, -3.85385656356811523438e+00) (89, 4.26653385162353515625e+00) (90, 5.95897769927978515625e+00) (91, 6.26821327209472656250e+00) (92, -5.33794164657592773438e+00) (93, 9.05619621276855468750e-01) (94, 6.38630676269531250000e+00) (95, -8.81698608398437500000e-01) (96, 5.37236213684082031250e+00) (97, -1.06744766235351562500e+00) (98, 7.96933174133300781250e-01) (99, -5.75602579116821289062e+00) (100, -7.51955986022949218750e+00) (101, -6.26042652130126953125e+00) (102, 4.98536491394042968750e+00) (103, -5.06811666488647460938e+00) (104, 1.93238735198974609375e+00) (105, -6.65688037872314453125e+00) (106, 4.85684394836425781250e+00) (107, 6.12975692749023437500e+00) (108, 5.00394821166992187500e-01) (109, 8.91701698303222656250e-01) (110, 7.52162933349609375000e+00) (111, 4.69660663604736328125e+00) (112, 3.07422161102294921875e+00) (113, -4.80062484741210937500e+00) (114, 5.99202537536621093750e+00) (115, 5.18595600128173828125e+00) (116, 7.63784980773925781250e+00) (117, 2.16386413574218750000e+00) (118, 2.89927864074707031250e+00) (119, -6.21600723266601562500e+00) (120, -3.56960248947143554688e+00) (121, -1.14174365997314453125e+00) (122, -9.94779300689697265625e+00) (123, 1.09245681762695312500e+00) (124, 9.76387786865234375000e+00) (125, 6.43851280212402343750e+00) (126, -9.78924179077148437500e+00) (127, 5.13623905181884765625e+00) (128, -4.62893533706665039062e+00) (129, 1.00769042968750000000e+00) (130, 9.38021469116210937500e+00) (131, -2.14849472045898437500e+00) (132, 4.74726390838623046875e+00) (133, 4.36557769775390625000e+00) (134, 2.78338813781738281250e+00) (135, -3.32034826278686523438e+00) (136, 7.70869636535644531250e+00) (137, -2.35976743698120117188e+00) (138, -7.19059085845947265625e+00) (139, -1.79090690612792968750e+00) (140, 8.53193473815917968750e+00) (141, -9.66896152496337890625e+00) (142, -7.09430074691772460938e+00) (143, 1.60615634918212890625e+00) (144, -4.46958589553833007812e+00) (145, 8.89772415161132812500e+00) (146, -3.20788764953613281250e+00) (147, -6.83173656463623046875e+00) (148, 1.06158924102783203125e+00) (149, 9.69139099121093750000e+00) (150, -3.04774284362792968750e+00) (151, 7.49198722839355468750e+00) (152, -1.45035266876220703125e+00) (153, -2.99553632736206054688e+00) (154, -1.41555690765380859375e+00) (155, -1.68647480010986328125e+00) (156, -6.55702400207519531250e+00) (157, -1.20479869842529296875e+00) (158, -6.55023527145385742188e+00) (159, -1.18595886230468750000e+00) (160, 9.80289268493652343750e+00) (161, -7.17002153396606445312e+00) (162, 6.66554450988769531250e+00) (163, 4.55015659332275390625e+00) (164, 7.19555664062500000000e+00) (165, -5.51065444946289062500e-01) (166, -8.77019214630126953125e+00) (167, 4.90425300598144531250e+00) (168, 7.08916664123535156250e+00) (169, -5.96078205108642578125e+00) (170, -6.88665294647216796875e+00) (171, 5.62110137939453125000e+00) (172, -5.62974405288696289062e+00) (173, -3.98095369338989257812e+00) (174, -2.77274131774902343750e+00) (175, -9.93299484252929687500e-02) (176, -5.08322858810424804688e+00) (177, 4.01937103271484375000e+00) (178, 3.06893348693847656250e+00) (179, 5.97836112976074218750e+00) (180, 3.71076202392578125000e+00) (181, -9.97880935668945312500e+00) (182, 3.47034835815429687500e+00) (183, -7.73958969116210937500e+00) (184, -2.97434568405151367188e+00) (185, -7.94520854949951171875e+00) (186, 5.73935508728027343750e-01) (187, 4.68629837036132812500e-01) (188, 8.49991798400878906250e-01) (189, 4.02369976043701171875e+00) (190, 9.28267097473144531250e+00) (0, 6.52884483337402343750e-01) (1, 6.85367774963378906250e+00) (2, 5.94821643829345703125e+00) (3, -4.79695844650268554688e+00) (4, 4.04923534393310546875e+00) (5, -4.60284852981567382812e+00) (6, -3.56715011596679687500e+00) (7, -1.04651069641113281250e+00) (8, -7.51368141174316406250e+00) (9, 4.72067832946777343750e-01) (10, 2.06683635711669921875e+00) (11, 8.10742187500000000000e+00) (12, 4.84232330322265625000e+00) (13, 8.08588218688964843750e+00) (14, -4.66531991958618164062e+00) (15, -5.25700664520263671875e+00) (16, -6.99734544754028320312e+00) (17, 9.35405158996582031250e+00) (18, 7.81192588806152343750e+00) (19, 8.98101615905761718750e+00) (20, 3.06481361389160156250e+00) (21, 7.83311653137207031250e+00) (22, 2.45136356353759765625e+00) (23, 5.32522392272949218750e+00) (24, -5.14122867584228515625e+00) (25, 4.50615501403808593750e+00) (26, -4.10084056854248046875e+00) (27, 5.32740211486816406250e+00) (28, -4.64385271072387695312e+00) (29, 9.92285919189453125000e+00) (30, 4.61007213592529296875e+00) (31, 6.00903129577636718750e+00) (32, 6.77653694152832031250e+00) (33, 5.58290481567382812500e-01) (34, -8.78792667388916015625e+00) (35, 8.25773239135742187500e-01) (36, 5.95544242858886718750e+00) (37, -2.35507726669311523438e+00) (38, 9.77926254272460937500e+00) (39, 8.44176101684570312500e+00) (40, 8.11698913574218750000e+00) (41, 1.84609889984130859375e+00) (42, 6.54918098449707031250e+00) (43, 2.95931339263916015625e+00) (44, -6.80170059204101562500e-02) (45, -8.11613845825195312500e+00) (46, 7.70230674743652343750e+00) (47, 2.93463706970214843750e+00) (48, -8.76208782196044921875e+00) (49, 5.51423263549804687500e+00) (50, 1.91565227508544921875e+00) (51, 4.30272579193115234375e+00) (52, 3.34735107421875000000e+00) (53, -5.63298368453979492188e+00) (54, -3.72050285339355468750e-01) (55, 8.20612335205078125000e+00) (56, 8.87317085266113281250e+00) (57, 5.52710914611816406250e+00) (58, 3.53352451324462890625e+00) (59, -5.77068233489990234375e+00) (60, 5.44996833801269531250e+00) (61, -1.85640239715576171875e+00) (62, -9.76165008544921875000e+00) (63, 2.22650718688964843750e+00) (64, 8.70188713073730468750e+00) (65, -8.54957675933837890625e+00) (66, -6.94771862030029296875e+00) (67, 4.65732955932617187500e+00) (68, -9.04654502868652343750e-01) (69, -7.16845607757568359375e+00) (70, 3.09908962249755859375e+00) (71, -2.78766393661499023438e+00) (72, 4.67764377593994140625e+00) (73, -3.51728439331054687500e-01) (74, -9.82835102081298828125e+00) (75, -5.39037418365478515625e+00) (76, 1.53213214874267578125e+00) (77, 7.87395477294921875000e+00) (78, 7.54426383972167968750e+00) (79, 2.77004432678222656250e+00) (80, 3.38818931579589843750e+00) (81, -5.40084838867187500000e-01) (82, -2.92722892761230468750e+00) (83, -3.26445960998535156250e+00) (84, 3.82693195343017578125e+00) (85, 6.70071983337402343750e+00) (86, -5.05833673477172851562e+00) (87, 2.70010185241699218750e+00) (88, 2.22783088684082031250e+00) (89, 8.47518730163574218750e+00) (90, 6.92942047119140625000e+00) (91, -2.32220077514648437500e+00) (92, -3.38121414184570312500e+00) (93, 7.16777038574218750000e+00) (94, 9.90430641174316406250e+00) (95, -4.67932605743408203125e+00) (96, 8.61819267272949218750e+00) (97, -7.04341220855712890625e+00) (98, 9.97800254821777343750e+00) (99, -2.28645992279052734375e+00) (100, -4.21186828613281250000e+00) (101, 3.07709312438964843750e+00) (102, 4.92587566375732421875e+00) (103, -9.53422451019287109375e+00) (104, -7.27463483810424804688e+00) (105, 5.09752464294433593750e+00) (106, -4.92459917068481445312e+00) (107, 4.25749778747558593750e+00) (108, 2.97148132324218750000e+00) (109, -7.38033580780029296875e+00) (110, -2.97245693206787109375e+00) (111, -3.64032983779907226562e+00) (112, 2.07957935333251953125e+00) (113, 4.10031414031982421875e+00) (114, 3.09521102905273437500e+00) (115, -4.09348773956298828125e+00) (116, 8.01034927368164062500e-01) (117, 8.03687477111816406250e+00) (118, 8.60661506652832031250e+00) (119, -6.97113370895385742188e+00) (120, 6.51206207275390625000e+00) (121, 5.53603649139404296875e+00) (122, 7.06665039062500000000e-01) (123, -6.86915111541748046875e+00) (124, 2.70380687713623046875e+00) (125, 6.10972404479980468750e-01) (126, -1.54847717285156250000e+00) (127, 1.32200145721435546875e+00) (128, 3.56756114959716796875e+00) (129, -1.57047367095947265625e+00) (130, 9.03553962707519531250e+00) (131, 9.35569190979003906250e+00) (132, -8.49338054656982421875e+00) (133, 3.96141624450683593750e+00) (134, 9.82146835327148437500e+00) (135, -5.76801538467407226562e+00) (136, -9.41058158874511718750e-01) (137, -5.10313034057617187500e+00) (138, 8.48948287963867187500e+00) (139, -7.96957778930664062500e+00) (140, -2.48346567153930664062e+00) (141, -4.48297452926635742188e+00) (142, -1.60990810394287109375e+00) (143, 9.59611320495605468750e+00) (144, 9.61734008789062500000e+00) (145, -8.51469707489013671875e+00) (146, -4.49737310409545898438e+00) (147, 4.18375968933105468750e-01) (148, 9.52217674255371093750e+00) (149, -5.89075803756713867188e+00) (150, 3.44724178314208984375e+00) (151, 6.03423881530761718750e+00) (152, 9.64527893066406250000e+00) (153, -5.84609270095825195312e+00) (154, 9.16508674621582031250e+00) (155, 2.34908485412597656250e+00) (156, 4.76488113403320312500e+00) (157, -2.38338947296142578125e+00) (158, -6.32891368865966796875e+00) (159, -1.66755867004394531250e+00) (160, 6.04613685607910156250e+00) (161, -7.29337310791015625000e+00) (162, -2.31186532974243164062e+00) (163, 7.55275535583496093750e+00) (164, 6.66804313659667968750e+00) (165, -2.49039697647094726562e+00) (166, -8.21525955200195312500e+00) (167, -4.27301406860351562500e+00) (168, 2.40647315979003906250e+00) (169, -9.72577667236328125000e+00) (170, -2.24259185791015625000e+00) (171, 9.92300796508789062500e+00) (172, -4.20875120162963867188e+00) (173, 6.14749908447265625000e+00) (174, 9.51912117004394531250e+00) (175, -4.59141159057617187500e+00) (176, 7.63280296325683593750e+00) (177, -4.97825193405151367188e+00) (178, 5.82696437835693359375e+00) (179, 7.15497970581054687500e+00) (180, -8.69009971618652343750e-01) (181, -7.25793838500976562500e-01) (182, 3.18921756744384765625e+00) (183, -1.22373199462890625000e+00) (184, 3.42811298370361328125e+00) (185, 2.35430622100830078125e+00) (186, -8.87464714050292968750e+00) (187, -1.80700588226318359375e+00) (188, 9.97091674804687500000e+00) (189, -5.20356082916259765625e+00) (190, 6.52543640136718750000e+00) (0, 6.01705360412597656250e+00) (1, -2.49693346023559570312e+00) (2, -5.78642892837524414062e+00) (3, 3.56980895996093750000e+00) (4, -5.82888889312744140625e+00) (5, 1.72317409515380859375e+00) (6, 5.35454940795898437500e+00) (7, -1.01902961730957031250e-01) (8, -5.87035322189331054688e+00) (9, 5.62877273559570312500e+00) (10, 7.65550422668457031250e+00) (11, -5.94734621047973632812e+00) (12, -8.57997798919677734375e+00) (13, 3.80300521850585937500e+00) (14, -6.42822456359863281250e+00) (15, -3.17138957977294921875e+00) (16, 1.43580818176269531250e+00) (17, -1.40647697448730468750e+00) (18, -7.34442520141601562500e+00) (19, -1.40921306610107421875e+00) (20, 7.72451400756835937500e+00) (21, 1.92978096008300781250e+00) (22, -8.21999359130859375000e+00) (23, -3.49921846389770507812e+00) (24, -4.64210510253906250000e+00) (25, 4.13431262969970703125e+00) (26, -2.37386465072631835938e+00) (27, 3.55088901519775390625e+00) (28, 4.10522937774658203125e+00) (29, 2.42257499694824218750e+00) (30, 7.63263702392578125000e-02) (31, 1.22281074523925781250e-01) (32, 9.92564201354980468750e+00) (33, 4.28989601135253906250e+00) (34, -6.30790901184082031250e+00) (35, -5.90324735641479492188e+00) (36, -3.98692846298217773438e+00) (37, 9.04664039611816406250e+00) (38, 3.99485015869140625000e+00) (39, 1.42718315124511718750e-01) (40, 4.67541313171386718750e+00) (41, 1.65035438537597656250e+00) (42, 4.19537162780761718750e+00) (43, 6.09543418884277343750e+00) (44, -4.54664039611816406250e+00) (45, 7.76714706420898437500e+00) (46, -7.07595491409301757812e+00) (47, 6.88916587829589843750e+00) (48, -3.63932847976684570312e+00) (49, -4.42038011550903320312e+00) (50, -4.52004575729370117188e+00) (51, -5.91481494903564453125e+00) (52, 7.50940132141113281250e+00) (53, -2.74003934860229492188e+00) (54, 5.85967063903808593750e-01) (55, -7.13270378112792968750e+00) (56, -8.60572719573974609375e+00) (57, 8.21210289001464843750e+00) (58, 6.41818428039550781250e+00) (59, 5.49950122833251953125e+00) (60, 6.34676933288574218750e-01) (61, -3.50548791885375976562e+00) (62, -4.37821626663208007812e+00) (63, 5.60317993164062500000e-01) (64, -9.21559143066406250000e+00) (65, -6.86125755310058593750e-01) (66, 4.65707206726074218750e+00) (67, -3.20251989364624023438e+00) (68, -1.63948535919189453125e+00) (69, -1.34807968139648437500e+00) (70, 6.94019889831542968750e+00) (71, -6.96407270431518554688e+00) (72, -9.69772529602050781250e+00) (73, 1.13557052612304687500e+00) (74, 9.13136100769042968750e+00) (75, -4.24436569213867187500e+00) (76, -1.09728145599365234375e+00) (77, -7.94459342956542968750e+00) (78, -7.35519838333129882812e+00) (79, 5.26339054107666015625e+00) (80, -2.36497354507446289062e+00) (81, -1.87524414062500000000e+00) (82, 9.34857368469238281250e+00) (83, -4.85557270050048828125e+00) (84, 5.38471698760986328125e+00) (85, -6.54582977294921875000e-02) (86, -1.98827648162841796875e+00) (87, 6.77898979187011718750e+00) (88, -1.85335636138916015625e+00) (89, -5.57009077072143554688e+00) (90, 2.27849102020263671875e+00) (91, 8.78132057189941406250e+00) (92, 9.24421310424804687500e-01) (93, 7.90027427673339843750e+00) (94, -6.58360481262207031250e-01) (95, 1.70882892608642578125e+00) (96, -2.78585100173950195312e+00) (97, -6.00128889083862304688e+00) (98, 8.50630950927734375000e+00) (99, 5.57466411590576171875e+00) (100, 2.65063190460205078125e+00) (101, 5.44650936126708984375e+00) (102, 8.61058998107910156250e+00) (103, 2.95290660858154296875e+00) (104, -3.41792011260986328125e+00) (105, 7.74195289611816406250e+00) (106, 8.70854187011718750000e+00) (107, 5.48479938507080078125e+00) (108, 9.79735946655273437500e+00) (109, -8.64665699005126953125e+00) (110, 7.48188018798828125000e-01) (111, -2.56761360168457031250e+00) (112, -5.21901130676269531250e-01) (113, 9.67636108398437500000e-02) (114, 2.57681369781494140625e+00) (115, -5.13718414306640625000e+00) (116, -9.96869373321533203125e+00) (117, -9.41146278381347656250e+00) (118, -8.35819435119628906250e+00) (119, -1.82205009460449218750e+00) (120, -4.98155355453491210938e+00) (121, 3.92029762268066406250e+00) (122, -3.04072904586791992188e+00) (123, 5.94286632537841796875e+00) (124, 1.82057285308837890625e+00) (125, 6.30091094970703125000e+00) (126, -2.34830284118652343750e+00) (127, 9.03472137451171875000e+00) (128, -9.70037746429443359375e+00) (129, -3.84199285507202148438e+00) (130, 4.60938549041748046875e+00) (131, 2.95025348663330078125e+00) (132, -8.39548397064208984375e+00) (133, 3.21997737884521484375e+00) (134, -4.09683895111083984375e+00) (135, -1.81340408325195312500e+00) (136, 9.61930274963378906250e-01) (137, -5.38829803466796875000e+00) (138, -6.32860517501831054688e+00) (139, 7.59290695190429687500e-01) (140, -4.03495502471923828125e+00) (141, 4.41958427429199218750e+00) (142, 8.19167518615722656250e+00) (143, 5.44314479827880859375e+00) (144, -5.48365259170532226562e+00) (145, 7.68489837646484375000e-01) (146, -9.69403934478759765625e+00) (147, -5.45234680175781250000e+00) (148, 1.35702610015869140625e+00) (149, -8.05223369598388671875e+00) (150, 2.72560310363769531250e+00) (151, 6.37547302246093750000e+00) (152, 5.86806392669677734375e+00) (153, 9.68487548828125000000e+00) (154, 2.31833934783935546875e+00) (155, -2.31136369705200195312e+00) (156, 5.98578548431396484375e+00) (157, 9.97003555297851562500e+00) (158, -3.27664136886596679688e+00) (159, 6.28540802001953125000e+00) (160, -3.87195539474487304688e+00) (161, -8.66725540161132812500e+00) (162, -7.64338493347167968750e-01) (163, -2.26743936538696289062e+00) (164, 4.55272197723388671875e+00) (165, 5.13882255554199218750e+00) (166, 5.91915702819824218750e+00) (167, -4.48534774780273437500e+00) (168, 9.75052452087402343750e+00) (169, 9.59055137634277343750e+00) (170, 6.27394104003906250000e+00) (171, -4.28443002700805664062e+00) (172, 4.01013565063476562500e+00) (173, 4.46561813354492187500e+00) (174, -8.84128570556640625000e+00) (175, 8.52648353576660156250e+00) (176, -4.76589250564575195312e+00) (177, -8.53532505035400390625e+00) (178, -6.92586326599121093750e+00) (179, 6.59113311767578125000e+00) (180, -6.58755874633789062500e+00) (181, 5.79974079132080078125e+00) (182, 2.96660518646240234375e+00) (183, 9.28050422668457031250e+00) (184, 5.48461437225341796875e+00) (185, -4.71505451202392578125e+00) (186, -3.03085803985595703125e+00) (187, 1.47039985656738281250e+00) (188, -4.74501752853393554688e+00) (189, 3.69250011444091796875e+00) (190, -2.24419164657592773438e+00) (0, 1.38302707672119140625e+00) (1, 5.02524471282958984375e+00) (2, 6.99147033691406250000e+00) (3, 9.11558723449707031250e+00) (4, -4.22033309936523437500e-01) (5, 2.13029289245605468750e+00) (6, 5.03474426269531250000e+00) (7, 5.09261798858642578125e+00) (8, 1.88081741333007812500e+00) (9, 4.62529659271240234375e+00) (10, 1.36655998229980468750e+00) (11, 7.59638595581054687500e+00) (12, -1.36456775665283203125e+00) (13, -4.16782093048095703125e+00) (14, 8.75510025024414062500e+00) (15, -2.83808422088623046875e+00) (16, 1.06628608703613281250e+00) (17, -9.78022289276123046875e+00) (18, 2.36053466796875000000e-01) (19, -2.34258079528808593750e+00) (20, -6.36778163909912109375e+00) (21, -3.96420669555664062500e+00) (22, -9.37597465515136718750e+00) (23, -7.08727598190307617188e+00) (24, -8.47959136962890625000e+00) (25, -4.09102916717529296875e+00) (26, -1.18134498596191406250e-01) (27, 2.99080848693847656250e+00) (28, 1.16395378112792968750e+00) (29, -6.42563343048095703125e+00) (30, -9.25338363647460937500e+00) (31, -7.45301914215087890625e+00) (32, 8.59961128234863281250e+00) (33, 7.73808670043945312500e+00) (34, -8.33743095397949218750e+00) (35, -1.82242202758789062500e+00) (36, -1.31621360778808593750e-01) (37, 6.69731330871582031250e+00) (38, -6.72980260848999023438e+00) (39, -8.25080394744873046875e+00) (40, 1.32260990142822265625e+00) (41, 4.63675880432128906250e+00) (42, 9.34558296203613281250e+00) (43, 9.95804214477539062500e+00) (44, -9.53106212615966796875e+00) (45, 8.10068511962890625000e+00) (46, -2.88004064559936523438e+00) (47, 1.53522396087646484375e+00) (48, 8.32046127319335937500e+00) (49, 7.35601234436035156250e+00) (50, 9.19264221191406250000e+00) (51, -8.04732036590576171875e+00) (52, -6.60819435119628906250e+00) (53, 9.81666755676269531250e+00) (54, -5.13459682464599609375e+00) (55, -5.08778572082519531250e+00) (56, -4.27436113357543945312e+00) (57, 4.74726867675781250000e+00) (58, 7.90302276611328125000e+00) (59, 6.88959121704101562500e+00) (60, 8.32163619995117187500e+00) (61, 8.64963912963867187500e+00) (62, 9.43657302856445312500e+00) (63, 6.92124748229980468750e+00) (64, 6.38772583007812500000e+00) (65, -8.90085792541503906250e+00) (66, -4.90117359161376953125e+00) (67, -3.74389457702636718750e+00) (68, 7.79645538330078125000e+00) (69, -1.63097667694091796875e+00) (70, -1.99469852447509765625e+00) (71, -8.80933761596679687500e-01) (72, -6.99421739578247070312e+00) (73, -2.64911556243896484375e+00) (74, -9.22889709472656250000e-01) (75, -6.52527999877929687500e+00) (76, -4.54843091964721679688e+00) (77, 6.19706916809082031250e+00) (78, 5.00994396209716796875e+00) (79, -6.22796964645385742188e+00) (80, 3.55308246612548828125e+00) (81, 4.20258617401123046875e+00) (82, -4.27529001235961914062e+00) (83, 6.94488906860351562500e+00) (84, 4.01925563812255859375e+00) (85, 5.90113639831542968750e-01) (86, -8.14289760589599609375e+00) (87, 9.74489402770996093750e+00) (88, -4.66261672973632812500e+00) (89, 9.76012611389160156250e+00) (90, 6.63448715209960937500e+00) (91, -6.34098052978515625000e+00) (92, 8.40976524353027343750e+00) (93, 6.07106018066406250000e+00) (94, -9.41973304748535156250e+00) (95, 4.79749202728271484375e+00) (96, 7.17020225524902343750e+00) (97, -4.32090663909912109375e+00) (98, -8.94640254974365234375e+00) (99, 4.96665859222412109375e+00) (100, 4.04811763763427734375e+00) (101, -9.41101074218750000000e-01) (102, -5.91427564620971679688e+00) (103, 7.05389976501464843750e+00) (104, 6.40978240966796875000e+00) (105, 3.16283416748046875000e+00) (106, -9.47137928009033203125e+00) (107, -8.13864707946777343750e+00) (108, -6.40095710754394531250e-01) (109, 5.53856468200683593750e+00) (110, -4.36661672592163085938e+00) (111, -7.08701276779174804688e+00) (112, -2.58849143981933593750e-01) (113, 1.35809326171875000000e+00) (114, 9.85787391662597656250e+00) (115, -6.23959350585937500000e+00) (116, -8.05179309844970703125e+00) (117, -8.28502178192138671875e+00) (118, -6.49469852447509765625e+00) (119, -2.71440982818603515625e+00) (120, -8.52489662170410156250e+00) (121, -9.86021137237548828125e+00) (122, 9.44609642028808593750e-01) (123, 9.88486862182617187500e+00) (124, 6.21084785461425781250e+00) (125, 1.52487659454345703125e+00) (126, 4.68236064910888671875e+00) (127, 3.38105106353759765625e+00) (128, 7.20396995544433593750e+00) (129, 5.73595905303955078125e+00) (130, -1.65229129791259765625e+00) (131, 1.25208854675292968750e+00) (132, -5.20514249801635742188e+00) (133, 2.43343257904052734375e+00) (134, -1.69401168823242187500e+00) (135, -8.79535865783691406250e+00) (136, -4.40373229980468750000e+00) (137, -1.16539096832275390625e+00) (138, -6.93400573730468750000e+00) (139, 4.95617103576660156250e+00) (140, -5.62682676315307617188e+00) (141, -1.30062294006347656250e+00) (142, 7.86915779113769531250e+00) (143, 4.11432456970214843750e+00) (144, -9.94252967834472656250e+00) (145, 7.72703361511230468750e+00) (146, 7.87473106384277343750e+00) (147, -7.99432229995727539062e+00) (148, 9.44201278686523437500e+00) (149, -8.61996746063232421875e+00) (150, -7.08732604980468750000e-01) (151, -9.08288288116455078125e+00) (152, -8.48017883300781250000e+00) (153, -9.76412200927734375000e+00) (154, -9.19801425933837890625e+00) (155, 7.73066902160644531250e+00) (156, 1.76075458526611328125e+00) (157, 5.48434734344482421875e+00) (158, 1.11171913146972656250e+00) (159, -1.03527545928955078125e+00) (160, 1.22030639648437500000e+00) (161, 9.45942687988281250000e+00) (162, -9.78318691253662109375e+00) (163, 6.01516342163085937500e+00) (164, 1.89286136627197265625e+00) (165, -1.47719860076904296875e+00) (166, 7.21980476379394531250e+00) (167, 7.48912811279296875000e+00) (168, 7.35741043090820312500e+00) (169, -9.71420192718505859375e+00) (170, 2.44530105590820312500e+00) (171, -8.26941585540771484375e+00) (172, -1.01482391357421875000e+00) (173, 3.14459800720214843750e-01) (174, 5.84490871429443359375e+00) (175, -9.57353591918945312500e-01) (176, -1.95850658416748046875e+00) (177, 3.71963977813720703125e+00) (178, 1.04832363128662109375e+00) (179, -2.51649332046508789062e+00) (180, 5.09967327117919921875e+00) (181, -9.66040802001953125000e+00) (182, -1.59937667846679687500e+00) (183, 6.61949348449707031250e+00) (184, -9.42453002929687500000e+00) (185, -7.97390937805175781250e-01) (186, 4.35016250610351562500e+00) (187, 2.33622455596923828125e+00) (188, -5.31304311752319335938e+00) (189, -4.53811788558959960938e+00) (190, -8.69905090332031250000e+00) (0, 5.90726280212402343750e+00) (1, -5.07868909835815429688e+00) (2, -8.48223781585693359375e+00) (3, 1.92242622375488281250e+00) (4, 6.81417274475097656250e+00) (5, 4.05645370483398437500e-02) (6, -8.57769966125488281250e-01) (7, 4.30329990386962890625e+00) (8, -2.60202550888061523438e+00) (9, -5.71970939636230468750e-01) (10, -3.25139951705932617188e+00) (11, -8.71440887451171875000e-01) (12, 8.41320419311523437500e+00) (13, 7.06305885314941406250e+00) (14, -5.02653217315673828125e+00) (15, -2.54414844512939453125e+00) (16, -4.89544582366943359375e+00) (17, 8.69310760498046875000e+00) (18, 8.50417518615722656250e+00) (19, 2.58806133270263671875e+00) (20, 3.79278087615966796875e+00) (21, 8.84376716613769531250e+00) (22, -9.01131534576416015625e+00) (23, 4.12274360656738281250e-01) (24, 9.41923904418945312500e+00) (25, 1.91293716430664062500e-01) (26, -5.23756265640258789062e+00) (27, 1.75546264648437500000e+00) (28, 4.87825107574462890625e+00) (29, 2.24319458007812500000e-01) (30, 3.05641174316406250000e+00) (31, 7.85513877868652343750e-01) (32, 5.14563083648681640625e+00) (33, 4.57417392730712890625e+00) (34, -7.29205989837646484375e+00) (35, 1.95980262756347656250e+00) (36, -5.38526201248168945312e+00) (37, 1.85017013549804687500e+00) (38, -3.73689699172973632812e+00) (39, 2.01271247863769531250e+00) (40, -8.72180080413818359375e+00) (41, 3.01170349121093750000e+00) (42, -8.85872745513916015625e+00) (43, 9.69140434265136718750e+00) (44, 7.47632980346679687500e-02) (45, -3.88526010513305664062e+00) (46, -2.85274457931518554688e+00) (47, 5.17931652069091796875e+00) (48, -5.19215202331542968750e+00) (49, -4.34856843948364257812e+00) (50, -2.23262119293212890625e+00) (51, 8.60062789916992187500e+00) (52, -5.50480031967163085938e+00) (53, -1.24393653869628906250e+00) (54, -9.87096786499023437500e-01) (55, -6.08556270599365234375e+00) (56, 8.94735717773437500000e+00) (57, 3.77534008026123046875e+00) (58, 5.66989994049072265625e+00) (59, 3.82560920715332031250e+00) (60, -6.00033903121948242188e+00) (61, -1.27368927001953125000e+00) (62, -5.38887691497802734375e+00) (63, 9.14529228210449218750e+00) (64, -6.69951438903808593750e+00) (65, -2.68093633651733398438e+00) (66, 1.10509395599365234375e+00) (67, -2.08477640151977539062e+00) (68, 9.16923332214355468750e+00) (69, 7.36819648742675781250e+00) (70, 9.92793655395507812500e+00) (71, -9.55256748199462890625e+00) (72, 3.79900932312011718750e-01) (73, -8.93079090118408203125e+00) (74, -9.86116313934326171875e+00) (75, -9.54533576965332031250e+00) (76, -2.81605052947998046875e+00) (77, -2.71390819549560546875e+00) (78, 5.63398075103759765625e+00) (79, 1.99179744720458984375e+00) (80, 2.93752288818359375000e+00) (81, -6.59863948822021484375e+00) (82, 5.92426300048828125000e-01) (83, 7.43272209167480468750e+00) (84, 2.15742301940917968750e+00) (85, 9.60532951354980468750e+00) (86, -8.65283870697021484375e+00) (87, 1.10478115081787109375e+00) (88, 3.38067054748535156250e+00) (89, 7.01705932617187500000e+00) (90, -5.06960916519165039062e+00) (91, 7.38033103942871093750e+00) (92, -4.25662755966186523438e+00) (93, -4.58486557006835937500e-01) (94, 6.52562332153320312500e+00) (95, -9.56142425537109375000e-01) (96, 6.86057662963867187500e+00) (97, -2.36928224563598632812e+00) (98, 6.95908164978027343750e+00) (99, 6.02980995178222656250e+00) (100, -5.00108480453491210938e+00) (101, 6.88701820373535156250e+00) (102, 6.47724342346191406250e+00) (103, 5.37881565093994140625e+00) (104, 7.95622825622558593750e+00) (105, 6.61608123779296875000e+00) (106, 5.83347988128662109375e+00) (107, -4.85982227325439453125e+00) (108, -6.09782695770263671875e+00) (109, 1.46746158599853515625e+00) (110, 7.13197517395019531250e+00) (111, 6.83969497680664062500e+00) (112, 4.86882209777832031250e+00) (113, -2.27559852600097656250e+00) (114, 4.27241897583007812500e+00) (115, -2.97375440597534179688e+00) (116, -2.67026901245117187500e+00) (117, 5.61958026885986328125e+00) (118, 8.13102722167968750000e+00) (119, -9.28959846496582031250e+00) (120, 2.63664150238037109375e+00) (121, -6.93858146667480468750e+00) (122, 8.09073257446289062500e+00) (123, 8.38001251220703125000e+00) (124, 2.60293197631835937500e+00) (125, 4.61635589599609375000e+00) (126, -2.57612848281860351562e+00) (127, -5.36490440368652343750e-01) (128, -7.75292587280273437500e+00) (129, -5.61704635620117187500e+00) (130, -4.50667905807495117188e+00) (131, -2.75401067733764648438e+00) (132, -8.73002719879150390625e+00) (133, -8.02943611145019531250e+00) (134, -7.37519502639770507812e+00) (135, 9.22620201110839843750e+00) (136, 8.58664512634277343750e+00) (137, 8.45828437805175781250e+00) (138, -5.63362073898315429688e+00) (139, -7.51118278503417968750e+00) (140, -7.42530822753906250000e-02) (141, -8.50164508819580078125e+00) (142, 9.32851409912109375000e+00) (143, -5.20543098449707031250e+00) (144, -7.77244567871093750000e-01) (145, 3.60093307495117187500e+00) (146, 1.82081413269042968750e+00) (147, 6.55248641967773437500e+00) (148, -7.79485702514648437500e-01) (149, -4.81576919555664062500e-02) (150, 7.26288795471191406250e+00) (151, -8.14284420013427734375e+00) (152, 3.01325988769531250000e+00) (153, 5.35362148284912109375e+00) (154, -9.76283073425292968750e+00) (155, -4.38380718231201171875e+00) (156, -3.00226211547851562500e-02) (157, -2.33895921707153320312e+00) (158, 5.07970237731933593750e+00) (159, 2.21705150604248046875e+00) (160, 2.04399490356445312500e+00) (161, -9.42697620391845703125e+00) (162, 9.46304130554199218750e+00) (163, 3.31396770477294921875e+00) (164, -7.45641231536865234375e+00) (165, -7.91215372085571289062e+00) (166, 2.54016971588134765625e+00) (167, -8.86976718902587890625e+00) (168, -9.45386886596679687500e+00) (169, 6.90654754638671875000e+00) (170, -6.38094997406005859375e+00) (171, 4.71878051757812500000e-01) (172, 8.40490341186523437500e+00) (173, -7.05243587493896484375e+00) (174, 5.26644706726074218750e+00) (175, -2.37234067916870117188e+00) (176, 6.54849815368652343750e+00) (177, -2.91273784637451171875e+00) (178, -5.81985378265380859375e+00) (179, -4.23098802566528320312e+00) (180, 7.03910446166992187500e+00) (181, -8.55696582794189453125e+00) (182, -2.37383270263671875000e+00) (183, 5.23653030395507812500e-02) (184, 6.79665565490722656250e+00) (185, -2.13666248321533203125e+00) (186, 5.66855812072753906250e+00) (187, -3.23336648941040039062e+00) (188, 5.52437782287597656250e+00) (189, 7.48261451721191406250e-01) (190, 8.98368453979492187500e+00) (0, -2.43162679672241210938e+00) (1, 1.32128429412841796875e+00) (2, 8.44672584533691406250e+00) (3, -9.11765861511230468750e+00) (4, 3.86487197875976562500e+00) (5, -9.46542739868164062500e+00) (6, 3.42251014709472656250e+00) (7, 4.99510478973388671875e+00) (8, -8.91929626464843750000e+00) (9, 3.29059600830078125000e-01) (10, 8.61415672302246093750e+00) (11, 1.55258178710937500000e+00) (12, -1.26603698730468750000e+00) (13, -8.43828010559082031250e+00) (14, -3.18097019195556640625e+00) (15, 6.36162185668945312500e+00) (16, 8.11021804809570312500e+00) (17, 3.90629291534423828125e+00) (18, -9.45823097229003906250e+00) (19, -6.12076950073242187500e+00) (20, 9.45397377014160156250e-01) (21, -8.01519680023193359375e+00) (22, 1.50539875030517578125e+00) (23, -9.00223731994628906250e+00) (24, 8.78145790100097656250e+00) (25, 9.36873435974121093750e+00) (26, 6.66632080078125000000e+00) (27, -4.45190811157226562500e+00) (28, 4.89311313629150390625e+00) (29, -2.58541822433471679688e+00) (30, -5.46822309494018554688e+00) (31, -7.53851318359375000000e+00) (32, 8.73586654663085937500e+00) (33, -7.02149677276611328125e+00) (34, -6.65617179870605468750e+00) (35, 2.60073852539062500000e+00) (36, -6.48692417144775390625e+00) (37, 6.76633834838867187500e+00) (38, -2.40415573120117187500e+00) (39, -5.40622043609619140625e+00) (40, -2.90460109710693359375e+00) (41, -3.78999996185302734375e+00) (42, 6.14636230468750000000e+00) (43, 5.82936191558837890625e+00) (44, -2.22827959060668945312e+00) (45, -7.03460836410522460938e+00) (46, 2.19098472595214843750e+00) (47, -4.11806154251098632812e+00) (48, 6.87168312072753906250e+00) (49, 2.73275375366210937500e+00) (50, -2.38831520080566406250e-01) (51, -2.18291902542114257812e+00) (52, 4.71755599975585937500e+00) (53, -8.73343276977539062500e+00) (54, -1.18515586853027343750e+00) (55, 3.49901390075683593750e+00) (56, -9.36469745635986328125e+00) (57, -4.51883506774902343750e+00) (58, 9.04710578918457031250e+00) (59, 5.52841567993164062500e+00) (60, 2.89574718475341796875e+00) (61, -6.42111587524414062500e+00) (62, 7.98990249633789062500e+00) (63, 1.63161373138427734375e+00) (64, -3.44261312484741210938e+00) (65, -8.66626930236816406250e+00) (66, -5.76764726638793945312e+00) (67, 7.04631805419921875000e-02) (68, 8.10006904602050781250e+00) (69, 1.82819747924804687500e+00) (70, 4.66424179077148437500e+00) (71, -4.80453157424926757812e+00) (72, 8.03819656372070312500e+00) (73, 8.10604095458984375000e-01) (74, -8.97516918182373046875e+00) (75, -4.19008302688598632812e+00) (76, 3.77599620819091796875e+00) (77, 3.21581459045410156250e+00) (78, 1.69185543060302734375e+00) (79, 6.47679328918457031250e-01) (80, -4.05143165588378906250e+00) (81, -8.54697608947753906250e+00) (82, 8.46475982666015625000e+00) (83, -9.33387565612792968750e+00) (84, -7.28040885925292968750e+00) (85, -2.72039461135864257812e+00) (86, 4.16513919830322265625e+00) (87, -6.64510631561279296875e+00) (88, 2.76076984405517578125e+00) (89, 3.21224689483642578125e+00) (90, 8.88330841064453125000e+00) (91, -4.34348297119140625000e+00) (92, 6.79113006591796875000e+00) (93, 6.87321090698242187500e+00) (94, 7.28812980651855468750e+00) (95, -6.65148258209228515625e+00) (96, 8.20694351196289062500e+00) (97, -8.47951698303222656250e+00) (98, 3.41898059844970703125e+00) (99, 6.30701255798339843750e+00) (100, 3.34867954254150390625e+00) (101, -1.91677665710449218750e+00) (102, -8.49751853942871093750e+00) (103, 1.38687705993652343750e+00) (104, 8.89382743835449218750e+00) (105, -7.47268772125244140625e+00) (106, 7.19679260253906250000e+00) (107, 2.66982460021972656250e+00) (108, 5.74312686920166015625e+00) (109, -1.11135101318359375000e+00) (110, -6.68249607086181640625e+00) (111, -8.30830383300781250000e+00) (112, 3.41672897338867187500e-01) (113, -8.21773433685302734375e+00) (114, -7.64217948913574218750e+00) (115, 3.06126499176025390625e+00) (116, -9.38129425048828125000e-01) (117, 6.52296066284179687500e+00) (118, 6.41615676879882812500e+00) (119, -8.17735958099365234375e+00) (120, -2.64793395996093750000e-01) (121, 5.29946708679199218750e+00) (122, -2.52084255218505859375e+00) (123, -3.47366285324096679688e+00) (124, 2.17267990112304687500e+00) (125, -5.23271179199218750000e+00) (126, -1.25144958496093750000e-01) (127, 3.79623413085937500000e-01) (128, -3.71222877502441406250e+00) (129, -6.70616436004638671875e+00) (130, -3.31336402893066406250e+00) (131, 9.63644981384277343750e+00) (132, 1.37705898284912109375e+00) (133, -1.81088256835937500000e+00) (134, 1.02332782745361328125e+00) (135, 2.70886421203613281250e-01) (136, 7.16429710388183593750e-01) (137, -1.77987861633300781250e+00) (138, -7.05928897857666015625e+00) (139, -3.54044246673583984375e+00) (140, 7.10877037048339843750e+00) (141, -3.74178552627563476562e+00) (142, -1.84874725341796875000e+00) (143, -2.54955577850341796875e+00) (144, -1.95952033996582031250e+00) (145, 5.09073257446289062500e-01) (146, -9.48829174041748046875e+00) (147, 7.10235023498535156250e+00) (148, -2.96796607971191406250e+00) (149, 6.92786598205566406250e+00) (150, 8.92498970031738281250e+00) (151, 6.76724052429199218750e+00) (152, 2.22733402252197265625e+00) (153, -3.59585189819335937500e+00) (154, -6.70642185211181640625e+00) (155, -5.59998655319213867188e+00) (156, 1.17143630981445312500e+00) (157, 3.16843414306640625000e+00) (158, 4.77963638305664062500e+00) (159, 7.45920944213867187500e+00) (160, 6.46226882934570312500e+00) (161, -8.53372764587402343750e+00) (162, 7.09565925598144531250e+00) (163, -2.16067123413085937500e+00) (164, -3.44610214233398437500e-01) (165, -1.88101196289062500000e+00) (166, 8.11021614074707031250e+00) (167, -9.62818050384521484375e+00) (168, 6.33910942077636718750e+00) (169, -8.94907379150390625000e+00) (170, -3.16862297058105468750e+00) (171, 3.44788074493408203125e+00) (172, -2.69085884094238281250e+00) (173, 4.98262977600097656250e+00) (174, -9.10167503356933593750e+00) (175, 5.34962081909179687500e+00) (176, -4.50829648971557617188e+00) (177, -8.58996677398681640625e+00) (178, 2.45197200775146484375e+00) (179, 2.52373790740966796875e+00) (180, 8.33789825439453125000e+00) (181, 1.37696266174316406250e+00) (182, -7.09021568298339843750e-01) (183, 5.65233230590820312500e-01) (184, 7.78111076354980468750e+00) (185, 2.58455753326416015625e+00) (186, 4.96524715423583984375e+00) (187, -1.04745197296142578125e+00) (188, -4.24700975418090820312e+00) (189, -2.55116462707519531250e-01) (190, -3.58824396133422851562e+00) (0, -7.78473997116088867188e+00) (1, 1.21115589141845703125e+00) (2, -6.49258375167846679688e+00) (3, 5.45883178710937500000e-02) (4, -9.13345432281494140625e+00) (5, 1.62640476226806640625e+00) (6, -1.83519649505615234375e+00) (7, -8.76163482666015625000e+00) (8, -2.03448581695556640625e+00) (9, -7.84269332885742187500e-01) (10, -1.93025684356689453125e+00) (11, -8.58660507202148437500e+00) (12, 6.52487182617187500000e+00) (13, -6.94762706756591796875e+00) (14, -7.68828010559082031250e+00) (15, 1.87449169158935546875e+00) (16, -1.45592308044433593750e+00) (17, -6.27824640274047851562e+00) (18, -5.67353582382202148438e+00) (19, -8.93218517303466796875e+00) (20, -7.94034624099731445312e+00) (21, 5.70342636108398437500e+00) (22, 3.58793258666992187500e-01) (23, 2.62488746643066406250e+00) (24, 3.48453712463378906250e+00) (25, -7.05664920806884765625e+00) (26, -2.40986537933349609375e+00) (27, -7.56291484832763671875e+00) (28, -1.30365848541259765625e+00) (29, 7.33501815795898437500e+00) (30, -1.15115833282470703125e+00) (31, 9.11602020263671875000e-01) (32, -1.45382595062255859375e+00) (33, 2.35625743865966796875e+00) (34, -9.03380966186523437500e+00) (35, -5.87280273437500000000e-01) (36, -6.01733779907226562500e+00) (37, -8.69006156921386718750e-01) (38, 6.51084899902343750000e-01) (39, 1.94817638397216796875e+00) (40, 8.34672355651855468750e+00) (41, 8.72082710266113281250e+00) (42, 3.36157035827636718750e+00) (43, 4.87159633636474609375e+00) (44, -8.22679901123046875000e+00) (45, 5.67329120635986328125e+00) (46, -3.25391101837158203125e+00) (47, 3.17277908325195312500e-01) (48, 9.39504432678222656250e+00) (49, 1.07255172729492187500e+00) (50, 1.38509273529052734375e+00) (51, -8.54530143737792968750e+00) (52, -3.22402048110961914062e+00) (53, -8.25611305236816406250e+00) (54, 4.07958602905273437500e+00) (55, -9.73948287963867187500e+00) (56, -5.31276226043701171875e+00) (57, -8.33027935028076171875e+00) (58, -7.30239772796630859375e+00) (59, 3.38357925415039062500e+00) (60, 9.00473976135253906250e+00) (61, 1.54644489288330078125e+00) (62, -5.70481920242309570312e+00) (63, -2.44908618927001953125e+00) (64, -6.09729766845703125000e+00) (65, -4.73862934112548828125e+00) (66, 6.96363258361816406250e+00) (67, -2.11463594436645507812e+00) (68, 4.39236354827880859375e+00) (69, -2.38528060913085937500e+00) (70, 9.83353996276855468750e+00) (71, 2.73908805847167968750e+00) (72, -3.66445255279541015625e+00) (73, 3.19511127471923828125e+00) (74, -2.38931465148925781250e+00) (75, -1.89125156402587890625e+00) (76, -1.13159656524658203125e+00) (77, 4.35677433013916015625e+00) (78, 8.42602729797363281250e+00) (79, -1.73655128479003906250e+00) (80, -4.57067394256591796875e+00) (81, -1.88879966735839843750e-01) (82, -2.81852722167968750000e-01) (83, 2.20530509948730468750e+00) (84, 1.55500793457031250000e+00) (85, -6.20226669311523437500e+00) (86, 2.46582221984863281250e+00) (87, 6.24224472045898437500e+00) (88, -4.53254604339599609375e+00) (89, 5.16342544555664062500e+00) (90, -3.74175071716308593750e-01) (91, -5.52780628204345703125e+00) (92, -3.29013061523437500000e+00) (93, 3.92100524902343750000e+00) (94, 2.02310657501220703125e+00) (95, 6.12570762634277343750e-01) (96, 9.18237686157226562500e+00) (97, -1.01325988769531250000e+00) (98, 8.49793624877929687500e+00) (99, 3.57474040985107421875e+00) (100, 6.60145950317382812500e+00) (101, 8.33147811889648437500e+00) (102, -3.68617010116577148438e+00) (103, -7.06299209594726562500e+00) (104, 1.52658939361572265625e+00) (105, 3.92451477050781250000e+00) (106, 1.04575729370117187500e+00) (107, -9.60500717163085937500e+00) (108, -1.71871185302734375000e+00) (109, -5.28216361999511718750e-01) (110, -1.34155845642089843750e+00) (111, 3.71061420440673828125e+00) (112, 9.28290367126464843750e+00) (113, 8.37658882141113281250e+00) (114, -4.08407926559448242188e+00) (115, 8.37912559509277343750e-01) (116, -7.82567787170410156250e+00) (117, 8.38174247741699218750e+00) (118, -2.91984224319458007812e+00) (119, -2.35822343826293945312e+00) (120, 3.54516887664794921875e+00) (121, 6.70598220825195312500e+00) (122, 2.11397075653076171875e+00) (123, -9.74496269226074218750e+00) (124, 6.26988410949707031250e-01) (125, -5.86292266845703125000e+00) (126, 8.67609024047851562500e-01) (127, -1.90634727478027343750e-01) (128, 3.12381839752197265625e+00) (129, -6.34454727172851562500e-01) (130, -6.61589384078979492188e+00) (131, -2.74721145629882812500e-01) (132, -2.30297756195068359375e+00) (133, -3.02063941955566406250e-01) (134, 2.66228675842285156250e+00) (135, 9.22361183166503906250e+00) (136, -6.37754917144775390625e+00) (137, -6.29195690155029296875e+00) (138, 9.61860466003417968750e+00) (139, 1.90373992919921875000e+00) (140, 3.17982769012451171875e+00) (141, -1.72295379638671875000e+00) (142, -4.38564538955688476562e+00) (143, 2.46273231506347656250e+00) (144, -3.34636449813842773438e+00) (145, 1.53027534484863281250e+00) (146, -6.69935512542724609375e+00) (147, -1.17204284667968750000e+00) (148, -8.79821777343750000000e-02) (149, 3.80802154541015625000e-01) (150, 6.46973419189453125000e+00) (151, -6.54281330108642578125e+00) (152, -2.91321468353271484375e+00) (153, -1.41629600524902343750e+00) (154, -6.28777599334716796875e+00) (155, 7.71377372741699218750e+00) (156, 2.72078132629394531250e+00) (157, 4.57983398437500000000e+00) (158, -2.47686100006103515625e+00) (159, -4.15539979934692382812e+00) (160, -6.05462169647216796875e+00) (161, 9.07244682312011718750e-01) (162, 5.56987857818603515625e+00) (163, 1.64240074157714843750e+00) (164, -9.39481925964355468750e+00) (165, -1.76783466339111328125e+00) (166, 8.66013526916503906250e-01) (167, -5.77236795425415039062e+00) (168, 1.94020843505859375000e+00) (169, 4.84618186950683593750e-01) (170, 6.13137245178222656250e+00) (171, -4.87996339797973632812e+00) (172, 8.76166343688964843750e+00) (173, -8.25427341461181640625e+00) (174, 7.58276939392089843750e+00) (175, -4.58470010757446289062e+00) (176, 3.27600193023681640625e+00) (177, -9.11658573150634765625e+00) (178, 4.24325656890869140625e+00) (179, -6.81197977066040039062e+00) (180, 1.26421642303466796875e+00) (181, 7.12991714477539062500e-01) (182, -3.35479307174682617188e+00) (183, 8.35100173950195312500e+00) (184, 9.29669570922851562500e+00) (185, 3.57431411743164062500e-01) (186, 6.06477546691894531250e+00) (187, 2.01747798919677734375e+00) (188, -5.06273555755615234375e+00) (189, -6.41208457946777343750e+00) (190, 7.86207771301269531250e+00) (191, -1.11735725402832031250e+00) (192, 4.49516010284423828125e+00) (193, 3.43195819854736328125e+00) (194, -9.47495555877685546875e+00) (195, 5.10034179687500000000e+00) (196, -8.33587741851806640625e+00) (197, 1.39105796813964843750e+00) (198, 9.32797431945800781250e+00) (199, 3.60433197021484375000e+00) (200, -8.12432384490966796875e+00) (201, 5.45934581756591796875e+00) (191, 8.72436904907226562500e+00) (192, -9.36265945434570312500e+00) (193, 7.20507240295410156250e+00) (194, 6.30713844299316406250e+00) (195, -3.94735956192016601562e+00) (196, 4.81075286865234375000e-01) (197, 7.19055175781250000000e+00) (198, -9.70410156250000000000e+00) (199, 3.66909503936767578125e+00) (200, -1.54523086547851562500e+00) (201, 1.00888919830322265625e+00) (191, -9.68569755554199218750e+00) (192, -3.19422769546508789062e+00) (193, 3.05585861206054687500e-01) (194, 6.71733856201171875000e-01) (195, -7.12945127487182617188e+00) (196, -7.67693614959716796875e+00) (197, 5.60899734497070312500e+00) (198, -3.54153585433959960938e+00) (199, -9.81485748291015625000e+00) (200, -5.50835943222045898438e+00) (201, -9.04637527465820312500e+00) (191, 3.61709976196289062500e+00) (192, -4.98331499099731445312e+00) (193, 6.05396652221679687500e+00) (194, 5.28122329711914062500e+00) (195, 6.40774345397949218750e+00) (196, 5.38194084167480468750e+00) (197, -1.11444568634033203125e+00) (198, 8.28341865539550781250e+00) (199, 8.41285705566406250000e-01) (200, -2.39007616043090820312e+00) (201, 8.92075920104980468750e+00) 
