FANN_FLO_2.1
num_layers=4
learning_rate=0.700000
connection_rate=1.000000
network_type=0
learning_momentum=0.000000
training_algorithm=2
train_error_function=1
train_stop_function=0
cascade_output_change_fraction=0.010000
quickprop_decay=-0.000100
quickprop_mu=1.750000
rprop_increase_factor=1.200000
rprop_decrease_factor=0.500000
rprop_delta_min=0.000000
rprop_delta_max=50.000000
rprop_delta_zero=0.100000
cascade_output_stagnation_epochs=12
cascade_candidate_change_fraction=0.010000
cascade_candidate_stagnation_epochs=12
cascade_max_out_epochs=150
cascade_min_out_epochs=50
cascade_max_cand_epochs=150
cascade_min_cand_epochs=50
cascade_num_candidate_groups=2
bit_fail_limit=3.49999994039535522461e-01
cascade_candidate_limit=1.00000000000000000000e+03
cascade_weight_multiplier=4.00000005960464477539e-01
cascade_activation_functions_count=10
cascade_activation_functions=3 5 7 8 10 11 14 15 16 17 
cascade_activation_steepnesses_count=4
cascade_activation_steepnesses=2.50000000000000000000e-01 5.00000000000000000000e-01 7.50000000000000000000e-01 1.00000000000000000000e+00 
layer_sizes=3 4 4 3 
scale_included=0
neurons (num_inputs, activation_function, activation_steepness)=(0, 0, 0.00000000000000000000e+00) (0, 0, 0.00000000000000000000e+00) (0, 0, 0.00000000000000000000e+00) (3, 4, 5.00000000000000000000e-01) (3, 4, 5.00000000000000000000e-01) (3, 4, 5.00000000000000000000e-01) (0, 0, 0.00000000000000000000e+00) (4, 4, 5.00000000000000000000e-01) (4, 4, 5.00000000000000000000e-01) (4, 4, 5.00000000000000000000e-01) (0, 0, 0.00000000000000000000e+00) (4, 4, 5.00000000000000000000e-01) (4, 4, 5.00000000000000000000e-01) (0, 0, 0.00000000000000000000e+00) 
connections (connected_to_neuron, weight)=(0, 1.44951820373535156250e+00) (1, 4.23269701004028320312e+00) (2, -3.74007606506347656250e+00) (0, -9.29001140594482421875e+00) (1, -5.04796600341796875000e+00) (2, -9.21877193450927734375e+00) (0, -4.93873405456542968750e+00) (1, 1.81097888946533203125e+00) (2, -1.70376396179199218750e+00) (3, -2.73001289367675781250e+00) (4, 2.19540882110595703125e+00) (5, -6.53382301330566406250e-01) (6, 1.08352661132812500000e+00) (3, -9.46314334869384765625e+00) (4, 3.37409114837646484375e+00) (5, 4.26175498962402343750e+00) (6, -4.56031608581542968750e+00) (3, 5.82568216323852539062e+00) (4, 9.41127109527587890625e+00) (5, 4.53526544570922851562e+00) (6, -2.93822288513183593750e-01) (7, 2.92182970046997070312e+00) (8, 7.08047866821289062500e+00) (9, -5.11908531188964843750e-01) (10, 7.58347368240356445312e+00) (7, 5.76784086227416992188e+00) (8, 6.01754951477050781250e+00) (9, -3.67473888397216796875e+00) (10, -2.71888446807861328125e+00) 
