FANN_FLO_2.1
num_layers=3
learning_rate=0.700000
connection_rate=1.000000
network_type=0
learning_momentum=0.000000
training_algorithm=2
train_error_function=1
train_stop_function=0
cascade_output_change_fraction=0.010000
quickprop_decay=-0.000100
quickprop_mu=1.750000
rprop_increase_factor=1.200000
rprop_decrease_factor=0.500000
rprop_delta_min=0.000000
rprop_delta_max=50.000000
rprop_delta_zero=0.100000
cascade_output_stagnation_epochs=12
cascade_candidate_change_fraction=0.010000
cascade_candidate_stagnation_epochs=12
cascade_max_out_epochs=150
cascade_min_out_epochs=50
cascade_max_cand_epochs=150
cascade_min_cand_epochs=50
cascade_num_candidate_groups=2
bit_fail_limit=3.49999994039535522461e-01
cascade_candidate_limit=1.00000000000000000000e+03
cascade_weight_multiplier=4.00000005960464477539e-01
cascade_activation_functions_count=10
cascade_activation_functions=3 5 7 8 10 11 14 15 16 17 
cascade_activation_steepnesses_count=4
cascade_activation_steepnesses=2.50000000000000000000e-01 5.00000000000000000000e-01 7.50000000000000000000e-01 1.00000000000000000000e+00 
layer_sizes=191 11 5 
scale_included=0
neurons (num_inputs, activation_function, activation_steepness)=(0, 0, 0.00000000000000000000e+00) (0, 0, 0.00000000000000000000e+00) (0, 0, 0.00000000000000000000e+00) (0, 0, 0.00000000000000000000e+00) (0, 0, 0.00000000000000000000e+00) (0, 0, 0.00000000000000000000e+00) (0, 0, 0.00000000000000000000e+00) (0, 0, 0.00000000000000000000e+00) (0, 0, 0.00000000000000000000e+00) (0, 0, 0.00000000000000000000e+00) (0, 0, 0.00000000000000000000e+00) (0, 0, 0.00000000000000000000e+00) (0, 0, 0.00000000000000000000e+00) (0, 0, 0.00000000000000000000e+00) (0, 0, 0.00000000000000000000e+00) (0, 0, 0.00000000000000000000e+00) (0, 0, 0.00000000000000000000e+00) (0, 0, 0.00000000000000000000e+00) (0, 0, 0.00000000000000000000e+00) (0, 0, 0.00000000000000000000e+00) (0, 0, 0.00000000000000000000e+00) (0, 0, 0.00000000000000000000e+00) (0, 0, 0.00000000000000000000e+00) (0, 0, 0.00000000000000000000e+00) (0, 0, 0.00000000000000000000e+00) (0, 0, 0.00000000000000000000e+00) (0, 0, 0.00000000000000000000e+00) (0, 0, 0.00000000000000000000e+00) (0, 0, 0.00000000000000000000e+00) (0, 0, 0.00000000000000000000e+00) (0, 0, 0.00000000000000000000e+00) (0, 0, 0.00000000000000000000e+00) (0, 0, 0.00000000000000000000e+00) (0, 0, 0.00000000000000000000e+00) (0, 0, 0.00000000000000000000e+00) (0, 0, 0.00000000000000000000e+00) (0, 0, 0.00000000000000000000e+00) (0, 0, 0.00000000000000000000e+00) (0, 0, 0.00000000000000000000e+00) (0, 0, 0.00000000000000000000e+00) (0, 0, 0.00000000000000000000e+00) (0, 0, 0.00000000000000000000e+00) (0, 0, 0.00000000000000000000e+00) (0, 0, 0.00000000000000000000e+00) (0, 0, 0.00000000000000000000e+00) (0, 0, 0.00000000000000000000e+00) (0, 0, 0.00000000000000000000e+00) (0, 0, 0.00000000000000000000e+00) (0, 0, 0.00000000000000000000e+00) (0, 0, 0.00000000000000000000e+00) (0, 0, 0.00000000000000000000e+00) (0, 0, 0.00000000000000000000e+00) (0, 0, 0.00000000000000000000e+00) (0, 0, 0.00000000000000000000e+00) (0, 0, 0.00000000000000000000e+00) (0, 0, 0.00000000000000000000e+00) (0, 0, 0.00000000000000000000e+00) (0, 0, 0.00000000000000000000e+00) (0, 0, 0.00000000000000000000e+00) (0, 0, 0.00000000000000000000e+00) (0, 0, 0.00000000000000000000e+00) (0, 0, 0.00000000000000000000e+00) (0, 0, 0.00000000000000000000e+00) (0, 0, 0.00000000000000000000e+00) (0, 0, 0.00000000000000000000e+00) (0, 0, 0.00000000000000000000e+00) (0, 0, 0.00000000000000000000e+00) (0, 0, 0.00000000000000000000e+00) (0, 0, 0.00000000000000000000e+00) (0, 0, 0.00000000000000000000e+00) (0, 0, 0.00000000000000000000e+00) (0, 0, 0.00000000000000000000e+00) (0, 0, 0.00000000000000000000e+00) (0, 0, 0.00000000000000000000e+00) (0, 0, 0.00000000000000000000e+00) (0, 0, 0.00000000000000000000e+00) (0, 0, 0.00000000000000000000e+00) (0, 0, 0.00000000000000000000e+00) (0, 0, 0.00000000000000000000e+00) (0, 0, 0.00000000000000000000e+00) (0, 0, 0.00000000000000000000e+00) (0, 0, 0.00000000000000000000e+00) (0, 0, 0.00000000000000000000e+00) (0, 0, 0.00000000000000000000e+00) (0, 0, 0.00000000000000000000e+00) (0, 0, 0.00000000000000000000e+00) (0, 0, 0.00000000000000000000e+00) (0, 0, 0.00000000000000000000e+00) (0, 0, 0.00000000000000000000e+00) (0, 0, 0.00000000000000000000e+00) (0, 0, 0.00000000000000000000e+00) (0, 0, 0.00000000000000000000e+00) (0, 0, 0.00000000000000000000e+00) (0, 0, 0.00000000000000000000e+00) (0, 0, 0.00000000000000000000e+00) (0, 0, 0.00000000000000000000e+00) (0, 0, 0.00000000000000000000e+00) (0, 0, 0.00000000000000000000e+00) (0, 0, 0.00000000000000000000e+00) (0, 0, 0.00000000000000000000e+00) (0, 0, 0.00000000000000000000e+00) (0, 0, 0.00000000000000000000e+00) (0, 0, 0.00000000000000000000e+00) (0, 0, 0.00000000000000000000e+00) (0, 0, 0.00000000000000000000e+00) (0, 0, 0.00000000000000000000e+00) (0, 0, 0.00000000000000000000e+00) (0, 0, 0.00000000000000000000e+00) (0, 0, 0.00000000000000000000e+00) (0, 0, 0.00000000000000000000e+00) (0, 0, 0.00000000000000000000e+00) (0, 0, 0.00000000000000000000e+00) (0, 0, 0.00000000000000000000e+00) (0, 0, 0.00000000000000000000e+00) (0, 0, 0.00000000000000000000e+00) (0, 0, 0.00000000000000000000e+00) (0, 0, 0.00000000000000000000e+00) (0, 0, 0.00000000000000000000e+00) (0, 0, 0.00000000000000000000e+00) (0, 0, 0.00000000000000000000e+00) (0, 0, 0.00000000000000000000e+00) (0, 0, 0.00000000000000000000e+00) (0, 0, 0.00000000000000000000e+00) (0, 0, 0.00000000000000000000e+00) (0, 0, 0.00000000000000000000e+00) (0, 0, 0.00000000000000000000e+00) (0, 0, 0.00000000000000000000e+00) (0, 0, 0.00000000000000000000e+00) (0, 0, 0.00000000000000000000e+00) (0, 0, 0.00000000000000000000e+00) (0, 0, 0.00000000000000000000e+00) (0, 0, 0.00000000000000000000e+00) (0, 0, 0.00000000000000000000e+00) (0, 0, 0.00000000000000000000e+00) (0, 0, 0.00000000000000000000e+00) (0, 0, 0.00000000000000000000e+00) (0, 0, 0.00000000000000000000e+00) (0, 0, 0.00000000000000000000e+00) (0, 0, 0.00000000000000000000e+00) (0, 0, 0.00000000000000000000e+00) (0, 0, 0.00000000000000000000e+00) (0, 0, 0.00000000000000000000e+00) (0, 0, 0.00000000000000000000e+00) (0, 0, 0.00000000000000000000e+00) (0, 0, 0.00000000000000000000e+00) (0, 0, 0.00000000000000000000e+00) (0, 0, 0.00000000000000000000e+00) (0, 0, 0.00000000000000000000e+00) (0, 0, 0.00000000000000000000e+00) (0, 0, 0.00000000000000000000e+00) (0, 0, 0.00000000000000000000e+00) (0, 0, 0.00000000000000000000e+00) (0, 0, 0.00000000000000000000e+00) (0, 0, 0.00000000000000000000e+00) (0, 0, 0.00000000000000000000e+00) (0, 0, 0.00000000000000000000e+00) (0, 0, 0.00000000000000000000e+00) (0, 0, 0.00000000000000000000e+00) (0, 0, 0.00000000000000000000e+00) (0, 0, 0.00000000000000000000e+00) (0, 0, 0.00000000000000000000e+00) (0, 0, 0.00000000000000000000e+00) (0, 0, 0.00000000000000000000e+00) (0, 0, 0.00000000000000000000e+00) (0, 0, 0.00000000000000000000e+00) (0, 0, 0.00000000000000000000e+00) (0, 0, 0.00000000000000000000e+00) (0, 0, 0.00000000000000000000e+00) (0, 0, 0.00000000000000000000e+00) (0, 0, 0.00000000000000000000e+00) (0, 0, 0.00000000000000000000e+00) (0, 0, 0.00000000000000000000e+00) (0, 0, 0.00000000000000000000e+00) (0, 0, 0.00000000000000000000e+00) (0, 0, 0.00000000000000000000e+00) (0, 0, 0.00000000000000000000e+00) (0, 0, 0.00000000000000000000e+00) (0, 0, 0.00000000000000000000e+00) (0, 0, 0.00000000000000000000e+00) (0, 0, 0.00000000000000000000e+00) (0, 0, 0.00000000000000000000e+00) (0, 0, 0.00000000000000000000e+00) (0, 0, 0.00000000000000000000e+00) (0, 0, 0.00000000000000000000e+00) (0, 0, 0.00000000000000000000e+00) (0, 0, 0.00000000000000000000e+00) (0, 0, 0.00000000000000000000e+00) (0, 0, 0.00000000000000000000e+00) (0, 0, 0.00000000000000000000e+00) (0, 0, 0.00000000000000000000e+00) (0, 0, 0.00000000000000000000e+00) (191, 4, 5.00000000000000000000e-01) (191, 4, 5.00000000000000000000e-01) (191, 4, 5.00000000000000000000e-01) (191, 4, 5.00000000000000000000e-01) (191, 4, 5.00000000000000000000e-01) (191, 4, 5.00000000000000000000e-01) (191, 4, 5.00000000000000000000e-01) (191, 4, 5.00000000000000000000e-01) (191, 4, 5.00000000000000000000e-01) (191, 4, 5.00000000000000000000e-01) (0, 0, 0.00000000000000000000e+00) (11, 4, 5.00000000000000000000e-01) (11, 4, 5.00000000000000000000e-01) (11, 4, 5.00000000000000000000e-01) (11, 4, 5.00000000000000000000e-01) (0, 0, 0.00000000000000000000e+00) 
connections (connected_to_neuron, weight)=(0, -3.03683567047119140625e+00) (1, 6.96276283264160156250e+00) (2, 9.46064758300781250000e+00) (3, -5.60214900970458984375e+00) (4, -2.88773298263549804688e+00) (5, -7.76052856445312500000e+00) (6, -8.13182163238525390625e+00) (7, -1.73982143402099609375e+00) (8, -7.20652866363525390625e+00) (9, -4.54219722747802734375e+00) (10, 3.02970981597900390625e+00) (11, -8.87285041809082031250e+00) (12, -9.10450363159179687500e+00) (13, 5.95555305480957031250e+00) (14, 5.00413036346435546875e+00) (15, 1.67122268676757812500e+00) (16, -9.07088279724121093750e+00) (17, 1.67087078094482421875e+00) (18, -3.77501964569091796875e+00) (19, -2.78974580764770507812e+00) (20, 4.55286884307861328125e+00) (21, 9.62856101989746093750e+00) (22, -1.65260887145996093750e+00) (23, -2.65184450149536132812e+00) (24, -7.49619102478027343750e+00) (25, 9.24756813049316406250e+00) (26, 6.94978523254394531250e+00) (27, 3.64446353912353515625e+00) (28, 7.73876571655273437500e+00) (29, -6.87245559692382812500e+00) (30, -2.79377031326293945312e+00) (31, -5.29807090759277343750e+00) (32, -9.90969276428222656250e+00) (33, -3.33312225341796875000e+00) (34, -9.00219917297363281250e-01) (35, -2.79742527008056640625e+00) (36, -1.09365081787109375000e+00) (37, 9.67959403991699218750e-01) (38, 5.46275234222412109375e+00) (39, 1.69982051849365234375e+00) (40, 6.42576217651367187500e+00) (41, -1.50753784179687500000e+00) (42, 2.82697105407714843750e+00) (43, 7.32125854492187500000e+00) (44, -5.55198431015014648438e+00) (45, -2.16889858245849609375e+00) (46, -1.00751972198486328125e+00) (47, -4.62286710739135742188e+00) (48, 9.50197219848632812500e+00) (49, 5.21746063232421875000e+00) (50, 2.58738613128662109375e+00) (51, 4.05484104156494140625e+00) (52, 4.84602165222167968750e+00) (53, -9.06522274017333984375e+00) (54, -8.59700393676757812500e+00) (55, 7.34983062744140625000e+00) (56, -9.81765460968017578125e+00) (57, 8.35277938842773437500e+00) (58, 9.94296073913574218750e-01) (59, 7.92111015319824218750e+00) (60, -8.51967430114746093750e+00) (61, 8.20052528381347656250e+00) (62, -7.37696027755737304688e+00) (63, -8.42936706542968750000e+00) (64, -5.13259696960449218750e+00) (65, 1.72281932830810546875e+00) (66, -1.22679233551025390625e+00) (67, 3.77375221252441406250e+00) (68, -7.30922031402587890625e+00) (69, -5.76403951644897460938e+00) (70, -4.52642631530761718750e+00) (71, 9.11654090881347656250e+00) (72, 2.72842311859130859375e+00) (73, 8.30054473876953125000e+00) (74, 6.43779945373535156250e+00) (75, 7.17643737792968750000e+00) (76, -3.86835336685180664062e+00) (77, -4.56972026824951171875e+00) (78, -7.44642829895019531250e+00) (79, -4.36638116836547851562e+00) (80, -9.35225868225097656250e+00) (81, 5.14095783233642578125e+00) (82, 9.68845939636230468750e+00) (83, 5.49376392364501953125e+00) (84, 6.07573509216308593750e+00) (85, -8.90854454040527343750e+00) (86, 2.84359455108642578125e+00) (87, 6.25808143615722656250e+00) (88, 9.44423675537109375000e+00) (89, -6.16211032867431640625e+00) (90, 4.17919158935546875000e+00) (91, -9.07543754577636718750e+00) (92, -7.96158504486083984375e+00) (93, 6.80223274230957031250e+00) (94, -7.50480508804321289062e+00) (95, -3.09418201446533203125e+00) (96, -1.47494792938232421875e+00) (97, 1.26840209960937500000e+00) (98, -9.32042980194091796875e+00) (99, 1.21583080291748046875e+00) (100, 5.50436401367187500000e+00) (101, -3.84685564041137695312e+00) (102, 3.32373619079589843750e-01) (103, -1.76721382141113281250e+00) (104, -5.54631042480468750000e+00) (105, -3.22982740402221679688e+00) (106, -4.59077501296997070312e+00) (107, 5.85336685180664062500e-01) (108, 2.20045280456542968750e+00) (109, -2.03720283508300781250e+00) (110, 6.21895408630371093750e+00) (111, 2.84819316864013671875e+00) (112, -6.89624452590942382812e+00) (113, 5.90741348266601562500e+00) (114, -1.65804290771484375000e+00) (115, 9.17949104309082031250e+00) (116, 6.99887084960937500000e+00) (117, -8.81444835662841796875e+00) (118, 5.43757152557373046875e+00) (119, 6.44310760498046875000e+00) (120, -4.97655868530273437500e+00) (121, -3.83234977722167968750e-01) (122, 7.36766815185546875000e+00) (123, -2.93814420700073242188e+00) (124, -3.58100366592407226562e+00) (125, 9.86286354064941406250e+00) (126, 3.96767330169677734375e+00) (127, 4.94404792785644531250e+00) (128, 1.13126659393310546875e+00) (129, 4.64724445343017578125e+00) (130, -3.84011983871459960938e+00) (131, -3.36437034606933593750e+00) (132, -9.19961166381835937500e+00) (133, 6.49225234985351562500e+00) (134, 4.86841583251953125000e+00) (135, -4.74592208862304687500e+00) (136, -6.73757410049438476562e+00) (137, -9.72235870361328125000e+00) (138, 5.83941459655761718750e+00) (139, 5.46287918090820312500e+00) (140, -1.75956249237060546875e+00) (141, 2.05836868286132812500e+00) (142, -1.68892765045166015625e+00) (143, 1.34419345855712890625e+00) (144, -2.03421735763549804688e+00) (145, 6.65303039550781250000e+00) (146, 5.23685455322265625000e-01) (147, -5.03534698486328125000e+00) (148, 7.83858108520507812500e+00) (149, -4.03874301910400390625e+00) (150, -8.59224033355712890625e+00) (151, -7.13797760009765625000e+00) (152, 5.57802200317382812500e+00) (153, 8.77542877197265625000e+00) (154, -7.61222839355468750000e-02) (155, -8.00298118591308593750e+00) (156, 8.63829040527343750000e+00) (157, -6.10844850540161132812e+00) (158, 6.94106674194335937500e+00) (159, -2.30442047119140625000e-01) (160, 8.53879547119140625000e+00) (161, -6.89905309677124023438e+00) (162, 6.40518569946289062500e+00) (163, 9.33918380737304687500e+00) (164, 9.59319877624511718750e+00) (165, 1.27360343933105468750e+00) (166, -5.40673780441284179688e+00) (167, -7.14437437057495117188e+00) (168, 1.55124378204345703125e+00) (169, -9.56732368469238281250e+00) (170, 8.31850433349609375000e+00) (171, 9.79168128967285156250e+00) (172, 2.49104499816894531250e+00) (173, -3.37042236328125000000e+00) (174, 1.13587570190429687500e+00) (175, -9.54317188262939453125e+00) (176, -6.71739244461059570312e+00) (177, -8.34043979644775390625e+00) (178, -4.57851886749267578125e+00) (179, -8.87881088256835937500e+00) (180, -2.37918186187744140625e+00) (181, -3.17075920104980468750e+00) (182, -6.01678943634033203125e+00) (183, -6.80115985870361328125e+00) (184, -4.39533138275146484375e+00) (185, 3.90708923339843750000e+00) (186, -4.80414152145385742188e+00) (187, -5.75703954696655273438e+00) (188, 7.79864120483398437500e+00) (189, -7.86307525634765625000e+00) (190, 4.01251792907714843750e+00) (0, 6.33743667602539062500e+00) (1, -4.76212787628173828125e+00) (2, 4.17705535888671875000e-01) (3, 5.67661952972412109375e+00) (4, -5.16892814636230468750e+00) (5, -8.30869102478027343750e+00) (6, -9.73011779785156250000e+00) (7, -2.31330204010009765625e+00) (8, 3.24255180358886718750e+00) (9, -9.29744148254394531250e+00) (10, -3.99479770660400390625e+00) (11, 3.03423500061035156250e+00) (12, 3.19360256195068359375e+00) (13, 2.63477993011474609375e+00) (14, -5.82988977432250976562e+00) (15, 3.65043067932128906250e+00) (16, 5.91738796234130859375e+00) (17, -4.17032909393310546875e+00) (18, 9.07191085815429687500e+00) (19, 7.03857612609863281250e+00) (20, 3.45048904418945312500e+00) (21, -4.09884738922119140625e+00) (22, -8.97821235656738281250e+00) (23, 6.64932823181152343750e+00) (24, 1.50582218170166015625e+00) (25, 4.92887592315673828125e+00) (26, -8.15481281280517578125e+00) (27, 5.74878215789794921875e+00) (28, 2.72751712799072265625e+00) (29, -6.01788759231567382812e+00) (30, -2.38699913024902343750e-01) (31, -9.35047149658203125000e-01) (32, -7.80015945434570312500e-01) (33, -9.82099437713623046875e+00) (34, -5.25842714309692382812e+00) (35, 4.05105590820312500000e+00) (36, -8.12968635559082031250e+00) (37, -4.98854446411132812500e+00) (38, -8.26224613189697265625e+00) (39, 5.11286640167236328125e+00) (40, -4.28598642349243164062e+00) (41, -2.25704383850097656250e+00) (42, -1.85289859771728515625e+00) (43, 8.90761566162109375000e+00) (44, -9.62226295471191406250e+00) (45, 2.31721115112304687500e+00) (46, 2.55804729461669921875e+00) (47, 6.29512405395507812500e+00) (48, 8.14688301086425781250e+00) (49, 1.62995910644531250000e+00) (50, 3.33370113372802734375e+00) (51, 1.59737205505371093750e+00) (52, 7.53111267089843750000e+00) (53, 4.35548782348632812500e+00) (54, -1.75329971313476562500e+00) (55, -9.63067054748535156250e-01) (56, -7.15635299682617187500e-01) (57, 9.18874740600585937500e-02) (58, -5.21428489685058593750e+00) (59, -7.98811912536621093750e+00) (60, 4.07400035858154296875e+00) (61, 4.54701519012451171875e+00) (62, 1.07683372497558593750e+00) (63, -6.70601511001586914062e+00) (64, 4.72602081298828125000e+00) (65, 5.81840610504150390625e+00) (66, 7.34504127502441406250e+00) (67, 6.59633445739746093750e+00) (68, -9.17013740539550781250e+00) (69, 9.08279418945312500000e+00) (70, 1.70920085906982421875e+00) (71, -3.45612478256225585938e+00) (72, -3.17424917221069335938e+00) (73, 9.85630226135253906250e+00) (74, -4.54850816726684570312e+00) (75, -2.79651212692260742188e+00) (76, 2.17351436614990234375e+00) (77, 8.00953865051269531250e+00) (78, -6.50138854980468750000e+00) (79, 3.20397377014160156250e-01) (80, -3.60501289367675781250e-01) (81, 6.83231163024902343750e+00) (82, -8.08223056793212890625e+00) (83, -2.82938957214355468750e+00) (84, 1.18780136108398437500e+00) (85, 1.64470672607421875000e-01) (86, 6.20754241943359375000e+00) (87, -9.52783489227294921875e+00) (88, -9.74364089965820312500e+00) (89, -9.00674152374267578125e+00) (90, -7.51595401763916015625e+00) (91, 4.33035945892333984375e+00) (92, 5.54027462005615234375e+00) (93, 3.56088066101074218750e+00) (94, 7.62434387207031250000e+00) (95, 2.66294479370117187500e-01) (96, -6.20713233947753906250e-01) (97, 4.96938419342041015625e+00) (98, -3.13737058639526367188e+00) (99, 2.09149360656738281250e-01) (100, 4.05217838287353515625e+00) (101, 8.57183074951171875000e+00) (102, 6.75302314758300781250e+00) (103, -9.12206935882568359375e+00) (104, 8.42813301086425781250e+00) (105, -7.79548358917236328125e+00) (106, -1.91858291625976562500e+00) (107, 6.01648330688476562500e-01) (108, -9.78594398498535156250e+00) (109, 1.58002948760986328125e+00) (110, -9.07795429229736328125e+00) (111, -1.46446228027343750000e-01) (112, -1.58765792846679687500e+00) (113, -7.16018486022949218750e+00) (114, 7.02416419982910156250e+00) (115, 9.60014343261718750000e+00) (116, 3.00428485870361328125e+00) (117, 3.23170852661132812500e+00) (118, -9.92769145965576171875e+00) (119, 3.26064491271972656250e+00) (120, 4.22496795654296875000e+00) (121, -7.44364547729492187500e+00) (122, -2.40899705886840820312e+00) (123, -2.34758377075195312500e-01) (124, 6.11723327636718750000e+00) (125, -4.78465270996093750000e+00) (126, -9.96846294403076171875e+00) (127, -4.50347900390625000000e+00) (128, -9.81526756286621093750e+00) (129, -3.10583353042602539062e+00) (130, 5.70567035675048828125e+00) (131, 4.23691177368164062500e+00) (132, -4.53400278091430664062e+00) (133, 2.45869350433349609375e+00) (134, 5.11484146118164062500e+00) (135, -6.10586881637573242188e+00) (136, 4.66321086883544921875e+00) (137, -6.80374050140380859375e+00) (138, 4.49577903747558593750e+00) (139, 4.87726688385009765625e+00) (140, 4.77628898620605468750e+00) (141, 5.41782474517822265625e+00) (142, -5.26917934417724609375e+00) (143, -6.81136798858642578125e+00) (144, 8.25763893127441406250e+00) (145, -8.24501419067382812500e+00) (146, -7.21122455596923828125e+00) (147, 1.26192569732666015625e+00) (148, 4.98669338226318359375e+00) (149, -7.13891601562500000000e+00) (150, -5.47743082046508789062e+00) (151, -7.88338661193847656250e-01) (152, -4.58256196975708007812e+00) (153, 2.11357212066650390625e+00) (154, 8.97690200805664062500e+00) (155, -8.46532726287841796875e+00) (156, 7.32892036437988281250e+00) (157, 9.00844001770019531250e+00) (158, -2.96880674362182617188e+00) (159, 7.51365280151367187500e+00) (160, -4.09739398956298828125e+00) (161, -7.26313686370849609375e+00) (162, 1.75056457519531250000e+00) (163, 1.36860370635986328125e+00) (164, 5.19555759429931640625e+00) (165, -3.13459348678588867188e+00) (166, 5.26273441314697265625e+00) (167, -1.41231536865234375000e-01) (168, 6.16655349731445312500e-02) (169, -2.41485595703125000000e-01) (170, -5.26396512985229492188e+00) (171, -5.16204404830932617188e+00) (172, -4.82366085052490234375e+00) (173, -5.33143997192382812500e-01) (174, -1.97341251373291015625e+00) (175, -6.56602096557617187500e+00) (176, 1.22184181213378906250e+00) (177, 8.15362930297851562500e-01) (178, 4.69590377807617187500e+00) (179, -3.79146385192871093750e+00) (180, 3.67644691467285156250e+00) (181, 9.21847343444824218750e+00) (182, 5.42019844055175781250e+00) (183, 9.09388351440429687500e+00) (184, 1.33204650878906250000e+00) (185, 4.39710140228271484375e+00) (186, -9.37144279479980468750e+00) (187, -1.33903312683105468750e+00) (188, 3.40554141998291015625e+00) (189, -2.34024953842163085938e+00) (190, -3.82538032531738281250e+00) (0, 9.30814743041992187500e+00) (1, 3.96614074707031250000e-01) (2, 7.92518424987792968750e+00) (3, 6.76752090454101562500e-01) (4, -4.40782785415649414062e+00) (5, -5.20940971374511718750e+00) (6, -4.06051301956176757812e+00) (7, 5.45094108581542968750e+00) (8, 4.85225677490234375000e+00) (9, 5.69800090789794921875e+00) (10, -9.81302356719970703125e+00) (11, 9.69021224975585937500e+00) (12, -9.12565994262695312500e+00) (13, -3.46167564392089843750e-01) (14, -2.28320026397705078125e+00) (15, -5.69168090820312500000e+00) (16, -9.12432575225830078125e+00) (17, 8.53216171264648437500e+00) (18, 9.00422286987304687500e+00) (19, -2.91578960418701171875e+00) (20, 2.20860958099365234375e+00) (21, 8.22269630432128906250e+00) (22, -7.49559164047241210938e+00) (23, 1.30249500274658203125e+00) (24, -4.45256233215332031250e-01) (25, 6.90151023864746093750e+00) (26, 1.93105220794677734375e+00) (27, 8.21571159362792968750e+00) (28, 3.07050704956054687500e-01) (29, 9.59080123901367187500e+00) (30, -5.60966968536376953125e+00) (31, -3.84800910949707031250e-01) (32, -1.25837326049804687500e-02) (33, -7.68448543548583984375e+00) (34, -9.70804882049560546875e+00) (35, 5.57958793640136718750e+00) (36, -2.89389514923095703125e+00) (37, -3.76856136322021484375e+00) (38, 1.03052997589111328125e+00) (39, -8.04163837432861328125e+00) (40, -8.07056045532226562500e+00) (41, 1.21750545501708984375e+00) (42, -8.35142612457275390625e+00) (43, -7.19622039794921875000e+00) (44, -9.12866210937500000000e+00) (45, -6.34625434875488281250e-01) (46, -2.88790130615234375000e+00) (47, -8.25298690795898437500e+00) (48, -2.10246276855468750000e+00) (49, -3.88367795944213867188e+00) (50, -1.16877746582031250000e+00) (51, -9.89385223388671875000e+00) (52, -5.66098022460937500000e+00) (53, 1.33563137054443359375e+00) (54, 1.40864276885986328125e+00) (55, 3.89376354217529296875e+00) (56, -1.76285839080810546875e+00) (57, -6.66030550003051757812e+00) (58, 2.10947418212890625000e+00) (59, 8.54419136047363281250e+00) (60, -7.06950283050537109375e+00) (61, 6.49980354309082031250e+00) (62, -1.84060764312744140625e+00) (63, 2.91791439056396484375e+00) (64, 8.81531906127929687500e+00) (65, -1.54865646362304687500e+00) (66, -1.50249767303466796875e+00) (67, -4.07857608795166015625e+00) (68, 4.68278121948242187500e+00) (69, 9.52803230285644531250e+00) (70, -2.12021398544311523438e+00) (71, 6.61222267150878906250e+00) (72, 7.45538711547851562500e-01) (73, -4.71640586853027343750e-01) (74, 9.41600227355957031250e+00) (75, 1.61687755584716796875e+00) (76, 8.89373397827148437500e+00) (77, -3.47189903259277343750e+00) (78, 3.36388969421386718750e+00) (79, -3.20872831344604492188e+00) (80, 2.64442348480224609375e+00) (81, -7.80488729476928710938e+00) (82, -3.10258102416992187500e+00) (83, 6.98344230651855468750e+00) (84, 3.53074455261230468750e+00) (85, 8.30606079101562500000e+00) (86, 8.77205848693847656250e-01) (87, -8.23211479187011718750e+00) (88, -8.35424423217773437500e+00) (89, -7.01331949234008789062e+00) (90, -9.68792247772216796875e+00) (91, -5.42374706268310546875e+00) (92, 9.48648452758789062500e+00) (93, -1.52853012084960937500e+00) (94, 7.49416732788085937500e+00) (95, 8.30180549621582031250e+00) (96, 6.92281341552734375000e+00) (97, -4.00833034515380859375e+00) (98, -5.77677106857299804688e+00) (99, 1.60559654235839843750e+00) (100, -4.48029708862304687500e+00) (101, 2.10301399230957031250e+00) (102, -1.78218173980712890625e+00) (103, 6.26524162292480468750e+00) (104, -8.36862564086914062500e+00) (105, -2.36618041992187500000e+00) (106, -2.11788082122802734375e+00) (107, -9.47489166259765625000e+00) (108, 4.16192054748535156250e+00) (109, -8.75399112701416015625e+00) (110, -2.68362045288085937500e+00) (111, -3.19365644454956054688e+00) (112, -6.55887794494628906250e+00) (113, 4.21379756927490234375e+00) (114, -6.21021366119384765625e+00) (115, 6.97186470031738281250e+00) (116, 2.51986026763916015625e+00) (117, 4.66699314117431640625e+00) (118, 8.73975181579589843750e+00) (119, 4.16561603546142578125e+00) (120, 7.65367317199707031250e+00) (121, 9.05182838439941406250e+00) (122, 8.74186897277832031250e+00) (123, 7.14015960693359375000e+00) (124, -2.47670078277587890625e+00) (125, 6.23603630065917968750e+00) (126, 5.44196319580078125000e+00) (127, -5.55388689041137695312e+00) (128, -7.77229356765747070312e+00) (129, 9.66519165039062500000e+00) (130, 6.05171012878417968750e+00) (131, -2.25259065628051757812e+00) (132, 1.76820755004882812500e+00) (133, -5.73047256469726562500e+00) (134, -5.98734903335571289062e+00) (135, 3.39958190917968750000e+00) (136, 1.90334701538085937500e+00) (137, 1.89477062225341796875e+00) (138, 3.92468929290771484375e+00) (139, -3.93473291397094726562e+00) (140, 3.14077949523925781250e+00) (141, -8.75893115997314453125e+00) (142, 2.87161064147949218750e+00) (143, 6.58190155029296875000e+00) (144, 5.45486831665039062500e+00) (145, 6.66139793395996093750e+00) (146, 3.55376720428466796875e+00) (147, -2.02527236938476562500e+00) (148, 1.32839107513427734375e+00) (149, 2.29351711273193359375e+00) (150, -7.85965585708618164062e+00) (151, -1.01793575286865234375e+00) (152, 1.34534740447998046875e+00) (153, -9.11778640747070312500e+00) (154, -3.87777614593505859375e+00) (155, 8.86864662170410156250e+00) (156, 7.11824989318847656250e+00) (157, -8.43581199645996093750e+00) (158, -6.68524026870727539062e+00) (159, 9.34595680236816406250e+00) (160, -8.77061939239501953125e+00) (161, 9.36646842956542968750e+00) (162, -2.90663433074951171875e+00) (163, 2.99758815765380859375e+00) (164, -6.36400318145751953125e+00) (165, 1.10601615905761718750e+00) (166, -3.60283041000366210938e+00) (167, 5.53934288024902343750e+00) (168, -6.99921226501464843750e+00) (169, -9.67814064025878906250e+00) (170, -8.39538860321044921875e+00) (171, 6.14156723022460937500e+00) (172, -8.43707084655761718750e+00) (173, 4.47622299194335937500e+00) (174, 2.72346687316894531250e+00) (175, 7.01779556274414062500e+00) (176, 1.13761997222900390625e+00) (177, -3.72276544570922851562e+00) (178, -5.00747537612915039062e+00) (179, -7.53398895263671875000e+00) (180, 8.57075119018554687500e+00) (181, -2.86713123321533203125e+00) (182, 1.44807529449462890625e+00) (183, -8.39004516601562500000e-02) (184, -1.98491764068603515625e+00) (185, 7.57029914855957031250e+00) (186, -1.21525382995605468750e+00) (187, -4.86666727066040039062e+00) (188, 9.13448715209960937500e+00) (189, 2.09950542449951171875e+00) (190, -5.52071094512939453125e+00) (0, -9.63613128662109375000e+00) (1, 1.46597480773925781250e+00) (2, 1.57265567779541015625e+00) (3, 3.36145591735839843750e+00) (4, 5.10197162628173828125e+00) (5, -7.32132768630981445312e+00) (6, 9.75862693786621093750e+00) (7, 6.41314506530761718750e-01) (8, -4.32053995132446289062e+00) (9, -9.91951370239257812500e+00) (10, 2.24592685699462890625e+00) (11, -8.17897319793701171875e+00) (12, -8.35658454895019531250e+00) (13, -3.27785062789916992188e+00) (14, 4.54449367523193359375e+00) (15, 8.66121101379394531250e+00) (16, 7.85976982116699218750e+00) (17, -9.17827033996582031250e+00) (18, -6.34626388549804687500e+00) (19, -9.67421913146972656250e+00) (20, 9.39248085021972656250e+00) (21, 7.86604881286621093750e-01) (22, 1.77385711669921875000e+00) (23, -6.91418647766113281250e-01) (24, 8.80168724060058593750e+00) (25, -6.55843734741210937500e-01) (26, 8.09332656860351562500e+00) (27, -6.06497955322265625000e+00) (28, -1.52135562896728515625e+00) (29, 1.92832946777343750000e-01) (30, -1.58569049835205078125e+00) (31, -1.15748691558837890625e+00) (32, -8.34119224548339843750e+00) (33, 9.98696517944335937500e+00) (34, -7.79603004455566406250e+00) (35, 6.76077842712402343750e+00) (36, -7.33436250686645507812e+00) (37, -8.03740310668945312500e+00) (38, -2.59790563583374023438e+00) (39, -1.65490245819091796875e+00) (40, -7.95691633224487304688e+00) (41, 9.64802169799804687500e+00) (42, 1.66124343872070312500e-01) (43, -6.31350135803222656250e+00) (44, -3.62982940673828125000e+00) (45, -5.28938150405883789062e+00) (46, -7.65228939056396484375e+00) (47, -5.77006006240844726562e+00) (48, -4.46765184402465820312e+00) (49, -3.99855327606201171875e+00) (50, -5.44427919387817382812e+00) (51, -5.07517004013061523438e+00) (52, 6.78805160522460937500e+00) (53, 6.32957839965820312500e+00) (54, 4.23341178894042968750e+00) (55, 5.58973979949951171875e+00) (56, -4.32626628875732421875e+00) (57, 2.32673835754394531250e+00) (58, 9.52475929260253906250e+00) (59, 4.15237903594970703125e+00) (60, -7.48042774200439453125e+00) (61, -2.06092977523803710938e+00) (62, -7.00510787963867187500e+00) (63, -5.82161951065063476562e+00) (64, -2.07396459579467773438e+00) (65, -4.80113744735717773438e+00) (66, -9.06084060668945312500e+00) (67, 5.91672897338867187500e-01) (68, -2.83854055404663085938e+00) (69, -1.65874576568603515625e+00) (70, 8.93676948547363281250e+00) (71, -7.95456886291503906250e-01) (72, -2.01072406768798828125e+00) (73, -8.97106170654296875000e-01) (74, 2.89104175567626953125e+00) (75, 4.35944652557373046875e+00) (76, 3.81351184844970703125e+00) (77, 5.23875236511230468750e+00) (78, 8.58938598632812500000e+00) (79, 9.34585952758789062500e+00) (80, -8.75980091094970703125e+00) (81, -6.85489177703857421875e+00) (82, -5.72930955886840820312e+00) (83, 8.02824974060058593750e+00) (84, 9.47468566894531250000e+00) (85, 8.50410270690917968750e+00) (86, 3.61799144744873046875e+00) (87, -4.85158014297485351562e+00) (88, 8.30841064453125000000e-01) (89, 3.14275264739990234375e+00) (90, 9.30079841613769531250e+00) (91, 3.35041427612304687500e+00) (92, -8.91817760467529296875e+00) (93, -7.70430946350097656250e+00) (94, 7.52879333496093750000e+00) (95, -9.92141723632812500000e-01) (96, -2.50544738769531250000e+00) (97, 8.46795463562011718750e+00) (98, 9.59953117370605468750e+00) (99, 4.65601158142089843750e+00) (100, -3.19079160690307617188e+00) (101, 8.53630065917968750000e+00) (102, -6.13944482803344726562e+00) (103, 4.79848480224609375000e+00) (104, -2.36080455780029296875e+00) (105, 6.75159645080566406250e+00) (106, -8.42068672180175781250e-01) (107, -8.54729175567626953125e+00) (108, 1.99034881591796875000e+00) (109, -2.25268125534057617188e+00) (110, -9.20143127441406250000e+00) (111, 3.23054885864257812500e+00) (112, 8.92426490783691406250e-01) (113, -4.93073987960815429688e+00) (114, 1.25879955291748046875e+00) (115, 3.67112159729003906250e-01) (116, -6.42663764953613281250e+00) (117, -5.12320852279663085938e+00) (118, 5.51553249359130859375e+00) (119, 4.40420341491699218750e+00) (120, 8.01954269409179687500e+00) (121, 4.81633090972900390625e+00) (122, -2.24538278579711914062e+00) (123, 9.10136604309082031250e+00) (124, 7.11202049255371093750e+00) (125, -4.71658849716186523438e+00) (126, -1.89077663421630859375e+00) (127, -5.39342594146728515625e+00) (128, -6.24863433837890625000e+00) (129, -2.29124498367309570312e+00) (130, 9.26258659362792968750e+00) (131, 5.60574531555175781250e-01) (132, -3.75494432449340820312e+00) (133, -6.87685775756835937500e+00) (134, -4.64094114303588867188e+00) (135, 3.88425064086914062500e+00) (136, 9.87473869323730468750e+00) (137, 4.51698970794677734375e+00) (138, 5.33695888519287109375e+00) (139, 1.86508846282958984375e+00) (140, -7.73569107055664062500e+00) (141, 6.13552856445312500000e+00) (142, -4.90436267852783203125e+00) (143, 3.15673542022705078125e+00) (144, -8.79521179199218750000e+00) (145, 6.35443687438964843750e+00) (146, -6.47615146636962890625e+00) (147, -5.22184896469116210938e+00) (148, -8.76877117156982421875e+00) (149, 9.03938102722167968750e+00) (150, 9.18235397338867187500e+00) (151, 9.25077247619628906250e+00) (152, 3.85571098327636718750e+00) (153, -3.06302785873413085938e+00) (154, 8.35213851928710937500e+00) (155, 9.67732429504394531250e-01) (156, 2.22038364410400390625e+00) (157, -3.53863716125488281250e+00) (158, 5.57430648803710937500e+00) (159, 5.97174835205078125000e+00) (160, 4.17011737823486328125e+00) (161, 4.83689308166503906250e+00) (162, -3.46767663955688476562e+00) (163, -9.58482646942138671875e+00) (164, 7.96003532409667968750e+00) (165, 1.89138317108154296875e+00) (166, 4.29942512512207031250e+00) (167, 7.83477401733398437500e+00) (168, -3.59162712097167968750e+00) (169, -3.63615036010742187500e-01) (170, -3.00136566162109375000e-01) (171, -1.32731723785400390625e+00) (172, -4.22808599472045898438e+00) (173, 4.79549980163574218750e+00) (174, -8.17058181762695312500e+00) (175, -3.02329730987548828125e+00) (176, 1.14993762969970703125e+00) (177, -4.64673328399658203125e+00) (178, 1.75485324859619140625e+00) (179, 2.38116741180419921875e+00) (180, -5.60735321044921875000e+00) (181, 9.37208175659179687500e-01) (182, 1.63193893432617187500e+00) (183, 8.24835777282714843750e+00) (184, 7.87417984008789062500e+00) (185, -1.59215927124023437500e-02) (186, -7.83909797668457031250e-01) (187, 9.45634841918945312500e-02) (188, 6.44544029235839843750e+00) (189, -5.20960283279418945312e+00) (190, -3.93368721008300781250e+00) (0, 6.15559577941894531250e-01) (1, 9.62729072570800781250e+00) (2, 2.59863567352294921875e+00) (3, 1.03073310852050781250e+00) (4, 7.58732604980468750000e+00) (5, -5.50998115539550781250e+00) (6, -4.66984176635742187500e+00) (7, 5.42210102081298828125e+00) (8, 8.98391723632812500000e-01) (9, 4.96654415130615234375e+00) (10, -4.87803649902343750000e+00) (11, 9.57107353210449218750e+00) (12, -9.26154232025146484375e+00) (13, 9.91746330261230468750e+00) (14, -8.59950733184814453125e+00) (15, -2.28483915328979492188e+00) (16, 1.06740188598632812500e+00) (17, -3.24624061584472656250e+00) (18, 9.47001457214355468750e+00) (19, -6.55143117904663085938e+00) (20, 1.14640617370605468750e+00) (21, 4.07222747802734375000e-01) (22, 5.08050823211669921875e+00) (23, -6.05236053466796875000e-01) (24, -1.71859741210937500000e+00) (25, -4.93541288375854492188e+00) (26, 8.61085319519042968750e+00) (27, 8.37596702575683593750e+00) (28, -8.48997116088867187500e+00) (29, -6.59874820709228515625e+00) (30, -5.55771970748901367188e+00) (31, 2.12558746337890625000e+00) (32, -6.97145795822143554688e+00) (33, 7.04091644287109375000e+00) (34, -6.84367895126342773438e+00) (35, -9.38413238525390625000e+00) (36, -8.46906471252441406250e+00) (37, -1.51352024078369140625e+00) (38, 6.03796768188476562500e+00) (39, 2.42932796478271484375e+00) (40, -6.54697656631469726562e+00) (41, -8.84006786346435546875e+00) (42, 2.00040245056152343750e+00) (43, -5.80851840972900390625e+00) (44, -8.92260360717773437500e+00) (45, 3.40089416503906250000e+00) (46, 1.90664291381835937500e+00) (47, 2.14479827880859375000e+00) (48, -9.84534549713134765625e+00) (49, 1.37665748596191406250e+00) (50, 5.59336662292480468750e+00) (51, 1.30106067657470703125e+00) (52, -8.21611976623535156250e+00) (53, 6.73874855041503906250e-01) (54, -9.30417537689208984375e+00) (55, 6.52837753295898437500e-02) (56, 5.73846244812011718750e+00) (57, 9.30667877197265625000e+00) (58, -1.55875015258789062500e+00) (59, 7.24848937988281250000e+00) (60, -7.29206943511962890625e+00) (61, 2.88353061676025390625e+00) (62, -6.25922203063964843750e-01) (63, -4.26352691650390625000e+00) (64, -7.55529403686523437500e-02) (65, 2.53039836883544921875e+00) (66, -3.64765882492065429688e+00) (67, 1.45538330078125000000e+00) (68, -8.98312187194824218750e+00) (69, -7.60969018936157226562e+00) (70, -6.11528873443603515625e+00) (71, -5.53009796142578125000e+00) (72, -6.44975805282592773438e+00) (73, 5.88511371612548828125e+00) (74, -1.33861637115478515625e+00) (75, -5.37236213684082031250e+00) (76, -7.13992118835449218750e-01) (77, -9.43197441101074218750e+00) (78, 6.77243614196777343750e+00) (79, -5.59337615966796875000e-01) (80, 1.94468212127685546875e+00) (81, 2.36580276489257812500e+00) (82, -9.25827693939208984375e+00) (83, 3.72856330871582031250e+00) (84, -6.96032238006591796875e+00) (85, -8.56245231628417968750e+00) (86, -6.20615339279174804688e+00) (87, 8.77813911437988281250e+00) (88, -9.25577354431152343750e+00) (89, 2.23509693145751953125e+00) (90, 6.02662849426269531250e+00) (91, -6.54784297943115234375e+00) (92, -4.88137197494506835938e+00) (93, -4.59929227828979492188e+00) (94, -8.11369895935058593750e-01) (95, 5.04307460784912109375e+00) (96, 7.93110656738281250000e+00) (97, 5.54097175598144531250e+00) (98, -3.50154161453247070312e+00) (99, 8.94798469543457031250e+00) (100, 7.93128013610839843750e+00) (101, 3.83169174194335937500e-01) (102, -6.58211326599121093750e+00) (103, -8.51847648620605468750e+00) (104, -3.73171758651733398438e+00) (105, 2.07927131652832031250e+00) (106, -3.89083862304687500000e+00) (107, 5.55429077148437500000e+00) (108, 2.64729690551757812500e+00) (109, -7.11840248107910156250e+00) (110, -5.00504732131958007812e+00) (111, -5.40802001953125000000e+00) (112, 5.24739933013916015625e+00) (113, -4.26332426071166992188e+00) (114, 8.32054328918457031250e+00) (115, 8.28707695007324218750e+00) (116, -2.82577705383300781250e+00) (117, -7.88561010360717773438e+00) (118, 7.06521797180175781250e+00) (119, -2.08155059814453125000e+00) (120, 4.34948635101318359375e+00) (121, 3.09184646606445312500e+00) (122, 1.37060737609863281250e+00) (123, 9.46811485290527343750e+00) (124, 8.49255371093750000000e+00) (125, -9.44076251983642578125e+00) (126, 4.51119041442871093750e+00) (127, 6.42366027832031250000e+00) (128, 6.10021018981933593750e+00) (129, -8.99035072326660156250e+00) (130, 5.37164592742919921875e+00) (131, 4.03149127960205078125e+00) (132, 1.39281845092773437500e+00) (133, 8.78953361511230468750e+00) (134, 5.51301479339599609375e+00) (135, 7.66110038757324218750e+00) (136, 8.68803977966308593750e-01) (137, -8.37782382965087890625e+00) (138, 3.21539115905761718750e+00) (139, -6.48389911651611328125e+00) (140, -5.49622678756713867188e+00) (141, 8.21034431457519531250e+00) (142, -1.89191913604736328125e+00) (143, 9.75117301940917968750e+00) (144, -6.05297946929931640625e+00) (145, -3.57137584686279296875e+00) (146, 8.03825187683105468750e+00) (147, 1.12124443054199218750e+00) (148, -1.45698547363281250000e+00) (149, 5.10346794128417968750e+00) (150, 9.03969383239746093750e+00) (151, -7.10749816894531250000e+00) (152, -1.80468559265136718750e+00) (153, 4.10300254821777343750e-01) (154, -7.63938331604003906250e+00) (155, -3.31213140487670898438e+00) (156, 9.69538688659667968750e-01) (157, 6.87180709838867187500e+00) (158, -6.88847017288208007812e+00) (159, -2.93025159835815429688e+00) (160, 7.88145637512207031250e+00) (161, 8.48317527770996093750e+00) (162, -8.89876079559326171875e+00) (163, -7.25725173950195312500e-01) (164, 7.27270889282226562500e+00) (165, 6.61425399780273437500e+00) (166, -3.06462430953979492188e+00) (167, -1.85848712921142578125e+00) (168, 8.23643112182617187500e+00) (169, -9.84923171997070312500e+00) (170, 1.65761470794677734375e+00) (171, -7.25979614257812500000e+00) (172, 8.36111259460449218750e+00) (173, 9.76569557189941406250e+00) (174, -7.50862264633178710938e+00) (175, -7.69186592102050781250e+00) (176, -3.80568027496337890625e+00) (177, -9.47037220001220703125e+00) (178, 3.42937850952148437500e+00) (179, 4.73733425140380859375e+00) (180, 5.63309574127197265625e+00) (181, 2.46907234191894531250e+00) (182, 7.62983512878417968750e+00) (183, -6.17158985137939453125e+00) (184, -7.12062740325927734375e+00) (185, 9.99045181274414062500e+00) (186, 5.16280174255371093750e-01) (187, 3.84891128540039062500e+00) (188, 6.86225891113281250000e+00) (189, 3.62780952453613281250e+00) (190, -9.08133983612060546875e+00) (0, 4.74371623992919921875e+00) (1, 2.11098575592041015625e+00) (2, -7.98010063171386718750e+00) (3, -5.98200893402099609375e+00) (4, -6.16305351257324218750e-01) (5, 8.63415336608886718750e+00) (6, 9.53368186950683593750e-01) (7, 7.52520942687988281250e+00) (8, 6.87058448791503906250e+00) (9, 1.10413551330566406250e+00) (10, -8.17176818847656250000e-01) (11, 9.61078643798828125000e+00) (12, -5.34751892089843750000e-01) (13, -1.05148124694824218750e+00) (14, -7.89783477783203125000e+00) (15, 1.77338218688964843750e+00) (16, 5.14283847808837890625e+00) (17, -7.36820650100708007812e+00) (18, -4.79723930358886718750e+00) (19, -1.19827270507812500000e-01) (20, 8.26488876342773437500e+00) (21, 7.67183113098144531250e+00) (22, -2.48999261856079101562e+00) (23, -7.90670013427734375000e+00) (24, -9.44879531860351562500e+00) (25, -2.49953985214233398438e+00) (26, 2.60957908630371093750e+00) (27, 4.40011596679687500000e+00) (28, -5.63727998733520507812e+00) (29, -3.76261138916015625000e+00) (30, 5.31877613067626953125e+00) (31, 9.10643577575683593750e+00) (32, 8.34837341308593750000e+00) (33, 7.33867645263671875000e+00) (34, -6.87557315826416015625e+00) (35, -2.26793098449707031250e+00) (36, 5.97282981872558593750e+00) (37, 4.07779407501220703125e+00) (38, -4.74272251129150390625e+00) (39, 2.84341430664062500000e+00) (40, -4.81806993484497070312e+00) (41, 4.44010162353515625000e+00) (42, 2.45420169830322265625e+00) (43, 4.64717864990234375000e+00) (44, -6.61138057708740234375e+00) (45, 4.55636692047119140625e+00) (46, -3.57943916320800781250e+00) (47, 8.53145790100097656250e+00) (48, 7.18816184997558593750e+00) (49, 1.62332153320312500000e+00) (50, -1.58836936950683593750e+00) (51, 5.45305156707763671875e+00) (52, -7.04846382141113281250e-01) (53, 5.92163753509521484375e+00) (54, 7.54635047912597656250e+00) (55, -1.53641700744628906250e-01) (56, -6.57790184020996093750e+00) (57, 1.55930519104003906250e-01) (58, -5.75352430343627929688e+00) (59, -2.21518182754516601562e+00) (60, 6.39331817626953125000e+00) (61, 9.56525230407714843750e+00) (62, -3.10874509811401367188e+00) (63, 4.74169254302978515625e+00) (64, 6.90392875671386718750e+00) (65, 1.56822204589843750000e-02) (66, -7.52623796463012695312e+00) (67, 2.87675857543945312500e+00) (68, -5.90652370452880859375e+00) (69, -2.26895999908447265625e+00) (70, -4.27982711791992187500e+00) (71, -7.24593162536621093750e-01) (72, -7.82885932922363281250e+00) (73, 8.17437553405761718750e+00) (74, -6.07741451263427734375e+00) (75, -4.44023990631103515625e+00) (76, 2.73074340820312500000e+00) (77, 3.43146324157714843750e-01) (78, -5.90878152847290039062e+00) (79, -8.10956954956054687500e-02) (80, -8.03353118896484375000e+00) (81, 2.50284862518310546875e+00) (82, -4.62804460525512695312e+00) (83, 1.26162242889404296875e+00) (84, -1.57551288604736328125e+00) (85, -7.08169364929199218750e+00) (86, -8.89201927185058593750e+00) (87, 1.84658527374267578125e+00) (88, 3.07423686981201171875e+00) (89, -4.64554309844970703125e+00) (90, 9.63140296936035156250e+00) (91, -5.32444953918457031250e-01) (92, -5.08029127120971679688e+00) (93, -3.47734165191650390625e+00) (94, -5.79075145721435546875e+00) (95, -8.17636203765869140625e+00) (96, 6.53833961486816406250e+00) (97, -3.31698894500732421875e+00) (98, 4.70039558410644531250e+00) (99, -9.36818313598632812500e+00) (100, 4.41405010223388671875e+00) (101, -9.57943058013916015625e+00) (102, -9.27772521972656250000e-02) (103, 6.58519172668457031250e+00) (104, 8.59494590759277343750e+00) (105, 3.82980823516845703125e+00) (106, -7.85504817962646484375e+00) (107, 1.32568931579589843750e+00) (108, -5.82704496383666992188e+00) (109, -3.76383018493652343750e+00) (110, -8.75540637969970703125e+00) (111, -3.86057615280151367188e+00) (112, 8.73901748657226562500e+00) (113, -3.38345050811767578125e+00) (114, 7.40104484558105468750e+00) (115, -2.83649444580078125000e+00) (116, -4.65144157409667968750e-01) (117, 8.50902557373046875000e+00) (118, 9.01008987426757812500e+00) (119, -7.39090728759765625000e+00) (120, -6.13651609420776367188e+00) (121, 8.64149475097656250000e+00) (122, 2.07664871215820312500e+00) (123, -1.21680736541748046875e+00) (124, -4.83584690093994140625e+00) (125, 6.28589630126953125000e+00) (126, 6.06831550598144531250e-01) (127, -8.29750728607177734375e+00) (128, -7.03109264373779296875e+00) (129, -4.69277286529541015625e+00) (130, -7.66569042205810546875e+00) (131, 7.38295745849609375000e+00) (132, -4.27220296859741210938e+00) (133, 2.24153232574462890625e+00) (134, 3.96814918518066406250e+00) (135, -5.67725706100463867188e+00) (136, -3.92865896224975585938e+00) (137, 6.11310005187988281250e+00) (138, 5.64843177795410156250e+00) (139, 2.44295120239257812500e-01) (140, -7.65072822570800781250e+00) (141, 6.89302444458007812500e+00) (142, 6.38371849060058593750e+00) (143, -8.91170978546142578125e+00) (144, -6.49042510986328125000e+00) (145, 3.78476619720458984375e+00) (146, -1.74820423126220703125e+00) (147, 3.04443073272705078125e+00) (148, 2.29379272460937500000e+00) (149, -2.73811292648315429688e+00) (150, 5.65352344512939453125e+00) (151, 6.15727806091308593750e+00) (152, -4.09661817550659179688e+00) (153, -2.26982831954956054688e+00) (154, -5.05952978134155273438e+00) (155, 1.06753444671630859375e+00) (156, -5.98393201828002929688e+00) (157, 5.54730129241943359375e+00) (158, 2.77002811431884765625e+00) (159, -3.01502418518066406250e+00) (160, -9.14547061920166015625e+00) (161, 5.10433673858642578125e+00) (162, -5.63206624984741210938e+00) (163, -3.41767358779907226562e+00) (164, -2.65413045883178710938e+00) (165, 8.33608436584472656250e+00) (166, 9.05069351196289062500e-01) (167, 3.41721057891845703125e+00) (168, 4.44918537139892578125e+00) (169, -3.44649839401245117188e+00) (170, -6.33849334716796875000e+00) (171, 6.79845619201660156250e+00) (172, -6.55347299575805664062e+00) (173, -9.95477390289306640625e+00) (174, 7.88674736022949218750e+00) (175, -3.04389762878417968750e+00) (176, 3.82999134063720703125e+00) (177, -3.86145639419555664062e+00) (178, -9.99946689605712890625e+00) (179, -3.87621450424194335938e+00) (180, 3.40043067932128906250e+00) (181, 5.65405750274658203125e+00) (182, -7.71893692016601562500e+00) (183, 9.30381202697753906250e+00) (184, -6.61577177047729492188e+00) (185, -2.77846622467041015625e+00) (186, 3.71347427368164062500e-01) (187, -2.59970331192016601562e+00) (188, -7.23116493225097656250e+00) (189, -6.85862493515014648438e+00) (190, 4.38527202606201171875e+00) (0, -6.37663602828979492188e+00) (1, 8.24571228027343750000e+00) (2, 8.75320625305175781250e+00) (3, 2.05690383911132812500e-01) (4, -4.40841865539550781250e+00) (5, 7.08929061889648437500e+00) (6, -8.88924026489257812500e+00) (7, 9.00879096984863281250e+00) (8, 1.53847599029541015625e+00) (9, -2.33573865890502929688e+00) (10, -7.32970237731933593750e+00) (11, -1.66306781768798828125e+00) (12, 1.11078834533691406250e+00) (13, -7.28447580337524414062e+00) (14, -3.77632045745849609375e+00) (15, 8.06689071655273437500e+00) (16, 6.54551506042480468750e+00) (17, 2.36222362518310546875e+00) (18, 8.06742477416992187500e+00) (19, -7.33069801330566406250e+00) (20, -4.23734569549560546875e+00) (21, 3.72148036956787109375e+00) (22, -5.04963541030883789062e+00) (23, -4.93353271484375000000e+00) (24, 7.10570716857910156250e+00) (25, 2.17189788818359375000e+00) (26, 5.43781471252441406250e+00) (27, -5.49399471282958984375e+00) (28, 4.94073295593261718750e+00) (29, 8.57918930053710937500e+00) (30, 8.89127731323242187500e+00) (31, 8.56409645080566406250e+00) (32, 6.82490158081054687500e+00) (33, 7.64448356628417968750e+00) (34, -1.23021221160888671875e+00) (35, -7.58351707458496093750e+00) (36, 4.73377418518066406250e+00) (37, -1.19453430175781250000e-01) (38, -8.57472515106201171875e+00) (39, -3.72775030136108398438e+00) (40, 7.54480743408203125000e+00) (41, -5.90442752838134765625e+00) (42, 4.60918331146240234375e+00) (43, -1.34440326690673828125e+00) (44, -3.18890333175659179688e+00) (45, -9.16713714599609375000e+00) (46, -3.27751302719116210938e+00) (47, -6.64338684082031250000e+00) (48, 3.19508647918701171875e+00) (49, -5.21008920669555664062e+00) (50, -3.97408533096313476562e+00) (51, 8.95774078369140625000e+00) (52, 8.51139068603515625000e+00) (53, 9.76280212402343750000e-01) (54, -5.97579145431518554688e+00) (55, 5.61709976196289062500e+00) (56, -6.85182237625122070312e+00) (57, 9.46202278137207031250e+00) (58, -9.87689399719238281250e+00) (59, 8.08891105651855468750e+00) (60, 8.04121398925781250000e+00) (61, 9.01438331604003906250e+00) (62, 6.65300750732421875000e+00) (63, 4.86611557006835937500e+00) (64, 6.65886688232421875000e+00) (65, -4.57720565795898437500e+00) (66, 7.28259849548339843750e+00) (67, 1.39264202117919921875e+00) (68, 5.30334091186523437500e+00) (69, 8.70787429809570312500e+00) (70, 7.66489219665527343750e+00) (71, 2.84814929962158203125e+00) (72, -7.19655418395996093750e+00) (73, 2.27407455444335937500e+00) (74, -8.49625301361083984375e+00) (75, -3.85457038879394531250e-01) (76, 3.10693740844726562500e+00) (77, -1.77376556396484375000e+00) (78, 2.97115516662597656250e+00) (79, -3.69797611236572265625e+00) (80, 3.01614475250244140625e+00) (81, 8.99706840515136718750e+00) (82, -4.74023485183715820312e+00) (83, 1.52753734588623046875e+00) (84, -2.66504287719726562500e-02) (85, -7.16026306152343750000e-01) (86, -2.85536289215087890625e+00) (87, 3.12152767181396484375e+00) (88, -1.25400257110595703125e+00) (89, -2.73225784301757812500e+00) (90, 1.21043777465820312500e+00) (91, -3.21278858184814453125e+00) (92, -3.71787452697753906250e+00) (93, -2.13655519485473632812e+00) (94, -8.34667301177978515625e+00) (95, -7.05900669097900390625e+00) (96, 3.28623867034912109375e+00) (97, 8.93592453002929687500e+00) (98, 4.33363533020019531250e+00) (99, -1.41041946411132812500e+00) (100, 7.64379882812500000000e+00) (101, 1.99852848052978515625e+00) (102, -8.56226921081542968750e+00) (103, -9.55275535583496093750e+00) (104, -5.72739648818969726562e+00) (105, -7.05852222442626953125e+00) (106, 6.17876052856445312500e-02) (107, 7.37954139709472656250e+00) (108, 1.16771221160888671875e+00) (109, -6.96705770492553710938e+00) (110, -6.31843519210815429688e+00) (111, -5.81614303588867187500e+00) (112, -7.96998739242553710938e+00) (113, -1.05867004394531250000e+00) (114, 5.71139335632324218750e+00) (115, 2.00336170196533203125e+00) (116, 8.22530364990234375000e+00) (117, -7.14396953582763671875e+00) (118, -4.87511062622070312500e+00) (119, -3.02869796752929687500e+00) (120, 1.23772621154785156250e-01) (121, 6.33532524108886718750e+00) (122, 3.75851249694824218750e+00) (123, 6.40589904785156250000e+00) (124, -5.80122852325439453125e+00) (125, 5.41183948516845703125e+00) (126, 9.34689331054687500000e+00) (127, 7.48501014709472656250e+00) (128, 4.34776496887207031250e+00) (129, 3.68052864074707031250e+00) (130, -3.92540884017944335938e+00) (131, 1.99156379699707031250e+00) (132, -4.32094287872314453125e+00) (133, -2.48767805099487304688e+00) (134, 2.43880844116210937500e+00) (135, -4.83398437500000000000e-02) (136, 4.53800201416015625000e-01) (137, -7.49940490722656250000e+00) (138, -2.66879844665527343750e+00) (139, -8.37848854064941406250e+00) (140, -4.46646213531494140625e+00) (141, 1.01276588439941406250e+00) (142, -4.19463157653808593750e+00) (143, -2.43644952774047851562e+00) (144, 9.95409584045410156250e+00) (145, -8.48323726654052734375e+00) (146, 9.56691169738769531250e+00) (147, 8.17940139770507812500e+00) (148, -5.62720680236816406250e+00) (149, -5.30819797515869140625e+00) (150, -4.84929752349853515625e+00) (151, 4.49656581878662109375e+00) (152, -8.97287082672119140625e+00) (153, 8.90921592712402343750e+00) (154, 9.02465820312500000000e-01) (155, -4.77409982681274414062e+00) (156, 4.32105541229248046875e+00) (157, 2.49358177185058593750e-01) (158, -7.28908920288085937500e+00) (159, -1.33117961883544921875e+00) (160, -6.07011318206787109375e+00) (161, -1.21449756622314453125e+00) (162, -9.33961582183837890625e+00) (163, -3.91057014465332031250e-01) (164, 6.29782485961914062500e+00) (165, 3.09919261932373046875e+00) (166, 9.56060409545898437500e+00) (167, -3.24837589263916015625e+00) (168, 5.59978675842285156250e+00) (169, -3.10819435119628906250e+00) (170, -1.62686443328857421875e+00) (171, -8.86667442321777343750e+00) (172, 7.90457153320312500000e+00) (173, 4.17850494384765625000e+00) (174, -1.30312442779541015625e+00) (175, 7.85866737365722656250e+00) (176, 5.69526672363281250000e+00) (177, -1.73621177673339843750e+00) (178, 6.03806877136230468750e+00) (179, -9.93194007873535156250e+00) (180, 2.95559024810791015625e+00) (181, -8.81122779846191406250e+00) (182, 4.56462574005126953125e+00) (183, 3.98271942138671875000e+00) (184, -9.90201187133789062500e+00) (185, -4.53290843963623046875e+00) (186, 9.20862007141113281250e+00) (187, 4.41904258728027343750e+00) (188, 5.71644973754882812500e+00) (189, -8.08046913146972656250e+00) (190, -6.91213607788085937500e+00) (0, 9.64633750915527343750e+00) (1, 7.05032348632812500000e-01) (2, -6.25175237655639648438e+00) (3, -7.44720458984375000000e-01) (4, -2.99714279174804687500e+00) (5, 6.84743881225585937500e+00) (6, -1.18411636352539062500e+00) (7, 3.75448131561279296875e+00) (8, 2.44722747802734375000e+00) (9, 5.70768928527832031250e+00) (10, -7.87238216400146484375e+00) (11, 3.58055305480957031250e+00) (12, 3.61226177215576171875e+00) (13, 6.30612182617187500000e+00) (14, -7.72257089614868164062e+00) (15, 1.47092914581298828125e+00) (16, 2.00138950347900390625e+00) (17, 5.41216850280761718750e-01) (18, -2.49100112915039062500e+00) (19, 2.06944942474365234375e+00) (20, -6.50319194793701171875e+00) (21, -1.30222892761230468750e+00) (22, -3.36592388153076171875e+00) (23, 7.47952842712402343750e+00) (24, -1.20424079895019531250e+00) (25, 2.10116863250732421875e+00) (26, 6.68814659118652343750e+00) (27, -6.78519725799560546875e+00) (28, -2.18238258361816406250e+00) (29, 8.60767745971679687500e+00) (30, -3.69733333587646484375e+00) (31, -2.53604602813720703125e+00) (32, -6.87289237976074218750e-01) (33, 5.09138107299804687500e-02) (34, 6.71923446655273437500e+00) (35, 6.31556892395019531250e+00) (36, -3.10164594650268554688e+00) (37, -4.46488142013549804688e+00) (38, 7.00492858886718750000e-02) (39, 9.34558105468750000000e+00) (40, -8.75719165802001953125e+00) (41, 2.19766712188720703125e+00) (42, 2.92613506317138671875e+00) (43, 4.85507011413574218750e+00) (44, -1.49621009826660156250e+00) (45, 5.20356369018554687500e+00) (46, -3.67400074005126953125e+00) (47, -9.49482059478759765625e+00) (48, -4.25521802902221679688e+00) (49, 3.83499813079833984375e+00) (50, 2.57462882995605468750e+00) (51, -7.58409500122070312500e-01) (52, -7.46722936630249023438e+00) (53, 9.20870590209960937500e+00) (54, -3.27888202667236328125e+00) (55, 1.32853031158447265625e+00) (56, 1.30987262725830078125e+00) (57, -6.59073448181152343750e+00) (58, 4.54333305358886718750e+00) (59, 9.12749099731445312500e+00) (60, -7.98305654525756835938e+00) (61, -9.15400123596191406250e+00) (62, -3.40855503082275390625e+00) (63, 1.32965469360351562500e+00) (64, 8.96912574768066406250e-01) (65, -6.68932056427001953125e+00) (66, -2.35477733612060546875e+00) (67, 7.79526710510253906250e+00) (68, -1.15420150756835937500e+00) (69, 7.71527290344238281250e+00) (70, 7.14085006713867187500e+00) (71, 8.86058807373046875000e-02) (72, -8.70599746704101562500e-02) (73, 6.69851303100585937500e-02) (74, -5.05632400512695312500e+00) (75, 8.41672897338867187500e+00) (76, -4.72945117950439453125e+00) (77, 1.26967525482177734375e+00) (78, 8.92190933227539062500e+00) (79, 1.01533031463623046875e+00) (80, -4.89532518386840820312e+00) (81, 1.49653816223144531250e+00) (82, -9.74307918548583984375e+00) (83, -2.36255455017089843750e+00) (84, 7.05243110656738281250e-01) (85, -3.02196073532104492188e+00) (86, 8.96597480773925781250e+00) (87, -7.98488426208496093750e+00) (88, 3.87303352355957031250e-01) (89, 3.50930786132812500000e+00) (90, -8.85739326477050781250e+00) (91, 2.40424728393554687500e+00) (92, 4.35530757904052734375e+00) (93, -2.26594829559326171875e+00) (94, -6.26609802246093750000e+00) (95, -4.74777936935424804688e+00) (96, 1.04473114013671875000e+00) (97, 1.37912464141845703125e+00) (98, -6.95251178741455078125e+00) (99, 9.89052963256835937500e+00) (100, -9.05602455139160156250e-01) (101, -9.81166267395019531250e+00) (102, -2.08644866943359375000e-02) (103, 9.00733757019042968750e+00) (104, 2.55322456359863281250e-01) (105, 4.92281150817871093750e+00) (106, 7.42406845092773437500e+00) (107, 5.52587127685546875000e+00) (108, -3.80751180648803710938e+00) (109, 6.34597778320312500000e+00) (110, -3.45879840850830078125e+00) (111, 1.29716300964355468750e+00) (112, -2.15748453140258789062e+00) (113, -3.20187759399414062500e+00) (114, 8.93460845947265625000e+00) (115, 8.54775810241699218750e+00) (116, 3.77616119384765625000e+00) (117, 7.90058326721191406250e+00) (118, -9.43712520599365234375e+00) (119, -5.83653402328491210938e+00) (120, 1.40989303588867187500e+00) (121, -8.29451847076416015625e+00) (122, 6.56771469116210937500e+00) (123, -4.23480033874511718750e+00) (124, -5.60466766357421875000e-01) (125, -9.69838428497314453125e+00) (126, 1.01741981506347656250e+00) (127, -9.51573467254638671875e+00) (128, 1.68074131011962890625e+00) (129, 4.06490898132324218750e+00) (130, -9.62520503997802734375e+00) (131, -9.22486114501953125000e+00) (132, 4.25324630737304687500e+00) (133, 3.53931427001953125000e-01) (134, 9.78247642517089843750e+00) (135, -5.49143123626708984375e+00) (136, -4.72325706481933593750e+00) (137, 7.20654487609863281250e+00) (138, -9.96555995941162109375e+00) (139, 1.46923160552978515625e+00) (140, 3.55252265930175781250e+00) (141, -3.42435836791992187500e+00) (142, -7.23360538482666015625e+00) (143, -8.60496139526367187500e+00) (144, 3.37376499176025390625e+00) (145, -8.29899692535400390625e+00) (146, 9.94279670715332031250e+00) (147, -2.85007429122924804688e+00) (148, 9.60158729553222656250e+00) (149, -9.49432849884033203125e+00) (150, 1.31339168548583984375e+00) (151, 1.01148033142089843750e+00) (152, -7.78884649276733398438e+00) (153, -2.11889410018920898438e+00) (154, 6.77667999267578125000e+00) (155, 1.65068721771240234375e+00) (156, -1.81727886199951171875e+00) (157, -2.20589923858642578125e+00) (158, 2.13495254516601562500e+00) (159, 9.86346244812011718750e+00) (160, -8.14099025726318359375e+00) (161, 2.50974655151367187500e+00) (162, -9.36139869689941406250e+00) (163, 6.11225509643554687500e+00) (164, -7.13632202148437500000e+00) (165, -9.57892227172851562500e+00) (166, -9.37917518615722656250e+00) (167, -1.85957908630371093750e+00) (168, 7.62762069702148437500e+00) (169, -9.34473514556884765625e+00) (170, 9.60965156555175781250e+00) (171, 1.18014430999755859375e+00) (172, -2.76909351348876953125e+00) (173, -7.62395286560058593750e+00) (174, 2.57518291473388671875e+00) (175, -9.39532947540283203125e+00) (176, -5.92294931411743164062e+00) (177, 2.51798057556152343750e+00) (178, -2.24540281295776367188e+00) (179, -6.32136201858520507812e+00) (180, 3.02365207672119140625e+00) (181, 9.06798744201660156250e+00) (182, 4.69011783599853515625e+00) (183, 5.23480510711669921875e+00) (184, -3.05090570449829101562e+00) (185, 1.46679782867431640625e+00) (186, -3.11450719833374023438e+00) (187, 5.13181686401367187500e+00) (188, 9.26089859008789062500e+00) (189, 9.02044296264648437500e+00) (190, 4.99527931213378906250e+00) (0, -8.88009166717529296875e+00) (1, 1.53019142150878906250e+00) (2, 5.63387966156005859375e+00) (3, 7.23216438293457031250e+00) (4, 4.39386940002441406250e+00) (5, 6.05495834350585937500e+00) (6, 7.85298919677734375000e+00) (7, -7.46571016311645507812e+00) (8, 3.68257999420166015625e+00) (9, 8.50825309753417968750e+00) (10, -7.85605716705322265625e+00) (11, -5.13727569580078125000e+00) (12, -4.26083850860595703125e+00) (13, -5.48001050949096679688e+00) (14, 7.43790626525878906250e+00) (15, -3.65616798400878906250e+00) (16, -1.40295982360839843750e+00) (17, -4.41122055053710937500e-02) (18, 4.09842872619628906250e+00) (19, 2.27567863464355468750e+00) (20, -7.02046012878417968750e+00) (21, 3.16641807556152343750e+00) (22, -3.03420352935791015625e+00) (23, 8.21434593200683593750e+00) (24, -9.88448715209960937500e+00) (25, 8.43259429931640625000e+00) (26, -4.90016174316406250000e+00) (27, 5.24732971191406250000e+00) (28, 7.69349288940429687500e+00) (29, -5.87971735000610351562e+00) (30, 2.42607116699218750000e-01) (31, 8.81340026855468750000e+00) (32, 5.65047359466552734375e+00) (33, -4.12351179122924804688e+00) (34, 6.04556465148925781250e+00) (35, 4.43429946899414062500e-02) (36, -8.06855392456054687500e+00) (37, 3.89855480194091796875e+00) (38, 2.57863235473632812500e+00) (39, 5.61402511596679687500e+00) (40, 2.40681076049804687500e+00) (41, 4.72257614135742187500e+00) (42, -9.52324962615966796875e+00) (43, 8.14597129821777343750e+00) (44, 9.24256515502929687500e+00) (45, 7.91465759277343750000e+00) (46, -5.51019668579101562500e+00) (47, -2.16039371490478515625e+00) (48, -2.12945413589477539062e+00) (49, 8.58823204040527343750e+00) (50, -9.88471508026123046875e+00) (51, 8.50086212158203125000e-01) (52, 1.75465011596679687500e+00) (53, -2.91891860961914062500e+00) (54, -9.35568809509277343750e-01) (55, 1.87016201019287109375e+00) (56, -4.48632431030273437500e+00) (57, 4.16427040100097656250e+00) (58, -2.88250827789306640625e+00) (59, -6.79283142089843750000e+00) (60, 8.28455352783203125000e+00) (61, 7.36009979248046875000e+00) (62, -7.97943067550659179688e+00) (63, 3.93502712249755859375e+00) (64, -6.76341152191162109375e+00) (65, 8.06613349914550781250e+00) (66, -6.02062988281250000000e+00) (67, -4.83196544647216796875e+00) (68, 1.96469020843505859375e+00) (69, 6.55800247192382812500e+00) (70, -9.21794033050537109375e+00) (71, -5.62849998474121093750e+00) (72, 1.28057956695556640625e+00) (73, -8.74118995666503906250e+00) (74, -7.48252868652343750000e+00) (75, 5.23144721984863281250e-01) (76, 9.17346763610839843750e+00) (77, -2.99272537231445312500e+00) (78, 8.36275100708007812500e+00) (79, -2.95598554611206054688e+00) (80, -4.40449237823486328125e+00) (81, 8.47803497314453125000e+00) (82, 7.89410018920898437500e+00) (83, 7.35015678405761718750e+00) (84, -4.44088268280029296875e+00) (85, -3.04146766662597656250e+00) (86, -7.79679298400878906250e-01) (87, 1.07279300689697265625e+00) (88, -8.87719821929931640625e+00) (89, 6.33781242370605468750e+00) (90, 4.27996158599853515625e+00) (91, 9.40735435485839843750e+00) (92, 3.69791412353515625000e+00) (93, 6.30052947998046875000e+00) (94, 3.34238147735595703125e+00) (95, 6.93450164794921875000e+00) (96, 4.36666584014892578125e+00) (97, 7.32175254821777343750e+00) (98, -7.89746379852294921875e+00) (99, -3.66864395141601562500e+00) (100, 3.87975597381591796875e+00) (101, -7.11540365219116210938e+00) (102, 7.02857017517089843750e-01) (103, -4.83966493606567382812e+00) (104, -5.85659360885620117188e+00) (105, 3.22032833099365234375e+00) (106, 5.68348026275634765625e+00) (107, -6.68312549591064453125e+00) (108, -9.77239799499511718750e+00) (109, 4.04623126983642578125e+00) (110, 3.60888481140136718750e-01) (111, -4.17689037322998046875e+00) (112, 2.52426719665527343750e+00) (113, -1.74501037597656250000e+00) (114, -6.82673263549804687500e+00) (115, 8.08338546752929687500e+00) (116, 5.21352195739746093750e+00) (117, 2.39358806610107421875e+00) (118, -8.43822479248046875000e-01) (119, 6.33632278442382812500e+00) (120, -1.26859855651855468750e+00) (121, -6.56386089324951171875e+00) (122, 5.74367904663085937500e+00) (123, -7.57068538665771484375e+00) (124, 9.73666954040527343750e+00) (125, -9.13939476013183593750e-01) (126, 9.36381721496582031250e+00) (127, 4.10333633422851562500e+00) (128, -3.59218740463256835938e+00) (129, -8.53364658355712890625e+00) (130, -9.56530761718750000000e+00) (131, -9.71243095397949218750e+00) (132, -5.64905071258544921875e+00) (133, 1.13754844665527343750e+00) (134, -4.55209636688232421875e+00) (135, -1.50564479827880859375e+00) (136, -5.64212369918823242188e+00) (137, -8.86861610412597656250e+00) (138, 1.81122970581054687500e+00) (139, -5.41452169418334960938e+00) (140, 5.17761611938476562500e+00) (141, -7.82788085937500000000e+00) (142, 4.08588409423828125000e-01) (143, -2.29811668395996093750e+00) (144, 4.27107810974121093750e-01) (145, 3.58185672760009765625e+00) (146, -4.21473169326782226562e+00) (147, -4.35937070846557617188e+00) (148, -4.02455568313598632812e+00) (149, 4.94144535064697265625e+00) (150, -8.02304744720458984375e+00) (151, 4.70684528350830078125e+00) (152, 8.37758445739746093750e+00) (153, 7.72063064575195312500e+00) (154, 7.13615989685058593750e+00) (155, 8.11425590515136718750e+00) (156, -3.19330835342407226562e+00) (157, 6.49997711181640625000e+00) (158, 2.21759223937988281250e+00) (159, 3.21450424194335937500e+00) (160, 7.96632957458496093750e+00) (161, 2.65228366851806640625e+00) (162, 3.50207328796386718750e+00) (163, -7.68272018432617187500e+00) (164, -6.21016740798950195312e+00) (165, 8.94997596740722656250e+00) (166, 8.11635017395019531250e-01) (167, -1.85229110717773437500e+00) (168, -9.91863822937011718750e+00) (169, -7.37713432312011718750e+00) (170, 2.73318767547607421875e+00) (171, 5.25897693634033203125e+00) (172, -5.20501565933227539062e+00) (173, -6.85822439193725585938e+00) (174, -7.03913927078247070312e+00) (175, 5.22209262847900390625e+00) (176, 6.72363090515136718750e+00) (177, -1.25387096405029296875e+00) (178, -9.13727855682373046875e+00) (179, -7.30092430114746093750e+00) (180, -6.31242465972900390625e+00) (181, -7.16032600402832031250e+00) (182, 7.40592002868652343750e+00) (183, -7.93483924865722656250e+00) (184, -9.43969440460205078125e+00) (185, 4.54208278656005859375e+00) (186, -9.82058429718017578125e+00) (187, -2.63300228118896484375e+00) (188, 1.04205989837646484375e+00) (189, 2.39700794219970703125e+00) (190, -9.41849708557128906250e+00) (0, -9.91609573364257812500e-01) (1, -4.95070838928222656250e+00) (2, 4.08357620239257812500e+00) (3, 1.32567024230957031250e+00) (4, -1.16087532043457031250e+00) (5, 3.03355312347412109375e+00) (6, -7.86269426345825195312e+00) (7, 6.98683357238769531250e+00) (8, 3.11491489410400390625e+00) (9, -5.23982906341552734375e+00) (10, -2.79979705810546875000e-01) (11, -1.62610721588134765625e+00) (12, -4.44844245910644531250e-01) (13, 2.86179637908935546875e+00) (14, 1.33475303649902343750e+00) (15, -5.22275209426879882812e+00) (16, -4.14571762084960937500e-01) (17, -9.91911697387695312500e+00) (18, -4.36003017425537109375e+00) (19, 2.28450393676757812500e+00) (20, -6.23154258728027343750e+00) (21, -1.52035617828369140625e+00) (22, -3.09574127197265625000e-01) (23, -4.16638135910034179688e+00) (24, -9.60050582885742187500e-01) (25, -5.76749134063720703125e+00) (26, -3.98696565628051757812e+00) (27, 6.40694618225097656250e+00) (28, 5.27456855773925781250e+00) (29, 8.41004180908203125000e+00) (30, 6.98844909667968750000e+00) (31, -5.71704149246215820312e+00) (32, -6.54066562652587890625e+00) (33, 1.07202625274658203125e+00) (34, 5.60862922668457031250e+00) (35, 2.29845905303955078125e+00) (36, -5.89442014694213867188e+00) (37, 7.74593353271484375000e+00) (38, -7.14707374572753906250e-01) (39, 7.22049522399902343750e+00) (40, -7.49389410018920898438e+00) (41, 9.00531196594238281250e+00) (42, -4.40561199188232421875e+00) (43, 2.06126213073730468750e+00) (44, 1.86710929870605468750e+00) (45, 6.92914199829101562500e+00) (46, 6.83851051330566406250e+00) (47, -8.54746246337890625000e+00) (48, 7.01002502441406250000e+00) (49, -7.52152061462402343750e+00) (50, 3.73704147338867187500e+00) (51, -9.22151756286621093750e+00) (52, 9.58124160766601562500e-01) (53, -6.57253217697143554688e+00) (54, -3.38789939880371093750e+00) (55, 9.99807357788085937500e+00) (56, -2.34002351760864257812e+00) (57, 2.62513542175292968750e+00) (58, 6.40502166748046875000e+00) (59, -7.06545543670654296875e+00) (60, 1.03517723083496093750e+00) (61, 3.39347267150878906250e+00) (62, -2.78249692916870117188e+00) (63, 4.49451160430908203125e+00) (64, -5.53450155258178710938e+00) (65, -7.17386817932128906250e+00) (66, -3.20702934265136718750e+00) (67, -1.42892169952392578125e+00) (68, -9.42793369293212890625e+00) (69, 6.07826232910156250000e+00) (70, -4.20842599868774414062e+00) (71, -6.92182779312133789062e+00) (72, 5.08357620239257812500e+00) (73, 1.38596153259277343750e+00) (74, 5.13943386077880859375e+00) (75, -3.04931354522705078125e+00) (76, -1.68489551544189453125e+00) (77, 1.97794342041015625000e+00) (78, -1.59677600860595703125e+00) (79, -4.67487096786499023438e+00) (80, 4.45642375946044921875e+00) (81, -7.85973358154296875000e+00) (82, -3.89638900756835937500e+00) (83, -4.58545255661010742188e+00) (84, -4.43226575851440429688e+00) (85, 2.71571159362792968750e+00) (86, -4.58737897872924804688e+00) (87, 3.22771072387695312500e+00) (88, -4.65915250778198242188e+00) (89, -8.18235683441162109375e+00) (90, 6.16225624084472656250e+00) (91, 6.37602615356445312500e+00) (92, 5.21111488342285156250e+00) (93, -6.62024116516113281250e+00) (94, 8.70537757873535156250e-01) (95, 9.67661285400390625000e+00) (96, -3.79410934448242187500e+00) (97, 7.66350746154785156250e+00) (98, -1.75230789184570312500e+00) (99, -3.22204303741455078125e+00) (100, 3.74177169799804687500e+00) (101, 4.03926563262939453125e+00) (102, -1.43870353698730468750e-01) (103, -1.17465114593505859375e+00) (104, -4.57477140426635742188e+00) (105, -5.00443649291992187500e+00) (106, 5.77603435516357421875e+00) (107, 3.74033164978027343750e+00) (108, 6.97350692749023437500e+00) (109, -5.82074069976806640625e+00) (110, 9.06546020507812500000e+00) (111, 1.42992973327636718750e+00) (112, -3.68047428131103515625e+00) (113, -4.83092737197875976562e+00) (114, 6.84447669982910156250e+00) (115, 1.88725948333740234375e+00) (116, 7.88478469848632812500e+00) (117, -7.74290180206298828125e+00) (118, -4.88502931594848632812e+00) (119, -6.77436828613281250000e+00) (120, -5.92525863647460937500e+00) (121, -8.72277355194091796875e+00) (122, 9.60165786743164062500e+00) (123, 9.28585624694824218750e+00) (124, -5.34301519393920898438e+00) (125, 4.72194671630859375000e-01) (126, 8.96246910095214843750e+00) (127, 8.62875938415527343750e-01) (128, -1.86429691314697265625e+00) (129, -2.78983831405639648438e+00) (130, 7.64083290100097656250e+00) (131, -8.12252426147460937500e+00) (132, -8.75057220458984375000e+00) (133, -2.50303745269775390625e+00) (134, 7.02824592590332031250e-01) (135, -3.32534360885620117188e+00) (136, 2.49252510070800781250e+00) (137, -3.52114105224609375000e+00) (138, -9.58501148223876953125e+00) (139, -5.33967018127441406250e-01) (140, 6.58118247985839843750e-01) (141, 9.48044967651367187500e+00) (142, -9.10403633117675781250e+00) (143, 6.97764396667480468750e+00) (144, -5.35047769546508789062e+00) (145, 7.74044036865234375000e+00) (146, -1.13509654998779296875e+00) (147, -7.46569299697875976562e+00) (148, 9.99753952026367187500e+00) (149, 3.97987461090087890625e+00) (150, -4.24006128311157226562e+00) (151, -5.92771911621093750000e+00) (152, 5.25710105895996093750e+00) (153, -4.63840389251708984375e+00) (154, -6.64186239242553710938e+00) (155, 9.91408538818359375000e+00) (156, 5.83378982543945312500e+00) (157, -7.67939281463623046875e+00) (158, 7.76960372924804687500e-01) (159, -6.03050613403320312500e+00) (160, -4.69231605529785156250e-01) (161, -1.58220577239990234375e+00) (162, -4.15303134918212890625e+00) (163, 7.80197143554687500000e-01) (164, 5.91475582122802734375e+00) (165, 6.54979324340820312500e+00) (166, 7.45485305786132812500e+00) (167, -1.59271717071533203125e+00) (168, -6.97134733200073242188e+00) (169, 7.86984252929687500000e+00) (170, 7.87331581115722656250e+00) (171, 3.68677139282226562500e+00) (172, 7.35029220581054687500e+00) (173, 8.76927947998046875000e+00) (174, 6.64415359497070312500e-01) (175, -8.00018596649169921875e+00) (176, 6.50971984863281250000e+00) (177, 9.52931785583496093750e+00) (178, -5.46587944030761718750e+00) (179, 6.50725936889648437500e+00) (180, 3.50919342041015625000e+00) (181, 2.94059753417968750000e-01) (182, -9.42045974731445312500e+00) (183, -1.23370552062988281250e+00) (184, 5.65565586090087890625e+00) (185, -6.06232166290283203125e+00) (186, -1.31962013244628906250e+00) (187, 1.48944568634033203125e+00) (188, -3.74171447753906250000e+00) (189, 9.45734024047851562500e+00) (190, 5.45894050598144531250e+00) (191, 5.78905487060546875000e+00) (192, -2.12486505508422851562e+00) (193, -8.69408988952636718750e+00) (194, -3.43074798583984375000e+00) (195, -6.21010875701904296875e+00) (196, 7.85570144653320312500e+00) (197, -5.97589492797851562500e+00) (198, 2.19717407226562500000e+00) (199, -9.11564445495605468750e+00) (200, -8.10605335235595703125e+00) (201, 7.04898834228515625000e-02) (191, 4.57112693786621093750e+00) (192, 9.24423789978027343750e+00) (193, -1.16023063659667968750e+00) (194, -4.76445817947387695312e+00) (195, -8.75594711303710937500e+00) (196, -4.65051126480102539062e+00) (197, -5.23513841629028320312e+00) (198, -4.22182703018188476562e+00) (199, -8.14325141906738281250e+00) (200, 8.27405548095703125000e+00) (201, 6.07223320007324218750e+00) (191, -7.56371116638183593750e+00) (192, -2.95965003967285156250e+00) (193, 1.72789001464843750000e+00) (194, -3.62603330612182617188e+00) (195, 5.72072982788085937500e+00) (196, -6.78266429901123046875e+00) (197, 2.63225269317626953125e+00) (198, 5.17807102203369140625e+00) (199, 8.67627525329589843750e+00) (200, -1.57869338989257812500e+00) (201, -6.94679403305053710938e+00) (191, 9.98218536376953125000e+00) (192, 4.99055862426757812500e+00) (193, -3.15690279006958007812e+00) (194, 7.83788871765136718750e+00) (195, 9.01466369628906250000e+00) (196, 9.04026985168457031250e+00) (197, 8.72224426269531250000e+00) (198, -9.09138870239257812500e+00) (199, -8.89239311218261718750e-01) (200, 3.29337120056152343750e+00) (201, -9.84715080261230468750e+00) 
