FANN_FLO_2.1
num_layers=3
learning_rate=0.700000
connection_rate=1.000000
network_type=0
learning_momentum=0.000000
training_algorithm=2
train_error_function=1
train_stop_function=0
cascade_output_change_fraction=0.010000
quickprop_decay=-0.000100
quickprop_mu=1.750000
rprop_increase_factor=1.200000
rprop_decrease_factor=0.500000
rprop_delta_min=0.000000
rprop_delta_max=50.000000
rprop_delta_zero=0.100000
cascade_output_stagnation_epochs=12
cascade_candidate_change_fraction=0.010000
cascade_candidate_stagnation_epochs=12
cascade_max_out_epochs=150
cascade_min_out_epochs=50
cascade_max_cand_epochs=150
cascade_min_cand_epochs=50
cascade_num_candidate_groups=2
bit_fail_limit=3.49999994039535522461e-01
cascade_candidate_limit=1.00000000000000000000e+03
cascade_weight_multiplier=4.00000005960464477539e-01
cascade_activation_functions_count=10
cascade_activation_functions=3 5 7 8 10 11 14 15 16 17 
cascade_activation_steepnesses_count=4
cascade_activation_steepnesses=2.50000000000000000000e-01 5.00000000000000000000e-01 7.50000000000000000000e-01 1.00000000000000000000e+00 
layer_sizes=192 11 6 
scale_included=0
neurons (num_inputs, activation_function, activation_steepness)=(0, 0, 0.00000000000000000000e+00) (0, 0, 0.00000000000000000000e+00) (0, 0, 0.00000000000000000000e+00) (0, 0, 0.00000000000000000000e+00) (0, 0, 0.00000000000000000000e+00) (0, 0, 0.00000000000000000000e+00) (0, 0, 0.00000000000000000000e+00) (0, 0, 0.00000000000000000000e+00) (0, 0, 0.00000000000000000000e+00) (0, 0, 0.00000000000000000000e+00) (0, 0, 0.00000000000000000000e+00) (0, 0, 0.00000000000000000000e+00) (0, 0, 0.00000000000000000000e+00) (0, 0, 0.00000000000000000000e+00) (0, 0, 0.00000000000000000000e+00) (0, 0, 0.00000000000000000000e+00) (0, 0, 0.00000000000000000000e+00) (0, 0, 0.00000000000000000000e+00) (0, 0, 0.00000000000000000000e+00) (0, 0, 0.00000000000000000000e+00) (0, 0, 0.00000000000000000000e+00) (0, 0, 0.00000000000000000000e+00) (0, 0, 0.00000000000000000000e+00) (0, 0, 0.00000000000000000000e+00) (0, 0, 0.00000000000000000000e+00) (0, 0, 0.00000000000000000000e+00) (0, 0, 0.00000000000000000000e+00) (0, 0, 0.00000000000000000000e+00) (0, 0, 0.00000000000000000000e+00) (0, 0, 0.00000000000000000000e+00) (0, 0, 0.00000000000000000000e+00) (0, 0, 0.00000000000000000000e+00) (0, 0, 0.00000000000000000000e+00) (0, 0, 0.00000000000000000000e+00) (0, 0, 0.00000000000000000000e+00) (0, 0, 0.00000000000000000000e+00) (0, 0, 0.00000000000000000000e+00) (0, 0, 0.00000000000000000000e+00) (0, 0, 0.00000000000000000000e+00) (0, 0, 0.00000000000000000000e+00) (0, 0, 0.00000000000000000000e+00) (0, 0, 0.00000000000000000000e+00) (0, 0, 0.00000000000000000000e+00) (0, 0, 0.00000000000000000000e+00) (0, 0, 0.00000000000000000000e+00) (0, 0, 0.00000000000000000000e+00) (0, 0, 0.00000000000000000000e+00) (0, 0, 0.00000000000000000000e+00) (0, 0, 0.00000000000000000000e+00) (0, 0, 0.00000000000000000000e+00) (0, 0, 0.00000000000000000000e+00) (0, 0, 0.00000000000000000000e+00) (0, 0, 0.00000000000000000000e+00) (0, 0, 0.00000000000000000000e+00) (0, 0, 0.00000000000000000000e+00) (0, 0, 0.00000000000000000000e+00) (0, 0, 0.00000000000000000000e+00) (0, 0, 0.00000000000000000000e+00) (0, 0, 0.00000000000000000000e+00) (0, 0, 0.00000000000000000000e+00) (0, 0, 0.00000000000000000000e+00) (0, 0, 0.00000000000000000000e+00) (0, 0, 0.00000000000000000000e+00) (0, 0, 0.00000000000000000000e+00) (0, 0, 0.00000000000000000000e+00) (0, 0, 0.00000000000000000000e+00) (0, 0, 0.00000000000000000000e+00) (0, 0, 0.00000000000000000000e+00) (0, 0, 0.00000000000000000000e+00) (0, 0, 0.00000000000000000000e+00) (0, 0, 0.00000000000000000000e+00) (0, 0, 0.00000000000000000000e+00) (0, 0, 0.00000000000000000000e+00) (0, 0, 0.00000000000000000000e+00) (0, 0, 0.00000000000000000000e+00) (0, 0, 0.00000000000000000000e+00) (0, 0, 0.00000000000000000000e+00) (0, 0, 0.00000000000000000000e+00) (0, 0, 0.00000000000000000000e+00) (0, 0, 0.00000000000000000000e+00) (0, 0, 0.00000000000000000000e+00) (0, 0, 0.00000000000000000000e+00) (0, 0, 0.00000000000000000000e+00) (0, 0, 0.00000000000000000000e+00) (0, 0, 0.00000000000000000000e+00) (0, 0, 0.00000000000000000000e+00) (0, 0, 0.00000000000000000000e+00) (0, 0, 0.00000000000000000000e+00) (0, 0, 0.00000000000000000000e+00) (0, 0, 0.00000000000000000000e+00) (0, 0, 0.00000000000000000000e+00) (0, 0, 0.00000000000000000000e+00) (0, 0, 0.00000000000000000000e+00) (0, 0, 0.00000000000000000000e+00) (0, 0, 0.00000000000000000000e+00) (0, 0, 0.00000000000000000000e+00) (0, 0, 0.00000000000000000000e+00) (0, 0, 0.00000000000000000000e+00) (0, 0, 0.00000000000000000000e+00) (0, 0, 0.00000000000000000000e+00) (0, 0, 0.00000000000000000000e+00) (0, 0, 0.00000000000000000000e+00) (0, 0, 0.00000000000000000000e+00) (0, 0, 0.00000000000000000000e+00) (0, 0, 0.00000000000000000000e+00) (0, 0, 0.00000000000000000000e+00) (0, 0, 0.00000000000000000000e+00) (0, 0, 0.00000000000000000000e+00) (0, 0, 0.00000000000000000000e+00) (0, 0, 0.00000000000000000000e+00) (0, 0, 0.00000000000000000000e+00) (0, 0, 0.00000000000000000000e+00) (0, 0, 0.00000000000000000000e+00) (0, 0, 0.00000000000000000000e+00) (0, 0, 0.00000000000000000000e+00) (0, 0, 0.00000000000000000000e+00) (0, 0, 0.00000000000000000000e+00) (0, 0, 0.00000000000000000000e+00) (0, 0, 0.00000000000000000000e+00) (0, 0, 0.00000000000000000000e+00) (0, 0, 0.00000000000000000000e+00) (0, 0, 0.00000000000000000000e+00) (0, 0, 0.00000000000000000000e+00) (0, 0, 0.00000000000000000000e+00) (0, 0, 0.00000000000000000000e+00) (0, 0, 0.00000000000000000000e+00) (0, 0, 0.00000000000000000000e+00) (0, 0, 0.00000000000000000000e+00) (0, 0, 0.00000000000000000000e+00) (0, 0, 0.00000000000000000000e+00) (0, 0, 0.00000000000000000000e+00) (0, 0, 0.00000000000000000000e+00) (0, 0, 0.00000000000000000000e+00) (0, 0, 0.00000000000000000000e+00) (0, 0, 0.00000000000000000000e+00) (0, 0, 0.00000000000000000000e+00) (0, 0, 0.00000000000000000000e+00) (0, 0, 0.00000000000000000000e+00) (0, 0, 0.00000000000000000000e+00) (0, 0, 0.00000000000000000000e+00) (0, 0, 0.00000000000000000000e+00) (0, 0, 0.00000000000000000000e+00) (0, 0, 0.00000000000000000000e+00) (0, 0, 0.00000000000000000000e+00) (0, 0, 0.00000000000000000000e+00) (0, 0, 0.00000000000000000000e+00) (0, 0, 0.00000000000000000000e+00) (0, 0, 0.00000000000000000000e+00) (0, 0, 0.00000000000000000000e+00) (0, 0, 0.00000000000000000000e+00) (0, 0, 0.00000000000000000000e+00) (0, 0, 0.00000000000000000000e+00) (0, 0, 0.00000000000000000000e+00) (0, 0, 0.00000000000000000000e+00) (0, 0, 0.00000000000000000000e+00) (0, 0, 0.00000000000000000000e+00) (0, 0, 0.00000000000000000000e+00) (0, 0, 0.00000000000000000000e+00) (0, 0, 0.00000000000000000000e+00) (0, 0, 0.00000000000000000000e+00) (0, 0, 0.00000000000000000000e+00) (0, 0, 0.00000000000000000000e+00) (0, 0, 0.00000000000000000000e+00) (0, 0, 0.00000000000000000000e+00) (0, 0, 0.00000000000000000000e+00) (0, 0, 0.00000000000000000000e+00) (0, 0, 0.00000000000000000000e+00) (0, 0, 0.00000000000000000000e+00) (0, 0, 0.00000000000000000000e+00) (0, 0, 0.00000000000000000000e+00) (0, 0, 0.00000000000000000000e+00) (0, 0, 0.00000000000000000000e+00) (0, 0, 0.00000000000000000000e+00) (0, 0, 0.00000000000000000000e+00) (0, 0, 0.00000000000000000000e+00) (0, 0, 0.00000000000000000000e+00) (0, 0, 0.00000000000000000000e+00) (0, 0, 0.00000000000000000000e+00) (0, 0, 0.00000000000000000000e+00) (0, 0, 0.00000000000000000000e+00) (0, 0, 0.00000000000000000000e+00) (0, 0, 0.00000000000000000000e+00) (0, 0, 0.00000000000000000000e+00) (0, 0, 0.00000000000000000000e+00) (0, 0, 0.00000000000000000000e+00) (0, 0, 0.00000000000000000000e+00) (0, 0, 0.00000000000000000000e+00) (0, 0, 0.00000000000000000000e+00) (0, 0, 0.00000000000000000000e+00) (0, 0, 0.00000000000000000000e+00) (0, 0, 0.00000000000000000000e+00) (0, 0, 0.00000000000000000000e+00) (192, 4, 5.00000000000000000000e-01) (192, 4, 5.00000000000000000000e-01) (192, 4, 5.00000000000000000000e-01) (192, 4, 5.00000000000000000000e-01) (192, 4, 5.00000000000000000000e-01) (192, 4, 5.00000000000000000000e-01) (192, 4, 5.00000000000000000000e-01) (192, 4, 5.00000000000000000000e-01) (192, 4, 5.00000000000000000000e-01) (192, 4, 5.00000000000000000000e-01) (0, 0, 0.00000000000000000000e+00) (11, 4, 5.00000000000000000000e-01) (11, 4, 5.00000000000000000000e-01) (11, 4, 5.00000000000000000000e-01) (11, 4, 5.00000000000000000000e-01) (11, 4, 5.00000000000000000000e-01) (0, 0, 0.00000000000000000000e+00) 
connections (connected_to_neuron, weight)=(0, -4.13350582122802734375e+00) (1, 5.56164264678955078125e+00) (2, 1.43600940704345703125e+00) (3, 4.76572704315185546875e+00) (4, -1.94596385955810546875e+00) (5, -6.22947692871093750000e+00) (6, 1.04234790802001953125e+00) (7, -3.65256786346435546875e+00) (8, -1.83429050445556640625e+00) (9, 4.99893093109130859375e+00) (10, 1.55313110351562500000e+00) (11, -3.65109252929687500000e+00) (12, 3.71362400054931640625e+00) (13, -5.13075351715087890625e+00) (14, 9.80667114257812500000e+00) (15, 8.53125000000000000000e+00) (16, -4.29565477371215820312e+00) (17, 7.14855575561523437500e+00) (18, -2.33123540878295898438e+00) (19, 5.30131912231445312500e+00) (20, -2.56081581115722656250e+00) (21, 8.87433815002441406250e+00) (22, -6.68552398681640625000e-01) (23, 7.11890220642089843750e+00) (24, -4.48043489456176757812e+00) (25, 5.23972511291503906250e-01) (26, 6.98676681518554687500e+00) (27, 8.99754333496093750000e+00) (28, -2.60906124114990234375e+00) (29, 2.64697551727294921875e+00) (30, 5.51793956756591796875e+00) (31, 3.25743293762207031250e+00) (32, -1.79138183593750000000e+00) (33, -3.04605150222778320312e+00) (34, -1.97684001922607421875e+00) (35, 6.26265335083007812500e+00) (36, 7.24472045898437500000e-01) (37, 9.06550788879394531250e+00) (38, -7.38991355895996093750e+00) (39, 8.89018058776855468750e+00) (40, 4.06443786621093750000e+00) (41, 4.16321849822998046875e+00) (42, -4.76091146469116210938e+00) (43, -2.22193717956542968750e+00) (44, 9.03246498107910156250e+00) (45, -4.95423936843872070312e+00) (46, -3.69068574905395507812e+00) (47, -5.26318931579589843750e+00) (48, -7.80568218231201171875e+00) (49, 3.97807788848876953125e+00) (50, -9.96187019348144531250e+00) (51, -3.66497993469238281250e-01) (52, 2.85241603851318359375e+00) (53, -6.30422592163085937500e-01) (54, -3.24759483337402343750e+00) (55, 8.37198066711425781250e+00) (56, 9.89354896545410156250e+00) (57, -6.26082754135131835938e+00) (58, 7.36952590942382812500e+00) (59, -2.71551084518432617188e+00) (60, 6.38614654541015625000e+00) (61, 2.88746547698974609375e+00) (62, -9.45807743072509765625e+00) (63, -5.40523433685302734375e+00) (64, 9.84141349792480468750e+00) (65, -1.43491744995117187500e+00) (66, -9.14257907867431640625e+00) (67, 5.65886497497558593750e-01) (68, -2.36940908432006835938e+00) (69, -6.53249263763427734375e+00) (70, -5.43932914733886718750e-01) (71, -8.30497074127197265625e+00) (72, 7.63072586059570312500e+00) (73, 4.69515705108642578125e+00) (74, -5.26907920837402343750e-01) (75, 6.66319084167480468750e+00) (76, 9.74091720581054687500e+00) (77, 5.78240585327148437500e+00) (78, -8.59999847412109375000e+00) (79, -8.06476497650146484375e+00) (80, -2.39515304565429687500e-01) (81, -8.56186866760253906250e+00) (82, 1.56873703002929687500e+00) (83, -7.38709926605224609375e+00) (84, 8.07708740234375000000e-01) (85, 8.32114219665527343750e+00) (86, -9.01511764526367187500e+00) (87, 7.01257705688476562500e-01) (88, -7.93968486785888671875e+00) (89, 8.35440635681152343750e+00) (90, 7.98574829101562500000e+00) (91, 8.44646263122558593750e+00) (92, 1.24187374114990234375e+00) (93, 8.52766990661621093750e+00) (94, -6.95877075195312500000e+00) (95, 1.08328723907470703125e+00) (96, -2.90724706649780273438e+00) (97, -6.10135078430175781250e+00) (98, -8.35082721710205078125e+00) (99, 4.72334384918212890625e+00) (100, -2.63384294509887695312e+00) (101, 1.10524082183837890625e+00) (102, 6.41837310791015625000e+00) (103, -5.00311756134033203125e+00) (104, -4.19960260391235351562e+00) (105, -4.10853528976440429688e+00) (106, -8.33992671966552734375e+00) (107, -4.45868539810180664062e+00) (108, -8.32612895965576171875e+00) (109, -6.93992519378662109375e+00) (110, -2.52345037460327148438e+00) (111, 1.43435573577880859375e+00) (112, -5.50179386138916015625e+00) (113, 9.04528617858886718750e+00) (114, 4.04725646972656250000e+00) (115, 5.30591487884521484375e+00) (116, 7.36642837524414062500e+00) (117, 5.03213882446289062500e+00) (118, -3.99282693862915039062e+00) (119, 9.42674446105957031250e+00) (120, 3.38654708862304687500e+00) (121, -6.00707912445068359375e+00) (122, 7.87320709228515625000e+00) (123, -5.37158012390136718750e+00) (124, -7.47940874099731445312e+00) (125, -9.08556365966796875000e+00) (126, 5.71170711517333984375e+00) (127, -3.86655807495117187500e-01) (128, -5.18691444396972656250e+00) (129, 7.36087989807128906250e+00) (130, -5.66331195831298828125e+00) (131, 2.17924213409423828125e+00) (132, -1.53387832641601562500e+00) (133, -9.24493885040283203125e+00) (134, 7.17612457275390625000e+00) (135, 4.26651859283447265625e+00) (136, -3.35347366333007812500e+00) (137, 8.83619880676269531250e+00) (138, 9.80783271789550781250e+00) (139, -1.67960262298583984375e+00) (140, -8.10372638702392578125e+00) (141, -2.71561670303344726562e+00) (142, 9.75475311279296875000e+00) (143, -3.60552024841308593750e+00) (144, -3.67032957077026367188e+00) (145, 3.80201053619384765625e+00) (146, -8.29960536956787109375e+00) (147, -6.30389976501464843750e+00) (148, -1.16584968566894531250e+00) (149, -2.29243230819702148438e+00) (150, -6.87715482711791992188e+00) (151, -7.77930259704589843750e+00) (152, 1.70048809051513671875e+00) (153, -9.00394725799560546875e+00) (154, -3.15088272094726562500e+00) (155, 4.22108078002929687500e+00) (156, -8.08951091766357421875e+00) (157, -7.43917560577392578125e+00) (158, -6.16557550430297851562e+00) (159, -3.27642440795898437500e+00) (160, 9.92170524597167968750e+00) (161, -1.82888793945312500000e+00) (162, 8.90281677246093750000e+00) (163, -1.61217308044433593750e+00) (164, -1.07382583618164062500e+00) (165, 6.07894325256347656250e+00) (166, -7.34565353393554687500e+00) (167, 5.57270050048828125000e+00) (168, 4.91514205932617187500e+00) (169, -7.53782033920288085938e+00) (170, -6.10690212249755859375e+00) (171, 6.81141662597656250000e+00) (172, -2.53437042236328125000e-01) (173, -6.35214805603027343750e+00) (174, -6.79410362243652343750e+00) (175, 6.07623291015625000000e+00) (176, 7.44986343383789062500e+00) (177, -5.09370946884155273438e+00) (178, 9.77233314514160156250e+00) (179, -3.71598672866821289062e+00) (180, 2.61385822296142578125e+00) (181, -7.10482025146484375000e+00) (182, -1.49528980255126953125e+00) (183, -5.68565273284912109375e+00) (184, -6.10876750946044921875e+00) (185, 5.35382747650146484375e+00) (186, 8.53542709350585937500e+00) (187, -4.19827842712402343750e+00) (188, 7.91465187072753906250e+00) (189, -7.63014793395996093750e+00) (190, 2.52529716491699218750e+00) (191, 7.83635902404785156250e+00) (0, 5.40964126586914062500e-01) (1, 1.42811489105224609375e+00) (2, -3.77581501007080078125e+00) (3, 9.46713829040527343750e+00) (4, -2.49294042587280273438e+00) (5, -1.12146854400634765625e+00) (6, 5.03983879089355468750e+00) (7, -7.57779788970947265625e+00) (8, 1.34071063995361328125e+00) (9, 8.93293571472167968750e+00) (10, 9.23361778259277343750e+00) (11, -8.91272544860839843750e+00) (12, -7.41921138763427734375e+00) (13, -7.56048488616943359375e+00) (14, 7.16350746154785156250e+00) (15, -9.96934890747070312500e+00) (16, -2.65419435501098632812e+00) (17, 6.93584251403808593750e+00) (18, -3.68533563613891601562e+00) (19, 9.95966339111328125000e+00) (20, 9.83102226257324218750e+00) (21, 4.81937503814697265625e+00) (22, -5.72598886489868164062e+00) (23, -6.27774524688720703125e+00) (24, 1.73202514648437500000e-01) (25, -7.19056129455566406250e+00) (26, -4.76022720336914062500e-01) (27, -1.91214466094970703125e+00) (28, -4.82070922851562500000e+00) (29, -7.95072555541992187500e+00) (30, -4.07578659057617187500e+00) (31, 5.72025489807128906250e+00) (32, 3.47738933563232421875e+00) (33, 2.14839935302734375000e+00) (34, 5.18739318847656250000e+00) (35, -9.01555061340332031250e+00) (36, -8.97306919097900390625e+00) (37, 2.27232933044433593750e-01) (38, -6.59334850311279296875e+00) (39, 2.36764144897460937500e+00) (40, -8.39830398559570312500e-01) (41, -7.35972976684570312500e+00) (42, 3.45491600036621093750e+00) (43, 1.74095726013183593750e+00) (44, -4.92021512985229492188e+00) (45, 6.18424415588378906250e-01) (46, 1.77160835266113281250e+00) (47, 2.42559051513671875000e+00) (48, -2.44573307037353515625e+00) (49, 8.08627319335937500000e+00) (50, 2.38525485992431640625e+00) (51, -2.61471080780029296875e+00) (52, 2.90564918518066406250e+00) (53, 6.65926551818847656250e+00) (54, 1.10754394531250000000e+00) (55, -6.92114830017089843750e+00) (56, 9.46870422363281250000e+00) (57, -9.36847972869873046875e+00) (58, 1.16670703887939453125e+00) (59, -5.35200452804565429688e+00) (60, -7.31920528411865234375e+00) (61, 7.09092140197753906250e+00) (62, -9.63174915313720703125e+00) (63, 6.15818405151367187500e+00) (64, -7.60680198669433593750e-01) (65, 5.55564498901367187500e+00) (66, 7.14263343811035156250e+00) (67, 2.66250610351562500000e-01) (68, -4.21712207794189453125e+00) (69, -9.45071411132812500000e+00) (70, -7.36610698699951171875e+00) (71, 4.94304656982421875000e+00) (72, -6.81044387817382812500e+00) (73, 6.08880996704101562500e+00) (74, -3.31599617004394531250e+00) (75, -1.73065948486328125000e+00) (76, -3.29276561737060546875e+00) (77, 8.45561408996582031250e+00) (78, -9.30506801605224609375e+00) (79, 4.26150035858154296875e+00) (80, 6.54188728332519531250e+00) (81, 3.08018684387207031250e+00) (82, -8.35321044921875000000e+00) (83, -5.52464485168457031250e-01) (84, -2.60547637939453125000e-01) (85, 2.75433444976806640625e+00) (86, 2.52638721466064453125e+00) (87, -7.91842460632324218750e-01) (88, 3.38585376739501953125e+00) (89, -6.30690574645996093750e+00) (90, 3.85615348815917968750e+00) (91, 6.06664848327636718750e+00) (92, -9.21598434448242187500e+00) (93, 4.22440433502197265625e+00) (94, 2.22483348846435546875e+00) (95, 2.33354568481445312500e-02) (96, -2.19951629638671875000e-01) (97, -6.32532119750976562500e-01) (98, -9.71041393280029296875e+00) (99, 5.56292629241943359375e+00) (100, -8.32462310791015625000e-02) (101, -7.07652091979980468750e+00) (102, 5.05972862243652343750e-01) (103, 3.10630893707275390625e+00) (104, 9.01228904724121093750e+00) (105, 7.18997764587402343750e+00) (106, -8.62434959411621093750e+00) (107, -4.28047704696655273438e+00) (108, 5.64559078216552734375e+00) (109, -7.92941761016845703125e+00) (110, 9.98102378845214843750e+00) (111, 2.18747806549072265625e+00) (112, 5.15076828002929687500e+00) (113, -8.37218570709228515625e+00) (114, -8.36498641967773437500e+00) (115, -5.10977840423583984375e+00) (116, 4.38214778900146484375e+00) (117, 4.16140079498291015625e+00) (118, 4.09837913513183593750e+00) (119, -2.23199796676635742188e+00) (120, 7.85449600219726562500e+00) (121, -2.04546737670898437500e+00) (122, -6.16534900665283203125e+00) (123, 8.63850975036621093750e+00) (124, -7.82106399536132812500e+00) (125, 6.05948448181152343750e+00) (126, -1.33815383911132812500e+00) (127, 1.95898532867431640625e+00) (128, -4.57304763793945312500e+00) (129, -1.04856777191162109375e+00) (130, -2.47808837890625000000e+00) (131, 5.34370517730712890625e+00) (132, 1.87491321563720703125e+00) (133, 8.02788543701171875000e+00) (134, -1.54998493194580078125e+00) (135, 8.87200355529785156250e-01) (136, 5.21786308288574218750e+00) (137, -1.74334526062011718750e-01) (138, 6.60672378540039062500e+00) (139, 8.63453865051269531250e-01) (140, 1.89624786376953125000e+00) (141, 6.58774757385253906250e+00) (142, -6.94906806945800781250e+00) (143, -2.95298242568969726562e+00) (144, 8.21556282043457031250e+00) (145, -5.31405353546142578125e+00) (146, 1.93723869323730468750e+00) (147, 2.59771060943603515625e+00) (148, 8.84734725952148437500e+00) (149, -3.96438121795654296875e+00) (150, -9.63428688049316406250e+00) (151, 6.70184326171875000000e+00) (152, 3.99015045166015625000e+00) (153, -5.79963636398315429688e+00) (154, 5.34035396575927734375e+00) (155, 6.16908645629882812500e+00) (156, -9.74015140533447265625e+00) (157, -5.99779891967773437500e+00) (158, -1.87192726135253906250e+00) (159, -4.31319952011108398438e+00) (160, 2.95363426208496093750e+00) (161, 5.64998531341552734375e+00) (162, -8.96949386596679687500e+00) (163, -5.17145347595214843750e+00) (164, 3.67786979675292968750e+00) (165, -5.19478797912597656250e-01) (166, 5.71574783325195312500e+00) (167, -1.10426712036132812500e+00) (168, 9.30618667602539062500e+00) (169, 2.32247257232666015625e+00) (170, 9.75918769836425781250e+00) (171, 1.20243644714355468750e+00) (172, -1.08977890014648437500e+00) (173, -7.18988037109375000000e+00) (174, 8.24945449829101562500e+00) (175, -2.87421655654907226562e+00) (176, -2.50393390655517578125e+00) (177, 1.86693191528320312500e-01) (178, 9.72349357604980468750e+00) (179, -3.65658664703369140625e+00) (180, 6.22231292724609375000e+00) (181, -9.91079235076904296875e+00) (182, -6.95474243164062500000e+00) (183, 2.12463378906250000000e-01) (184, -5.71042919158935546875e+00) (185, 8.38561058044433593750e+00) (186, -3.61845016479492187500e+00) (187, -5.45058059692382812500e+00) (188, -7.61218643188476562500e+00) (189, 4.50962257385253906250e+00) (190, 2.36220359802246093750e-01) (191, 5.34144783020019531250e+00) (0, 1.59606933593750000000e-01) (1, 1.26672649383544921875e+00) (2, -9.83000564575195312500e+00) (3, -6.16252326965332031250e+00) (4, -9.25275135040283203125e+00) (5, 5.88574314117431640625e+00) (6, 2.73321056365966796875e+00) (7, -9.94656372070312500000e+00) (8, -1.79178524017333984375e+00) (9, 2.49239635467529296875e+00) (10, 1.25587368011474609375e+00) (11, 7.11843490600585937500e+00) (12, 5.30251598358154296875e+00) (13, -4.94673728942871093750e-01) (14, -5.75578022003173828125e+00) (15, -7.20141744613647460938e+00) (16, 9.69202041625976562500e+00) (17, -6.03228569030761718750e+00) (18, -8.58003616333007812500e-01) (19, 5.91433143615722656250e+00) (20, -5.94307851791381835938e+00) (21, 2.18725299835205078125e+00) (22, -3.87320518493652343750e+00) (23, -1.65350723266601562500e+00) (24, 5.72866439819335937500e-01) (25, 2.50834465026855468750e+00) (26, 2.89591217041015625000e+00) (27, 2.96067905426025390625e+00) (28, -2.98203229904174804688e+00) (29, -6.86786794662475585938e+00) (30, -1.69787311553955078125e+00) (31, 7.17757415771484375000e+00) (32, 4.39885807037353515625e+00) (33, -1.52787780761718750000e+00) (34, -8.98494815826416015625e+00) (35, 5.14610767364501953125e+00) (36, -5.64213562011718750000e+00) (37, 3.74826145172119140625e+00) (38, 5.19954299926757812500e+00) (39, 2.56608009338378906250e+00) (40, -3.75934123992919921875e+00) (41, -3.54458332061767578125e+00) (42, -3.15484046936035156250e-01) (43, -8.45682430267333984375e+00) (44, 5.96074295043945312500e+00) (45, 3.92873668670654296875e+00) (46, -5.65824222564697265625e+00) (47, 5.65276336669921875000e+00) (48, 7.89645004272460937500e+00) (49, 3.48375415802001953125e+00) (50, 1.56709575653076171875e+00) (51, -8.04662799835205078125e+00) (52, -4.32899188995361328125e+00) (53, 7.69388961791992187500e+00) (54, 2.99864768981933593750e-01) (55, 6.24387359619140625000e+00) (56, 2.02236175537109375000e-01) (57, -6.80422306060791015625e+00) (58, -7.95446395874023437500e-01) (59, 7.22020339965820312500e+00) (60, -3.67209148406982421875e+00) (61, 7.50667953491210937500e+00) (62, 4.39777851104736328125e+00) (63, -9.27323246002197265625e+00) (64, -4.02119684219360351562e+00) (65, 5.41283035278320312500e+00) (66, 5.87287425994873046875e+00) (67, 3.36667060852050781250e-01) (68, -8.38908195495605468750e-01) (69, 1.07241821289062500000e+00) (70, -7.09725284576416015625e+00) (71, 5.40175056457519531250e+00) (72, 7.52783584594726562500e+00) (73, 2.58726310729980468750e+00) (74, 6.94492530822753906250e+00) (75, 3.48857879638671875000e+00) (76, -3.48400068283081054688e+00) (77, -8.71331596374511718750e+00) (78, -8.58657836914062500000e-01) (79, -5.58755064010620117188e+00) (80, 4.77043819427490234375e+00) (81, -9.29156208038330078125e+00) (82, -3.63417863845825195312e+00) (83, -9.55855369567871093750e+00) (84, 8.40232849121093750000e+00) (85, 6.66568565368652343750e+00) (86, 6.68532180786132812500e+00) (87, -1.39543628692626953125e+00) (88, 9.86146354675292968750e+00) (89, -4.11012601852416992188e+00) (90, -4.17523288726806640625e+00) (91, -3.81062889099121093750e+00) (92, -6.60344505310058593750e+00) (93, -9.77745437622070312500e+00) (94, -3.08386087417602539062e+00) (95, -6.24642372131347656250e-01) (96, 5.63537597656250000000e+00) (97, -7.21098613739013671875e+00) (98, 9.71202659606933593750e+00) (99, -5.20353269577026367188e+00) (100, 3.86143207550048828125e+00) (101, -7.38522624969482421875e+00) (102, -9.80178165435791015625e+00) (103, 1.38926696777343750000e+00) (104, 5.20203685760498046875e+00) (105, 7.14314460754394531250e+00) (106, -5.12215471267700195312e+00) (107, -8.28196430206298828125e+00) (108, 8.42982864379882812500e+00) (109, 4.01918792724609375000e+00) (110, -3.86951446533203125000e+00) (111, 3.20026779174804687500e+00) (112, 4.72762584686279296875e+00) (113, 2.49630641937255859375e+00) (114, 3.64171409606933593750e+00) (115, 3.12995433807373046875e+00) (116, -8.38006973266601562500e-01) (117, 3.27034950256347656250e-01) (118, -8.26548194885253906250e+00) (119, -9.76544380187988281250e-01) (120, 6.21690750122070312500e+00) (121, -2.44071435928344726562e+00) (122, 5.21282768249511718750e+00) (123, 9.61346435546875000000e+00) (124, -2.21816825866699218750e+00) (125, -7.87103366851806640625e+00) (126, -1.01117706298828125000e+00) (127, -6.58279275894165039062e+00) (128, -5.08201980590820312500e+00) (129, -1.29915142059326171875e+00) (130, -1.78632545471191406250e+00) (131, 8.77941131591796875000e+00) (132, 1.31562232971191406250e+00) (133, -1.58810710906982421875e+00) (134, 1.68678283691406250000e-01) (135, -3.48234128952026367188e+00) (136, -4.44496202468872070312e+00) (137, 5.04652500152587890625e+00) (138, -1.76430511474609375000e+00) (139, -6.01513385772705078125e+00) (140, -9.34288024902343750000e-01) (141, 4.36618041992187500000e+00) (142, 7.18513298034667968750e+00) (143, -6.20666265487670898438e+00) (144, -3.13751220703125000000e+00) (145, 8.26847076416015625000e-01) (146, 6.92329216003417968750e+00) (147, 6.02448081970214843750e+00) (148, -8.84611797332763671875e+00) (149, 8.65780830383300781250e+00) (150, -4.95206260681152343750e+00) (151, 7.37079048156738281250e+00) (152, -3.78290462493896484375e+00) (153, -9.73923492431640625000e+00) (154, 6.98425483703613281250e+00) (155, 3.99892711639404296875e+00) (156, -7.61026763916015625000e+00) (157, -4.02692127227783203125e+00) (158, 7.41613388061523437500e+00) (159, -2.69228744506835937500e+00) (160, 4.67392635345458984375e+00) (161, -4.37019109725952148438e+00) (162, -3.91287565231323242188e+00) (163, -4.01045083999633789062e+00) (164, 4.04170227050781250000e+00) (165, 6.25580215454101562500e+00) (166, 2.50720691680908203125e+00) (167, 9.59673881530761718750e+00) (168, 1.30232810974121093750e+00) (169, -9.25709724426269531250e+00) (170, -6.41839408874511718750e+00) (171, -9.63195991516113281250e+00) (172, 5.10908317565917968750e+00) (173, -9.23326015472412109375e+00) (174, -5.83862304687500000000e+00) (175, -8.02842807769775390625e+00) (176, 1.59358692169189453125e+00) (177, -8.91533088684082031250e+00) (178, 7.99605369567871093750e+00) (179, 2.74746894836425781250e+00) (180, 9.74247741699218750000e+00) (181, -6.95600891113281250000e+00) (182, 1.18260383605957031250e-01) (183, -4.04042625427246093750e+00) (184, -6.69524383544921875000e+00) (185, -2.89748334884643554688e+00) (186, 9.95849990844726562500e+00) (187, -4.30551195144653320312e+00) (188, 3.07559490203857421875e+00) (189, 7.37463378906250000000e+00) (190, 3.00220108032226562500e+00) (191, -2.25047779083251953125e+00) (0, -6.99555587768554687500e+00) (1, 9.08932495117187500000e+00) (2, 3.73907089233398437500e+00) (3, 7.04614639282226562500e+00) (4, 5.34512901306152343750e+00) (5, -3.75372076034545898438e+00) (6, 6.64288520812988281250e+00) (7, -3.35254383087158203125e+00) (8, -3.01081800460815429688e+00) (9, -9.77550792694091796875e+00) (10, -2.98450374603271484375e+00) (11, -7.90173435211181640625e+00) (12, -9.00876808166503906250e+00) (13, 1.17687320709228515625e+00) (14, -5.93016290664672851562e+00) (15, 2.58481884002685546875e+00) (16, 2.26154232025146484375e+00) (17, -7.93410968780517578125e+00) (18, -4.66771173477172851562e+00) (19, 2.00401973724365234375e+00) (20, -4.89011907577514648438e+00) (21, 5.45054912567138671875e+00) (22, 7.96359443664550781250e+00) (23, -1.58536243438720703125e+00) (24, -7.44693374633789062500e+00) (25, 7.92209434509277343750e+00) (26, 4.10912609100341796875e+00) (27, 5.62866115570068359375e+00) (28, 5.29673004150390625000e+00) (29, -2.88867282867431640625e+00) (30, -6.62181663513183593750e+00) (31, 8.30117416381835937500e+00) (32, -3.79934787750244140625e+00) (33, 7.11725425720214843750e+00) (34, 5.34732055664062500000e+00) (35, -8.45421981811523437500e+00) (36, -6.63646602630615234375e+00) (37, 1.99020576477050781250e+00) (38, -1.80676269531250000000e+00) (39, 3.52715492248535156250e-01) (40, 2.21469879150390625000e+00) (41, 5.20873260498046875000e+00) (42, 2.45098114013671875000e+00) (43, 3.20592975616455078125e+00) (44, -3.61439275741577148438e+00) (45, 6.52081871032714843750e+00) (46, -4.20925092697143554688e+00) (47, 8.64715003967285156250e+00) (48, 8.58670806884765625000e+00) (49, 1.12303733825683593750e+00) (50, 6.51169776916503906250e-01) (51, -6.30341053009033203125e+00) (52, -3.42641305923461914062e+00) (53, -1.38523578643798828125e+00) (54, 2.11122703552246093750e+00) (55, -8.73347282409667968750e-01) (56, -3.46314001083374023438e+00) (57, -3.77964687347412109375e+00) (58, -5.24468612670898437500e+00) (59, -8.16640949249267578125e+00) (60, 3.33168029785156250000e+00) (61, -1.86650276184082031250e+00) (62, -9.86523532867431640625e+00) (63, 9.53233146667480468750e+00) (64, -4.74924802780151367188e+00) (65, 5.48208427429199218750e+00) (66, -8.92188739776611328125e+00) (67, -1.38571453094482421875e+00) (68, -2.52770805358886718750e+00) (69, -7.28650093078613281250e-01) (70, 8.96700096130371093750e+00) (71, 9.68699073791503906250e+00) (72, -5.51991701126098632812e+00) (73, 1.41798210144042968750e+00) (74, 2.89292049407958984375e+00) (75, 8.65689277648925781250e-01) (76, -2.06119918823242187500e+00) (77, 8.68367004394531250000e+00) (78, -4.87161636352539062500e-01) (79, -3.47449016571044921875e+00) (80, -1.93291664123535156250e-01) (81, -9.83599090576171875000e+00) (82, 2.22100257873535156250e-01) (83, 6.38029479980468750000e+00) (84, -1.22122669219970703125e+00) (85, -7.66667270660400390625e+00) (86, -4.49305200576782226562e+00) (87, 5.31563282012939453125e+00) (88, -1.44631958007812500000e+00) (89, 2.62262344360351562500e-01) (90, 7.14922332763671875000e+00) (91, -8.11463928222656250000e+00) (92, 8.39575958251953125000e+00) (93, 7.28398704528808593750e+00) (94, -8.58230686187744140625e+00) (95, -6.35348796844482421875e+00) (96, 2.76607418060302734375e+00) (97, -7.50419425964355468750e+00) (98, 2.26079845428466796875e+00) (99, -9.76163482666015625000e+00) (100, 1.76715469360351562500e+00) (101, 1.22779941558837890625e+00) (102, 9.92535591125488281250e+00) (103, 6.24723815917968750000e+00) (104, -7.35421752929687500000e+00) (105, 2.81827640533447265625e+00) (106, -2.88707208633422851562e+00) (107, 5.84583282470703125000e-01) (108, 1.50194740295410156250e+00) (109, 6.62576675415039062500e+00) (110, 7.11009407043457031250e+00) (111, -8.69134426116943359375e+00) (112, 6.78977584838867187500e+00) (113, -2.66780662536621093750e+00) (114, 7.68895149230957031250e+00) (115, -4.43145036697387695312e+00) (116, -3.34479331970214843750e-01) (117, -6.80410051345825195312e+00) (118, -9.11581707000732421875e+00) (119, 8.21920204162597656250e+00) (120, 3.45816230773925781250e+00) (121, 8.03340721130371093750e+00) (122, -9.89543819427490234375e+00) (123, 1.85392093658447265625e+00) (124, 5.31739425659179687500e+00) (125, -8.47774505615234375000e+00) (126, 5.50043296813964843750e+00) (127, -1.91653251647949218750e+00) (128, -5.98193931579589843750e+00) (129, -2.23876857757568359375e+00) (130, -1.67816638946533203125e+00) (131, 5.78521633148193359375e+00) (132, 8.98903083801269531250e+00) (133, -1.75281047821044921875e+00) (134, 2.03245544433593750000e+00) (135, -8.36518669128417968750e+00) (136, -8.93453216552734375000e+00) (137, 9.14538192749023437500e+00) (138, 2.21939659118652343750e+00) (139, 2.56741523742675781250e+00) (140, 5.77115058898925781250e+00) (141, -6.70509338378906250000e-01) (142, 3.87607097625732421875e+00) (143, 2.56092643737792968750e+00) (144, 6.66168403625488281250e+00) (145, 1.56502246856689453125e+00) (146, 8.12947654724121093750e+00) (147, -3.67279529571533203125e+00) (148, 4.76092243194580078125e+00) (149, 9.01365852355957031250e+00) (150, -5.45359420776367187500e+00) (151, -1.78091621398925781250e+00) (152, 7.04706573486328125000e+00) (153, -5.34903192520141601562e+00) (154, -9.92699432373046875000e+00) (155, 2.36445999145507812500e+00) (156, -3.82677698135375976562e+00) (157, 5.57343959808349609375e+00) (158, -9.55207157135009765625e+00) (159, 1.91283226013183593750e-01) (160, -6.66532897949218750000e+00) (161, -1.23023796081542968750e+00) (162, -4.02349996566772460938e+00) (163, -7.67629766464233398438e+00) (164, 7.01695251464843750000e+00) (165, 8.00895500183105468750e+00) (166, -6.04148387908935546875e+00) (167, 8.08241844177246093750e+00) (168, 7.15433883666992187500e+00) (169, 6.17791175842285156250e+00) (170, 6.49834632873535156250e-01) (171, 2.92548751831054687500e+00) (172, -4.49259567260742187500e+00) (173, -5.47409343719482421875e+00) (174, -4.51358556747436523438e+00) (175, -7.83091163635253906250e+00) (176, 6.09092903137207031250e+00) (177, -6.38410997390747070312e+00) (178, -1.50370693206787109375e+00) (179, 8.51851463317871093750e-01) (180, -7.37045145034790039062e+00) (181, 3.04269886016845703125e+00) (182, 9.07093429565429687500e+00) (183, 9.67661285400390625000e+00) (184, 7.69366645812988281250e+00) (185, 9.14394187927246093750e+00) (186, 2.04107379913330078125e+00) (187, -6.13310956954956054688e+00) (188, 4.71738052368164062500e+00) (189, 2.48900127410888671875e+00) (190, 4.05817413330078125000e+00) (191, 8.05205154418945312500e+00) (0, -8.74123573303222656250e+00) (1, -9.96532535552978515625e+00) (2, -9.62424468994140625000e+00) (3, 8.27571678161621093750e+00) (4, 8.04362869262695312500e+00) (5, -5.66572952270507812500e+00) (6, 6.35813522338867187500e+00) (7, 5.19796752929687500000e+00) (8, -9.48781585693359375000e+00) (9, -2.99202871322631835938e+00) (10, -1.87654495239257812500e+00) (11, -3.98041248321533203125e+00) (12, 1.53387737274169921875e+00) (13, 3.60986900329589843750e+00) (14, -1.81132411956787109375e+00) (15, -2.37519264221191406250e+00) (16, 7.22575950622558593750e+00) (17, 6.68496894836425781250e+00) (18, 8.47665786743164062500e+00) (19, 9.85530853271484375000e+00) (20, -2.72331237792968750000e-01) (21, 7.54759407043457031250e+00) (22, 9.53192138671875000000e+00) (23, -2.57866430282592773438e+00) (24, 6.69153594970703125000e+00) (25, 1.57299613952636718750e+00) (26, 1.28822517395019531250e+00) (27, 1.40891647338867187500e+00) (28, -5.93800210952758789062e+00) (29, -4.65359973907470703125e+00) (30, -5.39031028747558593750e-01) (31, -4.67923831939697265625e+00) (32, -4.61892557144165039062e+00) (33, -1.63276672363281250000e-01) (34, -6.40352153778076171875e+00) (35, -6.57529640197753906250e+00) (36, 4.17099475860595703125e+00) (37, 9.95461463928222656250e+00) (38, 8.62266921997070312500e+00) (39, 4.68317890167236328125e+00) (40, -3.03741359710693359375e+00) (41, -3.25387430191040039062e+00) (42, -9.29723358154296875000e+00) (43, 8.49646377563476562500e+00) (44, -9.64400482177734375000e+00) (45, -1.10855770111083984375e+00) (46, -3.87872743606567382812e+00) (47, 7.58175468444824218750e+00) (48, -4.42358875274658203125e+00) (49, -5.40206909179687500000e+00) (50, 7.43706130981445312500e+00) (51, 5.30408000946044921875e+00) (52, -7.85447502136230468750e+00) (53, 6.96898460388183593750e+00) (54, -7.27458429336547851562e+00) (55, 8.83705902099609375000e+00) (56, -1.45801925659179687500e+00) (57, 4.01364231109619140625e+00) (58, 2.45976448059082031250e-01) (59, 2.60397911071777343750e+00) (60, 9.36004066467285156250e+00) (61, 9.70694541931152343750e+00) (62, 7.92473983764648437500e+00) (63, -5.25888347625732421875e+00) (64, -4.56330299377441406250e-01) (65, -8.47878074645996093750e+00) (66, -1.83417987823486328125e+00) (67, -6.28533554077148437500e+00) (68, -8.52416610717773437500e+00) (69, -3.21150970458984375000e+00) (70, 8.39784240722656250000e+00) (71, -1.56157970428466796875e+00) (72, 3.53461647033691406250e+00) (73, 9.10060882568359375000e+00) (74, -3.06511449813842773438e+00) (75, 3.89061164855957031250e+00) (76, -2.00794887542724609375e+00) (77, 3.05615806579589843750e+00) (78, 1.47236537933349609375e+00) (79, 3.56846237182617187500e+00) (80, 7.65408897399902343750e+00) (81, -1.09057140350341796875e+00) (82, -1.12745761871337890625e+00) (83, 9.79961204528808593750e+00) (84, -4.12158632278442382812e+00) (85, 1.59795761108398437500e+00) (86, 8.63667297363281250000e+00) (87, 4.42039489746093750000e+00) (88, -4.38839960098266601562e+00) (89, -1.11734962463378906250e+00) (90, -2.97562646865844726562e+00) (91, -5.02835798263549804688e+00) (92, -1.41040420532226562500e+00) (93, -5.05088615417480468750e+00) (94, -2.87241935729980468750e-01) (95, 8.13326644897460937500e+00) (96, -3.52966737747192382812e+00) (97, 7.87857818603515625000e+00) (98, -8.15207004547119140625e+00) (99, -2.05383300781250000000e+00) (100, -5.33293056488037109375e+00) (101, -9.75422763824462890625e+00) (102, 6.38458633422851562500e+00) (103, 8.20168495178222656250e+00) (104, 9.34638023376464843750e+00) (105, -6.68052768707275390625e+00) (106, 2.09229660034179687500e+00) (107, -2.66156816482543945312e+00) (108, 6.37562942504882812500e+00) (109, -6.43533706665039062500e+00) (110, -9.09310531616210937500e+00) (111, 4.02971839904785156250e+00) (112, 2.47409248352050781250e+00) (113, -2.20562934875488281250e-01) (114, 3.82933139801025390625e+00) (115, 8.35250663757324218750e+00) (116, -8.62260532379150390625e+00) (117, 2.46600532531738281250e+00) (118, 2.77290058135986328125e+00) (119, -3.01100492477416992188e+00) (120, -8.65134525299072265625e+00) (121, 9.79727363586425781250e+00) (122, 1.96063709259033203125e+00) (123, -6.17494583129882812500e-02) (124, -5.25361204147338867188e+00) (125, -8.32660388946533203125e+00) (126, -1.92848300933837890625e+00) (127, 1.21672058105468750000e+00) (128, 9.55197334289550781250e+00) (129, -8.05540084838867187500e-02) (130, 9.16288757324218750000e+00) (131, -5.78095674514770507812e+00) (132, 1.65219306945800781250e-01) (133, 5.54747581481933593750e+00) (134, -7.57927083969116210938e+00) (135, -4.88400459289550781250e-01) (136, 8.86694717407226562500e+00) (137, 4.51302623748779296875e+00) (138, 6.85003280639648437500e+00) (139, 5.24257755279541015625e+00) (140, 8.07768821716308593750e+00) (141, 7.75692749023437500000e+00) (142, -7.27704048156738281250e-01) (143, 5.51781654357910156250e-01) (144, -2.46363592147827148438e+00) (145, -6.89837265014648437500e+00) (146, -1.09571266174316406250e+00) (147, -1.08624076843261718750e+00) (148, 5.56763172149658203125e+00) (149, -8.32281112670898437500e+00) (150, 5.90275382995605468750e+00) (151, 6.91628646850585937500e+00) (152, -8.52553749084472656250e+00) (153, -2.13660860061645507812e+00) (154, -3.14546251296997070312e+00) (155, -3.77914953231811523438e+00) (156, -4.63212966918945312500e-01) (157, 4.92605400085449218750e+00) (158, 7.43757057189941406250e+00) (159, -9.11238670349121093750e-01) (160, -5.15449905395507812500e+00) (161, 6.60045814514160156250e+00) (162, 3.30780506134033203125e+00) (163, 5.01071929931640625000e+00) (164, 2.14793395996093750000e+00) (165, 5.72853469848632812500e+00) (166, -5.47768020629882812500e+00) (167, 1.01488208770751953125e+00) (168, 2.41560935974121093750e-01) (169, -8.62764739990234375000e+00) (170, -3.74253988265991210938e+00) (171, -1.68074989318847656250e+00) (172, 9.12928009033203125000e+00) (173, 5.52975654602050781250e+00) (174, 8.87103080749511718750e+00) (175, -3.33435583114624023438e+00) (176, 8.63138389587402343750e+00) (177, -2.22467947006225585938e+00) (178, 5.57940387725830078125e+00) (179, 4.19901561737060546875e+00) (180, -5.47491073608398437500e-01) (181, 1.48215770721435546875e+00) (182, 1.11530303955078125000e+00) (183, 9.26971435546875000000e-01) (184, 9.34554862976074218750e+00) (185, 7.96984100341796875000e+00) (186, 7.14782142639160156250e+00) (187, -1.11766338348388671875e+00) (188, 2.89589500427246093750e+00) (189, 4.58539390563964843750e+00) (190, 7.97109794616699218750e+00) (191, 7.74139595031738281250e+00) (0, 1.18585300445556640625e+00) (1, 1.27890491485595703125e+00) (2, 2.75211524963378906250e+00) (3, -6.66621208190917968750e+00) (4, -2.99256134033203125000e+00) (5, 7.27443504333496093750e+00) (6, 4.34867000579833984375e+00) (7, 7.24900054931640625000e+00) (8, 8.64678764343261718750e+00) (9, -9.39386940002441406250e+00) (10, -4.43174982070922851562e+00) (11, 7.77606773376464843750e+00) (12, 6.13588714599609375000e+00) (13, -5.56071758270263671875e+00) (14, -5.55828714370727539062e+00) (15, 4.76727104187011718750e+00) (16, 2.21460342407226562500e+00) (17, -9.97888374328613281250e+00) (18, -1.03371334075927734375e+00) (19, -8.33288764953613281250e+00) (20, 1.50327396392822265625e+00) (21, -9.91841030120849609375e+00) (22, 2.59408473968505859375e+00) (23, 8.48823547363281250000e-01) (24, 8.05143165588378906250e+00) (25, -2.58092880249023437500e-01) (26, 9.73116111755371093750e+00) (27, 9.47326660156250000000e-01) (28, -5.67269897460937500000e+00) (29, 7.70225906372070312500e+00) (30, -1.31127738952636718750e+00) (31, 5.51315402984619140625e+00) (32, -1.01883506774902343750e+00) (33, -8.55916118621826171875e+00) (34, 8.84694099426269531250e+00) (35, 5.98860359191894531250e+00) (36, 8.71527481079101562500e+00) (37, 3.19561100006103515625e+00) (38, 3.23760223388671875000e+00) (39, 7.36206436157226562500e+00) (40, 3.80174255371093750000e+00) (41, 8.80585289001464843750e+00) (42, 5.13813209533691406250e+00) (43, -6.23712539672851562500e-02) (44, -6.75486373901367187500e+00) (45, 9.57984352111816406250e+00) (46, -5.29510021209716796875e+00) (47, 5.45973968505859375000e+00) (48, 9.60096168518066406250e+00) (49, 3.67118740081787109375e+00) (50, 7.12685203552246093750e+00) (51, 1.10423564910888671875e+00) (52, 3.75277614593505859375e+00) (53, -2.79063224792480468750e-01) (54, -8.04694080352783203125e+00) (55, 1.80420780181884765625e+00) (56, 9.46284294128417968750e+00) (57, -8.31577873229980468750e+00) (58, -7.24846649169921875000e+00) (59, -6.20985460281372070312e+00) (60, 9.38648033142089843750e+00) (61, 1.44025516510009765625e+00) (62, 9.30330085754394531250e+00) (63, -1.63235473632812500000e+00) (64, 2.88109397888183593750e+00) (65, 8.15024185180664062500e+00) (66, -5.64375066757202148438e+00) (67, 1.59636974334716796875e+00) (68, 1.34585380554199218750e+00) (69, 7.59385108947753906250e+00) (70, -1.04156684875488281250e+00) (71, -4.85240459442138671875e+00) (72, 6.39970588684082031250e+00) (73, -5.90343475341796875000e+00) (74, 5.08522510528564453125e+00) (75, 9.64484214782714843750e+00) (76, -6.32359027862548828125e+00) (77, 9.79012489318847656250e+00) (78, 5.10458087921142578125e+00) (79, -6.72262859344482421875e+00) (80, 3.46131038665771484375e+00) (81, 2.23143291473388671875e+00) (82, 4.38160610198974609375e+00) (83, -2.78591299057006835938e+00) (84, -8.04762840270996093750e+00) (85, 6.33466529846191406250e+00) (86, 9.01829528808593750000e+00) (87, -8.58478450775146484375e+00) (88, 8.01888656616210937500e+00) (89, -8.23017215728759765625e+00) (90, -4.79463863372802734375e+00) (91, 7.40536689758300781250e+00) (92, 3.21008300781250000000e+00) (93, -5.49133920669555664062e+00) (94, -4.22698545455932617188e+00) (95, -3.90882205963134765625e+00) (96, -7.34109783172607421875e+00) (97, 1.29264831542968750000e-01) (98, 7.68754768371582031250e+00) (99, 4.00475597381591796875e+00) (100, -2.27688360214233398438e+00) (101, -3.35401916503906250000e+00) (102, 9.15235137939453125000e+00) (103, -5.87717771530151367188e+00) (104, 7.42546081542968750000e-01) (105, 4.23757553100585937500e+00) (106, -6.23233604431152343750e+00) (107, 4.41895580291748046875e+00) (108, 4.02770042419433593750e+00) (109, 8.87224578857421875000e+00) (110, 7.69632720947265625000e+00) (111, -2.51098871231079101562e+00) (112, 1.10367965698242187500e+00) (113, 2.07793426513671875000e+00) (114, 4.70309829711914062500e+00) (115, 3.05605030059814453125e+00) (116, -1.58739948272705078125e+00) (117, 3.72139358520507812500e+00) (118, 4.47126579284667968750e+00) (119, -3.56851243972778320312e+00) (120, 5.49122238159179687500e+00) (121, 9.67662811279296875000e+00) (122, -6.16314363479614257812e+00) (123, -1.29869461059570312500e+00) (124, -5.81471157073974609375e+00) (125, -3.90129089355468750000e-01) (126, 4.79248428344726562500e+00) (127, -3.15580892562866210938e+00) (128, 9.73913574218750000000e+00) (129, 2.48003101348876953125e+00) (130, -9.15105342864990234375e+00) (131, -2.53774833679199218750e+00) (132, 9.12601280212402343750e+00) (133, -9.99870204925537109375e+00) (134, 1.58507347106933593750e+00) (135, -1.31441116333007812500e-01) (136, 4.23887348175048828125e+00) (137, 5.35273742675781250000e+00) (138, -5.71248531341552734375e+00) (139, -1.73342609405517578125e+00) (140, 4.22498416900634765625e+00) (141, -8.01615810394287109375e+00) (142, 5.75558567047119140625e+00) (143, -4.67133665084838867188e+00) (144, 4.06177616119384765625e+00) (145, 4.58684921264648437500e-01) (146, 8.38471412658691406250e+00) (147, -7.52562332153320312500e+00) (148, -5.81992149353027343750e+00) (149, 2.85598182678222656250e+00) (150, -1.09413528442382812500e+00) (151, 9.67130088806152343750e+00) (152, 2.53260803222656250000e+00) (153, 2.74272060394287109375e+00) (154, -1.62739372253417968750e+00) (155, 6.71789741516113281250e+00) (156, -7.64740753173828125000e+00) (157, -6.83491039276123046875e+00) (158, -6.43791198730468750000e+00) (159, -7.90827226638793945312e+00) (160, 5.64512157440185546875e+00) (161, -5.58896493911743164062e+00) (162, -4.46020126342773437500e-01) (163, 4.77113342285156250000e+00) (164, -5.58766651153564453125e+00) (165, -8.86094665527343750000e+00) (166, -5.36030817031860351562e+00) (167, 8.65120697021484375000e+00) (168, 6.49179267883300781250e+00) (169, -1.07279396057128906250e+00) (170, -3.08221817016601562500e+00) (171, 7.16775894165039062500e-01) (172, 9.11048889160156250000e-01) (173, -7.32663249969482421875e+00) (174, 6.04543876647949218750e+00) (175, -5.02717542648315429688e+00) (176, 3.13205242156982421875e+00) (177, 4.43015480041503906250e+00) (178, -2.55279827117919921875e+00) (179, 7.31212997436523437500e+00) (180, -2.71386528015136718750e+00) (181, 6.35306739807128906250e+00) (182, 6.98343086242675781250e+00) (183, 9.81874275207519531250e+00) (184, -9.04211997985839843750e-01) (185, -4.64396238327026367188e+00) (186, 6.53664016723632812500e+00) (187, 1.44838047027587890625e+00) (188, -1.47887325286865234375e+00) (189, -9.90127086639404296875e+00) (190, 3.54010772705078125000e+00) (191, -5.83375167846679687500e+00) (0, -5.49023580551147460938e+00) (1, -6.90591239929199218750e+00) (2, 8.93738174438476562500e+00) (3, -1.07790279388427734375e+00) (4, -5.76685905456542968750e+00) (5, -6.42292594909667968750e+00) (6, -2.42669534683227539062e+00) (7, -9.27506732940673828125e+00) (8, 2.50428104400634765625e+00) (9, 4.49108695983886718750e+00) (10, 1.44170856475830078125e+00) (11, -6.58467102050781250000e+00) (12, 7.16445350646972656250e+00) (13, -2.51285219192504882812e+00) (14, -1.61184597015380859375e+00) (15, 2.96506881713867187500e-01) (16, -8.08269786834716796875e+00) (17, 5.83535575866699218750e+00) (18, -2.39136171340942382812e+00) (19, -7.96562194824218750000e-01) (20, 2.18842220306396484375e+00) (21, -5.40792942047119140625e+00) (22, -9.77819442749023437500e-01) (23, -8.71578979492187500000e+00) (24, -5.18922805786132812500e-02) (25, -4.44117784500122070312e+00) (26, 2.73259162902832031250e+00) (27, 8.46923637390136718750e+00) (28, -4.34244871139526367188e+00) (29, -3.72730016708374023438e+00) (30, -7.36451578140258789062e+00) (31, 1.67316436767578125000e-01) (32, -6.33212089538574218750e-01) (33, -8.42713356018066406250e+00) (34, 9.08941268920898437500e+00) (35, 3.59992885589599609375e+00) (36, -4.85005998611450195312e+00) (37, -3.33728122711181640625e+00) (38, 4.32486152648925781250e+00) (39, 7.65421867370605468750e+00) (40, -8.84619522094726562500e+00) (41, -4.23342943191528320312e+00) (42, -8.93045139312744140625e+00) (43, 8.31826019287109375000e+00) (44, 3.25371837615966796875e+00) (45, -5.42297363281250000000e-01) (46, -1.38523387908935546875e+00) (47, 5.17102146148681640625e+00) (48, -4.70694208145141601562e+00) (49, 6.22340583801269531250e+00) (50, -5.62554121017456054688e+00) (51, 7.48147964477539062500e+00) (52, -9.18452453613281250000e+00) (53, 3.39663982391357421875e+00) (54, 8.76568984985351562500e+00) (55, 7.63584136962890625000e-01) (56, 8.95546150207519531250e+00) (57, 1.49828147888183593750e+00) (58, -7.67180442810058593750e-01) (59, -5.38698673248291015625e+00) (60, 7.77098083496093750000e+00) (61, 1.86830425262451171875e+00) (62, 4.78032970428466796875e+00) (63, -2.86223077774047851562e+00) (64, 3.44117069244384765625e+00) (65, 3.86974334716796875000e+00) (66, -9.26230144500732421875e+00) (67, 8.59111022949218750000e+00) (68, -9.46753883361816406250e+00) (69, 5.06256008148193359375e+00) (70, 6.24533081054687500000e+00) (71, -8.31373310089111328125e+00) (72, -9.17086887359619140625e+00) (73, 7.31488037109375000000e+00) (74, -9.99547386169433593750e+00) (75, 4.08285045623779296875e+00) (76, -3.22741746902465820312e+00) (77, -1.38070678710937500000e+00) (78, -7.46129035949707031250e-01) (79, 2.06564044952392578125e+00) (80, -5.15730142593383789062e+00) (81, 3.62833023071289062500e+00) (82, -4.52878952026367187500e-01) (83, -4.34182548522949218750e+00) (84, -2.97502946853637695312e+00) (85, -1.68718814849853515625e+00) (86, 6.42175865173339843750e+00) (87, -4.01956748962402343750e+00) (88, 9.81109428405761718750e+00) (89, -4.34542131423950195312e+00) (90, 5.93446731567382812500e-01) (91, 7.58207511901855468750e+00) (92, 7.52288246154785156250e+00) (93, -4.62622451782226562500e+00) (94, -5.28015518188476562500e+00) (95, 9.64054107666015625000e-01) (96, 9.24351692199707031250e+00) (97, -4.54245615005493164062e+00) (98, -4.44836616516113281250e-01) (99, 9.77597999572753906250e+00) (100, -9.47989654541015625000e+00) (101, -4.19950532913208007812e+00) (102, -8.53775310516357421875e+00) (103, -8.65076541900634765625e+00) (104, -6.88462638854980468750e+00) (105, -8.53322696685791015625e+00) (106, 5.43208503723144531250e+00) (107, -1.12043380737304687500e-01) (108, 8.60662460327148437500e-02) (109, -5.31404399871826171875e+00) (110, -8.04640293121337890625e+00) (111, 4.92876529693603515625e+00) (112, 8.31428527832031250000e+00) (113, 1.50071811676025390625e+00) (114, -9.41306018829345703125e+00) (115, -4.66074275970458984375e+00) (116, 9.81352996826171875000e+00) (117, 7.00869941711425781250e+00) (118, 1.31968975067138671875e+00) (119, 9.62462425231933593750e+00) (120, -7.33672237396240234375e+00) (121, -8.08686447143554687500e+00) (122, 7.20669937133789062500e+00) (123, -9.81383895874023437500e+00) (124, -2.71308851242065429688e+00) (125, -8.07345485687255859375e+00) (126, 1.15021324157714843750e+00) (127, -3.46957015991210937500e+00) (128, -2.61591148376464843750e+00) (129, -9.29462242126464843750e+00) (130, -3.69359016418457031250e+00) (131, -2.09580802917480468750e+00) (132, -3.49412822723388671875e+00) (133, -2.23134326934814453125e+00) (134, -7.46572494506835937500e-01) (135, -3.78754615783691406250e-01) (136, -7.64570236206054687500e-01) (137, -5.31448793411254882812e+00) (138, 9.50920104980468750000e+00) (139, 9.32149696350097656250e+00) (140, -6.28531455993652343750e-01) (141, -8.53720092773437500000e+00) (142, 4.25026130676269531250e+00) (143, -2.31424522399902343750e+00) (144, 2.96351623535156250000e+00) (145, 4.83720207214355468750e+00) (146, 3.02501201629638671875e+00) (147, 2.77704715728759765625e+00) (148, 1.84590053558349609375e+00) (149, -5.65529870986938476562e+00) (150, 2.40167140960693359375e+00) (151, 4.50917816162109375000e+00) (152, -3.74216318130493164062e+00) (153, -3.91628265380859375000e-01) (154, 4.69533920288085937500e+00) (155, 3.54474925994873046875e+00) (156, 1.53491687774658203125e+00) (157, -4.15444660186767578125e+00) (158, -9.92482185363769531250e+00) (159, 8.91900444030761718750e+00) (160, -3.44906854629516601562e+00) (161, -3.61841201782226562500e+00) (162, -3.17680168151855468750e+00) (163, 3.05680274963378906250e+00) (164, 4.15024471282958984375e+00) (165, 6.07662582397460937500e+00) (166, -7.32195091247558593750e+00) (167, -6.61432552337646484375e+00) (168, -9.23786258697509765625e+00) (169, -7.81274890899658203125e+00) (170, -7.29282855987548828125e+00) (171, 1.33605957031250000000e-01) (172, -6.34994983673095703125e+00) (173, 6.95743370056152343750e+00) (174, 7.81936073303222656250e+00) (175, 6.61356735229492187500e+00) (176, 1.79463481903076171875e+00) (177, 8.44372749328613281250e-01) (178, -6.09385490417480468750e-01) (179, -6.35946369171142578125e+00) (180, 5.18907451629638671875e+00) (181, -8.20771408081054687500e+00) (182, 8.14971542358398437500e+00) (183, -8.55308914184570312500e+00) (184, 1.40065765380859375000e+00) (185, 2.84505462646484375000e+00) (186, 4.99166011810302734375e+00) (187, -7.06442499160766601562e+00) (188, 8.69060707092285156250e+00) (189, 5.06683826446533203125e+00) (190, -8.14541912078857421875e+00) (191, -4.75846052169799804688e+00) (0, -8.55157470703125000000e+00) (1, -1.32222175598144531250e+00) (2, 8.29834175109863281250e+00) (3, 5.59867000579833984375e+00) (4, -5.24559545516967773438e+00) (5, -9.02360916137695312500e+00) (6, 8.98434448242187500000e+00) (7, -4.48345804214477539062e+00) (8, -6.83635807037353515625e+00) (9, -8.30848312377929687500e+00) (10, 5.65014839172363281250e+00) (11, -3.18630695343017578125e+00) (12, 8.64894866943359375000e+00) (13, 3.46950912475585937500e+00) (14, -6.57273960113525390625e+00) (15, 4.43586349487304687500e-01) (16, -5.68611860275268554688e+00) (17, 2.81787490844726562500e+00) (18, 4.08412170410156250000e+00) (19, 9.50295448303222656250e+00) (20, 4.61016178131103515625e+00) (21, 2.23383808135986328125e+00) (22, -9.05013275146484375000e+00) (23, -3.98918056488037109375e+00) (24, -4.92110776901245117188e+00) (25, 5.94152641296386718750e+00) (26, -1.05360507965087890625e+00) (27, -6.23049926757812500000e+00) (28, 1.00836372375488281250e+00) (29, 8.00975799560546875000e-01) (30, -9.88960266113281250000e-01) (31, 2.45678997039794921875e+00) (32, 9.47875404357910156250e+00) (33, -2.69061803817749023438e+00) (34, -1.94454002380371093750e+00) (35, -5.76684045791625976562e+00) (36, -1.71422672271728515625e+00) (37, -2.96019458770751953125e+00) (38, -2.50298500061035156250e-01) (39, 1.44941520690917968750e+00) (40, -1.26867771148681640625e+00) (41, -4.60015010833740234375e+00) (42, 8.26310920715332031250e+00) (43, -2.61972808837890625000e+00) (44, 8.86935806274414062500e+00) (45, -8.30963134765625000000e+00) (46, 7.82385826110839843750e+00) (47, -6.81676006317138671875e+00) (48, 4.50824356079101562500e+00) (49, 1.90797996520996093750e+00) (50, -7.31380414962768554688e+00) (51, -8.81595611572265625000e-01) (52, -5.85818243026733398438e+00) (53, -6.36393737792968750000e+00) (54, 5.12922477722167968750e+00) (55, -7.79290199279785156250e-01) (56, 9.57758903503417968750e+00) (57, -5.92438030242919921875e+00) (58, 2.99020957946777343750e+00) (59, 5.85952758789062500000e-01) (60, 4.87659549713134765625e+00) (61, -7.99874973297119140625e+00) (62, -6.95725679397583007812e+00) (63, 4.35534954071044921875e+00) (64, -6.89368247985839843750e-01) (65, 1.09820365905761718750e+00) (66, 8.58850860595703125000e+00) (67, 7.59640502929687500000e+00) (68, 8.13800811767578125000e+00) (69, -1.66178989410400390625e+00) (70, -9.54179763793945312500e-01) (71, -3.13066864013671875000e+00) (72, 3.73805999755859375000e+00) (73, -2.69107103347778320312e+00) (74, 4.24960327148437500000e+00) (75, 2.60741901397705078125e+00) (76, -1.00070285797119140625e+00) (77, 2.07346153259277343750e+00) (78, 5.79065895080566406250e+00) (79, -6.49245834350585937500e+00) (80, -6.01855754852294921875e+00) (81, 8.47685623168945312500e+00) (82, 2.62594699859619140625e+00) (83, -1.87674045562744140625e+00) (84, -7.88708209991455078125e+00) (85, -2.24482822418212890625e+00) (86, 7.34396934509277343750e+00) (87, -8.30949306488037109375e+00) (88, 1.83079147338867187500e+00) (89, 3.34180831909179687500e-01) (90, 2.27645969390869140625e+00) (91, -3.29261350631713867188e+00) (92, 2.33543109893798828125e+00) (93, 5.31920337677001953125e+00) (94, -8.93726348876953125000e+00) (95, -8.35393714904785156250e+00) (96, -3.58259248733520507812e+00) (97, 9.65124511718750000000e+00) (98, 9.24246788024902343750e+00) (99, -5.44458389282226562500e+00) (100, -2.01054382324218750000e+00) (101, -1.71171092987060546875e+00) (102, 1.42474746704101562500e+00) (103, -8.27248382568359375000e+00) (104, 5.59721851348876953125e+00) (105, -4.32564783096313476562e+00) (106, 4.33493518829345703125e+00) (107, -5.40348386764526367188e+00) (108, 7.74781417846679687500e+00) (109, 1.25595092773437500000e-01) (110, -1.89594268798828125000e+00) (111, -8.27074337005615234375e+00) (112, -1.39754962921142578125e+00) (113, -9.26999568939208984375e+00) (114, -1.47483825683593750000e-01) (115, 7.15369224548339843750e-01) (116, -1.51482391357421875000e+00) (117, -2.80351352691650390625e+00) (118, 2.40587615966796875000e+00) (119, -9.68403339385986328125e+00) (120, 7.53066635131835937500e+00) (121, -5.31766414642333984375e+00) (122, -2.97664690017700195312e+00) (123, -1.33901596069335937500e-01) (124, -9.99846076965332031250e+00) (125, -1.91391086578369140625e+00) (126, 1.51216125488281250000e+00) (127, -3.58105373382568359375e+00) (128, -2.26266527175903320312e+00) (129, 7.54629135131835937500e-01) (130, 9.74363327026367187500e-01) (131, 5.72679042816162109375e+00) (132, 9.04291915893554687500e+00) (133, -7.60088872909545898438e+00) (134, 7.45430755615234375000e+00) (135, 4.64013671875000000000e+00) (136, -1.92653656005859375000e+00) (137, 1.78924179077148437500e+00) (138, 9.23665428161621093750e+00) (139, -4.17872238159179687500e+00) (140, -8.08516216278076171875e+00) (141, -2.65928936004638671875e+00) (142, -2.44946622848510742188e+00) (143, 5.17287254333496093750e-01) (144, -1.92928504943847656250e+00) (145, 7.40304946899414062500e+00) (146, -8.76734352111816406250e+00) (147, 6.55589103698730468750e+00) (148, -5.40046358108520507812e+00) (149, 3.63853168487548828125e+00) (150, 6.87185668945312500000e+00) (151, -7.86979627609252929688e+00) (152, 8.32086753845214843750e+00) (153, -6.10478878021240234375e+00) (154, 1.99630260467529296875e+00) (155, 8.32240676879882812500e+00) (156, 1.98130035400390625000e+00) (157, -6.49153709411621093750e+00) (158, -5.25864648818969726562e+00) (159, 9.71863555908203125000e+00) (160, 4.26309299468994140625e+00) (161, 5.71571731567382812500e+00) (162, 5.44542503356933593750e+00) (163, 3.30601215362548828125e+00) (164, 8.11482810974121093750e+00) (165, 2.89973258972167968750e+00) (166, -2.05385017395019531250e+00) (167, -3.81170892715454101562e+00) (168, -5.31102466583251953125e+00) (169, -2.81719684600830078125e+00) (170, 2.00956916809082031250e+00) (171, -3.39618730545043945312e+00) (172, 4.52351474761962890625e+00) (173, 9.56010246276855468750e+00) (174, 7.12109947204589843750e+00) (175, -7.40577077865600585938e+00) (176, 6.96315383911132812500e+00) (177, 8.35375595092773437500e+00) (178, 9.15011978149414062500e+00) (179, -8.43730926513671875000e+00) (180, 1.99228858947753906250e+00) (181, 6.02197647094726562500e+00) (182, -6.30710601806640625000e+00) (183, 3.13157081604003906250e-01) (184, 9.91718864440917968750e+00) (185, 5.68919658660888671875e+00) (186, -1.36443614959716796875e+00) (187, 1.89848899841308593750e+00) (188, 9.19765853881835937500e+00) (189, 3.37691783905029296875e+00) (190, 1.61712360382080078125e+00) (191, 3.46075248718261718750e+00) (0, -9.07365798950195312500e-01) (1, -2.93744993209838867188e+00) (2, -3.23323535919189453125e+00) (3, -2.79253768920898437500e+00) (4, 9.96228218078613281250e+00) (5, 4.71291446685791015625e+00) (6, 3.39575290679931640625e+00) (7, -5.34874153137207031250e+00) (8, -8.10428237915039062500e+00) (9, -4.59467697143554687500e+00) (10, 1.25507068634033203125e+00) (11, 6.41923141479492187500e+00) (12, -5.03457403182983398438e+00) (13, -1.62382793426513671875e+00) (14, 9.01346015930175781250e+00) (15, -8.07142066955566406250e+00) (16, -3.27007102966308593750e+00) (17, 8.16357994079589843750e+00) (18, -6.50872993469238281250e+00) (19, 8.72221755981445312500e+00) (20, 4.18555831909179687500e+00) (21, -2.81583547592163085938e+00) (22, -9.64625358581542968750e-01) (23, 4.10274887084960937500e+00) (24, -7.12663936614990234375e+00) (25, 7.67093658447265625000e+00) (26, -3.99876260757446289062e+00) (27, -7.92897939682006835938e+00) (28, 1.04785537719726562500e+00) (29, 7.61836051940917968750e+00) (30, 5.53177356719970703125e+00) (31, -9.85951042175292968750e+00) (32, -5.31908798217773437500e+00) (33, -7.70146179199218750000e+00) (34, -2.65204858779907226562e+00) (35, -5.35680484771728515625e+00) (36, 7.01145172119140625000e+00) (37, -9.25629520416259765625e+00) (38, -7.05546379089355468750e-01) (39, 8.90716934204101562500e+00) (40, -3.85097265243530273438e+00) (41, -9.45047473907470703125e+00) (42, 5.32640075683593750000e+00) (43, 1.11445331573486328125e+00) (44, -1.07430267333984375000e+00) (45, 4.33986186981201171875e+00) (46, 3.04303264617919921875e+00) (47, 5.65562629699707031250e+00) (48, 2.50344371795654296875e+00) (49, 6.53430366516113281250e+00) (50, 4.37784290313720703125e+00) (51, -3.31099748611450195312e+00) (52, -6.28153228759765625000e+00) (53, -6.58678197860717773438e+00) (54, -9.20824909210205078125e+00) (55, -3.40817165374755859375e+00) (56, -8.91584396362304687500e+00) (57, -3.20701169967651367188e+00) (58, -1.33715152740478515625e+00) (59, 2.13201141357421875000e+00) (60, -5.58865022659301757812e+00) (61, -5.80537796020507812500e+00) (62, 2.27250099182128906250e+00) (63, -9.07738685607910156250e-01) (64, -3.50683927536010742188e+00) (65, 9.62045097351074218750e+00) (66, 3.73545742034912109375e+00) (67, -6.49538707733154296875e+00) (68, -9.63584327697753906250e+00) (69, -6.97008895874023437500e+00) (70, -7.58821725845336914062e+00) (71, -3.48681592941284179688e+00) (72, -6.42056369781494140625e+00) (73, 7.73818397521972656250e+00) (74, 7.62763786315917968750e+00) (75, 2.50513267517089843750e+00) (76, 2.07804679870605468750e+00) (77, 6.70671463012695312500e-01) (78, -1.83924102783203125000e+00) (79, -5.41850996017456054688e+00) (80, -2.79502582550048828125e+00) (81, -7.46139717102050781250e+00) (82, 1.27049350738525390625e+00) (83, 9.23441886901855468750e-01) (84, -4.04817867279052734375e+00) (85, 2.06224346160888671875e+00) (86, 7.51527023315429687500e+00) (87, -2.96402359008789062500e+00) (88, 8.85523223876953125000e+00) (89, -3.82188034057617187500e+00) (90, 9.16798782348632812500e+00) (91, -6.73341846466064453125e+00) (92, 3.72742652893066406250e-01) (93, 1.44048881530761718750e+00) (94, 2.35884380340576171875e+00) (95, 6.86590194702148437500e+00) (96, 1.06094074249267578125e+00) (97, -3.90569877624511718750e+00) (98, -9.62948417663574218750e+00) (99, 1.42509841918945312500e+00) (100, -8.75787734985351562500e-01) (101, -7.21770191192626953125e+00) (102, 7.93828201293945312500e+00) (103, 2.70364856719970703125e+00) (104, -9.47951698303222656250e+00) (105, 5.56592082977294921875e+00) (106, -4.79121828079223632812e+00) (107, 2.59852886199951171875e+00) (108, -3.76340818405151367188e+00) (109, 3.36954116821289062500e+00) (110, 7.18001937866210937500e+00) (111, 3.44156646728515625000e+00) (112, 5.90814304351806640625e+00) (113, -1.54948806762695312500e+00) (114, -5.63499164581298828125e+00) (115, -8.14003562927246093750e+00) (116, -9.48724365234375000000e+00) (117, -8.11972045898437500000e+00) (118, -1.10405826568603515625e+00) (119, 9.36798858642578125000e+00) (120, -1.94160079956054687500e+00) (121, -1.93607044219970703125e+00) (122, -7.36542987823486328125e+00) (123, 8.43114089965820312500e+00) (124, 9.50441741943359375000e+00) (125, 4.99341392517089843750e+00) (126, 5.29704284667968750000e+00) (127, 5.65359115600585937500e-01) (128, -8.91228485107421875000e+00) (129, 5.66755867004394531250e+00) (130, -8.00954151153564453125e+00) (131, 2.11927413940429687500e-01) (132, 8.44985771179199218750e+00) (133, 9.92874145507812500000e+00) (134, -7.08442354202270507812e+00) (135, 8.97033882141113281250e+00) (136, 5.49466228485107421875e+00) (137, -1.87564182281494140625e+00) (138, 1.56886959075927734375e+00) (139, -8.26874542236328125000e+00) (140, -8.50610160827636718750e+00) (141, -1.25111198425292968750e+00) (142, 5.17282104492187500000e+00) (143, 7.40204238891601562500e+00) (144, 7.19939994812011718750e+00) (145, 9.53782844543457031250e+00) (146, 9.26200675964355468750e+00) (147, 7.71215629577636718750e+00) (148, -8.58189201354980468750e+00) (149, -1.84205055236816406250e+00) (150, 7.08014488220214843750e+00) (151, -5.23492813110351562500e-01) (152, 6.22187995910644531250e+00) (153, 9.71471595764160156250e+00) (154, -2.09235191345214843750e+00) (155, 5.72629833221435546875e+00) (156, 4.70812988281250000000e+00) (157, -6.79530811309814453125e+00) (158, -3.70834159851074218750e+00) (159, 5.79584598541259765625e+00) (160, 8.87224960327148437500e+00) (161, -1.71788311004638671875e+00) (162, -3.99222660064697265625e+00) (163, 7.32210731506347656250e+00) (164, -1.78914165496826171875e+00) (165, -1.07665061950683593750e+00) (166, 6.29244613647460937500e+00) (167, -6.29447937011718750000e+00) (168, 7.04770851135253906250e+00) (169, -2.13868379592895507812e+00) (170, -4.56322479248046875000e+00) (171, 8.54160690307617187500e+00) (172, 6.61020469665527343750e+00) (173, -9.39040374755859375000e+00) (174, 5.94365024566650390625e+00) (175, 3.80960559844970703125e+00) (176, -9.85257530212402343750e+00) (177, 5.20565700531005859375e+00) (178, 1.52176380157470703125e+00) (179, -8.43446636199951171875e+00) (180, -6.63639307022094726562e+00) (181, -1.39809131622314453125e+00) (182, 1.04204082489013671875e+00) (183, 9.58548545837402343750e+00) (184, -1.68337535858154296875e+00) (185, 8.94968795776367187500e+00) (186, 5.31178474426269531250e+00) (187, -6.97524547576904296875e+00) (188, -7.84561920166015625000e+00) (189, -8.39655685424804687500e+00) (190, 8.82060050964355468750e+00) (191, -8.97336864471435546875e+00) (0, -1.14440917968750000000e-01) (1, -5.17162609100341796875e+00) (2, 8.34873962402343750000e+00) (3, 8.09641838073730468750e+00) (4, 3.75172328948974609375e+00) (5, 4.64118576049804687500e+00) (6, -8.19806194305419921875e+00) (7, 7.99431800842285156250e-01) (8, -7.49749755859375000000e+00) (9, -2.76128673553466796875e+00) (10, -6.58961296081542968750e-01) (11, 9.11270713806152343750e+00) (12, -2.15169095993041992188e+00) (13, -4.71531105041503906250e+00) (14, 2.92231273651123046875e+00) (15, -2.00426578521728515625e+00) (16, -9.50965309143066406250e+00) (17, -5.55592346191406250000e+00) (18, -4.38732147216796875000e-01) (19, -6.14604663848876953125e+00) (20, 3.04598522186279296875e+00) (21, -9.39669132232666015625e+00) (22, -6.56056022644042968750e+00) (23, -8.63739013671875000000e+00) (24, 9.55299758911132812500e+00) (25, 8.75122451782226562500e+00) (26, -5.61263513565063476562e+00) (27, -8.29262161254882812500e+00) (28, -9.64533329010009765625e+00) (29, -6.79203462600708007812e+00) (30, -7.26599025726318359375e+00) (31, 2.40226745605468750000e-01) (32, -1.96366119384765625000e+00) (33, -8.91725158691406250000e+00) (34, -1.66335582733154296875e+00) (35, -8.21193695068359375000e+00) (36, 5.72393417358398437500e+00) (37, 1.38583183288574218750e-01) (38, 2.58749485015869140625e+00) (39, 8.22643661499023437500e+00) (40, 7.37729644775390625000e+00) (41, -8.07146549224853515625e+00) (42, 7.33914375305175781250e+00) (43, -4.77439403533935546875e+00) (44, -2.78677701950073242188e+00) (45, 2.61458396911621093750e-01) (46, 3.22134017944335937500e+00) (47, -2.29643058776855468750e+00) (48, 4.70553398132324218750e+00) (49, -7.21739196777343750000e+00) (50, 1.55752277374267578125e+00) (51, -2.24848031997680664062e+00) (52, -6.61408329010009765625e+00) (53, 4.99696254730224609375e+00) (54, -8.85869979858398437500e-01) (55, -7.06108522415161132812e+00) (56, 3.74818706512451171875e+00) (57, 3.50149536132812500000e+00) (58, -5.35370635986328125000e+00) (59, 4.10285472869873046875e+00) (60, 6.70945930480957031250e+00) (61, -2.61969709396362304688e+00) (62, -5.65691900253295898438e+00) (63, -5.25419998168945312500e+00) (64, -1.53694820404052734375e+00) (65, 2.67972564697265625000e+00) (66, -3.46613693237304687500e+00) (67, -5.81301355361938476562e+00) (68, -7.18169116973876953125e+00) (69, 9.12135887145996093750e+00) (70, -7.58657598495483398438e+00) (71, -9.80439472198486328125e+00) (72, -8.95010757446289062500e+00) (73, 9.75256729125976562500e+00) (74, -4.57878875732421875000e+00) (75, -1.73688411712646484375e+00) (76, 1.40256881713867187500e-02) (77, 8.64255142211914062500e+00) (78, 5.96668624877929687500e+00) (79, -5.28043937683105468750e+00) (80, -8.57484054565429687500e+00) (81, -2.47579145431518554688e+00) (82, 2.47108078002929687500e+00) (83, -5.18892335891723632812e+00) (84, -7.47882843017578125000e+00) (85, -8.41478919982910156250e+00) (86, -2.25000858306884765625e+00) (87, 6.26935768127441406250e+00) (88, 5.08670520782470703125e+00) (89, 2.39628505706787109375e+00) (90, 3.72213363647460937500e-01) (91, 1.79616546630859375000e+00) (92, 9.77658843994140625000e+00) (93, 4.71529388427734375000e+00) (94, 6.54196548461914062500e+00) (95, -1.76035976409912109375e+00) (96, -2.60498046875000000000e+00) (97, -6.92417097091674804688e+00) (98, 2.42662620544433593750e+00) (99, 2.13328361511230468750e-01) (100, -7.80281257629394531250e+00) (101, 4.84005069732666015625e+00) (102, 4.08934593200683593750e-01) (103, -6.75292015075683593750e+00) (104, 4.59261894226074218750e+00) (105, 5.83014488220214843750e+00) (106, 1.51019573211669921875e+00) (107, -5.39335441589355468750e+00) (108, 4.47269630432128906250e+00) (109, -2.52311897277832031250e+00) (110, -6.73793792724609375000e-01) (111, 5.89785575866699218750e+00) (112, 5.00108909606933593750e+00) (113, -8.20271301269531250000e+00) (114, -9.29106712341308593750e+00) (115, 7.52226066589355468750e+00) (116, -6.61750221252441406250e+00) (117, -1.54107570648193359375e+00) (118, 3.79161930084228515625e+00) (119, 8.46920394897460937500e+00) (120, -9.14479064941406250000e+00) (121, -5.83616781234741210938e+00) (122, 2.65370368957519531250e-01) (123, -9.36820220947265625000e+00) (124, 8.87912559509277343750e+00) (125, -3.19266366958618164062e+00) (126, -1.12856197357177734375e+00) (127, -3.72585487365722656250e+00) (128, -1.16834640502929687500e-01) (129, -8.70193481445312500000e+00) (130, 6.48747444152832031250e+00) (131, 2.08035182952880859375e+00) (132, 6.13811492919921875000e+00) (133, -3.10359191894531250000e+00) (134, 5.32743358612060546875e+00) (135, 7.30734825134277343750e-01) (136, -7.27344655990600585938e+00) (137, -3.16237115859985351562e+00) (138, 5.33738040924072265625e+00) (139, 7.19924926757812500000e+00) (140, 4.31451034545898437500e+00) (141, -5.33641338348388671875e+00) (142, 3.09710597991943359375e+00) (143, -6.84399604797363281250e-01) (144, -3.53912591934204101562e+00) (145, 3.80603885650634765625e+00) (146, -3.16213846206665039062e+00) (147, -1.56627655029296875000e-01) (148, -7.73503684997558593750e+00) (149, -9.37051868438720703125e+00) (150, -1.68742465972900390625e+00) (151, -6.87982749938964843750e+00) (152, -5.20668601989746093750e+00) (153, 8.57794570922851562500e+00) (154, -6.24802970886230468750e+00) (155, -6.32755947113037109375e+00) (156, -4.61471796035766601562e+00) (157, 2.62340736389160156250e+00) (158, -5.34143447875976562500e-02) (159, 5.26844692230224609375e+00) (160, 3.92147254943847656250e+00) (161, -3.56594038009643554688e+00) (162, -2.65119981765747070312e+00) (163, 5.95874786376953125000e-02) (164, 3.33046817779541015625e+00) (165, -7.32376670837402343750e+00) (166, -9.20967674255371093750e+00) (167, 6.05702209472656250000e+00) (168, -4.86138343811035156250e-01) (169, 6.12770462036132812500e+00) (170, 3.25627040863037109375e+00) (171, -6.17162704467773437500e+00) (172, -9.20870971679687500000e+00) (173, -3.64662218093872070312e+00) (174, 3.14397335052490234375e+00) (175, -2.74783515930175781250e+00) (176, -9.84058284759521484375e+00) (177, 9.98183441162109375000e+00) (178, 7.09553718566894531250e+00) (179, -7.57561922073364257812e+00) (180, -9.38868331909179687500e+00) (181, -4.59188699722290039062e+00) (182, -4.45544672012329101562e+00) (183, -4.59536981582641601562e+00) (184, -6.01394081115722656250e+00) (185, -7.03475952148437500000e-01) (186, -9.22929763793945312500e-01) (187, -6.28658294677734375000e-01) (188, -8.08006858825683593750e+00) (189, 9.02365684509277343750e+00) (190, -5.36021089553833007812e+00) (191, 5.84140491485595703125e+00) (192, -4.54228401184082031250e+00) (193, 1.98858928680419921875e+00) (194, -4.09900665283203125000e+00) (195, 8.78818321228027343750e+00) (196, 4.66482257843017578125e+00) (197, -3.30868387222290039062e+00) (198, 4.84520530700683593750e+00) (199, -5.82131433486938476562e+00) (200, -7.18097972869873046875e+00) (201, -1.89852333068847656250e+00) (202, -1.99294185638427734375e+00) (192, -6.38968896865844726562e+00) (193, 4.45485496520996093750e+00) (194, -8.84896945953369140625e+00) (195, 8.62475395202636718750e-01) (196, 4.61427211761474609375e+00) (197, -8.86713409423828125000e+00) (198, -2.04198646545410156250e+00) (199, 7.03865242004394531250e+00) (200, -8.25581836700439453125e+00) (201, 3.36612606048583984375e+00) (202, -7.41679382324218750000e+00) (192, -2.85118770599365234375e+00) (193, 7.35218429565429687500e+00) (194, 1.87973022460937500000e+00) (195, 6.22588157653808593750e+00) (196, -3.27647256851196289062e+00) (197, 3.79966163635253906250e+00) (198, 5.24953842163085937500e+00) (199, 1.36331653594970703125e+00) (200, -3.58933448791503906250e-01) (201, -9.29274463653564453125e+00) (202, -6.64809417724609375000e+00) (192, 5.54205989837646484375e+00) (193, 9.49543762207031250000e+00) (194, 8.01672935485839843750e+00) (195, -7.76662349700927734375e+00) (196, 4.34064388275146484375e+00) (197, -7.80458545684814453125e+00) (198, -4.94760274887084960938e+00) (199, -7.55787944793701171875e+00) (200, 2.02471733093261718750e-01) (201, -1.33729171752929687500e+00) (202, 6.89697456359863281250e+00) (192, 1.35350322723388671875e+00) (193, 9.52518463134765625000e+00) (194, 1.51124668121337890625e+00) (195, 2.48636913299560546875e+00) (196, -2.51680278778076171875e+00) (197, -1.45010089874267578125e+00) (198, 4.23055076599121093750e+00) (199, -9.15067577362060546875e+00) (200, 1.13310527801513671875e+00) (201, -8.62063694000244140625e+00) (202, 8.20150947570800781250e+00) 
