FANN_FLO_2.1
num_layers=3
learning_rate=0.700000
connection_rate=1.000000
network_type=0
learning_momentum=0.000000
training_algorithm=2
train_error_function=1
train_stop_function=0
cascade_output_change_fraction=0.010000
quickprop_decay=-0.000100
quickprop_mu=1.750000
rprop_increase_factor=1.200000
rprop_decrease_factor=0.500000
rprop_delta_min=0.000000
rprop_delta_max=50.000000
rprop_delta_zero=0.100000
cascade_output_stagnation_epochs=12
cascade_candidate_change_fraction=0.010000
cascade_candidate_stagnation_epochs=12
cascade_max_out_epochs=150
cascade_min_out_epochs=50
cascade_max_cand_epochs=150
cascade_min_cand_epochs=50
cascade_num_candidate_groups=2
bit_fail_limit=3.49999994039535522461e-01
cascade_candidate_limit=1.00000000000000000000e+03
cascade_weight_multiplier=4.00000005960464477539e-01
cascade_activation_functions_count=10
cascade_activation_functions=3 5 7 8 10 11 14 15 16 17 
cascade_activation_steepnesses_count=4
cascade_activation_steepnesses=2.50000000000000000000e-01 5.00000000000000000000e-01 7.50000000000000000000e-01 1.00000000000000000000e+00 
layer_sizes=192 11 6 
scale_included=0
neurons (num_inputs, activation_function, activation_steepness)=(0, 0, 0.00000000000000000000e+00) (0, 0, 0.00000000000000000000e+00) (0, 0, 0.00000000000000000000e+00) (0, 0, 0.00000000000000000000e+00) (0, 0, 0.00000000000000000000e+00) (0, 0, 0.00000000000000000000e+00) (0, 0, 0.00000000000000000000e+00) (0, 0, 0.00000000000000000000e+00) (0, 0, 0.00000000000000000000e+00) (0, 0, 0.00000000000000000000e+00) (0, 0, 0.00000000000000000000e+00) (0, 0, 0.00000000000000000000e+00) (0, 0, 0.00000000000000000000e+00) (0, 0, 0.00000000000000000000e+00) (0, 0, 0.00000000000000000000e+00) (0, 0, 0.00000000000000000000e+00) (0, 0, 0.00000000000000000000e+00) (0, 0, 0.00000000000000000000e+00) (0, 0, 0.00000000000000000000e+00) (0, 0, 0.00000000000000000000e+00) (0, 0, 0.00000000000000000000e+00) (0, 0, 0.00000000000000000000e+00) (0, 0, 0.00000000000000000000e+00) (0, 0, 0.00000000000000000000e+00) (0, 0, 0.00000000000000000000e+00) (0, 0, 0.00000000000000000000e+00) (0, 0, 0.00000000000000000000e+00) (0, 0, 0.00000000000000000000e+00) (0, 0, 0.00000000000000000000e+00) (0, 0, 0.00000000000000000000e+00) (0, 0, 0.00000000000000000000e+00) (0, 0, 0.00000000000000000000e+00) (0, 0, 0.00000000000000000000e+00) (0, 0, 0.00000000000000000000e+00) (0, 0, 0.00000000000000000000e+00) (0, 0, 0.00000000000000000000e+00) (0, 0, 0.00000000000000000000e+00) (0, 0, 0.00000000000000000000e+00) (0, 0, 0.00000000000000000000e+00) (0, 0, 0.00000000000000000000e+00) (0, 0, 0.00000000000000000000e+00) (0, 0, 0.00000000000000000000e+00) (0, 0, 0.00000000000000000000e+00) (0, 0, 0.00000000000000000000e+00) (0, 0, 0.00000000000000000000e+00) (0, 0, 0.00000000000000000000e+00) (0, 0, 0.00000000000000000000e+00) (0, 0, 0.00000000000000000000e+00) (0, 0, 0.00000000000000000000e+00) (0, 0, 0.00000000000000000000e+00) (0, 0, 0.00000000000000000000e+00) (0, 0, 0.00000000000000000000e+00) (0, 0, 0.00000000000000000000e+00) (0, 0, 0.00000000000000000000e+00) (0, 0, 0.00000000000000000000e+00) (0, 0, 0.00000000000000000000e+00) (0, 0, 0.00000000000000000000e+00) (0, 0, 0.00000000000000000000e+00) (0, 0, 0.00000000000000000000e+00) (0, 0, 0.00000000000000000000e+00) (0, 0, 0.00000000000000000000e+00) (0, 0, 0.00000000000000000000e+00) (0, 0, 0.00000000000000000000e+00) (0, 0, 0.00000000000000000000e+00) (0, 0, 0.00000000000000000000e+00) (0, 0, 0.00000000000000000000e+00) (0, 0, 0.00000000000000000000e+00) (0, 0, 0.00000000000000000000e+00) (0, 0, 0.00000000000000000000e+00) (0, 0, 0.00000000000000000000e+00) (0, 0, 0.00000000000000000000e+00) (0, 0, 0.00000000000000000000e+00) (0, 0, 0.00000000000000000000e+00) (0, 0, 0.00000000000000000000e+00) (0, 0, 0.00000000000000000000e+00) (0, 0, 0.00000000000000000000e+00) (0, 0, 0.00000000000000000000e+00) (0, 0, 0.00000000000000000000e+00) (0, 0, 0.00000000000000000000e+00) (0, 0, 0.00000000000000000000e+00) (0, 0, 0.00000000000000000000e+00) (0, 0, 0.00000000000000000000e+00) (0, 0, 0.00000000000000000000e+00) (0, 0, 0.00000000000000000000e+00) (0, 0, 0.00000000000000000000e+00) (0, 0, 0.00000000000000000000e+00) (0, 0, 0.00000000000000000000e+00) (0, 0, 0.00000000000000000000e+00) (0, 0, 0.00000000000000000000e+00) (0, 0, 0.00000000000000000000e+00) (0, 0, 0.00000000000000000000e+00) (0, 0, 0.00000000000000000000e+00) (0, 0, 0.00000000000000000000e+00) (0, 0, 0.00000000000000000000e+00) (0, 0, 0.00000000000000000000e+00) (0, 0, 0.00000000000000000000e+00) (0, 0, 0.00000000000000000000e+00) (0, 0, 0.00000000000000000000e+00) (0, 0, 0.00000000000000000000e+00) (0, 0, 0.00000000000000000000e+00) (0, 0, 0.00000000000000000000e+00) (0, 0, 0.00000000000000000000e+00) (0, 0, 0.00000000000000000000e+00) (0, 0, 0.00000000000000000000e+00) (0, 0, 0.00000000000000000000e+00) (0, 0, 0.00000000000000000000e+00) (0, 0, 0.00000000000000000000e+00) (0, 0, 0.00000000000000000000e+00) (0, 0, 0.00000000000000000000e+00) (0, 0, 0.00000000000000000000e+00) (0, 0, 0.00000000000000000000e+00) (0, 0, 0.00000000000000000000e+00) (0, 0, 0.00000000000000000000e+00) (0, 0, 0.00000000000000000000e+00) (0, 0, 0.00000000000000000000e+00) (0, 0, 0.00000000000000000000e+00) (0, 0, 0.00000000000000000000e+00) (0, 0, 0.00000000000000000000e+00) (0, 0, 0.00000000000000000000e+00) (0, 0, 0.00000000000000000000e+00) (0, 0, 0.00000000000000000000e+00) (0, 0, 0.00000000000000000000e+00) (0, 0, 0.00000000000000000000e+00) (0, 0, 0.00000000000000000000e+00) (0, 0, 0.00000000000000000000e+00) (0, 0, 0.00000000000000000000e+00) (0, 0, 0.00000000000000000000e+00) (0, 0, 0.00000000000000000000e+00) (0, 0, 0.00000000000000000000e+00) (0, 0, 0.00000000000000000000e+00) (0, 0, 0.00000000000000000000e+00) (0, 0, 0.00000000000000000000e+00) (0, 0, 0.00000000000000000000e+00) (0, 0, 0.00000000000000000000e+00) (0, 0, 0.00000000000000000000e+00) (0, 0, 0.00000000000000000000e+00) (0, 0, 0.00000000000000000000e+00) (0, 0, 0.00000000000000000000e+00) (0, 0, 0.00000000000000000000e+00) (0, 0, 0.00000000000000000000e+00) (0, 0, 0.00000000000000000000e+00) (0, 0, 0.00000000000000000000e+00) (0, 0, 0.00000000000000000000e+00) (0, 0, 0.00000000000000000000e+00) (0, 0, 0.00000000000000000000e+00) (0, 0, 0.00000000000000000000e+00) (0, 0, 0.00000000000000000000e+00) (0, 0, 0.00000000000000000000e+00) (0, 0, 0.00000000000000000000e+00) (0, 0, 0.00000000000000000000e+00) (0, 0, 0.00000000000000000000e+00) (0, 0, 0.00000000000000000000e+00) (0, 0, 0.00000000000000000000e+00) (0, 0, 0.00000000000000000000e+00) (0, 0, 0.00000000000000000000e+00) (0, 0, 0.00000000000000000000e+00) (0, 0, 0.00000000000000000000e+00) (0, 0, 0.00000000000000000000e+00) (0, 0, 0.00000000000000000000e+00) (0, 0, 0.00000000000000000000e+00) (0, 0, 0.00000000000000000000e+00) (0, 0, 0.00000000000000000000e+00) (0, 0, 0.00000000000000000000e+00) (0, 0, 0.00000000000000000000e+00) (0, 0, 0.00000000000000000000e+00) (0, 0, 0.00000000000000000000e+00) (0, 0, 0.00000000000000000000e+00) (0, 0, 0.00000000000000000000e+00) (0, 0, 0.00000000000000000000e+00) (0, 0, 0.00000000000000000000e+00) (0, 0, 0.00000000000000000000e+00) (0, 0, 0.00000000000000000000e+00) (0, 0, 0.00000000000000000000e+00) (0, 0, 0.00000000000000000000e+00) (0, 0, 0.00000000000000000000e+00) (0, 0, 0.00000000000000000000e+00) (0, 0, 0.00000000000000000000e+00) (0, 0, 0.00000000000000000000e+00) (0, 0, 0.00000000000000000000e+00) (0, 0, 0.00000000000000000000e+00) (0, 0, 0.00000000000000000000e+00) (0, 0, 0.00000000000000000000e+00) (0, 0, 0.00000000000000000000e+00) (0, 0, 0.00000000000000000000e+00) (0, 0, 0.00000000000000000000e+00) (0, 0, 0.00000000000000000000e+00) (0, 0, 0.00000000000000000000e+00) (0, 0, 0.00000000000000000000e+00) (0, 0, 0.00000000000000000000e+00) (0, 0, 0.00000000000000000000e+00) (0, 0, 0.00000000000000000000e+00) (0, 0, 0.00000000000000000000e+00) (192, 4, 5.00000000000000000000e-01) (192, 4, 5.00000000000000000000e-01) (192, 4, 5.00000000000000000000e-01) (192, 4, 5.00000000000000000000e-01) (192, 4, 5.00000000000000000000e-01) (192, 4, 5.00000000000000000000e-01) (192, 4, 5.00000000000000000000e-01) (192, 4, 5.00000000000000000000e-01) (192, 4, 5.00000000000000000000e-01) (192, 4, 5.00000000000000000000e-01) (0, 0, 0.00000000000000000000e+00) (11, 4, 5.00000000000000000000e-01) (11, 4, 5.00000000000000000000e-01) (11, 4, 5.00000000000000000000e-01) (11, 4, 5.00000000000000000000e-01) (11, 4, 5.00000000000000000000e-01) (0, 0, 0.00000000000000000000e+00) 
connections (connected_to_neuron, weight)=(0, -6.84595060348510742188e+00) (1, -7.37269878387451171875e+00) (2, 4.74368667602539062500e+00) (3, 4.13690757751464843750e+00) (4, -3.66446208953857421875e+00) (5, -6.72845745086669921875e+00) (6, 9.59937667846679687500e+00) (7, -9.97990512847900390625e+00) (8, -6.06360292434692382812e+00) (9, 4.57334899902343750000e+00) (10, -6.13825225830078125000e+00) (11, -1.86341381072998046875e+00) (12, 2.28820228576660156250e+00) (13, -4.34802341461181640625e+00) (14, -6.33575439453125000000e+00) (15, -3.69506311416625976562e+00) (16, -8.00130462646484375000e+00) (17, 3.58708763122558593750e+00) (18, 7.34214019775390625000e+00) (19, -2.95126008987426757812e+00) (20, -6.65566682815551757812e+00) (21, 3.14266777038574218750e+00) (22, -6.82669639587402343750e-01) (23, 3.83557224273681640625e+00) (24, -1.21355724334716796875e+00) (25, 6.46357536315917968750e-01) (26, 1.90836906433105468750e+00) (27, 6.84210014343261718750e+00) (28, 2.31787872314453125000e+00) (29, 6.23353385925292968750e+00) (30, -8.17538166046142578125e+00) (31, 5.47192764282226562500e+00) (32, 8.86083412170410156250e+00) (33, 6.56830596923828125000e+00) (34, -3.91163825988769531250e-01) (35, -4.80362796783447265625e+00) (36, 9.83984756469726562500e+00) (37, -7.91787147521972656250e-01) (38, -4.78353261947631835938e+00) (39, -6.22375488281250000000e+00) (40, -6.21843910217285156250e+00) (41, -9.21784400939941406250e-01) (42, 1.91283226013183593750e+00) (43, 6.06976318359375000000e+00) (44, 4.73019218444824218750e+00) (45, 5.57707786560058593750e+00) (46, -7.62529945373535156250e+00) (47, 6.72888755798339843750e+00) (48, -8.35835456848144531250e-01) (49, 9.71684074401855468750e+00) (50, -6.22237300872802734375e+00) (51, 2.50849723815917968750e+00) (52, 2.85950851440429687500e+00) (53, 3.09495639801025390625e+00) (54, -3.65593004226684570312e+00) (55, -8.35404872894287109375e+00) (56, -6.25868511199951171875e+00) (57, 8.25243759155273437500e+00) (58, 8.48805236816406250000e+00) (59, 6.05919265747070312500e+00) (60, 4.48597145080566406250e+00) (61, -9.68733024597167968750e+00) (62, 1.53112125396728515625e+00) (63, 3.34680557250976562500e+00) (64, 6.88097381591796875000e+00) (65, -8.86004161834716796875e+00) (66, 8.54317665100097656250e+00) (67, 6.72082328796386718750e+00) (68, 3.48171234130859375000e-01) (69, -6.24035501480102539062e+00) (70, -9.50293159484863281250e+00) (71, 4.12973117828369140625e+00) (72, 2.83786010742187500000e+00) (73, 2.40990066528320312500e+00) (74, 1.99495315551757812500e-01) (75, -2.43194818496704101562e+00) (76, -2.01302242279052734375e+00) (77, 2.57419586181640625000e+00) (78, -5.70306110382080078125e+00) (79, 7.15114212036132812500e+00) (80, 2.29103755950927734375e+00) (81, -1.92543411254882812500e+00) (82, -3.40359687805175781250e-01) (83, -4.84945344924926757812e+00) (84, -8.83047676086425781250e+00) (85, 6.00370979309082031250e+00) (86, -3.20350217819213867188e+00) (87, -5.08916187286376953125e+00) (88, 4.25614833831787109375e+00) (89, -4.71545028686523437500e+00) (90, -9.02996826171875000000e+00) (91, -1.25788021087646484375e+00) (92, -4.40278053283691406250e+00) (93, 2.50115394592285156250e+00) (94, -7.91107463836669921875e+00) (95, -7.52180528640747070312e+00) (96, 3.64111137390136718750e+00) (97, -9.36789703369140625000e+00) (98, 9.19901847839355468750e+00) (99, -6.01071643829345703125e+00) (100, -5.60825204849243164062e+00) (101, 9.69608688354492187500e+00) (102, 8.11901473999023437500e+00) (103, 7.22960853576660156250e+00) (104, 2.10598659515380859375e+00) (105, -1.68148899078369140625e+00) (106, -5.20234012603759765625e+00) (107, -9.90703582763671875000e+00) (108, -9.10729217529296875000e+00) (109, -9.05401229858398437500e-01) (110, 7.24410820007324218750e+00) (111, 3.18374538421630859375e+00) (112, 7.16916465759277343750e+00) (113, -3.09625291824340820312e+00) (114, 8.33429145812988281250e+00) (115, 8.33868789672851562500e+00) (116, -7.09254264831542968750e+00) (117, -4.86921024322509765625e+00) (118, -6.75047302246093750000e+00) (119, 7.16360473632812500000e+00) (120, 4.15339469909667968750e-01) (121, -5.78044128417968750000e+00) (122, -4.09427452087402343750e+00) (123, 6.01255798339843750000e+00) (124, 6.72071266174316406250e+00) (125, -2.00534963607788085938e+00) (126, 8.49075317382812500000e+00) (127, 3.61824989318847656250e-01) (128, -1.37324619293212890625e+00) (129, 7.68977165222167968750e+00) (130, 4.35110759735107421875e+00) (131, 3.01850223541259765625e+00) (132, 7.38585853576660156250e+00) (133, 2.47012329101562500000e+00) (134, 2.48109817504882812500e-01) (135, -5.08154869079589843750e-01) (136, -9.21136474609375000000e+00) (137, 5.04577064514160156250e+00) (138, -4.15189743041992187500e-01) (139, -8.31865692138671875000e+00) (140, -5.85963058471679687500e+00) (141, -3.17108297348022460938e+00) (142, 4.86508846282958984375e+00) (143, -8.69046592712402343750e+00) (144, 3.73266410827636718750e+00) (145, 3.19938087463378906250e+00) (146, 9.64822196960449218750e+00) (147, 6.64012145996093750000e+00) (148, 8.33017158508300781250e+00) (149, -7.10224962234497070312e+00) (150, 3.80372714996337890625e+00) (151, -1.25448989868164062500e+00) (152, -2.88269090652465820312e+00) (153, 9.70945167541503906250e+00) (154, -5.24193048477172851562e+00) (155, -6.16197776794433593750e+00) (156, -2.29589700698852539062e+00) (157, -6.75117588043212890625e+00) (158, 4.19984722137451171875e+00) (159, 6.33085632324218750000e+00) (160, -9.06140422821044921875e+00) (161, -1.44904422760009765625e+00) (162, -6.50640487670898437500e-01) (163, 8.32445526123046875000e+00) (164, -8.97891998291015625000e+00) (165, 9.59746932983398437500e+00) (166, -2.18370008468627929688e+00) (167, -8.19028472900390625000e+00) (168, 4.64323997497558593750e+00) (169, 7.40110969543457031250e+00) (170, -6.50894165039062500000e+00) (171, 8.78360748291015625000e+00) (172, -5.76997280120849609375e+00) (173, 8.35614585876464843750e+00) (174, -9.90685653686523437500e+00) (175, 7.96269226074218750000e+00) (176, 1.55552864074707031250e+00) (177, 9.74136734008789062500e+00) (178, 4.60281372070312500000e+00) (179, -1.14300727844238281250e-01) (180, -7.36088275909423828125e+00) (181, -1.59345912933349609375e+00) (182, 8.63120841979980468750e+00) (183, -2.43574142456054687500e-01) (184, -1.88400745391845703125e+00) (185, -6.61072063446044921875e+00) (186, 3.59444808959960937500e+00) (187, 5.82009696960449218750e+00) (188, -3.36189699172973632812e+00) (189, -2.20570468902587890625e+00) (190, 2.15095424652099609375e+00) (191, -2.42330074310302734375e+00) (0, 6.34525108337402343750e+00) (1, -8.49968719482421875000e+00) (2, -4.09884643554687500000e+00) (3, 7.36633110046386718750e+00) (4, -8.90221691131591796875e+00) (5, 3.71745300292968750000e+00) (6, 9.17604637145996093750e+00) (7, 5.74102306365966796875e+00) (8, 1.11856365203857421875e+00) (9, -7.33289527893066406250e+00) (10, 4.52463150024414062500e+00) (11, 5.34859085083007812500e+00) (12, -8.97674751281738281250e+00) (13, 4.61777400970458984375e+00) (14, 3.31128215789794921875e+00) (15, 2.57878017425537109375e+00) (16, 4.35914134979248046875e+00) (17, -2.08590412139892578125e+00) (18, -7.53552055358886718750e+00) (19, 6.99825859069824218750e+00) (20, 6.32063674926757812500e+00) (21, -8.90431118011474609375e+00) (22, -3.24531507492065429688e+00) (23, -5.56336927413940429688e+00) (24, -5.51503181457519531250e+00) (25, -9.65086650848388671875e+00) (26, -9.74327278137207031250e+00) (27, 1.12307071685791015625e+00) (28, -1.85657024383544921875e+00) (29, 2.40768051147460937500e+00) (30, 8.69976997375488281250e+00) (31, -5.51131868362426757812e+00) (32, 3.90799522399902343750e+00) (33, -5.39907646179199218750e+00) (34, -8.14498710632324218750e+00) (35, 5.00577831268310546875e+00) (36, 8.31837654113769531250e+00) (37, -8.96894073486328125000e+00) (38, 7.46799468994140625000e-01) (39, -5.63059806823730468750e-01) (40, -6.30183649063110351562e+00) (41, -4.72856807708740234375e+00) (42, -5.21446895599365234375e+00) (43, -5.27858448028564453125e+00) (44, 9.88920593261718750000e+00) (45, 8.09681320190429687500e+00) (46, 7.30019569396972656250e+00) (47, 4.24834823608398437500e+00) (48, -3.98908996582031250000e+00) (49, 9.76467514038085937500e+00) (50, 1.24660682678222656250e+00) (51, -7.66845321655273437500e+00) (52, -9.13963603973388671875e+00) (53, 8.00129318237304687500e+00) (54, -3.23182249069213867188e+00) (55, -4.65466737747192382812e+00) (56, 8.35042572021484375000e+00) (57, -2.97509479522705078125e+00) (58, 6.46840286254882812500e+00) (59, -3.50614356994628906250e+00) (60, 9.43258666992187500000e+00) (61, 5.16817283630371093750e+00) (62, 9.82537269592285156250e-01) (63, 3.34058189392089843750e+00) (64, 9.76909637451171875000e+00) (65, 2.83755016326904296875e+00) (66, -1.65364170074462890625e+00) (67, 8.08747291564941406250e+00) (68, 3.86860847473144531250e+00) (69, 9.09315872192382812500e+00) (70, -2.47558498382568359375e+00) (71, 7.56677246093750000000e+00) (72, -5.63540983200073242188e+00) (73, 2.30994606018066406250e+00) (74, -7.71181201934814453125e+00) (75, -5.74620294570922851562e+00) (76, 4.06760215759277343750e-01) (77, 9.58838462829589843750e+00) (78, 8.50214385986328125000e+00) (79, 6.41766929626464843750e+00) (80, 9.35305976867675781250e+00) (81, -2.51247406005859375000e-01) (82, 8.74921607971191406250e+00) (83, -9.78657627105712890625e+00) (84, -2.24995517730712890625e+00) (85, -4.48260498046875000000e+00) (86, -4.44124412536621093750e+00) (87, -3.89952850341796875000e+00) (88, 2.54230022430419921875e+00) (89, -7.97284030914306640625e+00) (90, 2.59432792663574218750e+00) (91, 1.97488689422607421875e+00) (92, 7.19533348083496093750e+00) (93, -6.42313480377197265625e+00) (94, -4.68453216552734375000e+00) (95, 6.96442985534667968750e+00) (96, 6.41441535949707031250e+00) (97, 3.66182708740234375000e+00) (98, 5.05190563201904296875e+00) (99, 2.83023834228515625000e-01) (100, 2.75498485565185546875e+00) (101, -7.42367887496948242188e+00) (102, -2.15020227432250976562e+00) (103, 7.11957550048828125000e+00) (104, 4.88626670837402343750e+00) (105, 1.37986183166503906250e-01) (106, -8.62662696838378906250e+00) (107, -4.70697212219238281250e+00) (108, -2.73630142211914062500e-01) (109, 9.87551689147949218750e+00) (110, -8.28930187225341796875e+00) (111, -9.20570373535156250000e-01) (112, -3.75729560852050781250e-01) (113, -9.54008483886718750000e+00) (114, -7.07146644592285156250e-01) (115, 7.37431526184082031250e+00) (116, -4.02268934249877929688e+00) (117, 4.85160923004150390625e+00) (118, -6.52521228790283203125e+00) (119, 8.51961135864257812500e+00) (120, 6.87876892089843750000e+00) (121, 6.06911468505859375000e+00) (122, 4.94498252868652343750e-01) (123, 4.07410240173339843750e+00) (124, 9.64598083496093750000e+00) (125, 5.80996513366699218750e+00) (126, 1.03853416442871093750e+00) (127, 6.06039619445800781250e+00) (128, -5.28207778930664062500e-01) (129, -3.90955972671508789062e+00) (130, -3.65657854080200195312e+00) (131, -7.77322292327880859375e+00) (132, -1.33323860168457031250e+00) (133, 4.19321918487548828125e+00) (134, 9.34635162353515625000e+00) (135, -6.44697141647338867188e+00) (136, -5.66879510879516601562e+00) (137, -9.28027439117431640625e+00) (138, -1.15394401550292968750e+00) (139, 4.05757522583007812500e+00) (140, -9.40475654602050781250e+00) (141, 5.56754112243652343750e-01) (142, -6.86299514770507812500e+00) (143, 2.19512939453125000000e-01) (144, 1.01666927337646484375e+00) (145, 2.42985820770263671875e+00) (146, -2.40617084503173828125e+00) (147, 6.99398040771484375000e+00) (148, -2.71853208541870117188e+00) (149, 1.06861686706542968750e+00) (150, 5.51359081268310546875e+00) (151, -5.83976268768310546875e+00) (152, -2.86226797103881835938e+00) (153, -3.99191141128540039062e+00) (154, 8.23433876037597656250e+00) (155, -3.21628713607788085938e+00) (156, -8.18194580078125000000e+00) (157, -7.27125167846679687500e-01) (158, -7.15589046478271484375e+00) (159, 1.28984546661376953125e+00) (160, 5.36331558227539062500e+00) (161, -8.12469482421875000000e-01) (162, 3.51662254333496093750e+00) (163, -5.96992397308349609375e+00) (164, -6.61924982070922851562e+00) (165, 2.86297512054443359375e+00) (166, -2.41689491271972656250e+00) (167, -2.28804492950439453125e+00) (168, 3.58270072937011718750e+00) (169, 6.42916107177734375000e+00) (170, -8.23046970367431640625e+00) (171, 4.17794418334960937500e+00) (172, -3.01408433914184570312e+00) (173, -5.09346485137939453125e+00) (174, -5.60254240036010742188e+00) (175, 8.00258445739746093750e+00) (176, 7.33639335632324218750e+00) (177, 1.99128723144531250000e+00) (178, 4.99656581878662109375e+00) (179, -5.38213872909545898438e+00) (180, -6.94009637832641601562e+00) (181, 5.10155677795410156250e-01) (182, -1.22190093994140625000e+00) (183, 1.97635650634765625000e-01) (184, 6.51824378967285156250e+00) (185, -2.98756074905395507812e+00) (186, 6.98134803771972656250e+00) (187, 8.33629798889160156250e+00) (188, 6.28531455993652343750e+00) (189, 9.82545852661132812500e+00) (190, -3.73855590820312500000e-01) (191, 1.64862823486328125000e+00) (0, -9.87010955810546875000e-01) (1, -6.85723304748535156250e+00) (2, 5.67870521545410156250e+00) (3, 2.39373874664306640625e+00) (4, 6.00574302673339843750e+00) (5, -6.73818969726562500000e+00) (6, -9.89430618286132812500e+00) (7, -4.11557197570800781250e-01) (8, 9.69097137451171875000e+00) (9, -8.12477588653564453125e+00) (10, -6.23361253738403320312e+00) (11, -3.32311153411865234375e+00) (12, -3.21824073791503906250e+00) (13, -1.83615493774414062500e+00) (14, -5.32052612304687500000e+00) (15, -5.88184738159179687500e+00) (16, -9.84486770629882812500e+00) (17, 9.67603874206542968750e+00) (18, -1.26398563385009765625e+00) (19, -6.78496456146240234375e+00) (20, 1.86195373535156250000e-01) (21, 7.51411247253417968750e+00) (22, 3.41267108917236328125e+00) (23, -3.29555940628051757812e+00) (24, -5.47344779968261718750e+00) (25, 3.94020080566406250000e-01) (26, -4.95926094055175781250e+00) (27, -9.18813419342041015625e+00) (28, 2.19477653503417968750e-01) (29, 4.66688251495361328125e+00) (30, 2.46049499511718750000e+00) (31, 9.23246574401855468750e+00) (32, 7.80964851379394531250e+00) (33, -1.86079978942871093750e+00) (34, 1.62620544433593750000e+00) (35, 3.81539249420166015625e+00) (36, 1.40101146697998046875e+00) (37, 1.73190021514892578125e+00) (38, -6.59616470336914062500e+00) (39, 1.09198284149169921875e+00) (40, 3.60712432861328125000e+00) (41, -2.82977724075317382812e+00) (42, 7.76887130737304687500e+00) (43, -9.61111640930175781250e+00) (44, 5.33406829833984375000e+00) (45, -7.55165386199951171875e+00) (46, -5.49296331405639648438e+00) (47, 5.48920059204101562500e+00) (48, -7.87561464309692382812e+00) (49, 3.24305057525634765625e+00) (50, 8.70423507690429687500e+00) (51, 2.31058120727539062500e+00) (52, 7.57164001464843750000e-01) (53, 2.11690807342529296875e+00) (54, 9.01502037048339843750e+00) (55, 5.28371524810791015625e+00) (56, -7.48907279968261718750e+00) (57, -5.94423913955688476562e+00) (58, 6.09558105468750000000e+00) (59, 2.73040485382080078125e+00) (60, 8.72264289855957031250e+00) (61, -1.44392299652099609375e+00) (62, 1.96287155151367187500e+00) (63, 6.53229331970214843750e+00) (64, 6.69527816772460937500e+00) (65, -6.41092252731323242188e+00) (66, 3.47685813903808593750e-01) (67, -1.90371036529541015625e+00) (68, 5.32097816467285156250e+00) (69, 3.75152111053466796875e+00) (70, 9.18827247619628906250e+00) (71, -1.07189750671386718750e+00) (72, -9.07825660705566406250e+00) (73, 6.95714378356933593750e+00) (74, -6.83013916015625000000e-01) (75, 6.25581169128417968750e+00) (76, 9.40549087524414062500e+00) (77, 3.82402324676513671875e+00) (78, 1.74501132965087890625e+00) (79, -8.47012329101562500000e+00) (80, -2.93292665481567382812e+00) (81, 4.49247360229492187500e-01) (82, 3.84045791625976562500e+00) (83, 7.82423782348632812500e+00) (84, -7.43384456634521484375e+00) (85, 2.85547924041748046875e+00) (86, 3.10795307159423828125e+00) (87, -4.92291736602783203125e+00) (88, 6.91123962402343750000e+00) (89, -7.96464920043945312500e-01) (90, 7.80748748779296875000e+00) (91, 5.63388442993164062500e+00) (92, 7.75961303710937500000e+00) (93, -2.29640960693359375000e-01) (94, 2.16617679595947265625e+00) (95, 4.45489025115966796875e+00) (96, 3.35943698883056640625e+00) (97, -7.48613739013671875000e+00) (98, -7.44882011413574218750e+00) (99, -1.31958580017089843750e+00) (100, 6.26538276672363281250e+00) (101, -8.26054668426513671875e+00) (102, 7.60851669311523437500e+00) (103, 7.18712806701660156250e+00) (104, 8.69659805297851562500e+00) (105, -3.07449769973754882812e+00) (106, 3.44293975830078125000e+00) (107, 8.10209083557128906250e+00) (108, -9.25047492980957031250e+00) (109, -4.81204891204833984375e+00) (110, 9.63196563720703125000e+00) (111, -2.18340110778808593750e+00) (112, 5.63719844818115234375e+00) (113, 3.47242450714111328125e+00) (114, -4.35916376113891601562e+00) (115, 8.20335388183593750000e+00) (116, -3.67209577560424804688e+00) (117, 8.74878883361816406250e+00) (118, -6.71956348419189453125e+00) (119, -6.76085567474365234375e+00) (120, -2.04767513275146484375e+00) (121, -8.91207599639892578125e+00) (122, 8.87302780151367187500e+00) (123, -4.28806304931640625000e+00) (124, 8.58283042907714843750e-01) (125, 1.03920555114746093750e+00) (126, -9.83317279815673828125e+00) (127, -5.78228044509887695312e+00) (128, 3.55306816101074218750e+00) (129, -7.28199195861816406250e+00) (130, 2.89813423156738281250e+00) (131, -1.81547164916992187500e-01) (132, -5.54253864288330078125e+00) (133, 5.06649971008300781250e-01) (134, -2.99441957473754882812e+00) (135, -6.84593963623046875000e+00) (136, 7.43215370178222656250e+00) (137, -9.55148029327392578125e+00) (138, -8.74384975433349609375e+00) (139, 8.18167686462402343750e+00) (140, -4.36352920532226562500e+00) (141, -9.11188316345214843750e+00) (142, -4.00172233581542968750e+00) (143, -8.72632980346679687500e+00) (144, 4.36054134368896484375e+00) (145, 1.63911342620849609375e+00) (146, 9.47702407836914062500e+00) (147, -9.31155395507812500000e+00) (148, 3.87903213500976562500e-01) (149, -7.24253845214843750000e+00) (150, -6.07240962982177734375e+00) (151, 8.34022712707519531250e+00) (152, -6.15461444854736328125e+00) (153, -7.19938087463378906250e+00) (154, -5.94783544540405273438e+00) (155, 4.70366859436035156250e+00) (156, 3.83982563018798828125e+00) (157, -5.78100776672363281250e+00) (158, 8.92138862609863281250e+00) (159, -2.60710525512695312500e+00) (160, -3.06299972534179687500e+00) (161, 1.81952190399169921875e+00) (162, 7.21134757995605468750e+00) (163, 1.39446163177490234375e+00) (164, -7.67382717132568359375e+00) (165, -5.78307199478149414062e+00) (166, 4.54852199554443359375e+00) (167, 9.75832557678222656250e+00) (168, -5.33455181121826171875e+00) (169, 5.80467224121093750000e+00) (170, 7.94000434875488281250e+00) (171, 3.01918983459472656250e-01) (172, 6.69278907775878906250e+00) (173, -6.06171798706054687500e+00) (174, 1.57558917999267578125e+00) (175, 1.05333042144775390625e+00) (176, 5.57739639282226562500e+00) (177, 1.05261325836181640625e+00) (178, 1.74177646636962890625e+00) (179, -4.03470087051391601562e+00) (180, 3.81007385253906250000e+00) (181, 5.66936683654785156250e+00) (182, -5.69447326660156250000e+00) (183, 7.65545845031738281250e+00) (184, 8.46998596191406250000e+00) (185, -1.64230918884277343750e+00) (186, 2.35912895202636718750e+00) (187, 2.30981063842773437500e+00) (188, 2.57668399810791015625e+00) (189, 1.28051662445068359375e+00) (190, 9.70270538330078125000e+00) (191, 9.51368331909179687500e+00) (0, -6.89996099472045898438e+00) (1, 6.91405296325683593750e+00) (2, 9.08144950866699218750e-01) (3, -4.57378816604614257812e+00) (4, -8.86901855468750000000e+00) (5, -4.54333305358886718750e+00) (6, -4.81546211242675781250e+00) (7, -4.20357131958007812500e+00) (8, -8.73866081237792968750e+00) (9, -6.87545776367187500000e+00) (10, 6.09834671020507812500e+00) (11, 7.95412826538085937500e+00) (12, -2.93717527389526367188e+00) (13, -2.32606315612792968750e+00) (14, -9.92541313171386718750e-01) (15, -7.35977888107299804688e+00) (16, 8.72654914855957031250e+00) (17, -9.25076389312744140625e+00) (18, -1.39447975158691406250e+00) (19, 2.53662586212158203125e+00) (20, 6.41860198974609375000e+00) (21, 2.91104698181152343750e+00) (22, 1.92085266113281250000e-01) (23, 4.88858795166015625000e+00) (24, -8.73126125335693359375e+00) (25, -7.44878530502319335938e+00) (26, -2.80160093307495117188e+00) (27, 3.84542179107666015625e+00) (28, 3.83173084259033203125e+00) (29, -3.09889507293701171875e+00) (30, 3.35910511016845703125e+00) (31, 6.93177032470703125000e+00) (32, -6.18484163284301757812e+00) (33, -5.73274898529052734375e+00) (34, -7.64201784133911132812e+00) (35, -5.05386066436767578125e+00) (36, -2.76082038879394531250e-01) (37, -2.45747995376586914062e+00) (38, 7.42568969726562500000e-01) (39, 9.85257148742675781250e-01) (40, 6.67062759399414062500e-01) (41, -3.15908336639404296875e+00) (42, -1.06061458587646484375e+00) (43, 7.72988700866699218750e+00) (44, 4.51485347747802734375e+00) (45, 7.94684410095214843750e+00) (46, -9.62989139556884765625e+00) (47, 3.24140548706054687500e+00) (48, 8.69607925415039062500e+00) (49, -1.02437114715576171875e+00) (50, -4.22196912765502929688e+00) (51, 5.11468315124511718750e+00) (52, -8.11332416534423828125e+00) (53, 5.97011661529541015625e+00) (54, 3.27110290527343750000e-03) (55, -6.84458589553833007812e+00) (56, 8.52133178710937500000e+00) (57, 7.20167160034179687500e+00) (58, 7.00083541870117187500e+00) (59, 2.35306262969970703125e+00) (60, -5.89722394943237304688e+00) (61, 3.59941482543945312500e-01) (62, -7.15167045593261718750e-01) (63, -2.08206558227539062500e+00) (64, 4.62719154357910156250e+00) (65, 1.64281558990478515625e+00) (66, 2.86407375335693359375e+00) (67, -5.64888954162597656250e+00) (68, 9.18533515930175781250e+00) (69, -6.39335727691650390625e+00) (70, 5.33636760711669921875e+00) (71, -1.47601127624511718750e-01) (72, 4.47559356689453125000e-01) (73, -5.72424650192260742188e+00) (74, -2.41771364212036132812e+00) (75, -5.03758668899536132812e+00) (76, -7.77740192413330078125e+00) (77, -2.04760503768920898438e+00) (78, 8.20381927490234375000e+00) (79, -9.08132076263427734375e+00) (80, 6.92802429199218750000e+00) (81, -6.01815128326416015625e+00) (82, 6.03336143493652343750e+00) (83, 8.81469917297363281250e+00) (84, 9.95196533203125000000e+00) (85, -3.96336698532104492188e+00) (86, -8.02988624572753906250e+00) (87, 8.47329711914062500000e+00) (88, -6.76169538497924804688e+00) (89, 8.97095108032226562500e+00) (90, 8.26359748840332031250e-01) (91, -2.65891933441162109375e+00) (92, -6.69108390808105468750e-01) (93, -9.88880729675292968750e+00) (94, 5.25901508331298828125e+00) (95, -6.04191493988037109375e+00) (96, 1.75400829315185546875e+00) (97, -1.87691116333007812500e+00) (98, -1.69080543518066406250e+00) (99, 9.39344406127929687500e-01) (100, 1.72973155975341796875e+00) (101, -6.35443687438964843750e+00) (102, -9.20825672149658203125e+00) (103, -7.82270956039428710938e+00) (104, -2.07868337631225585938e+00) (105, -1.62597084045410156250e+00) (106, -2.86029624938964843750e+00) (107, 1.43914222717285156250e-01) (108, 6.32642364501953125000e+00) (109, -4.65647840499877929688e+00) (110, 1.06259346008300781250e+00) (111, 3.25444793701171875000e+00) (112, -6.74629211425781250000e-01) (113, -2.90404462814331054688e+00) (114, 2.06914806365966796875e+00) (115, -7.22662925720214843750e-01) (116, 3.13258838653564453125e+00) (117, 4.03926277160644531250e+00) (118, -2.24936628341674804688e+00) (119, 6.37089347839355468750e+00) (120, 3.01021289825439453125e+00) (121, 8.57699394226074218750e+00) (122, -6.28802585601806640625e+00) (123, -7.65889501571655273438e+00) (124, 8.68818664550781250000e+00) (125, 8.97098922729492187500e+00) (126, -3.70080995559692382812e+00) (127, 4.42195892333984375000e-01) (128, -2.90592193603515625000e+00) (129, 4.60838508605957031250e+00) (130, -8.61845970153808593750e+00) (131, 8.82380867004394531250e+00) (132, 8.25394630432128906250e+00) (133, -7.82671737670898437500e+00) (134, -8.99889945983886718750e+00) (135, -3.82473611831665039062e+00) (136, 5.47312736511230468750e-01) (137, -1.85919570922851562500e+00) (138, 6.31917953491210937500e+00) (139, -3.12626361846923828125e+00) (140, 3.48432636260986328125e+00) (141, -2.61822748184204101562e+00) (142, -9.87181568145751953125e+00) (143, -7.19030284881591796875e+00) (144, 4.47772884368896484375e+00) (145, 2.19733333587646484375e+00) (146, 2.08703422546386718750e+00) (147, -2.38968324661254882812e+00) (148, -3.76340436935424804688e+00) (149, 9.83766746520996093750e+00) (150, -6.01878929138183593750e+00) (151, 9.24680709838867187500e+00) (152, 8.41466140747070312500e+00) (153, -2.30681562423706054688e+00) (154, -8.41208648681640625000e+00) (155, 7.10284996032714843750e+00) (156, -3.33582592010498046875e+00) (157, -2.11289691925048828125e+00) (158, -2.45495510101318359375e+00) (159, 3.75825309753417968750e+00) (160, -7.50451183319091796875e+00) (161, -1.07341480255126953125e+00) (162, 2.58206272125244140625e+00) (163, -9.25056362152099609375e+00) (164, 1.09986782073974609375e+00) (165, 3.58316135406494140625e+00) (166, -3.07529926300048828125e+00) (167, -8.35281944274902343750e+00) (168, -8.27603435516357421875e+00) (169, -6.75612068176269531250e+00) (170, -1.47908306121826171875e+00) (171, 5.20829200744628906250e+00) (172, 6.25652313232421875000e-01) (173, -1.35089874267578125000e+00) (174, 8.01798820495605468750e+00) (175, -4.89661931991577148438e+00) (176, -9.15356540679931640625e+00) (177, 1.05023384094238281250e-01) (178, 2.71369647979736328125e+00) (179, -2.91697025299072265625e+00) (180, -5.73081970214843750000e-02) (181, 6.69490814208984375000e+00) (182, -3.67016220092773437500e+00) (183, -1.64264583587646484375e+00) (184, -5.61190700531005859375e+00) (185, -2.08224821090698242188e+00) (186, -4.53979635238647460938e+00) (187, 1.05226707458496093750e+00) (188, 5.80485439300537109375e+00) (189, 3.00524902343750000000e+00) (190, -5.18948078155517578125e+00) (191, 8.30034255981445312500e+00) (0, -8.06816577911376953125e+00) (1, 7.39258193969726562500e+00) (2, 9.04977798461914062500e+00) (3, 3.03170204162597656250e+00) (4, 9.75743293762207031250e-01) (5, -4.02552032470703125000e+00) (6, 4.67888259887695312500e+00) (7, 2.69970893859863281250e+00) (8, -7.81641006469726562500e-01) (9, -6.80020093917846679688e+00) (10, -2.09199857711791992188e+00) (11, 9.84401130676269531250e+00) (12, 1.84889984130859375000e+00) (13, -4.07400989532470703125e+00) (14, -5.05260753631591796875e+00) (15, 2.69533538818359375000e+00) (16, 6.03101348876953125000e+00) (17, 7.66108894348144531250e+00) (18, 9.77836418151855468750e+00) (19, -4.02629423141479492188e+00) (20, 4.35599803924560546875e+00) (21, -3.89179706573486328125e+00) (22, 4.33105945587158203125e+00) (23, 8.74409103393554687500e+00) (24, 4.02595424652099609375e+00) (25, 9.79126358032226562500e+00) (26, -2.03642845153808593750e-01) (27, -1.69191360473632812500e-01) (28, 2.79651260375976562500e+00) (29, 4.60687732696533203125e+00) (30, -1.86884784698486328125e+00) (31, 4.72834682464599609375e+00) (32, 1.99945926666259765625e+00) (33, -2.81906843185424804688e+00) (34, -2.23995161056518554688e+00) (35, -7.02479791641235351562e+00) (36, 3.15541172027587890625e+00) (37, -7.56106853485107421875e+00) (38, 5.67491149902343750000e+00) (39, -7.62622928619384765625e+00) (40, -4.36126947402954101562e+00) (41, -6.41708755493164062500e+00) (42, -7.78221702575683593750e+00) (43, 7.48763084411621093750e+00) (44, -4.91097450256347656250e-01) (45, -2.83482503890991210938e+00) (46, 1.82966232299804687500e-01) (47, -4.46008253097534179688e+00) (48, -5.17373514175415039062e+00) (49, -3.86695861816406250000e-02) (50, 1.51362323760986328125e+00) (51, 9.18226242065429687500e+00) (52, 6.06953430175781250000e+00) (53, -4.15531778335571289062e+00) (54, 7.92635345458984375000e+00) (55, 9.54875946044921875000e-02) (56, -4.36405420303344726562e+00) (57, -2.27728796005249023438e+00) (58, 9.92629814147949218750e+00) (59, 8.43245887756347656250e+00) (60, -7.67041063308715820312e+00) (61, -1.94255065917968750000e+00) (62, 3.16080474853515625000e+00) (63, 4.32904815673828125000e+00) (64, 5.23838138580322265625e+00) (65, -9.07914638519287109375e+00) (66, 7.30424880981445312500e+00) (67, -1.60620784759521484375e+00) (68, -6.64021492004394531250e+00) (69, 2.97916126251220703125e+00) (70, 7.67563819885253906250e-01) (71, -1.00148487091064453125e+00) (72, 6.56207466125488281250e+00) (73, 2.98534584045410156250e+00) (74, -3.51385354995727539062e+00) (75, -3.92902278900146484375e+00) (76, -9.84947872161865234375e+00) (77, 6.66911125183105468750e+00) (78, 1.61089515686035156250e+00) (79, -5.02321386337280273438e+00) (80, -3.36955690383911132812e+00) (81, -6.87548255920410156250e+00) (82, -5.84095096588134765625e+00) (83, -7.30002307891845703125e+00) (84, -1.03079986572265625000e+00) (85, -7.91459703445434570312e+00) (86, 2.79546451568603515625e+00) (87, 4.60514640808105468750e+00) (88, -1.91884994506835937500e-01) (89, 2.72176265716552734375e+00) (90, 3.03760433197021484375e+00) (91, 2.13770484924316406250e+00) (92, -9.22078704833984375000e+00) (93, -3.80159091949462890625e+00) (94, -3.53324794769287109375e+00) (95, 6.01759338378906250000e+00) (96, -2.88073682785034179688e+00) (97, -6.22899723052978515625e+00) (98, -5.58861398696899414062e+00) (99, 4.79048728942871093750e-01) (100, 6.75016403198242187500e+00) (101, 5.17894840240478515625e+00) (102, 9.47756385803222656250e+00) (103, 3.31223869323730468750e+00) (104, -1.83570480346679687500e+00) (105, -4.03628969192504882812e+00) (106, 9.38321495056152343750e+00) (107, -1.68518447875976562500e+00) (108, -7.36717700958251953125e+00) (109, 9.94111061096191406250e-01) (110, 3.29160213470458984375e+00) (111, -7.36733436584472656250e-01) (112, 4.11862850189208984375e+00) (113, 7.45065116882324218750e+00) (114, 1.96324348449707031250e+00) (115, -6.91217088699340820312e+00) (116, 9.53605461120605468750e+00) (117, -5.24129104614257812500e+00) (118, 7.69297409057617187500e+00) (119, -6.55831336975097656250e-01) (120, 7.48047256469726562500e+00) (121, 7.30580329895019531250e-01) (122, -8.51812648773193359375e+00) (123, 8.25968360900878906250e+00) (124, 6.92898750305175781250e+00) (125, -2.05137395858764648438e+00) (126, 4.27727794647216796875e+00) (127, -5.95174789428710937500e+00) (128, 1.71962833404541015625e+00) (129, 8.68866348266601562500e+00) (130, 4.52730083465576171875e+00) (131, -1.53020668029785156250e+00) (132, 3.86761283874511718750e+00) (133, 4.00486469268798828125e+00) (134, -8.21796798706054687500e+00) (135, -7.96809196472167968750e+00) (136, 9.96857452392578125000e+00) (137, -8.83475112915039062500e+00) (138, 3.46723556518554687500e-01) (139, -7.39860248565673828125e+00) (140, 2.15935897827148437500e+00) (141, -6.36167478561401367188e+00) (142, 1.86466312408447265625e+00) (143, -3.72201156616210937500e+00) (144, -8.91102409362792968750e+00) (145, -6.17209243774414062500e+00) (146, -6.34182929992675781250e-01) (147, -9.37496948242187500000e+00) (148, -1.41338348388671875000e+00) (149, -2.94120740890502929688e+00) (150, -3.08008193969726562500e-02) (151, -3.93291187286376953125e+00) (152, 7.78937149047851562500e+00) (153, 1.45107269287109375000e+00) (154, -5.67322731018066406250e+00) (155, 4.71836185455322265625e+00) (156, 9.39969825744628906250e+00) (157, 8.60404968261718750000e+00) (158, 8.76661300659179687500e+00) (159, 1.11932849884033203125e+00) (160, 7.29271316528320312500e+00) (161, 3.29391479492187500000e+00) (162, 9.58912086486816406250e+00) (163, 1.16032695770263671875e+00) (164, -2.70122098922729492188e+00) (165, -8.62884616851806640625e+00) (166, 3.19223499298095703125e+00) (167, -2.73264646530151367188e+00) (168, -7.46359777450561523438e+00) (169, -6.46104145050048828125e+00) (170, -1.31249427795410156250e-01) (171, 4.69576263427734375000e+00) (172, -2.82271575927734375000e+00) (173, -8.26658535003662109375e+00) (174, -9.02624988555908203125e+00) (175, -1.73373985290527343750e+00) (176, -4.43867731094360351562e+00) (177, 3.39567184448242187500e-01) (178, -1.10870933532714843750e+00) (179, 4.14793872833251953125e+00) (180, 7.39836120605468750000e+00) (181, 8.86049079895019531250e+00) (182, -9.78497314453125000000e+00) (183, 5.18773269653320312500e+00) (184, 3.11564445495605468750e-01) (185, -5.45819997787475585938e+00) (186, -9.39054489135742187500e-02) (187, -2.88737297058105468750e-01) (188, -6.85414934158325195312e+00) (189, -1.32729148864746093750e+00) (190, -9.16940784454345703125e+00) (191, -9.56143474578857421875e+00) (0, -8.03337669372558593750e+00) (1, -9.58028602600097656250e+00) (2, 1.59889221191406250000e+00) (3, -7.34598159790039062500e-01) (4, -8.20913219451904296875e+00) (5, -5.20887184143066406250e+00) (6, 6.53275489807128906250e+00) (7, -5.67273044586181640625e+00) (8, -1.66991329193115234375e+00) (9, -3.59849357604980468750e+00) (10, 9.02303123474121093750e+00) (11, 5.50737094879150390625e+00) (12, -1.86507892608642578125e+00) (13, 9.99678230285644531250e+00) (14, -6.22636795043945312500e+00) (15, 3.69624328613281250000e+00) (16, 3.36350440979003906250e-01) (17, 2.66492271423339843750e+00) (18, -2.15581703186035156250e+00) (19, -2.26528930664062500000e+00) (20, 1.52541255950927734375e+00) (21, -1.94079017639160156250e+00) (22, -7.07755661010742187500e+00) (23, -8.16302299499511718750e+00) (24, 2.60100936889648437500e+00) (25, 2.82853698730468750000e+00) (26, 1.54823970794677734375e+00) (27, 5.74686050415039062500e+00) (28, -8.49875354766845703125e+00) (29, 2.37883186340332031250e+00) (30, 6.18542480468750000000e+00) (31, -6.53213024139404296875e+00) (32, 2.79854488372802734375e+00) (33, -2.21568155288696289062e+00) (34, 2.73327255249023437500e+00) (35, 4.58941364288330078125e+00) (36, 2.57544612884521484375e+00) (37, -7.33972549438476562500e-01) (38, 8.91668319702148437500e+00) (39, -9.09446620941162109375e+00) (40, 5.66753387451171875000e+00) (41, 7.93971443176269531250e+00) (42, 6.41290473937988281250e+00) (43, -6.19754457473754882812e+00) (44, 7.93649673461914062500e+00) (45, -9.81346321105957031250e+00) (46, 7.49869918823242187500e+00) (47, -1.72715282440185546875e+00) (48, 2.85145854949951171875e+00) (49, -4.65711784362792968750e+00) (50, 6.00755691528320312500e+00) (51, -5.62312746047973632812e+00) (52, 3.40209197998046875000e+00) (53, 8.93000030517578125000e+00) (54, -3.78615045547485351562e+00) (55, -3.99689817428588867188e+00) (56, 1.75853824615478515625e+00) (57, 7.76208877563476562500e+00) (58, -8.25003719329833984375e+00) (59, 3.25978469848632812500e+00) (60, 1.40921592712402343750e-01) (61, 7.93538856506347656250e+00) (62, 6.72765541076660156250e+00) (63, -7.06053209304809570312e+00) (64, -4.28029298782348632812e+00) (65, -5.39073944091796875000e-01) (66, 7.52888107299804687500e+00) (67, 8.29515266418457031250e+00) (68, 8.72695350646972656250e+00) (69, 6.44556427001953125000e+00) (70, 9.20068740844726562500e+00) (71, 4.39448738098144531250e+00) (72, 4.38527965545654296875e+00) (73, 5.61359119415283203125e+00) (74, 8.19694328308105468750e+00) (75, 2.32177639007568359375e+00) (76, 5.80012798309326171875e+00) (77, 5.69564247131347656250e+00) (78, -9.40537643432617187500e+00) (79, -1.34841251373291015625e+00) (80, -8.96147537231445312500e+00) (81, 6.60218048095703125000e+00) (82, 3.02846050262451171875e+00) (83, 4.44061660766601562500e+00) (84, 5.53218078613281250000e+00) (85, 9.24230957031250000000e+00) (86, -9.55628108978271484375e+00) (87, -2.70928049087524414062e+00) (88, 7.00440025329589843750e+00) (89, -7.80631828308105468750e+00) (90, -9.44949531555175781250e+00) (91, -2.85467767715454101562e+00) (92, -9.87092971801757812500e+00) (93, 7.27816009521484375000e+00) (94, 8.47902297973632812500e-02) (95, -4.15122318267822265625e+00) (96, -3.26091432571411132812e+00) (97, -2.38632822036743164062e+00) (98, -5.85606956481933593750e+00) (99, -4.53396081924438476562e+00) (100, -5.94076395034790039062e+00) (101, -6.65538215637207031250e+00) (102, 9.86052703857421875000e+00) (103, 8.44451522827148437500e+00) (104, 8.95820999145507812500e+00) (105, 8.05747032165527343750e+00) (106, 7.66292572021484375000e-01) (107, 4.75833892822265625000e+00) (108, 3.75311279296875000000e+00) (109, 1.36091613769531250000e+00) (110, -6.59007358551025390625e+00) (111, 4.79163742065429687500e+00) (112, -2.03690290451049804688e+00) (113, 6.43838691711425781250e+00) (114, -7.67745971679687500000e-01) (115, -6.50472164154052734375e+00) (116, 5.68069648742675781250e+00) (117, -3.24027061462402343750e-01) (118, 7.85998344421386718750e-01) (119, 2.68509769439697265625e+00) (120, 1.86965465545654296875e+00) (121, 1.33650302886962890625e+00) (122, 9.83041763305664062500e+00) (123, 1.99872398376464843750e+00) (124, -1.38533687591552734375e+00) (125, -8.47911834716796875000e-02) (126, 7.84749984741210937500e+00) (127, 5.35374832153320312500e+00) (128, 7.52888107299804687500e+00) (129, -8.00856876373291015625e+00) (130, -9.18021202087402343750e+00) (131, -8.41188240051269531250e+00) (132, -4.66395092010498046875e+00) (133, -9.31968498229980468750e+00) (134, -9.96736621856689453125e+00) (135, -5.70574045181274414062e+00) (136, 8.73778343200683593750e+00) (137, 7.98926353454589843750e-01) (138, 9.05259895324707031250e+00) (139, 2.49089813232421875000e+00) (140, -7.84015750885009765625e+00) (141, -7.53747558593750000000e+00) (142, -2.71746444702148437500e+00) (143, 1.22939109802246093750e-01) (144, 8.90090942382812500000e+00) (145, 6.51478767395019531250e+00) (146, 3.61821842193603515625e+00) (147, 4.58160781860351562500e+00) (148, -3.80923748016357421875e+00) (149, -5.59578323364257812500e+00) (150, -2.73329496383666992188e+00) (151, 8.06041526794433593750e+00) (152, 5.74071979522705078125e+00) (153, -2.90287637710571289062e+00) (154, 5.91411590576171875000e-02) (155, -5.64461708068847656250e+00) (156, 7.01233291625976562500e+00) (157, -2.09335851669311523438e+00) (158, 9.70913124084472656250e+00) (159, 4.54121494293212890625e+00) (160, -1.01926803588867187500e-01) (161, -9.47108078002929687500e+00) (162, 6.12933158874511718750e+00) (163, 5.23412227630615234375e+00) (164, -8.79076576232910156250e+00) (165, 6.16196632385253906250e+00) (166, 9.52838134765625000000e+00) (167, 9.94701957702636718750e+00) (168, -3.03910732269287109375e+00) (169, 8.58098030090332031250e+00) (170, 2.43791675567626953125e+00) (171, -8.79264831542968750000e-01) (172, -8.95649623870849609375e+00) (173, 9.72045326232910156250e+00) (174, 9.24367523193359375000e+00) (175, 9.94441413879394531250e+00) (176, 6.23524093627929687500e+00) (177, 2.86189270019531250000e+00) (178, 4.52602291107177734375e+00) (179, -7.57399559020996093750e+00) (180, 7.26610946655273437500e+00) (181, -8.20727252960205078125e+00) (182, -9.51357936859130859375e+00) (183, 3.00683021545410156250e+00) (184, -1.11014842987060546875e+00) (185, 5.45560836791992187500e-01) (186, 7.36221313476562500000e+00) (187, -4.09781455993652343750e+00) (188, 8.45220375061035156250e+00) (189, 7.07134437561035156250e+00) (190, -9.55659866333007812500e+00) (191, -1.64972400665283203125e+00) (0, 7.60026359558105468750e+00) (1, 6.57273292541503906250e+00) (2, -6.41560173034667968750e+00) (3, 8.80949783325195312500e+00) (4, 2.73470020294189453125e+00) (5, -6.88721942901611328125e+00) (6, 8.75651741027832031250e+00) (7, 9.69559288024902343750e+00) (8, -8.30624008178710937500e+00) (9, 1.19443511962890625000e+00) (10, -1.18367195129394531250e+00) (11, -7.26273536682128906250e+00) (12, 9.14888381958007812500e-01) (13, -1.93999671936035156250e+00) (14, -7.31832027435302734375e+00) (15, -2.84987020492553710938e+00) (16, -9.07810306549072265625e+00) (17, 7.20770263671875000000e+00) (18, -4.23866271972656250000e-01) (19, 8.18800735473632812500e+00) (20, 9.00042915344238281250e+00) (21, 6.25553131103515625000e-02) (22, 1.19483661651611328125e+00) (23, -2.10971784591674804688e+00) (24, -9.39188385009765625000e+00) (25, -1.44294834136962890625e+00) (26, 3.79246807098388671875e+00) (27, 9.06031990051269531250e+00) (28, -4.37160396575927734375e+00) (29, 4.23586845397949218750e+00) (30, -2.58940458297729492188e+00) (31, -6.77133941650390625000e+00) (32, 8.08602333068847656250e-01) (33, 9.94993209838867187500e-01) (34, -7.96184062957763671875e+00) (35, -6.45669698715209960938e+00) (36, 4.10777473449707031250e+00) (37, -9.20532226562500000000e+00) (38, -6.76110363006591796875e+00) (39, 5.80153465270996093750e+00) (40, 1.98911190032958984375e+00) (41, 2.05522537231445312500e+00) (42, 8.53879737854003906250e+00) (43, -7.09599971771240234375e+00) (44, -9.88477134704589843750e+00) (45, -8.77952194213867187500e+00) (46, 5.41305541992187500000e-02) (47, -8.96287536621093750000e+00) (48, 8.42818069458007812500e+00) (49, 9.63026428222656250000e+00) (50, 9.22513198852539062500e+00) (51, 7.42860984802246093750e+00) (52, -3.07180404663085937500e-01) (53, 4.19969558715820312500e-01) (54, -4.68110752105712890625e+00) (55, 3.00936698913574218750e-01) (56, 8.97702026367187500000e+00) (57, 9.11136054992675781250e+00) (58, -6.38744354248046875000e-01) (59, -5.39458274841308593750e+00) (60, 3.34722900390625000000e+00) (61, 6.77185058593750000000e+00) (62, -2.16592216491699218750e+00) (63, -5.84416866302490234375e+00) (64, -2.23315477371215820312e+00) (65, -1.27761840820312500000e-01) (66, -2.30086565017700195312e+00) (67, -8.12538051605224609375e+00) (68, 6.66914939880371093750e-01) (69, 9.38030242919921875000e-01) (70, 7.67615318298339843750e+00) (71, -7.34397220611572265625e+00) (72, -7.00674438476562500000e+00) (73, 6.21495246887207031250e+00) (74, -4.43997192382812500000e+00) (75, -6.89151573181152343750e+00) (76, 7.43543052673339843750e+00) (77, 5.61415767669677734375e+00) (78, -5.85439109802246093750e+00) (79, 5.86361026763916015625e+00) (80, 5.24442291259765625000e+00) (81, -6.62925910949707031250e+00) (82, 3.29222106933593750000e+00) (83, -5.06275749206542968750e+00) (84, 3.79070949554443359375e+00) (85, 8.61111450195312500000e+00) (86, 5.23817920684814453125e+00) (87, 2.76773071289062500000e+00) (88, 7.72247314453125000000e+00) (89, -5.40056514739990234375e+00) (90, 7.37314987182617187500e+00) (91, 1.06970310211181640625e+00) (92, -8.62871360778808593750e+00) (93, -4.79277324676513671875e+00) (94, 5.22553539276123046875e+00) (95, -8.61868858337402343750e-01) (96, 5.07946491241455078125e+00) (97, -7.07533025741577148438e+00) (98, 1.01275062561035156250e+00) (99, -4.25362014770507812500e+00) (100, 3.86270046234130859375e+00) (101, -1.31109523773193359375e+00) (102, -1.59759235382080078125e+00) (103, 6.85595512390136718750e+00) (104, -5.09614276885986328125e+00) (105, 3.96243572235107421875e+00) (106, 9.96444129943847656250e+00) (107, -7.66071224212646484375e+00) (108, -4.23406600952148437500e-01) (109, -5.88995027542114257812e+00) (110, 8.20289802551269531250e+00) (111, -5.17898368835449218750e+00) (112, -2.51920938491821289062e+00) (113, 1.49512004852294921875e+00) (114, -2.41741180419921875000e-01) (115, -8.72849845886230468750e+00) (116, 1.06234550476074218750e-01) (117, -5.00356245040893554688e+00) (118, 4.03923225402832031250e+00) (119, -2.17129135131835937500e+00) (120, -4.04128074645996093750e-01) (121, 1.41238212585449218750e+00) (122, 8.89841079711914062500e+00) (123, 9.67158317565917968750e-01) (124, 6.61960792541503906250e+00) (125, 4.12394714355468750000e+00) (126, -9.89471054077148437500e+00) (127, 1.69907283782958984375e+00) (128, 7.04861640930175781250e+00) (129, 1.11804008483886718750e+00) (130, 7.44545364379882812500e+00) (131, 9.11317825317382812500e-01) (132, 9.80694580078125000000e+00) (133, -4.15213871002197265625e+00) (134, -2.23272609710693359375e+00) (135, -5.28919744491577148438e+00) (136, 9.81029510498046875000e+00) (137, -2.26828575134277343750e+00) (138, -2.94990968704223632812e+00) (139, -6.13109588623046875000e-01) (140, 1.84176445007324218750e+00) (141, -4.74701070785522460938e+00) (142, 4.20790672302246093750e+00) (143, 9.32255554199218750000e+00) (144, 6.74810981750488281250e+00) (145, -6.03383445739746093750e+00) (146, -9.40594387054443359375e+00) (147, -3.14565563201904296875e+00) (148, -1.03739643096923828125e+00) (149, 4.63328933715820312500e+00) (150, 4.68305301666259765625e+00) (151, 8.55847549438476562500e+00) (152, -3.95432949066162109375e+00) (153, 3.58146572113037109375e+00) (154, -4.74366188049316406250e-01) (155, -7.33472061157226562500e+00) (156, -2.29458761215209960938e+00) (157, -3.69076728820800781250e-01) (158, 4.36435317993164062500e+00) (159, -5.24597072601318359375e+00) (160, -9.25103569030761718750e+00) (161, 1.80980682373046875000e+00) (162, 5.66534614562988281250e+00) (163, -9.44409084320068359375e+00) (164, 7.65766716003417968750e+00) (165, -6.56737947463989257812e+00) (166, -4.73328828811645507812e+00) (167, 7.46796417236328125000e+00) (168, 1.16433525085449218750e+00) (169, 2.31680297851562500000e+00) (170, -3.14514446258544921875e+00) (171, -6.99390029907226562500e+00) (172, 7.56979179382324218750e+00) (173, -8.93723773956298828125e+00) (174, -7.67134571075439453125e+00) (175, 4.31790256500244140625e+00) (176, -4.97107219696044921875e+00) (177, -7.07728958129882812500e+00) (178, -8.82775306701660156250e+00) (179, 3.99153137207031250000e+00) (180, 7.55599975585937500000e+00) (181, 5.85529994964599609375e+00) (182, 2.55000686645507812500e+00) (183, -6.39832925796508789062e+00) (184, -5.63235282897949218750e-01) (185, -7.92435836791992187500e+00) (186, -3.73304986953735351562e+00) (187, 7.14217758178710937500e+00) (188, 1.70656585693359375000e+00) (189, -9.36869716644287109375e+00) (190, -8.10379314422607421875e+00) (191, 2.45553016662597656250e+00) (0, 2.44110965728759765625e+00) (1, 7.56155395507812500000e+00) (2, 3.01143836975097656250e+00) (3, 9.87777709960937500000e-02) (4, -9.00582599639892578125e+00) (5, 8.27815055847167968750e+00) (6, -2.43325757980346679688e+00) (7, 2.15850925445556640625e+00) (8, 5.94954490661621093750e-01) (9, 4.42159748077392578125e+00) (10, 5.16460895538330078125e+00) (11, -1.83525371551513671875e+00) (12, 5.48435878753662109375e+00) (13, 7.49326133728027343750e+00) (14, -7.51735115051269531250e+00) (15, -9.48671245574951171875e+00) (16, -9.58402633666992187500e+00) (17, -6.34510421752929687500e+00) (18, 4.50481891632080078125e+00) (19, 7.97197341918945312500e+00) (20, 9.51019477844238281250e+00) (21, -2.94517278671264648438e+00) (22, -8.42635536193847656250e+00) (23, -1.05303955078125000000e+00) (24, -8.69531631469726562500e-01) (25, -2.15940523147583007812e+00) (26, -3.91086244583129882812e+00) (27, -9.16296577453613281250e+00) (28, -1.52810192108154296875e+00) (29, -2.01465559005737304688e+00) (30, 3.29256439208984375000e+00) (31, -9.08699226379394531250e+00) (32, -4.45310163497924804688e+00) (33, -3.69599580764770507812e+00) (34, 1.01178550720214843750e+00) (35, -3.45892810821533203125e+00) (36, -5.41784429550170898438e+00) (37, 8.57852745056152343750e+00) (38, 8.69957923889160156250e+00) (39, 5.17710876464843750000e+00) (40, 3.00012588500976562500e+00) (41, 3.86418914794921875000e+00) (42, -6.65814399719238281250e+00) (43, -1.51551437377929687500e+00) (44, 1.35745239257812500000e+00) (45, -4.17549514770507812500e+00) (46, -1.00222587585449218750e+00) (47, 1.77342605590820312500e+00) (48, -5.20599365234375000000e-01) (49, -6.49740695953369140625e+00) (50, -2.54600524902343750000e-01) (51, -1.01040458679199218750e+00) (52, 5.57419776916503906250e-01) (53, 1.31904506683349609375e+00) (54, 7.93655586242675781250e+00) (55, 9.68788909912109375000e+00) (56, 9.15963935852050781250e+00) (57, -5.97430515289306640625e+00) (58, -9.47507572174072265625e+00) (59, -2.36846351623535156250e+00) (60, 2.01103878021240234375e+00) (61, 3.81748867034912109375e+00) (62, -1.45545578002929687500e+00) (63, 7.55793571472167968750e+00) (64, -9.87850761413574218750e+00) (65, 9.55632972717285156250e+00) (66, -5.90099096298217773438e+00) (67, -5.29635190963745117188e+00) (68, 8.13485908508300781250e+00) (69, -7.20140933990478515625e+00) (70, 9.88075637817382812500e+00) (71, 1.13498592376708984375e+00) (72, 6.66277885437011718750e+00) (73, -6.77738618850708007812e+00) (74, 9.61947059631347656250e+00) (75, -1.97976779937744140625e+00) (76, -9.52881813049316406250e-01) (77, -1.38275527954101562500e+00) (78, 9.79365730285644531250e+00) (79, 8.52651977539062500000e+00) (80, 2.11983776092529296875e+00) (81, -4.60942268371582031250e-01) (82, -2.48388481140136718750e+00) (83, -7.32274150848388671875e+00) (84, -9.14189815521240234375e+00) (85, -4.54732847213745117188e+00) (86, -7.63485240936279296875e+00) (87, -9.98225879669189453125e+00) (88, -5.21634101867675781250e-01) (89, -7.10992813110351562500e+00) (90, -2.35072183609008789062e+00) (91, -8.51059436798095703125e+00) (92, 6.70755958557128906250e+00) (93, 6.19382286071777343750e+00) (94, 9.04734420776367187500e+00) (95, 6.82905197143554687500e+00) (96, 5.75015258789062500000e+00) (97, -6.85364723205566406250e+00) (98, -8.46729850769042968750e+00) (99, 3.88501262664794921875e+00) (100, -4.05505657196044921875e+00) (101, -8.58654117584228515625e+00) (102, -4.98000288009643554688e+00) (103, -7.39227676391601562500e+00) (104, -5.36392736434936523438e+00) (105, -5.36053133010864257812e+00) (106, 6.27955436706542968750e-01) (107, 3.68319129943847656250e+00) (108, 3.25671291351318359375e+00) (109, 4.21613693237304687500e-01) (110, 2.20971107482910156250e+00) (111, -4.62344837188720703125e+00) (112, 9.96067047119140625000e+00) (113, 9.72582626342773437500e+00) (114, -1.94618988037109375000e+00) (115, -9.18122577667236328125e+00) (116, -4.82150268554687500000e+00) (117, 4.18958663940429687500e-01) (118, -9.16348457336425781250e+00) (119, 4.65686416625976562500e+00) (120, 3.30902957916259765625e+00) (121, -1.51420688629150390625e+00) (122, 6.14626884460449218750e+00) (123, 1.65901184082031250000e-02) (124, -5.32038402557373046875e+00) (125, 5.19361400604248046875e+00) (126, -3.15435695648193359375e+00) (127, -9.57023048400878906250e+00) (128, 8.33996582031250000000e+00) (129, -1.62165641784667968750e+00) (130, 4.31478118896484375000e+00) (131, -5.71509027481079101562e+00) (132, -2.08197593688964843750e-01) (133, 9.33477973937988281250e+00) (134, -3.10736703872680664062e+00) (135, 4.42787551879882812500e+00) (136, -6.02575206756591796875e+00) (137, 7.52058792114257812500e+00) (138, -1.88893318176269531250e+00) (139, 7.23096084594726562500e+00) (140, -2.05779838562011718750e+00) (141, -9.67922210693359375000e+00) (142, -7.39248657226562500000e+00) (143, -2.09712696075439453125e+00) (144, -9.95339679718017578125e+00) (145, 6.61324501037597656250e-01) (146, -1.27835369110107421875e+00) (147, -4.77489900588989257812e+00) (148, -8.91971778869628906250e+00) (149, -4.41838264465332031250e-01) (150, 9.88196372985839843750e+00) (151, 4.38931179046630859375e+00) (152, 8.04395484924316406250e+00) (153, 6.02823638916015625000e+00) (154, -5.59409809112548828125e+00) (155, -7.27642917633056640625e+00) (156, 1.22184848785400390625e+00) (157, 1.25154495239257812500e+00) (158, -6.84665966033935546875e+00) (159, -4.38184738159179687500e-01) (160, 9.62988853454589843750e+00) (161, 7.46812248229980468750e+00) (162, 3.84672546386718750000e+00) (163, -5.78308105468750000000e-01) (164, 6.80290222167968750000e+00) (165, -9.26064205169677734375e+00) (166, -6.15043258666992187500e+00) (167, -9.22284984588623046875e+00) (168, 8.25994491577148437500e+00) (169, 1.96063423156738281250e+00) (170, 8.00811195373535156250e+00) (171, -3.79785299301147460938e+00) (172, 2.28141212463378906250e+00) (173, -9.38437461853027343750e+00) (174, 4.10501956939697265625e+00) (175, 2.32801532745361328125e+00) (176, 1.27694988250732421875e+00) (177, -7.17333316802978515625e+00) (178, 7.55311775207519531250e+00) (179, 2.35723114013671875000e+00) (180, 2.38482856750488281250e+00) (181, 7.43508148193359375000e+00) (182, -3.25345659255981445312e+00) (183, 4.28783416748046875000e-01) (184, 3.46331787109375000000e+00) (185, 1.15244483947753906250e+00) (186, 3.15235328674316406250e+00) (187, -5.31483268737792968750e+00) (188, -7.59600925445556640625e+00) (189, 6.30569458007812500000e+00) (190, 4.24698352813720703125e+00) (191, -7.96612071990966796875e+00) (0, 3.77381706237792968750e+00) (1, -1.90629100799560546875e+00) (2, 1.45557117462158203125e+00) (3, 5.76717376708984375000e-01) (4, -1.16693305969238281250e+00) (5, 5.30513858795166015625e+00) (6, 1.35386848449707031250e+00) (7, -2.90698766708374023438e+00) (8, -2.73422718048095703125e+00) (9, -6.38020515441894531250e-01) (10, 3.29515933990478515625e+00) (11, 9.54718589782714843750e+00) (12, -2.23951339721679687500e-02) (13, -2.59982013702392578125e+00) (14, 1.87520122528076171875e+00) (15, -8.74544525146484375000e+00) (16, 2.26846694946289062500e-01) (17, -5.71681976318359375000e-01) (18, 3.61178588867187500000e+00) (19, -7.38832473754882812500e+00) (20, -3.13659954071044921875e+00) (21, -9.64167022705078125000e+00) (22, 3.04045772552490234375e+00) (23, -9.67328071594238281250e+00) (24, 1.51077461242675781250e+00) (25, -3.80718755722045898438e+00) (26, -4.98811388015747070312e+00) (27, 3.91476631164550781250e+00) (28, -7.50149345397949218750e+00) (29, 9.25886917114257812500e+00) (30, 5.94864463806152343750e+00) (31, 6.27232360839843750000e+00) (32, -2.64742183685302734375e+00) (33, -2.59578371047973632812e+00) (34, -3.15095853805541992188e+00) (35, 6.18564414978027343750e+00) (36, -7.29064464569091796875e+00) (37, 8.20290946960449218750e+00) (38, -6.72134304046630859375e+00) (39, -2.48718261718750000000e-02) (40, -2.43511104583740234375e+00) (41, 6.57381629943847656250e+00) (42, -4.77686882019042968750e-01) (43, 7.54249382019042968750e+00) (44, -6.02600336074829101562e+00) (45, -8.60248565673828125000e+00) (46, 8.79704856872558593750e+00) (47, 4.20084381103515625000e+00) (48, 8.25833320617675781250e-01) (49, 2.40883445739746093750e+00) (50, 6.81251907348632812500e+00) (51, 7.68923377990722656250e+00) (52, 2.76716423034667968750e+00) (53, -1.47023200988769531250e-01) (54, 8.01595115661621093750e+00) (55, -5.72205972671508789062e+00) (56, 6.04578971862792968750e+00) (57, -6.97216129302978515625e+00) (58, 8.19270515441894531250e+00) (59, 8.54429626464843750000e+00) (60, -7.71329212188720703125e+00) (61, 4.14135169982910156250e+00) (62, 4.81661891937255859375e+00) (63, -3.60713958740234375000e-01) (64, -8.45443153381347656250e+00) (65, -8.33433914184570312500e+00) (66, -4.17506885528564453125e+00) (67, -5.74507617950439453125e+00) (68, 9.86857032775878906250e+00) (69, -8.96411895751953125000e-01) (70, 4.23005199432373046875e+00) (71, -2.56653976440429687500e+00) (72, -4.32259511947631835938e+00) (73, -6.24763393402099609375e+00) (74, -5.02404546737670898438e+00) (75, -3.48598480224609375000e-01) (76, -4.85011959075927734375e+00) (77, -6.22699642181396484375e+00) (78, -6.14775514602661132812e+00) (79, 5.97571372985839843750e+00) (80, 6.18183898925781250000e+00) (81, -9.33523654937744140625e+00) (82, 3.66494750976562500000e+00) (83, -1.05099678039550781250e+00) (84, 5.17740249633789062500e-01) (85, 1.68089962005615234375e+00) (86, 3.22694396972656250000e+00) (87, -3.43647050857543945312e+00) (88, 4.70873832702636718750e+00) (89, 1.41965007781982421875e+00) (90, -4.89217472076416015625e+00) (91, 6.99544715881347656250e+00) (92, -4.43899774551391601562e+00) (93, 9.92444419860839843750e+00) (94, -3.36526679992675781250e+00) (95, -2.89342880249023437500e+00) (96, -8.40989398956298828125e+00) (97, 2.45966434478759765625e+00) (98, 1.36149501800537109375e+00) (99, -8.54132366180419921875e+00) (100, -8.43674755096435546875e+00) (101, -4.40845251083374023438e+00) (102, -1.10786342620849609375e+00) (103, -2.75934267044067382812e+00) (104, -6.56085968017578125000e-01) (105, 3.86809062957763671875e+00) (106, 6.89205932617187500000e+00) (107, 4.49379444122314453125e+00) (108, 7.64109420776367187500e+00) (109, -9.25569629669189453125e+00) (110, 4.69508171081542968750e-01) (111, 3.82293415069580078125e+00) (112, -8.59093284606933593750e+00) (113, -5.86554431915283203125e+00) (114, -7.22806167602539062500e+00) (115, 1.92680740356445312500e+00) (116, 5.81535530090332031250e+00) (117, 5.99888229370117187500e+00) (118, 8.49033737182617187500e+00) (119, 5.24093627929687500000e-01) (120, -7.44217967987060546875e+00) (121, -6.40183782577514648438e+00) (122, -2.48045969009399414062e+00) (123, 2.97953605651855468750e+00) (124, -6.47739315032958984375e+00) (125, 4.15427303314208984375e+00) (126, -9.91389274597167968750e+00) (127, -4.88728713989257812500e+00) (128, -3.38606262207031250000e+00) (129, 1.44760227203369140625e+00) (130, -3.42860984802246093750e+00) (131, -1.82281017303466796875e+00) (132, 7.03915023803710937500e+00) (133, 5.46352767944335937500e+00) (134, 5.41784667968750000000e+00) (135, -3.61693620681762695312e+00) (136, -6.68381690979003906250e-01) (137, 2.30990600585937500000e+00) (138, -9.12314224243164062500e+00) (139, -3.02728605270385742188e+00) (140, 3.05420970916748046875e+00) (141, 1.34636592864990234375e+00) (142, -9.20435142517089843750e+00) (143, 4.46327781677246093750e+00) (144, 5.48082065582275390625e+00) (145, -6.43241405487060546875e+00) (146, -3.60991477966308593750e+00) (147, 1.29617691040039062500e+00) (148, 9.56646919250488281250e+00) (149, -5.11957788467407226562e+00) (150, -8.17972946166992187500e+00) (151, -3.01499843597412109375e+00) (152, -1.52141571044921875000e+00) (153, -6.60188674926757812500e-01) (154, 9.96453666687011718750e+00) (155, 2.00119113922119140625e+00) (156, -6.50591516494750976562e+00) (157, -9.94935512542724609375e+00) (158, 7.11390495300292968750e+00) (159, 1.08022689819335937500e-01) (160, 1.49824714660644531250e+00) (161, -6.31470489501953125000e+00) (162, 8.28521156311035156250e+00) (163, -1.46260261535644531250e+00) (164, 9.14882087707519531250e+00) (165, 3.70305919647216796875e+00) (166, 4.92046070098876953125e+00) (167, -1.51955986022949218750e+00) (168, -3.98703527450561523438e+00) (169, 5.79731845855712890625e+00) (170, 5.45315456390380859375e+00) (171, 9.06717491149902343750e+00) (172, -2.85631561279296875000e+00) (173, 6.24880218505859375000e+00) (174, 3.53045177459716796875e+00) (175, -7.37549304962158203125e+00) (176, 9.81638908386230468750e+00) (177, 9.92053794860839843750e+00) (178, 3.92068386077880859375e+00) (179, 9.38285827636718750000e+00) (180, -5.19904041290283203125e+00) (181, 5.74095439910888671875e+00) (182, -3.63214015960693359375e+00) (183, 3.27954387664794921875e+00) (184, -4.91923475265502929688e+00) (185, -3.66760253906250000000e+00) (186, -4.71926403045654296875e+00) (187, -1.42514991760253906250e+00) (188, -3.61695766448974609375e+00) (189, -7.60535907745361328125e+00) (190, 8.68287086486816406250e+00) (191, 7.88128852844238281250e+00) (0, -3.92006444931030273438e+00) (1, 6.96808433532714843750e+00) (2, -3.58131313323974609375e+00) (3, -4.77124214172363281250e+00) (4, 6.71143531799316406250e-01) (5, -8.66085243225097656250e+00) (6, 3.70919799804687500000e+00) (7, 6.68410682678222656250e+00) (8, 7.13646697998046875000e+00) (9, -8.37647438049316406250e-01) (10, 5.75128269195556640625e+00) (11, -5.71984815597534179688e+00) (12, -4.58884429931640625000e+00) (13, -7.18264579772949218750e-01) (14, -3.09534215927124023438e+00) (15, -4.77245473861694335938e+00) (16, -7.97727584838867187500e-01) (17, -9.17465877532958984375e+00) (18, -5.38959693908691406250e+00) (19, 4.00323295593261718750e+00) (20, 6.56629562377929687500e+00) (21, 9.78263854980468750000e-01) (22, -2.71722316741943359375e+00) (23, -8.35293769836425781250e+00) (24, 7.31066131591796875000e+00) (25, 2.56351375579833984375e+00) (26, 2.21911430358886718750e-01) (27, -6.30629730224609375000e+00) (28, 4.95815372467041015625e+00) (29, -1.09521484375000000000e+00) (30, -8.42500782012939453125e+00) (31, -8.96191024780273437500e+00) (32, -4.12713050842285156250e+00) (33, -2.00632047653198242188e+00) (34, -3.73315286636352539062e+00) (35, 6.54401206970214843750e+00) (36, -6.67172431945800781250e-01) (37, 9.97604370117187500000e+00) (38, 3.22812080383300781250e+00) (39, -3.53070545196533203125e+00) (40, -8.61601829528808593750e-01) (41, -1.02059650421142578125e+00) (42, 7.49445915222167968750e-01) (43, 4.54955482482910156250e+00) (44, 8.26113700866699218750e+00) (45, 7.65410423278808593750e+00) (46, 9.77709960937500000000e+00) (47, -2.53658819198608398438e+00) (48, 8.47944641113281250000e+00) (49, -5.61249732971191406250e+00) (50, -8.53335571289062500000e+00) (51, 5.04574203491210937500e+00) (52, 5.36576652526855468750e+00) (53, -1.25057888031005859375e+00) (54, 6.69280433654785156250e+00) (55, 2.67642593383789062500e+00) (56, -8.68706607818603515625e+00) (57, -3.08528423309326171875e+00) (58, 6.37012863159179687500e+00) (59, 6.27108764648437500000e+00) (60, 5.81950092315673828125e+00) (61, 7.94512176513671875000e+00) (62, 7.30917739868164062500e+00) (63, -8.30762958526611328125e+00) (64, -4.06119823455810546875e+00) (65, -6.42397546768188476562e+00) (66, 8.23638153076171875000e+00) (67, 5.27162933349609375000e+00) (68, -6.44793033599853515625e+00) (69, 1.46450233459472656250e+00) (70, -8.25907611846923828125e+00) (71, 2.69046783447265625000e+00) (72, -9.55609416961669921875e+00) (73, 2.49036979675292968750e+00) (74, -2.75997781753540039062e+00) (75, 8.70504379272460937500e+00) (76, 1.44474029541015625000e-01) (77, -2.98287820816040039062e+00) (78, -3.83154392242431640625e+00) (79, -1.37608051300048828125e+00) (80, 1.40462398529052734375e+00) (81, -2.36489963531494140625e+00) (82, -6.33033847808837890625e+00) (83, -3.22960996627807617188e+00) (84, 6.38452148437500000000e+00) (85, -9.63753509521484375000e+00) (86, 9.44681549072265625000e+00) (87, 7.69745635986328125000e+00) (88, -2.72281885147094726562e+00) (89, 5.81694602966308593750e+00) (90, 3.96854400634765625000e+00) (91, -6.90331792831420898438e+00) (92, 3.76206779479980468750e+00) (93, 1.27772235870361328125e+00) (94, -5.21094799041748046875e+00) (95, 9.70086860656738281250e+00) (96, 4.85374641418457031250e+00) (97, -6.97456502914428710938e+00) (98, 4.97249794006347656250e+00) (99, 8.40581703186035156250e+00) (100, 4.48993778228759765625e+00) (101, 6.71342277526855468750e+00) (102, 1.09628391265869140625e+00) (103, 4.93384361267089843750e+00) (104, -7.96208381652832031250e-01) (105, 8.33630561828613281250e+00) (106, 3.63888835906982421875e+00) (107, 9.34826660156250000000e+00) (108, -4.64657211303710937500e+00) (109, 9.80734443664550781250e+00) (110, -2.02781391143798828125e+00) (111, 6.75805282592773437500e+00) (112, -2.55755472183227539062e+00) (113, 1.64184761047363281250e+00) (114, -6.47155714035034179688e+00) (115, -6.17303276062011718750e+00) (116, 2.00431346893310546875e+00) (117, -7.02474021911621093750e+00) (118, -8.47557640075683593750e+00) (119, 9.28149414062500000000e+00) (120, 8.79220581054687500000e+00) (121, 5.49296760559082031250e+00) (122, -7.62182378768920898438e+00) (123, 2.55427360534667968750e+00) (124, -3.22931051254272460938e+00) (125, -2.83277177810668945312e+00) (126, 2.25514316558837890625e+00) (127, -8.37556362152099609375e+00) (128, 1.92663192749023437500e-01) (129, -2.77235746383666992188e+00) (130, -9.96974754333496093750e+00) (131, -5.31739902496337890625e+00) (132, -6.05893516540527343750e+00) (133, 1.12653732299804687500e+00) (134, 9.61644554138183593750e+00) (135, 3.14485645294189453125e+00) (136, -5.37157058715820312500e-01) (137, 3.25533390045166015625e+00) (138, 2.49312400817871093750e+00) (139, 4.81627178192138671875e+00) (140, 3.06267833709716796875e+00) (141, -9.53469085693359375000e+00) (142, 1.57432460784912109375e+00) (143, -9.49487590789794921875e+00) (144, 2.10715675354003906250e+00) (145, 5.10276794433593750000e+00) (146, -5.66790914535522460938e+00) (147, -5.88853025436401367188e+00) (148, 8.07802772521972656250e+00) (149, -4.14348602294921875000e+00) (150, -6.60703563690185546875e+00) (151, 6.87023162841796875000e+00) (152, -8.65051841735839843750e+00) (153, -4.22885942459106445312e+00) (154, -5.75492858886718750000e-01) (155, -1.87982845306396484375e+00) (156, 2.93836975097656250000e+00) (157, -8.32034873962402343750e+00) (158, -2.55393028259277343750e-01) (159, -6.86896800994873046875e+00) (160, -1.09270668029785156250e+00) (161, -2.25139617919921875000e-01) (162, -2.18636655807495117188e+00) (163, 2.84835815429687500000e+00) (164, -9.09860324859619140625e+00) (165, -2.56992149353027343750e+00) (166, -4.00678443908691406250e+00) (167, 3.64240646362304687500e-01) (168, -9.31458759307861328125e+00) (169, 8.48633766174316406250e+00) (170, -4.81948804855346679688e+00) (171, 3.74808979034423828125e+00) (172, 8.95164871215820312500e+00) (173, 6.75483703613281250000e+00) (174, 4.25321483612060546875e+00) (175, 1.05880451202392578125e+00) (176, 1.85760402679443359375e+00) (177, 8.58530426025390625000e+00) (178, 5.17027473449707031250e+00) (179, -6.43692016601562500000e-02) (180, -5.55818033218383789062e+00) (181, 8.56324005126953125000e+00) (182, -3.19413566589355468750e+00) (183, -4.20869827270507812500e+00) (184, -5.66561985015869140625e+00) (185, 6.23037147521972656250e+00) (186, 3.91147232055664062500e+00) (187, 7.27274894714355468750e+00) (188, 7.91002273559570312500e+00) (189, -6.34391975402832031250e+00) (190, -9.59621810913085937500e+00) (191, -3.18268442153930664062e+00) (192, 3.43093967437744140625e+00) (193, -1.78258514404296875000e+00) (194, 9.66567420959472656250e+00) (195, 4.33233737945556640625e+00) (196, 5.64749336242675781250e+00) (197, -4.34111070632934570312e+00) (198, -5.30342245101928710938e+00) (199, 6.33290481567382812500e+00) (200, -5.85477209091186523438e+00) (201, -1.22910499572753906250e-01) (202, 8.09965133666992187500e-02) (192, -6.90312385559082031250e+00) (193, -3.36807394027709960938e+00) (194, -5.66578912734985351562e+00) (195, 4.15568065643310546875e+00) (196, 8.48953056335449218750e+00) (197, -7.08048343658447265625e+00) (198, -6.74043655395507812500e-01) (199, -1.57483863830566406250e+00) (200, -2.63866424560546875000e+00) (201, -2.11080360412597656250e+00) (202, 5.23102664947509765625e+00) (192, 3.15263748168945312500e+00) (193, 2.22357654571533203125e+00) (194, 1.46139812469482421875e+00) (195, -2.93589019775390625000e+00) (196, -5.03674507141113281250e-01) (197, -6.28579139709472656250e-01) (198, 7.20191001892089843750e-01) (199, -9.98935699462890625000e-02) (200, 6.18873596191406250000e+00) (201, -5.84886932373046875000e+00) (202, 8.11752128601074218750e+00) (192, 5.85441112518310546875e+00) (193, 8.48346710205078125000e+00) (194, 3.76501560211181640625e+00) (195, -8.48670005798339843750e+00) (196, -6.81995487213134765625e+00) (197, 9.79204177856445312500e-02) (198, -4.34147167205810546875e+00) (199, 3.05713558197021484375e+00) (200, -9.82108306884765625000e+00) (201, -1.24459552764892578125e+00) (202, 9.68906211853027343750e+00) (192, -5.48687219619750976562e+00) (193, -7.08891487121582031250e+00) (194, 8.17859077453613281250e+00) (195, -2.56735563278198242188e+00) (196, 2.23704242706298828125e+00) (197, -3.39624691009521484375e+00) (198, 4.79397964477539062500e+00) (199, -9.87376213073730468750e+00) (200, -8.16522121429443359375e+00) (201, -2.05338239669799804688e+00) (202, 2.34981441497802734375e+00) 
