FANN_FLO_2.1
num_layers=3
learning_rate=0.700000
connection_rate=1.000000
network_type=0
learning_momentum=0.000000
training_algorithm=2
train_error_function=1
train_stop_function=0
cascade_output_change_fraction=0.010000
quickprop_decay=-0.000100
quickprop_mu=1.750000
rprop_increase_factor=1.200000
rprop_decrease_factor=0.500000
rprop_delta_min=0.000000
rprop_delta_max=50.000000
rprop_delta_zero=0.100000
cascade_output_stagnation_epochs=12
cascade_candidate_change_fraction=0.010000
cascade_candidate_stagnation_epochs=12
cascade_max_out_epochs=150
cascade_min_out_epochs=50
cascade_max_cand_epochs=150
cascade_min_cand_epochs=50
cascade_num_candidate_groups=2
bit_fail_limit=3.49999994039535522461e-01
cascade_candidate_limit=1.00000000000000000000e+03
cascade_weight_multiplier=4.00000005960464477539e-01
cascade_activation_functions_count=10
cascade_activation_functions=3 5 7 8 10 11 14 15 16 17 
cascade_activation_steepnesses_count=4
cascade_activation_steepnesses=2.50000000000000000000e-01 5.00000000000000000000e-01 7.50000000000000000000e-01 1.00000000000000000000e+00 
layer_sizes=192 11 6 
scale_included=0
neurons (num_inputs, activation_function, activation_steepness)=(0, 0, 0.00000000000000000000e+00) (0, 0, 0.00000000000000000000e+00) (0, 0, 0.00000000000000000000e+00) (0, 0, 0.00000000000000000000e+00) (0, 0, 0.00000000000000000000e+00) (0, 0, 0.00000000000000000000e+00) (0, 0, 0.00000000000000000000e+00) (0, 0, 0.00000000000000000000e+00) (0, 0, 0.00000000000000000000e+00) (0, 0, 0.00000000000000000000e+00) (0, 0, 0.00000000000000000000e+00) (0, 0, 0.00000000000000000000e+00) (0, 0, 0.00000000000000000000e+00) (0, 0, 0.00000000000000000000e+00) (0, 0, 0.00000000000000000000e+00) (0, 0, 0.00000000000000000000e+00) (0, 0, 0.00000000000000000000e+00) (0, 0, 0.00000000000000000000e+00) (0, 0, 0.00000000000000000000e+00) (0, 0, 0.00000000000000000000e+00) (0, 0, 0.00000000000000000000e+00) (0, 0, 0.00000000000000000000e+00) (0, 0, 0.00000000000000000000e+00) (0, 0, 0.00000000000000000000e+00) (0, 0, 0.00000000000000000000e+00) (0, 0, 0.00000000000000000000e+00) (0, 0, 0.00000000000000000000e+00) (0, 0, 0.00000000000000000000e+00) (0, 0, 0.00000000000000000000e+00) (0, 0, 0.00000000000000000000e+00) (0, 0, 0.00000000000000000000e+00) (0, 0, 0.00000000000000000000e+00) (0, 0, 0.00000000000000000000e+00) (0, 0, 0.00000000000000000000e+00) (0, 0, 0.00000000000000000000e+00) (0, 0, 0.00000000000000000000e+00) (0, 0, 0.00000000000000000000e+00) (0, 0, 0.00000000000000000000e+00) (0, 0, 0.00000000000000000000e+00) (0, 0, 0.00000000000000000000e+00) (0, 0, 0.00000000000000000000e+00) (0, 0, 0.00000000000000000000e+00) (0, 0, 0.00000000000000000000e+00) (0, 0, 0.00000000000000000000e+00) (0, 0, 0.00000000000000000000e+00) (0, 0, 0.00000000000000000000e+00) (0, 0, 0.00000000000000000000e+00) (0, 0, 0.00000000000000000000e+00) (0, 0, 0.00000000000000000000e+00) (0, 0, 0.00000000000000000000e+00) (0, 0, 0.00000000000000000000e+00) (0, 0, 0.00000000000000000000e+00) (0, 0, 0.00000000000000000000e+00) (0, 0, 0.00000000000000000000e+00) (0, 0, 0.00000000000000000000e+00) (0, 0, 0.00000000000000000000e+00) (0, 0, 0.00000000000000000000e+00) (0, 0, 0.00000000000000000000e+00) (0, 0, 0.00000000000000000000e+00) (0, 0, 0.00000000000000000000e+00) (0, 0, 0.00000000000000000000e+00) (0, 0, 0.00000000000000000000e+00) (0, 0, 0.00000000000000000000e+00) (0, 0, 0.00000000000000000000e+00) (0, 0, 0.00000000000000000000e+00) (0, 0, 0.00000000000000000000e+00) (0, 0, 0.00000000000000000000e+00) (0, 0, 0.00000000000000000000e+00) (0, 0, 0.00000000000000000000e+00) (0, 0, 0.00000000000000000000e+00) (0, 0, 0.00000000000000000000e+00) (0, 0, 0.00000000000000000000e+00) (0, 0, 0.00000000000000000000e+00) (0, 0, 0.00000000000000000000e+00) (0, 0, 0.00000000000000000000e+00) (0, 0, 0.00000000000000000000e+00) (0, 0, 0.00000000000000000000e+00) (0, 0, 0.00000000000000000000e+00) (0, 0, 0.00000000000000000000e+00) (0, 0, 0.00000000000000000000e+00) (0, 0, 0.00000000000000000000e+00) (0, 0, 0.00000000000000000000e+00) (0, 0, 0.00000000000000000000e+00) (0, 0, 0.00000000000000000000e+00) (0, 0, 0.00000000000000000000e+00) (0, 0, 0.00000000000000000000e+00) (0, 0, 0.00000000000000000000e+00) (0, 0, 0.00000000000000000000e+00) (0, 0, 0.00000000000000000000e+00) (0, 0, 0.00000000000000000000e+00) (0, 0, 0.00000000000000000000e+00) (0, 0, 0.00000000000000000000e+00) (0, 0, 0.00000000000000000000e+00) (0, 0, 0.00000000000000000000e+00) (0, 0, 0.00000000000000000000e+00) (0, 0, 0.00000000000000000000e+00) (0, 0, 0.00000000000000000000e+00) (0, 0, 0.00000000000000000000e+00) (0, 0, 0.00000000000000000000e+00) (0, 0, 0.00000000000000000000e+00) (0, 0, 0.00000000000000000000e+00) (0, 0, 0.00000000000000000000e+00) (0, 0, 0.00000000000000000000e+00) (0, 0, 0.00000000000000000000e+00) (0, 0, 0.00000000000000000000e+00) (0, 0, 0.00000000000000000000e+00) (0, 0, 0.00000000000000000000e+00) (0, 0, 0.00000000000000000000e+00) (0, 0, 0.00000000000000000000e+00) (0, 0, 0.00000000000000000000e+00) (0, 0, 0.00000000000000000000e+00) (0, 0, 0.00000000000000000000e+00) (0, 0, 0.00000000000000000000e+00) (0, 0, 0.00000000000000000000e+00) (0, 0, 0.00000000000000000000e+00) (0, 0, 0.00000000000000000000e+00) (0, 0, 0.00000000000000000000e+00) (0, 0, 0.00000000000000000000e+00) (0, 0, 0.00000000000000000000e+00) (0, 0, 0.00000000000000000000e+00) (0, 0, 0.00000000000000000000e+00) (0, 0, 0.00000000000000000000e+00) (0, 0, 0.00000000000000000000e+00) (0, 0, 0.00000000000000000000e+00) (0, 0, 0.00000000000000000000e+00) (0, 0, 0.00000000000000000000e+00) (0, 0, 0.00000000000000000000e+00) (0, 0, 0.00000000000000000000e+00) (0, 0, 0.00000000000000000000e+00) (0, 0, 0.00000000000000000000e+00) (0, 0, 0.00000000000000000000e+00) (0, 0, 0.00000000000000000000e+00) (0, 0, 0.00000000000000000000e+00) (0, 0, 0.00000000000000000000e+00) (0, 0, 0.00000000000000000000e+00) (0, 0, 0.00000000000000000000e+00) (0, 0, 0.00000000000000000000e+00) (0, 0, 0.00000000000000000000e+00) (0, 0, 0.00000000000000000000e+00) (0, 0, 0.00000000000000000000e+00) (0, 0, 0.00000000000000000000e+00) (0, 0, 0.00000000000000000000e+00) (0, 0, 0.00000000000000000000e+00) (0, 0, 0.00000000000000000000e+00) (0, 0, 0.00000000000000000000e+00) (0, 0, 0.00000000000000000000e+00) (0, 0, 0.00000000000000000000e+00) (0, 0, 0.00000000000000000000e+00) (0, 0, 0.00000000000000000000e+00) (0, 0, 0.00000000000000000000e+00) (0, 0, 0.00000000000000000000e+00) (0, 0, 0.00000000000000000000e+00) (0, 0, 0.00000000000000000000e+00) (0, 0, 0.00000000000000000000e+00) (0, 0, 0.00000000000000000000e+00) (0, 0, 0.00000000000000000000e+00) (0, 0, 0.00000000000000000000e+00) (0, 0, 0.00000000000000000000e+00) (0, 0, 0.00000000000000000000e+00) (0, 0, 0.00000000000000000000e+00) (0, 0, 0.00000000000000000000e+00) (0, 0, 0.00000000000000000000e+00) (0, 0, 0.00000000000000000000e+00) (0, 0, 0.00000000000000000000e+00) (0, 0, 0.00000000000000000000e+00) (0, 0, 0.00000000000000000000e+00) (0, 0, 0.00000000000000000000e+00) (0, 0, 0.00000000000000000000e+00) (0, 0, 0.00000000000000000000e+00) (0, 0, 0.00000000000000000000e+00) (0, 0, 0.00000000000000000000e+00) (0, 0, 0.00000000000000000000e+00) (0, 0, 0.00000000000000000000e+00) (0, 0, 0.00000000000000000000e+00) (0, 0, 0.00000000000000000000e+00) (0, 0, 0.00000000000000000000e+00) (0, 0, 0.00000000000000000000e+00) (0, 0, 0.00000000000000000000e+00) (0, 0, 0.00000000000000000000e+00) (0, 0, 0.00000000000000000000e+00) (0, 0, 0.00000000000000000000e+00) (0, 0, 0.00000000000000000000e+00) (0, 0, 0.00000000000000000000e+00) (0, 0, 0.00000000000000000000e+00) (0, 0, 0.00000000000000000000e+00) (0, 0, 0.00000000000000000000e+00) (0, 0, 0.00000000000000000000e+00) (0, 0, 0.00000000000000000000e+00) (0, 0, 0.00000000000000000000e+00) (0, 0, 0.00000000000000000000e+00) (0, 0, 0.00000000000000000000e+00) (0, 0, 0.00000000000000000000e+00) (192, 4, 5.00000000000000000000e-01) (192, 4, 5.00000000000000000000e-01) (192, 4, 5.00000000000000000000e-01) (192, 4, 5.00000000000000000000e-01) (192, 4, 5.00000000000000000000e-01) (192, 4, 5.00000000000000000000e-01) (192, 4, 5.00000000000000000000e-01) (192, 4, 5.00000000000000000000e-01) (192, 4, 5.00000000000000000000e-01) (192, 4, 5.00000000000000000000e-01) (0, 0, 0.00000000000000000000e+00) (11, 4, 5.00000000000000000000e-01) (11, 4, 5.00000000000000000000e-01) (11, 4, 5.00000000000000000000e-01) (11, 4, 5.00000000000000000000e-01) (11, 4, 5.00000000000000000000e-01) (0, 0, 0.00000000000000000000e+00) 
connections (connected_to_neuron, weight)=(0, -6.44170188903808593750e+00) (1, 7.62995529174804687500e+00) (2, -2.32507848739624023438e+00) (3, -1.95044803619384765625e+00) (4, -1.27610111236572265625e+00) (5, 1.77560424804687500000e+00) (6, -5.54366970062255859375e+00) (7, -7.91292190551757812500e-02) (8, -9.45580387115478515625e+00) (9, -4.64024257659912109375e+00) (10, 6.27454757690429687500e+00) (11, -5.34243059158325195312e+00) (12, 4.77714157104492187500e+00) (13, 1.17370796203613281250e+00) (14, -7.22733926773071289062e+00) (15, 8.21509361267089843750e-01) (16, -7.73823881149291992188e+00) (17, 2.87672710418701171875e+00) (18, -2.69468212127685546875e+00) (19, -8.23853397369384765625e+00) (20, 3.06091022491455078125e+00) (21, 1.47173118591308593750e+00) (22, -1.88797283172607421875e+00) (23, -5.18124055862426757812e+00) (24, 4.41406917572021484375e+00) (25, -2.88129854202270507812e+00) (26, 1.27295589447021484375e+00) (27, -3.23554039001464843750e-01) (28, -5.06895637512207031250e+00) (29, 5.12944221496582031250e+00) (30, -4.26393270492553710938e+00) (31, -1.51065826416015625000e+00) (32, 2.75939655303955078125e+00) (33, -3.78266763687133789062e+00) (34, 6.53889465332031250000e+00) (35, -8.51670455932617187500e+00) (36, 7.99293518066406250000e+00) (37, 9.01350975036621093750e-01) (38, -5.38200139999389648438e+00) (39, 6.26309394836425781250e+00) (40, -5.12554454803466796875e+00) (41, -2.32128620147705078125e+00) (42, 1.00031280517578125000e+00) (43, -8.86787605285644531250e+00) (44, 8.85242271423339843750e+00) (45, -4.03263759613037109375e+00) (46, 1.95363235473632812500e+00) (47, -9.86546230316162109375e+00) (48, 4.64809322357177734375e+00) (49, 9.25895118713378906250e+00) (50, -7.12435102462768554688e+00) (51, -2.29099655151367187500e+00) (52, 7.30683326721191406250e-01) (53, 9.87676620483398437500e-01) (54, 2.52776241302490234375e+00) (55, 4.31036186218261718750e+00) (56, 8.10637664794921875000e+00) (57, -6.19928121566772460938e+00) (58, 5.96176242828369140625e+00) (59, -6.96257877349853515625e+00) (60, 8.93016052246093750000e+00) (61, -8.30217075347900390625e+00) (62, 1.52676296234130859375e+00) (63, 1.68955707550048828125e+00) (64, -2.08483839035034179688e+00) (65, -1.93434238433837890625e+00) (66, 3.17285251617431640625e+00) (67, -4.09190177917480468750e+00) (68, -8.66694355010986328125e+00) (69, -5.42298173904418945312e+00) (70, -5.55476951599121093750e+00) (71, 5.41586494445800781250e+00) (72, 9.46921730041503906250e+00) (73, -2.36006784439086914062e+00) (74, 6.54798889160156250000e+00) (75, 1.10815429687500000000e+00) (76, 3.60729408264160156250e+00) (77, -1.49837684631347656250e+00) (78, 7.67546081542968750000e+00) (79, -1.74461364746093750000e+00) (80, -2.23942565917968750000e+00) (81, 5.09798622131347656250e+00) (82, 5.96439075469970703125e+00) (83, 8.49125862121582031250e+00) (84, -3.91433715820312500000e+00) (85, -1.50784587860107421875e+00) (86, -5.22342538833618164062e+00) (87, -5.80796003341674804688e+00) (88, 2.29287242889404296875e+00) (89, -9.26166343688964843750e+00) (90, 1.04685878753662109375e+00) (91, 5.99483585357666015625e+00) (92, -7.56383323669433593750e+00) (93, 8.75622558593750000000e+00) (94, -7.08740901947021484375e+00) (95, -7.53386974334716796875e+00) (96, -5.54765081405639648438e+00) (97, 6.08544349670410156250e+00) (98, 6.25942611694335937500e+00) (99, 5.75947856903076171875e+00) (100, 8.51464653015136718750e+00) (101, -9.29534244537353515625e+00) (102, 1.29863166809082031250e+00) (103, 2.91819286346435546875e+00) (104, -1.65541076660156250000e+00) (105, -2.15337896347045898438e+00) (106, -5.97365236282348632812e+00) (107, -8.04811573028564453125e+00) (108, 6.34824371337890625000e+00) (109, 6.24868392944335937500e+00) (110, -4.56931734085083007812e+00) (111, -5.89118146896362304688e+00) (112, 1.34667110443115234375e+00) (113, 2.25741291046142578125e+00) (114, -7.39992332458496093750e+00) (115, 7.43233489990234375000e+00) (116, 4.66381549835205078125e+00) (117, -2.62334871292114257812e+00) (118, -8.37562561035156250000e+00) (119, -3.04331207275390625000e+00) (120, -1.88501167297363281250e+00) (121, 4.52271938323974609375e+00) (122, -9.49226284027099609375e+00) (123, 5.51156044006347656250e-01) (124, -2.38993930816650390625e+00) (125, -8.90768814086914062500e+00) (126, -9.09751605987548828125e+00) (127, 4.43194389343261718750e+00) (128, 3.97916221618652343750e+00) (129, 7.16191101074218750000e+00) (130, -9.20877265930175781250e+00) (131, 7.44167327880859375000e-01) (132, 7.86656761169433593750e+00) (133, -8.38665962219238281250e+00) (134, -4.32181406021118164062e+00) (135, -3.78884124755859375000e+00) (136, -5.40038108825683593750e-01) (137, -8.27639675140380859375e+00) (138, -1.83695793151855468750e+00) (139, -4.19179439544677734375e+00) (140, 1.03344345092773437500e+00) (141, 8.37031364440917968750e+00) (142, 4.43611812591552734375e+00) (143, -7.61988496780395507812e+00) (144, -9.60271072387695312500e+00) (145, 2.51710033416748046875e+00) (146, 9.81244850158691406250e+00) (147, 9.20578956604003906250e+00) (148, 9.89375114440917968750e+00) (149, -8.56317615509033203125e+00) (150, -3.83752107620239257812e+00) (151, -1.99125862121582031250e+00) (152, 2.90659904479980468750e-01) (153, -5.65779924392700195312e+00) (154, 8.55989456176757812500e+00) (155, 7.90071868896484375000e+00) (156, -4.56548690795898437500e+00) (157, 9.46237945556640625000e+00) (158, 2.33266353607177734375e+00) (159, -7.38773107528686523438e+00) (160, 6.62429046630859375000e+00) (161, -7.35262680053710937500e+00) (162, -9.54751300811767578125e+00) (163, 4.49086093902587890625e+00) (164, -5.73928642272949218750e+00) (165, 1.21089839935302734375e+00) (166, -9.29798126220703125000e+00) (167, 3.72067546844482421875e+00) (168, -4.00434398651123046875e+00) (169, -1.13493919372558593750e+00) (170, 9.52888107299804687500e+00) (171, 7.02909851074218750000e+00) (172, -2.76462507247924804688e+00) (173, -5.54095268249511718750e-01) (174, 9.40921592712402343750e+00) (175, 3.87735843658447265625e+00) (176, 6.85056114196777343750e+00) (177, 9.22166442871093750000e+00) (178, 9.83141899108886718750e-01) (179, -8.14324188232421875000e+00) (180, -9.34151172637939453125e+00) (181, 7.14562034606933593750e+00) (182, -1.34501457214355468750e-01) (183, 9.49148178100585937500e-01) (184, -8.51217842102050781250e+00) (185, -1.57460498809814453125e+00) (186, -1.15013217926025390625e+00) (187, -4.45455455780029296875e+00) (188, -2.11222457885742187500e+00) (189, -8.81746864318847656250e+00) (190, -9.52391242980957031250e+00) (191, -5.48793315887451171875e+00) (0, 2.75503730773925781250e+00) (1, -1.29108428955078125000e-02) (2, -9.61869907379150390625e+00) (3, -1.90938186645507812500e+00) (4, -8.80201244354248046875e+00) (5, 9.70494651794433593750e+00) (6, -8.18870639801025390625e+00) (7, -2.80635595321655273438e+00) (8, -1.42999267578125000000e+00) (9, 7.34976196289062500000e+00) (10, -5.77725601196289062500e+00) (11, 4.20032405853271484375e+00) (12, -1.73825740814208984375e+00) (13, -6.36804103851318359375e+00) (14, -2.41726684570312500000e+00) (15, 2.74908542633056640625e+00) (16, -7.14637660980224609375e+00) (17, 8.56587409973144531250e+00) (18, 4.60584259033203125000e+00) (19, -6.48788881301879882812e+00) (20, 2.75760746002197265625e+00) (21, -5.52865791320800781250e+00) (22, 4.46125888824462890625e+00) (23, 7.19931602478027343750e+00) (24, 2.89673805236816406250e+00) (25, -6.68887376785278320312e+00) (26, -5.87834882736206054688e+00) (27, -9.21548652648925781250e+00) (28, -5.50634241104125976562e+00) (29, -4.34979438781738281250e+00) (30, -4.70341968536376953125e+00) (31, -1.67643833160400390625e+00) (32, -6.35665512084960937500e+00) (33, 9.87125778198242187500e+00) (34, 6.41417884826660156250e+00) (35, -5.15866756439208984375e+00) (36, -5.99554681777954101562e+00) (37, 8.22547340393066406250e+00) (38, 2.03497600555419921875e+00) (39, 5.46219062805175781250e+00) (40, 9.56564712524414062500e+00) (41, 6.25771903991699218750e+00) (42, -1.62015724182128906250e+00) (43, 3.51725578308105468750e-01) (44, 9.88967895507812500000e+00) (45, 5.96257686614990234375e+00) (46, -8.21956825256347656250e+00) (47, -7.25669670104980468750e+00) (48, 4.83154296875000000000e-01) (49, 7.70665359497070312500e+00) (50, -3.74458551406860351562e+00) (51, 2.39946365356445312500e-01) (52, -7.82200336456298828125e+00) (53, -9.28332710266113281250e+00) (54, -2.56073617935180664062e+00) (55, 5.07473468780517578125e+00) (56, -5.97220039367675781250e+00) (57, -3.24088811874389648438e+00) (58, 5.85924720764160156250e+00) (59, -1.47854328155517578125e+00) (60, -4.78282976150512695312e+00) (61, -8.84417247772216796875e+00) (62, 6.84502029418945312500e+00) (63, -1.13948440551757812500e+00) (64, 9.57520294189453125000e+00) (65, 6.84588432312011718750e+00) (66, 3.70184803009033203125e+00) (67, -5.40211677551269531250e-01) (68, -7.90865516662597656250e+00) (69, 3.46324157714843750000e+00) (70, -7.96575164794921875000e+00) (71, 1.05031967163085937500e+00) (72, -8.00545597076416015625e+00) (73, 4.14092063903808593750e-01) (74, 7.57104492187500000000e+00) (75, -8.11577606201171875000e+00) (76, -3.62333106994628906250e+00) (77, -5.49714231491088867188e+00) (78, -5.37247276306152343750e+00) (79, 1.21294879913330078125e+00) (80, 8.08821487426757812500e+00) (81, 8.82941246032714843750e-01) (82, 1.14506721496582031250e+00) (83, -5.61249160766601562500e+00) (84, 1.59961414337158203125e+00) (85, 8.58433151245117187500e+00) (86, 9.46224212646484375000e+00) (87, 5.62741470336914062500e+00) (88, 1.45246505737304687500e-01) (89, 5.32149028778076171875e+00) (90, -5.85112810134887695312e+00) (91, 6.10419654846191406250e+00) (92, 6.47731781005859375000e+00) (93, -9.00610828399658203125e+00) (94, -5.77706813812255859375e+00) (95, -8.06734657287597656250e+00) (96, 4.25309181213378906250e+00) (97, 7.92477989196777343750e+00) (98, 1.39244079589843750000e+00) (99, 2.77621650695800781250e+00) (100, -6.33839607238769531250e+00) (101, 3.42669010162353515625e+00) (102, 6.78808403015136718750e+00) (103, -4.34385204315185546875e+00) (104, -6.15921831130981445312e+00) (105, 8.19013023376464843750e+00) (106, -2.45962810516357421875e+00) (107, -4.11332750320434570312e+00) (108, -7.30701208114624023438e+00) (109, -5.68147087097167968750e+00) (110, 1.12257003784179687500e+00) (111, -5.09750032424926757812e+00) (112, -6.94915866851806640625e+00) (113, -7.73236274719238281250e+00) (114, -7.09991455078125000000e-01) (115, 4.65045642852783203125e+00) (116, 8.21191978454589843750e+00) (117, -1.24774837493896484375e+00) (118, -3.52487564086914062500e-02) (119, 9.97215270996093750000e-01) (120, -5.92625761032104492188e+00) (121, 4.42674350738525390625e+00) (122, -4.93255615234375000000e+00) (123, -9.44893932342529296875e+00) (124, 5.42063426971435546875e+00) (125, -7.03934764862060546875e+00) (126, -7.51628589630126953125e+00) (127, -3.26273918151855468750e-01) (128, 1.72653198242187500000e-01) (129, 3.87615585327148437500e+00) (130, 5.41149044036865234375e+00) (131, 2.16894817352294921875e+00) (132, -2.69715499877929687500e+00) (133, 7.73758316040039062500e+00) (134, 7.82509613037109375000e+00) (135, 1.14362716674804687500e+00) (136, 3.89704704284667968750e-01) (137, -4.63453197479248046875e+00) (138, -8.63892364501953125000e+00) (139, 7.82154846191406250000e+00) (140, 7.53336715698242187500e+00) (141, -9.17753696441650390625e+00) (142, 7.98519134521484375000e+00) (143, -9.41579055786132812500e+00) (144, 4.75128364562988281250e+00) (145, -2.72479820251464843750e+00) (146, 5.23466587066650390625e+00) (147, 5.60325336456298828125e+00) (148, 6.02745437622070312500e+00) (149, -4.48746252059936523438e+00) (150, -3.39953136444091796875e+00) (151, -9.89880371093750000000e+00) (152, 4.61782550811767578125e+00) (153, 2.96010112762451171875e+00) (154, -9.79166603088378906250e+00) (155, 5.35991668701171875000e+00) (156, -6.45733356475830078125e+00) (157, -6.86402893066406250000e+00) (158, -4.96635723114013671875e+00) (159, 2.05001068115234375000e+00) (160, 7.01212692260742187500e+00) (161, -7.94476413726806640625e+00) (162, 6.86346244812011718750e+00) (163, -5.68502807617187500000e+00) (164, 2.64470767974853515625e+00) (165, -7.95594501495361328125e+00) (166, 5.45859813690185546875e+00) (167, 3.04574966430664062500e-01) (168, -2.59047698974609375000e+00) (169, 6.81967544555664062500e+00) (170, 6.11710548400878906250e+00) (171, -5.05710887908935546875e+00) (172, -6.96678161621093750000e-01) (173, 4.10229873657226562500e+00) (174, -4.47289943695068359375e+00) (175, -8.47729587554931640625e+00) (176, -8.62249946594238281250e+00) (177, -9.23823356628417968750e+00) (178, 9.65785980224609375000e+00) (179, 7.40495491027832031250e+00) (180, -3.72569608688354492188e+00) (181, -3.74167108535766601562e+00) (182, 7.50615119934082031250e+00) (183, -3.78641557693481445312e+00) (184, 2.18636512756347656250e+00) (185, 7.15464591979980468750e-01) (186, -8.42649936676025390625e+00) (187, -7.23890304565429687500e+00) (188, -8.70561981201171875000e+00) (189, -3.39285659790039062500e+00) (190, 4.81110668182373046875e+00) (191, 8.30650711059570312500e+00) (0, -9.65019702911376953125e+00) (1, 9.03006553649902343750e+00) (2, -7.37852191925048828125e+00) (3, 9.69698333740234375000e+00) (4, -8.92587852478027343750e+00) (5, 8.08007621765136718750e+00) (6, -7.26860237121582031250e+00) (7, -1.51635551452636718750e+00) (8, 4.89975166320800781250e+00) (9, 8.84850311279296875000e+00) (10, 3.42653656005859375000e+00) (11, 8.54458236694335937500e+00) (12, 2.95080280303955078125e+00) (13, 5.38268947601318359375e+00) (14, -1.74231910705566406250e+00) (15, 4.32830429077148437500e+00) (16, -2.40618705749511718750e-01) (17, -2.08445835113525390625e+00) (18, 1.73325920104980468750e+00) (19, -4.01029300689697265625e+00) (20, 4.17387008666992187500e+00) (21, -7.60589599609375000000e-01) (22, 2.20329189300537109375e+00) (23, 3.39230060577392578125e+00) (24, -2.60218143463134765625e+00) (25, 3.77679252624511718750e+00) (26, 6.15339660644531250000e+00) (27, -1.30780220031738281250e+00) (28, -9.61606407165527343750e+00) (29, 9.64504241943359375000e-01) (30, -3.00129461288452148438e+00) (31, -2.56378698348999023438e+00) (32, -5.42926788330078125000e-03) (33, -3.79816055297851562500e-01) (34, -2.86680269241333007812e+00) (35, 1.06869220733642578125e+00) (36, -2.29973936080932617188e+00) (37, -1.35405540466308593750e-01) (38, 9.55233573913574218750e+00) (39, -7.39998722076416015625e+00) (40, 6.44625663757324218750e-01) (41, 8.19007682800292968750e+00) (42, -3.19691324234008789062e+00) (43, -8.33609867095947265625e+00) (44, 1.93250846862792968750e+00) (45, 5.06076812744140625000e+00) (46, 5.99220657348632812500e+00) (47, -5.29390954971313476562e+00) (48, -7.02369022369384765625e+00) (49, -2.27453517913818359375e+00) (50, 7.63761901855468750000e+00) (51, -7.42514133453369140625e+00) (52, 6.96487426757812500000e+00) (53, -1.59090042114257812500e-01) (54, -8.37191581726074218750e+00) (55, -5.63730716705322265625e+00) (56, -6.38229751586914062500e+00) (57, -3.30412149429321289062e+00) (58, 3.05489158630371093750e+00) (59, -5.99836111068725585938e+00) (60, -6.96021842956542968750e+00) (61, -9.94640254974365234375e+00) (62, 1.43785095214843750000e+00) (63, -2.34504604339599609375e+00) (64, -3.26219558715820312500e-01) (65, 8.57104873657226562500e+00) (66, 8.72364616394042968750e+00) (67, 1.35358905792236328125e+00) (68, -1.56435585021972656250e+00) (69, 8.27598381042480468750e+00) (70, 9.97405433654785156250e+00) (71, 7.14874267578125000000e+00) (72, 1.25485515594482421875e+00) (73, -3.22285795211791992188e+00) (74, 8.81264495849609375000e+00) (75, -6.81263637542724609375e+00) (76, -8.16208934783935546875e+00) (77, 4.80484962463378906250e+00) (78, 4.83527565002441406250e+00) (79, -5.18577957153320312500e+00) (80, -7.46968555450439453125e+00) (81, 2.47289371490478515625e+00) (82, -7.35684823989868164062e+00) (83, 9.49518966674804687500e+00) (84, -7.68619632720947265625e+00) (85, 2.50688171386718750000e+00) (86, -6.14211750030517578125e+00) (87, -4.06849336624145507812e+00) (88, -5.61971044540405273438e+00) (89, 6.91277313232421875000e+00) (90, -6.68544769287109375000e-02) (91, 9.49909973144531250000e+00) (92, 6.96637153625488281250e+00) (93, -8.62900257110595703125e+00) (94, -5.48190164566040039062e+00) (95, -3.35984754562377929688e+00) (96, 9.94204521179199218750e+00) (97, -6.75825500488281250000e+00) (98, -5.98580598831176757812e+00) (99, 3.61422061920166015625e+00) (100, -8.48227214813232421875e+00) (101, -6.01175117492675781250e+00) (102, -4.47356700897216796875e+00) (103, 2.77258300781250000000e+00) (104, 7.65391349792480468750e-01) (105, -5.66092300415039062500e+00) (106, 5.66534519195556640625e+00) (107, -1.43561363220214843750e+00) (108, 9.14392662048339843750e+00) (109, 7.95221328735351562500e-01) (110, -7.61171436309814453125e+00) (111, -8.32575798034667968750e+00) (112, -4.68479394912719726562e+00) (113, 9.38192176818847656250e+00) (114, -1.14044189453125000000e+00) (115, 1.56301593780517578125e+00) (116, 1.88880443572998046875e+00) (117, -4.83695030212402343750e-01) (118, 1.51342582702636718750e+00) (119, 1.09156513214111328125e+00) (120, -8.05991172790527343750e+00) (121, -2.92683172225952148438e+00) (122, -2.04529190063476562500e+00) (123, 8.90645980834960937500e+00) (124, -7.18242979049682617188e+00) (125, 2.47280693054199218750e+00) (126, -9.66328811645507812500e+00) (127, 8.81800460815429687500e+00) (128, 5.71455192565917968750e+00) (129, -4.39194679260253906250e-01) (130, 1.13730812072753906250e+00) (131, 7.23227882385253906250e+00) (132, 3.54905509948730468750e+00) (133, 6.66374015808105468750e+00) (134, 5.50710773468017578125e+00) (135, -5.68555402755737304688e+00) (136, -8.99718189239501953125e+00) (137, -4.03519105911254882812e+00) (138, 6.91774749755859375000e+00) (139, -9.85325431823730468750e+00) (140, 4.27105522155761718750e+00) (141, 4.33526897430419921875e+00) (142, -8.17901229858398437500e+00) (143, -9.97185325622558593750e+00) (144, 3.71719074249267578125e+00) (145, -7.00958156585693359375e+00) (146, -4.38993358612060546875e+00) (147, -4.39400434494018554688e+00) (148, -1.98226737976074218750e+00) (149, 7.12349319458007812500e+00) (150, 6.69755935668945312500e+00) (151, -4.21800613403320312500e-02) (152, 8.57006454467773437500e+00) (153, -5.34773111343383789062e+00) (154, -1.13572025299072265625e+00) (155, -8.61236381530761718750e+00) (156, 7.12507629394531250000e+00) (157, 4.41089153289794921875e+00) (158, -5.85274696350097656250e+00) (159, 2.83962821960449218750e+00) (160, -6.02830314636230468750e+00) (161, -8.95647621154785156250e+00) (162, 7.19070434570312500000e-02) (163, 7.52075195312500000000e+00) (164, 1.94830131530761718750e+00) (165, -9.92323017120361328125e+00) (166, -8.16480159759521484375e+00) (167, -4.82876110076904296875e+00) (168, -3.95842075347900390625e+00) (169, 8.75294494628906250000e+00) (170, 3.09786510467529296875e+00) (171, 2.42572307586669921875e+00) (172, 3.08821392059326171875e+00) (173, 4.91885280609130859375e+00) (174, -7.17024326324462890625e+00) (175, -3.19459390640258789062e+00) (176, 7.90927124023437500000e+00) (177, -1.56017684936523437500e+00) (178, 2.41140270233154296875e+00) (179, -4.07299566268920898438e+00) (180, -4.43668365478515625000e+00) (181, -8.91037940979003906250e-01) (182, 5.88482475280761718750e+00) (183, -5.86661815643310546875e+00) (184, 3.76123046875000000000e+00) (185, -5.25089550018310546875e+00) (186, -7.75402069091796875000e-01) (187, 9.60680007934570312500e+00) (188, 9.15999412536621093750e+00) (189, -3.31728935241699218750e-01) (190, -6.27406501770019531250e+00) (191, -6.86830711364746093750e+00) (0, 8.64610671997070312500e+00) (1, 3.79784202575683593750e+00) (2, -9.34755516052246093750e+00) (3, 6.90113449096679687500e+00) (4, -4.79299592971801757812e+00) (5, -7.51235675811767578125e+00) (6, -1.47745132446289062500e-01) (7, -6.35800933837890625000e+00) (8, -4.98907136917114257812e+00) (9, -7.04987955093383789062e+00) (10, -7.28219795227050781250e+00) (11, 4.32880306243896484375e+00) (12, 7.86897277832031250000e+00) (13, -4.45244121551513671875e+00) (14, -8.86579036712646484375e+00) (15, 5.77824497222900390625e+00) (16, 3.98738288879394531250e+00) (17, 3.54561233520507812500e+00) (18, -8.29475021362304687500e+00) (19, 9.55069923400878906250e+00) (20, -7.34542560577392578125e+00) (21, 7.59007263183593750000e+00) (22, -6.31591892242431640625e+00) (23, -3.67924833297729492188e+00) (24, -7.66082191467285156250e+00) (25, -7.94900894165039062500e-01) (26, -2.69788742065429687500e+00) (27, -8.50082588195800781250e+00) (28, 8.87337112426757812500e+00) (29, 8.37895202636718750000e+00) (30, -5.36913347244262695312e+00) (31, 6.49746322631835937500e+00) (32, -5.17410993576049804688e+00) (33, -1.22472858428955078125e+00) (34, -9.27266216278076171875e+00) (35, 8.70050239562988281250e+00) (36, -2.22904586791992187500e+00) (37, 5.79592704772949218750e-01) (38, 8.61669540405273437500e+00) (39, -9.88456726074218750000e-01) (40, 3.52971267700195312500e+00) (41, -8.66550254821777343750e+00) (42, -6.65965366363525390625e+00) (43, 1.39868736267089843750e+00) (44, -3.11794424057006835938e+00) (45, -5.52544355392456054688e+00) (46, -2.82306814193725585938e+00) (47, -5.72275161743164062500e-01) (48, 8.02016830444335937500e+00) (49, -1.11781883239746093750e+00) (50, -9.57986259460449218750e+00) (51, -9.32525730133056640625e+00) (52, -3.52774429321289062500e+00) (53, -5.89578199386596679688e+00) (54, 7.09054756164550781250e+00) (55, -1.18856716156005859375e+00) (56, 3.30931663513183593750e+00) (57, -5.60733938217163085938e+00) (58, 3.10606956481933593750e-01) (59, 2.18268775939941406250e+00) (60, 5.42070865631103515625e+00) (61, 4.94147396087646484375e+00) (62, 6.00889015197753906250e+00) (63, -9.75340080261230468750e+00) (64, -9.77521419525146484375e+00) (65, 6.73622894287109375000e+00) (66, 8.94710159301757812500e+00) (67, -2.00426006317138671875e+00) (68, -5.22414636611938476562e+00) (69, 7.56379699707031250000e+00) (70, 7.00728225708007812500e+00) (71, -9.15446472167968750000e+00) (72, 8.89829444885253906250e+00) (73, -9.65236949920654296875e+00) (74, 2.24422168731689453125e+00) (75, -4.21964883804321289062e+00) (76, -5.17781352996826171875e+00) (77, 9.42115402221679687500e+00) (78, -3.35021066665649414062e+00) (79, -7.15764522552490234375e+00) (80, 8.67749214172363281250e-01) (81, -2.93007373809814453125e+00) (82, -6.48290252685546875000e+00) (83, 4.86967563629150390625e+00) (84, 1.17414379119873046875e+00) (85, 4.25570487976074218750e+00) (86, -6.41297435760498046875e+00) (87, -5.51653909683227539062e+00) (88, -4.99969434738159179688e+00) (89, 3.89763259887695312500e+00) (90, 6.66614913940429687500e+00) (91, -9.57898616790771484375e+00) (92, -1.16089344024658203125e+00) (93, -1.15841197967529296875e+00) (94, -9.33238697052001953125e+00) (95, -9.36107635498046875000e-01) (96, -5.88731765747070312500e-01) (97, 9.61471366882324218750e+00) (98, 7.05963134765625000000e+00) (99, -4.51277065277099609375e+00) (100, 7.17851066589355468750e+00) (101, 4.06691551208496093750e+00) (102, 7.57262611389160156250e+00) (103, 6.07680702209472656250e+00) (104, 4.41454601287841796875e+00) (105, -1.83151245117187500000e-01) (106, -8.14284229278564453125e+00) (107, 9.23673248291015625000e+00) (108, -7.61996269226074218750e-01) (109, 7.94750976562500000000e+00) (110, -7.92091274261474609375e+00) (111, -6.73371982574462890625e+00) (112, 5.57687282562255859375e+00) (113, -4.40381574630737304688e+00) (114, 2.31693267822265625000e+00) (115, -3.24898242950439453125e+00) (116, -3.79617118835449218750e+00) (117, 5.90395641326904296875e+00) (118, 1.23447799682617187500e+00) (119, 1.20413398742675781250e+00) (120, -1.98410034179687500000e-01) (121, -2.09937286376953125000e+00) (122, 1.62514781951904296875e+00) (123, 8.64069747924804687500e+00) (124, -9.42433357238769531250e+00) (125, 2.29276180267333984375e+00) (126, 2.77344608306884765625e+00) (127, 9.91863822937011718750e+00) (128, 1.90747642517089843750e+00) (129, -5.23577833175659179688e+00) (130, -3.28597307205200195312e+00) (131, -9.14011955261230468750e-01) (132, -2.72812986373901367188e+00) (133, -5.71334600448608398438e+00) (134, -4.83720541000366210938e+00) (135, 3.24568271636962890625e+00) (136, 4.10350322723388671875e+00) (137, 4.43904972076416015625e+00) (138, 2.48241519927978515625e+00) (139, -6.65849304199218750000e+00) (140, 5.18003368377685546875e+00) (141, -3.95666265487670898438e+00) (142, -5.21464872360229492188e+00) (143, 2.33257198333740234375e+00) (144, -9.84231376647949218750e+00) (145, 3.19977951049804687500e+00) (146, 7.85478973388671875000e+00) (147, -3.63848447799682617188e+00) (148, -1.90071105957031250000e-01) (149, -9.10731315612792968750e-01) (150, 2.61152744293212890625e+00) (151, -9.66194248199462890625e+00) (152, -8.41819286346435546875e+00) (153, 3.11132907867431640625e+00) (154, 1.54539775848388671875e+00) (155, 7.56556320190429687500e+00) (156, -8.51643943786621093750e+00) (157, -4.74938678741455078125e+00) (158, -2.44750213623046875000e+00) (159, 3.39103603363037109375e+00) (160, -4.92003631591796875000e+00) (161, 6.21247100830078125000e+00) (162, -7.52297592163085937500e+00) (163, 4.25623989105224609375e+00) (164, 8.55317878723144531250e+00) (165, -2.36018085479736328125e+00) (166, -7.90834426879882812500e+00) (167, 2.65668296813964843750e+00) (168, 5.84481620788574218750e+00) (169, 4.57407093048095703125e+00) (170, 5.99819087982177734375e+00) (171, 1.86671257019042968750e-01) (172, -8.64426612854003906250e-01) (173, -1.71318149566650390625e+00) (174, -8.70955657958984375000e+00) (175, -7.06739425659179687500e-01) (176, 8.08181762695312500000e-02) (177, 9.14523315429687500000e+00) (178, 5.65477561950683593750e+00) (179, 9.18455505371093750000e+00) (180, -1.76549816131591796875e+00) (181, 3.22042655944824218750e+00) (182, 9.94794845581054687500e+00) (183, -4.77560234069824218750e+00) (184, -7.58877468109130859375e+00) (185, 5.63590621948242187500e+00) (186, -7.21004009246826171875e+00) (187, -6.10521411895751953125e+00) (188, -9.11348056793212890625e+00) (189, 3.42458724975585937500e-01) (190, 7.28582191467285156250e+00) (191, 9.01354789733886718750e-01) (0, -5.39101648330688476562e+00) (1, 9.76284599304199218750e+00) (2, -4.08691644668579101562e+00) (3, -6.83783674240112304688e+00) (4, -2.59733438491821289062e+00) (5, -9.50399971008300781250e+00) (6, -1.59337234497070312500e+00) (7, -7.93756294250488281250e+00) (8, 6.41305351257324218750e+00) (9, 1.81703567504882812500e+00) (10, 2.24910831451416015625e+00) (11, 3.70329380035400390625e+00) (12, 7.42923164367675781250e+00) (13, 3.53955173492431640625e+00) (14, 4.84188652038574218750e+00) (15, 8.77889060974121093750e+00) (16, 2.68478584289550781250e+00) (17, -4.68850278854370117188e+00) (18, 7.96344566345214843750e+00) (19, -9.08071231842041015625e+00) (20, -6.28291034698486328125e+00) (21, 6.05332756042480468750e+00) (22, -3.85631465911865234375e+00) (23, -3.87168455123901367188e+00) (24, 1.68923473358154296875e+00) (25, -1.06635379791259765625e+00) (26, 2.31018066406250000000e-02) (27, 2.57575416564941406250e+00) (28, 9.27610397338867187500e+00) (29, -4.65494060516357421875e+00) (30, -5.22559785842895507812e+00) (31, -6.11491203308105468750e+00) (32, -2.92823028564453125000e+00) (33, -6.77556467056274414062e+00) (34, -2.95274925231933593750e+00) (35, 4.47443485260009765625e+00) (36, -2.50729942321777343750e+00) (37, 8.54612350463867187500e-01) (38, -8.47332382202148437500e+00) (39, -8.52353000640869140625e+00) (40, 4.68313312530517578125e+00) (41, -1.21401977539062500000e+00) (42, 4.45094203948974609375e+00) (43, -6.61879348754882812500e+00) (44, -7.67446804046630859375e+00) (45, -8.13301658630371093750e+00) (46, -7.83990192413330078125e+00) (47, 5.01031780242919921875e+00) (48, 2.36364746093750000000e+00) (49, -9.87645530700683593750e+00) (50, 5.92960548400878906250e+00) (51, 6.08073616027832031250e+00) (52, 6.17687225341796875000e+00) (53, -7.92670822143554687500e+00) (54, -7.79094743728637695312e+00) (55, 8.25014877319335937500e+00) (56, 1.00693702697753906250e+00) (57, -6.40479087829589843750e+00) (58, -9.55813789367675781250e+00) (59, 2.83041000366210937500e-01) (60, 9.54107666015625000000e+00) (61, -6.08102893829345703125e+00) (62, 4.16812896728515625000e+00) (63, -3.38715314865112304688e+00) (64, -2.85659360885620117188e+00) (65, -8.78461933135986328125e+00) (66, -8.91271781921386718750e+00) (67, 2.20682334899902343750e+00) (68, 6.77210235595703125000e+00) (69, 7.62415313720703125000e+00) (70, 3.68329429626464843750e+00) (71, 8.76461029052734375000e+00) (72, -3.58986520767211914062e+00) (73, -1.52391338348388671875e+00) (74, 4.44866752624511718750e+00) (75, -1.26433372497558593750e+00) (76, -7.42462539672851562500e+00) (77, -5.69408559799194335938e+00) (78, -6.25401496887207031250e+00) (79, 4.93902206420898437500e+00) (80, -5.57054090499877929688e+00) (81, 9.67559051513671875000e+00) (82, 1.01975917816162109375e+00) (83, -9.39366817474365234375e+00) (84, -8.25111770629882812500e+00) (85, 3.22881126403808593750e+00) (86, -1.52756118774414062500e+00) (87, -6.47565603256225585938e+00) (88, -4.53903484344482421875e+00) (89, 7.01105117797851562500e+00) (90, -6.96113920211791992188e+00) (91, -4.99795722961425781250e+00) (92, 2.83327198028564453125e+00) (93, 7.20699119567871093750e+00) (94, 1.61489009857177734375e+00) (95, 9.97667694091796875000e+00) (96, -1.90684986114501953125e+00) (97, 2.70217132568359375000e+00) (98, 2.18350124359130859375e+00) (99, -7.49615192413330078125e+00) (100, 3.26327323913574218750e-01) (101, 3.72904300689697265625e+00) (102, -8.73154258728027343750e+00) (103, 6.73645973205566406250e+00) (104, -3.42481374740600585938e+00) (105, -6.58572578430175781250e+00) (106, -4.52787160873413085938e+00) (107, -8.49439620971679687500e-01) (108, -2.27981090545654296875e+00) (109, -7.81887054443359375000e-01) (110, -5.91041803359985351562e+00) (111, 5.76214694976806640625e+00) (112, -1.10629653930664062500e+00) (113, 5.10934066772460937500e+00) (114, 2.75597953796386718750e+00) (115, 6.42585754394531250000e-01) (116, 6.10354232788085937500e+00) (117, -8.77158069610595703125e+00) (118, -6.60159492492675781250e+00) (119, 3.79911804199218750000e+00) (120, 1.42719268798828125000e-01) (121, -3.56273412704467773438e+00) (122, 8.80115890502929687500e+00) (123, -7.02400779724121093750e+00) (124, -6.35574340820312500000e+00) (125, 4.16049957275390625000e-01) (126, -7.04732894897460937500e+00) (127, -7.93337345123291015625e+00) (128, -6.88177776336669921875e+00) (129, -2.37455272674560546875e+00) (130, -5.42952537536621093750e+00) (131, 3.44454860687255859375e+00) (132, 8.55795288085937500000e+00) (133, -4.16106748580932617188e+00) (134, -3.73992824554443359375e+00) (135, -2.42184591293334960938e+00) (136, -7.46793746948242187500e-01) (137, 5.65313816070556640625e+00) (138, -3.36791419982910156250e+00) (139, 1.23693466186523437500e-01) (140, -2.95667171478271484375e+00) (141, -9.18170356750488281250e+00) (142, -8.76955986022949218750e-01) (143, 3.76495456695556640625e+00) (144, 5.92763805389404296875e+00) (145, -8.12097644805908203125e+00) (146, 8.41511535644531250000e+00) (147, -5.73421049118041992188e+00) (148, -6.89255714416503906250e+00) (149, -2.19405460357666015625e+00) (150, -8.80285072326660156250e+00) (151, 3.25016212463378906250e+00) (152, 4.24321079254150390625e+00) (153, 6.86606788635253906250e+00) (154, 6.22615623474121093750e+00) (155, 4.86109256744384765625e+00) (156, -2.71788311004638671875e+00) (157, 9.17882728576660156250e+00) (158, 9.95409393310546875000e+00) (159, 4.00339126586914062500e-01) (160, 4.31499958038330078125e+00) (161, -5.47543144226074218750e+00) (162, -6.15511274337768554688e+00) (163, 5.31796646118164062500e+00) (164, 3.63501548767089843750e-01) (165, 4.02589702606201171875e+00) (166, -7.10387802124023437500e+00) (167, 9.61670684814453125000e+00) (168, 3.71777439117431640625e+00) (169, 9.62483596801757812500e+00) (170, 6.59010314941406250000e+00) (171, 4.55028629302978515625e+00) (172, -5.27273225784301757812e+00) (173, -4.28685188293457031250e+00) (174, -6.85761594772338867188e+00) (175, 6.37077140808105468750e+00) (176, -2.40782785415649414062e+00) (177, 2.72278213500976562500e+00) (178, -9.36343955993652343750e+00) (179, 6.99614524841308593750e-01) (180, -9.47127342224121093750e+00) (181, 8.70146751403808593750e+00) (182, -6.05022239685058593750e+00) (183, 4.77193737030029296875e+00) (184, 5.56753349304199218750e+00) (185, -9.82406616210937500000e+00) (186, 2.65940570831298828125e+00) (187, -7.15034866333007812500e+00) (188, -9.61951637268066406250e+00) (189, 2.61349868774414062500e+00) (190, 3.24998950958251953125e+00) (191, 3.66975879669189453125e+00) (0, -5.64215278625488281250e+00) (1, 7.09487724304199218750e+00) (2, -1.01227378845214843750e+00) (3, -2.49843120574951171875e+00) (4, 8.20699691772460937500e+00) (5, 4.31263160705566406250e+00) (6, -4.43279409408569335938e+00) (7, -2.40845251083374023438e+00) (8, 1.50868415832519531250e+00) (9, -1.86198425292968750000e+00) (10, 5.35009765625000000000e+00) (11, 6.67099380493164062500e+00) (12, -5.78471183776855468750e-01) (13, -6.33466148376464843750e+00) (14, -1.67741107940673828125e+00) (15, 7.01370048522949218750e+00) (16, 6.38812065124511718750e+00) (17, -1.04085063934326171875e+00) (18, -2.28668451309204101562e+00) (19, 6.91684722900390625000e+00) (20, -2.33938360214233398438e+00) (21, 1.66309356689453125000e+00) (22, 1.68878459930419921875e+00) (23, -6.77184915542602539062e+00) (24, -8.71025276184082031250e+00) (25, -5.65181064605712890625e+00) (26, -3.92219781875610351562e+00) (27, 8.64386558532714843750e-01) (28, 6.96168899536132812500e+00) (29, 5.22223377227783203125e+00) (30, -2.78925180435180664062e+00) (31, 4.09975624084472656250e+00) (32, 6.42267036437988281250e+00) (33, 3.85127162933349609375e+00) (34, -8.39867496490478515625e+00) (35, -2.45655488967895507812e+00) (36, -4.26488065719604492188e+00) (37, -1.28039836883544921875e+00) (38, -1.65674400329589843750e+00) (39, 7.24380302429199218750e+00) (40, -5.32196998596191406250e+00) (41, 4.35880088806152343750e+00) (42, 6.03147888183593750000e+00) (43, -8.15048885345458984375e+00) (44, -2.64130783081054687500e+00) (45, 4.90730953216552734375e+00) (46, 8.86321067810058593750e+00) (47, -6.25318717956542968750e+00) (48, -3.52264070510864257812e+00) (49, -3.42347335815429687500e+00) (50, -9.33634090423583984375e+00) (51, 4.13797569274902343750e+00) (52, 8.23962020874023437500e+00) (53, 2.35244369506835937500e+00) (54, 7.36612701416015625000e+00) (55, -2.93396520614624023438e+00) (56, 1.06888961791992187500e+00) (57, -6.55607080459594726562e+00) (58, -8.72756767272949218750e+00) (59, 3.66232109069824218750e+00) (60, -7.22827816009521484375e+00) (61, -3.86402177810668945312e+00) (62, -2.23792219161987304688e+00) (63, 9.19439125061035156250e+00) (64, 9.98724937438964843750e+00) (65, -6.36597633361816406250e-01) (66, 8.84450149536132812500e+00) (67, -4.27763032913208007812e+00) (68, 8.08300399780273437500e+00) (69, 5.08109474182128906250e+00) (70, -7.03382587432861328125e+00) (71, 5.10987281799316406250e-01) (72, -7.24846220016479492188e+00) (73, 2.16179561614990234375e+00) (74, 2.36049747467041015625e+00) (75, -3.86686038970947265625e+00) (76, -3.19993972778320312500e-01) (77, 1.22370910644531250000e+00) (78, -1.20047569274902343750e-01) (79, 4.96909713745117187500e+00) (80, 7.80023574829101562500e+00) (81, 5.43612480163574218750e-01) (82, 2.95340538024902343750e-01) (83, 6.03985595703125000000e+00) (84, -7.10394382476806640625e+00) (85, -2.33853149414062500000e+00) (86, -3.88149785995483398438e+00) (87, 9.59668922424316406250e+00) (88, 1.10539817810058593750e+00) (89, -2.60906600952148437500e+00) (90, -5.41978645324707031250e+00) (91, 3.87712001800537109375e+00) (92, 3.52691268920898437500e+00) (93, 4.67502593994140625000e-01) (94, 3.07151222229003906250e+00) (95, 3.51416206359863281250e+00) (96, 3.84491920471191406250e-01) (97, 9.80934906005859375000e+00) (98, 9.23653221130371093750e+00) (99, -1.53250408172607421875e+00) (100, 2.18096733093261718750e+00) (101, -7.79729461669921875000e+00) (102, 8.97848320007324218750e+00) (103, 3.66489124298095703125e+00) (104, 4.36450099945068359375e+00) (105, 1.33898162841796875000e+00) (106, 9.79803085327148437500e+00) (107, -5.95549249649047851562e+00) (108, -7.43730974197387695312e+00) (109, -7.71156311035156250000e-01) (110, -9.79812717437744140625e+00) (111, -9.63707351684570312500e+00) (112, -9.77840328216552734375e+00) (113, 4.97214317321777343750e-01) (114, 6.40278244018554687500e+00) (115, -1.78833007812500000000e-02) (116, 3.19177246093750000000e+00) (117, -7.47871637344360351562e+00) (118, -7.28565835952758789062e+00) (119, -7.35919952392578125000e-01) (120, -8.77819061279296875000e-02) (121, -8.96240234375000000000e-01) (122, -6.85879993438720703125e+00) (123, -6.56086921691894531250e+00) (124, 6.99444007873535156250e+00) (125, 6.21271133422851562500e+00) (126, 2.24730873107910156250e+00) (127, -7.05277729034423828125e+00) (128, 6.44701385498046875000e+00) (129, 6.18982315063476562500e+00) (130, 5.84642887115478515625e+00) (131, -7.82537889480590820312e+00) (132, 8.39253044128417968750e+00) (133, -7.42887306213378906250e+00) (134, -4.62025642395019531250e-01) (135, 6.16683769226074218750e+00) (136, 3.98904418945312500000e+00) (137, -5.62456989288330078125e+00) (138, 6.80153846740722656250e+00) (139, 5.77607154846191406250e+00) (140, -9.02655315399169921875e+00) (141, 7.00341224670410156250e+00) (142, -9.10490036010742187500e-01) (143, 4.27501201629638671875e+00) (144, -2.49937343597412109375e+00) (145, -4.50770854949951171875e+00) (146, 7.39266395568847656250e+00) (147, -4.34069108963012695312e+00) (148, -1.98642539978027343750e+00) (149, -9.89299392700195312500e+00) (150, 4.92338848114013671875e+00) (151, 7.92579269409179687500e+00) (152, 6.08035850524902343750e+00) (153, 8.06458854675292968750e+00) (154, -8.63507652282714843750e+00) (155, 3.07479858398437500000e+00) (156, -4.52183866500854492188e+00) (157, 8.31821632385253906250e+00) (158, -9.54626941680908203125e+00) (159, 2.99363136291503906250e-01) (160, -9.55651378631591796875e+00) (161, 6.30015945434570312500e+00) (162, 8.02663993835449218750e+00) (163, 2.90057182312011718750e+00) (164, 1.12507057189941406250e+00) (165, -4.21073150634765625000e+00) (166, -4.34239673614501953125e+00) (167, 7.28896331787109375000e+00) (168, 1.64699554443359375000e-01) (169, -9.08105087280273437500e+00) (170, -3.98445320129394531250e+00) (171, -5.78188610076904296875e+00) (172, 9.46255493164062500000e+00) (173, 6.56730461120605468750e+00) (174, 8.49312591552734375000e+00) (175, -3.03681850433349609375e+00) (176, -9.40265274047851562500e+00) (177, 6.72579574584960937500e+00) (178, 6.95170211791992187500e+00) (179, -1.38907718658447265625e+00) (180, 5.99279499053955078125e+00) (181, -2.45412063598632812500e+00) (182, 8.81262207031250000000e+00) (183, 2.07315349578857421875e+00) (184, -4.38953113555908203125e+00) (185, 1.70670509338378906250e-01) (186, -4.85204744338989257812e+00) (187, 9.88776969909667968750e+00) (188, -3.78014373779296875000e+00) (189, -4.39831686019897460938e+00) (190, 1.87133789062500000000e-01) (191, -9.27210330963134765625e+00) (0, -8.09815788269042968750e+00) (1, 1.39900302886962890625e+00) (2, 3.62846851348876953125e+00) (3, -3.07701301574707031250e+00) (4, 7.18827247619628906250e+00) (5, 9.28607177734375000000e+00) (6, 3.15876960754394531250e-01) (7, -2.64702844619750976562e+00) (8, -8.25478553771972656250e+00) (9, 4.20566463470458984375e+00) (10, 1.57108497619628906250e+00) (11, -8.79223060607910156250e+00) (12, -2.95310974121093750000e+00) (13, -8.73704719543457031250e+00) (14, -1.82904911041259765625e+00) (15, 2.03382682800292968750e+00) (16, -4.04999923706054687500e+00) (17, -9.20655918121337890625e+00) (18, -9.35524940490722656250e+00) (19, -8.05720329284667968750e+00) (20, 4.04303455352783203125e+00) (21, 4.56586837768554687500e-01) (22, 4.01595020294189453125e+00) (23, 3.94979000091552734375e+00) (24, 5.08310508728027343750e+00) (25, 9.16390228271484375000e+00) (26, 3.83755874633789062500e+00) (27, -8.69703865051269531250e+00) (28, -5.23441457748413085938e+00) (29, -5.97530698776245117188e+00) (30, -7.96914100646972656250e+00) (31, -3.33257198333740234375e+00) (32, -5.05936098098754882812e+00) (33, 5.65932750701904296875e+00) (34, 9.69434165954589843750e+00) (35, 2.16734409332275390625e+00) (36, 9.83556747436523437500e-01) (37, -9.95992755889892578125e+00) (38, -5.02998638153076171875e+00) (39, 6.69061470031738281250e+00) (40, -3.76703405380249023438e+00) (41, 1.53602600097656250000e+00) (42, 7.89838218688964843750e+00) (43, 7.77812004089355468750e+00) (44, -8.39976310729980468750e+00) (45, 2.81323051452636718750e+00) (46, -1.88051223754882812500e-01) (47, -8.90618419647216796875e+00) (48, -7.94650363922119140625e+00) (49, 4.56699371337890625000e-01) (50, -5.06966590881347656250e-01) (51, 5.20209693908691406250e+00) (52, 7.63816642761230468750e+00) (53, -6.49101638793945312500e+00) (54, -8.48114013671875000000e-01) (55, 2.72127151489257812500e+00) (56, -4.87344264984130859375e+00) (57, 1.00224494934082031250e+00) (58, 4.02423381805419921875e+00) (59, -2.56152915954589843750e+00) (60, -2.98586130142211914062e+00) (61, -1.35550785064697265625e+00) (62, 8.49388504028320312500e+00) (63, 9.62804794311523437500e+00) (64, 1.71441936492919921875e+00) (65, 3.80023956298828125000e+00) (66, 5.04980468750000000000e+00) (67, -3.34018135070800781250e+00) (68, -6.18954181671142578125e+00) (69, 5.01474475860595703125e+00) (70, 4.99458694458007812500e+00) (71, 1.52098655700683593750e-01) (72, -3.44922971725463867188e+00) (73, -8.75118350982666015625e+00) (74, -2.06977891921997070312e+00) (75, -3.47105550765991210938e+00) (76, -3.35148239135742187500e+00) (77, 1.42310523986816406250e+00) (78, 5.70124530792236328125e+00) (79, 4.18092727661132812500e+00) (80, -1.80113029479980468750e+00) (81, -4.80572175979614257812e+00) (82, -6.16976737976074218750e-01) (83, -4.16296434402465820312e+00) (84, -1.29673767089843750000e+00) (85, 3.87667751312255859375e+00) (86, 8.55830764770507812500e+00) (87, 1.37614727020263671875e+00) (88, -8.47564506530761718750e+00) (89, 2.58254051208496093750e+00) (90, 8.81461906433105468750e+00) (91, -1.46150588989257812500e+00) (92, -7.69219875335693359375e+00) (93, 2.92051696777343750000e+00) (94, 9.76328849792480468750e-01) (95, -9.64794731140136718750e+00) (96, -3.27924299240112304688e+00) (97, 7.71491050720214843750e-01) (98, -2.98812818527221679688e+00) (99, 5.31215667724609375000e-01) (100, 1.24021434783935546875e+00) (101, 3.62304687500000000000e-01) (102, -9.31668472290039062500e+00) (103, -2.40835142135620117188e+00) (104, 1.61112213134765625000e+00) (105, -1.38646411895751953125e+00) (106, 5.74265575408935546875e+00) (107, 8.92927169799804687500e+00) (108, -3.64429426193237304688e+00) (109, 1.44390010833740234375e+00) (110, 3.11019992828369140625e+00) (111, 8.21584129333496093750e+00) (112, 6.63817787170410156250e+00) (113, -7.50677680969238281250e+00) (114, -1.72377872467041015625e+00) (115, -4.65855884552001953125e+00) (116, -5.43127727508544921875e+00) (117, 8.94991874694824218750e+00) (118, 6.71758842468261718750e+00) (119, -7.44751214981079101562e+00) (120, 1.53245925903320312500e+00) (121, 5.53220653533935546875e+00) (122, 1.09098148345947265625e+00) (123, -9.82990741729736328125e+00) (124, -1.54727554321289062500e+00) (125, -7.93268871307373046875e+00) (126, -9.47785472869873046875e+00) (127, 5.17348194122314453125e+00) (128, -1.90655517578125000000e+00) (129, -2.46598243713378906250e+00) (130, -4.29530334472656250000e+00) (131, -8.65676879882812500000e-01) (132, 7.89632225036621093750e+00) (133, 2.76201820373535156250e+00) (134, 6.72597122192382812500e+00) (135, -4.92556571960449218750e-01) (136, -6.41001510620117187500e+00) (137, -6.57875347137451171875e+00) (138, -1.56328296661376953125e+00) (139, -9.37412929534912109375e+00) (140, -6.08747196197509765625e+00) (141, -8.45308303833007812500e+00) (142, 5.91182899475097656250e+00) (143, -7.73051738739013671875e+00) (144, -5.95986032485961914062e+00) (145, -1.31467914581298828125e+00) (146, -4.10785198211669921875e+00) (147, -4.93172788619995117188e+00) (148, 5.25335979461669921875e+00) (149, -7.39026355743408203125e+00) (150, -2.37924003601074218750e+00) (151, -3.21418046951293945312e+00) (152, -8.48810863494873046875e+00) (153, 8.71174240112304687500e+00) (154, -3.04408740997314453125e+00) (155, -3.40533256530761718750e+00) (156, -9.22094726562500000000e+00) (157, -2.52194166183471679688e+00) (158, -8.23185157775878906250e+00) (159, -1.12750148773193359375e+00) (160, 5.01207542419433593750e+00) (161, -2.52715539932250976562e+00) (162, 8.00682067871093750000e+00) (163, 2.90839767456054687500e+00) (164, 3.86085605621337890625e+00) (165, 4.73279190063476562500e+00) (166, -7.58415842056274414062e+00) (167, -4.13184595108032226562e+00) (168, -2.79857921600341796875e+00) (169, 8.52558135986328125000e-01) (170, -6.89776420593261718750e-01) (171, 1.11394882202148437500e+00) (172, 2.39947509765625000000e+00) (173, -3.86851358413696289062e+00) (174, 1.66465473175048828125e+00) (175, 6.43961334228515625000e+00) (176, -7.56507301330566406250e+00) (177, 7.55680274963378906250e+00) (178, -8.49211311340332031250e+00) (179, -7.08900451660156250000e-01) (180, -9.83346080780029296875e+00) (181, -8.71353149414062500000e-01) (182, -5.52589321136474609375e+00) (183, 8.30848121643066406250e+00) (184, -2.15961122512817382812e+00) (185, 1.43001937866210937500e+00) (186, -5.09685039520263671875e+00) (187, -1.38055801391601562500e+00) (188, 9.49102783203125000000e+00) (189, -3.32870197296142578125e+00) (190, 7.49193954467773437500e+00) (191, -5.30872964859008789062e+00) (0, 4.14414310455322265625e+00) (1, 8.84821510314941406250e+00) (2, -3.17144918441772460938e+00) (3, -1.99500083923339843750e+00) (4, 2.31554031372070312500e-01) (5, -7.55607604980468750000e-01) (6, 7.92685127258300781250e+00) (7, 7.43297386169433593750e+00) (8, -3.65936517715454101562e+00) (9, -2.91294002532958984375e+00) (10, -1.45307636260986328125e+00) (11, 2.49642562866210937500e+00) (12, 3.21854686737060546875e+00) (13, -9.78842067718505859375e+00) (14, -1.06396007537841796875e+00) (15, 5.65347385406494140625e+00) (16, -8.22855186462402343750e+00) (17, 4.43926811218261718750e-01) (18, 3.34176158905029296875e+00) (19, 7.93492126464843750000e+00) (20, -1.79957675933837890625e+00) (21, 7.81586837768554687500e+00) (22, 6.24340438842773437500e+00) (23, -2.58703613281250000000e+00) (24, -7.54112243652343750000e-01) (25, -8.85344600677490234375e+00) (26, 6.03240585327148437500e+00) (27, -1.84603500366210937500e+00) (28, -2.18214797973632812500e+00) (29, 3.52434635162353515625e+00) (30, -7.92588138580322265625e+00) (31, -8.03800487518310546875e+00) (32, -9.76891517639160156250e-01) (33, -1.09733104705810546875e+00) (34, -3.30047607421875000000e-02) (35, 9.25466346740722656250e+00) (36, 8.14706039428710937500e+00) (37, -3.16560173034667968750e+00) (38, -7.13492393493652343750e-01) (39, 8.24401092529296875000e+00) (40, 3.92145824432373046875e+00) (41, -4.76543855667114257812e+00) (42, 7.40437507629394531250e-01) (43, -2.85999441146850585938e+00) (44, -4.55385923385620117188e+00) (45, 9.67647743225097656250e+00) (46, -7.20652008056640625000e+00) (47, -6.78547716140747070312e+00) (48, 1.20406150817871093750e-01) (49, 8.66794395446777343750e+00) (50, -8.85055541992187500000e+00) (51, -3.07019233703613281250e-01) (52, 3.95110988616943359375e+00) (53, 7.39284896850585937500e+00) (54, 7.10594367980957031250e+00) (55, -6.80300235748291015625e+00) (56, 8.53940200805664062500e+00) (57, 6.97616767883300781250e+00) (58, 1.35096263885498046875e+00) (59, -9.86338329315185546875e+00) (60, 4.12548446655273437500e+00) (61, 3.42508220672607421875e+00) (62, -3.10027742385864257812e+00) (63, 5.68580627441406250000e+00) (64, -7.67224979400634765625e+00) (65, 8.28624534606933593750e+00) (66, 4.94046878814697265625e+00) (67, -9.52518844604492187500e+00) (68, -4.87935686111450195312e+00) (69, -8.78725624084472656250e+00) (70, 4.74498748779296875000e+00) (71, 9.04210090637207031250e+00) (72, 6.86266899108886718750e+00) (73, -5.40739059448242187500e-01) (74, -3.81789255142211914062e+00) (75, -7.69119024276733398438e+00) (76, -8.64260673522949218750e-01) (77, -1.02441310882568359375e+00) (78, 6.88225746154785156250e-01) (79, 9.25614356994628906250e+00) (80, -4.88917112350463867188e+00) (81, -3.32722330093383789062e+00) (82, -1.05087471008300781250e+00) (83, 9.06193733215332031250e+00) (84, -5.93437480926513671875e+00) (85, -3.94493007659912109375e+00) (86, -7.74106407165527343750e+00) (87, 7.51342773437500000000e+00) (88, 9.19342041015625000000e+00) (89, 3.60989952087402343750e+00) (90, -1.03771877288818359375e+00) (91, -4.14388179779052734375e+00) (92, -2.96501922607421875000e+00) (93, 7.28153038024902343750e+00) (94, -8.45807647705078125000e+00) (95, -6.37269020080566406250e-01) (96, 5.56777572631835937500e+00) (97, 6.48239135742187500000e+00) (98, -1.62457466125488281250e-01) (99, -9.31158065795898437500e+00) (100, -1.88950061798095703125e+00) (101, -1.44363403320312500000e+00) (102, 9.73052024841308593750e+00) (103, -5.02683115005493164062e+00) (104, 8.01562690734863281250e+00) (105, -4.08737182617187500000e+00) (106, -2.71802139282226562500e+00) (107, 8.79431152343750000000e+00) (108, 4.88821506500244140625e+00) (109, 2.80531120300292968750e+00) (110, -3.59248828887939453125e+00) (111, 9.99904441833496093750e+00) (112, 9.47808647155761718750e+00) (113, 5.35663700103759765625e+00) (114, -5.44004535675048828125e+00) (115, -6.45628738403320312500e+00) (116, -8.58829212188720703125e+00) (117, -8.68008041381835937500e+00) (118, -3.85126018524169921875e+00) (119, -9.39487171173095703125e+00) (120, 4.92981910705566406250e+00) (121, 5.11102104187011718750e+00) (122, -3.53875398635864257812e+00) (123, -8.03520107269287109375e+00) (124, 2.39255142211914062500e+00) (125, 4.14041900634765625000e+00) (126, -9.62658882141113281250e+00) (127, -2.03967237472534179688e+00) (128, -5.51443719863891601562e+00) (129, -8.83492660522460937500e+00) (130, 4.92629909515380859375e+00) (131, 2.59606266021728515625e+00) (132, -2.78560638427734375000e-01) (133, -1.62073230743408203125e+00) (134, 9.20486450195312500000e-02) (135, -2.26293325424194335938e+00) (136, 4.29189586639404296875e+00) (137, -5.14878988265991210938e+00) (138, 4.88843345642089843750e+00) (139, -8.19888114929199218750e-01) (140, 7.65652084350585937500e+00) (141, -8.70405483245849609375e+00) (142, -8.20844650268554687500e-01) (143, 7.13460922241210937500e+00) (144, 6.65258216857910156250e+00) (145, -1.75986099243164062500e+00) (146, -9.32167816162109375000e+00) (147, 9.18630981445312500000e+00) (148, -4.39942359924316406250e-01) (149, -3.17293834686279296875e+00) (150, 8.66941833496093750000e+00) (151, -5.51012325286865234375e+00) (152, -9.76701736450195312500e+00) (153, -4.86933517456054687500e+00) (154, 1.74385452270507812500e+00) (155, 3.24983501434326171875e+00) (156, 3.13383483886718750000e+00) (157, 7.78220558166503906250e+00) (158, -7.70903682708740234375e+00) (159, 7.61939811706542968750e+00) (160, 8.94727897644042968750e+00) (161, 9.39709663391113281250e-01) (162, 2.15459823608398437500e-01) (163, -1.33128070831298828125e+00) (164, 9.31897926330566406250e+00) (165, -2.21530818939208984375e+00) (166, 6.40578651428222656250e+00) (167, -7.63943099975585937500e+00) (168, 2.63590240478515625000e+00) (169, 1.29421901702880859375e+00) (170, -7.20901393890380859375e+00) (171, 2.92424201965332031250e-01) (172, 2.59016513824462890625e+00) (173, 1.97014236450195312500e+00) (174, -2.57296705245971679688e+00) (175, -7.57251739501953125000e-01) (176, -6.10285997390747070312e+00) (177, -1.89464473724365234375e+00) (178, -2.69296169281005859375e+00) (179, -5.53896665573120117188e+00) (180, -6.90322160720825195312e+00) (181, -4.02354383468627929688e+00) (182, 3.97629165649414062500e+00) (183, 6.87050056457519531250e+00) (184, 1.10712146759033203125e+00) (185, -4.47463941574096679688e+00) (186, 1.20113563537597656250e+00) (187, -5.75904417037963867188e+00) (188, 8.49709892272949218750e+00) (189, 3.49209880828857421875e+00) (190, -8.13964653015136718750e+00) (191, 7.44437980651855468750e+00) (0, -5.56819009780883789062e+00) (1, 2.07581424713134765625e+00) (2, -3.88690185546875000000e+00) (3, -6.24921131134033203125e+00) (4, 9.86050605773925781250e+00) (5, -7.48111534118652343750e+00) (6, 7.36166191101074218750e+00) (7, 2.49640846252441406250e+00) (8, 3.81310462951660156250e+00) (9, -9.84735107421875000000e+00) (10, -7.21116733551025390625e+00) (11, -3.59673070907592773438e+00) (12, 5.26952934265136718750e+00) (13, 2.15865135192871093750e-01) (14, 5.64601612091064453125e+00) (15, 2.33307266235351562500e+00) (16, 8.32122039794921875000e+00) (17, -7.04694461822509765625e+00) (18, -7.89658832550048828125e+00) (19, 3.25363826751708984375e+00) (20, -1.07048797607421875000e+00) (21, 6.36362838745117187500e+00) (22, 1.24138832092285156250e-01) (23, -9.96336650848388671875e+00) (24, 7.07851982116699218750e+00) (25, -8.67472553253173828125e+00) (26, -5.72241067886352539062e+00) (27, 5.57561874389648437500e+00) (28, 2.96659469604492187500e-01) (29, 6.55584526062011718750e+00) (30, -3.28798770904541015625e+00) (31, 9.24918365478515625000e+00) (32, 8.21375656127929687500e+00) (33, 9.13309478759765625000e+00) (34, -7.00002670288085937500e+00) (35, 8.07426261901855468750e+00) (36, -8.34801959991455078125e+00) (37, -9.63836383819580078125e+00) (38, 5.70671081542968750000e-01) (39, 5.46508407592773437500e+00) (40, -9.48571491241455078125e+00) (41, 3.35950469970703125000e+00) (42, -8.13164615631103515625e+00) (43, 2.63707542419433593750e+00) (44, -6.42462968826293945312e+00) (45, 7.51436996459960937500e+00) (46, -5.02985239028930664062e+00) (47, 2.00820827484130859375e+00) (48, -9.53257369995117187500e+00) (49, -2.92644071578979492188e+00) (50, 5.15022945404052734375e+00) (51, -6.03061676025390625000e-01) (52, -6.56281280517578125000e+00) (53, -4.72563171386718750000e+00) (54, -5.66428184509277343750e-01) (55, -9.48429298400878906250e+00) (56, -3.40035676956176757812e+00) (57, 3.71116161346435546875e+00) (58, -1.13185405731201171875e+00) (59, -8.58298206329345703125e+00) (60, 9.84910392761230468750e+00) (61, -8.88676643371582031250e-01) (62, 8.66875648498535156250e+00) (63, 8.06286239624023437500e+00) (64, -1.75558090209960937500e+00) (65, -6.33382463455200195312e+00) (66, 6.13712501525878906250e+00) (67, -1.03600502014160156250e-01) (68, -5.97218894958496093750e+00) (69, -3.29220247268676757812e+00) (70, -4.63851594924926757812e+00) (71, -5.45790433883666992188e+00) (72, -9.93269729614257812500e+00) (73, -2.77016210556030273438e+00) (74, 7.17917251586914062500e+00) (75, -6.35732746124267578125e+00) (76, -5.25579118728637695312e+00) (77, -7.85068035125732421875e+00) (78, -4.46073579788208007812e+00) (79, -7.32383346557617187500e+00) (80, -7.77121543884277343750e-01) (81, -9.31050586700439453125e+00) (82, -6.88865041732788085938e+00) (83, 8.52325439453125000000e+00) (84, -4.03613805770874023438e+00) (85, -5.95785474777221679688e+00) (86, 3.17577266693115234375e+00) (87, 2.56350517272949218750e+00) (88, 7.75330543518066406250e+00) (89, -7.32901573181152343750e-01) (90, -7.13389778137207031250e+00) (91, 7.60241127014160156250e+00) (92, 8.37842178344726562500e+00) (93, 4.64672565460205078125e+00) (94, 5.66527366638183593750e+00) (95, -3.37715864181518554688e+00) (96, -9.57497978210449218750e+00) (97, 1.80239868164062500000e+00) (98, 6.51923942565917968750e+00) (99, -7.65928840637207031250e+00) (100, 8.51019668579101562500e+00) (101, -8.11927509307861328125e+00) (102, 5.90837097167968750000e+00) (103, -4.50741910934448242188e+00) (104, -8.89437675476074218750e-01) (105, -5.93802070617675781250e+00) (106, 4.44664001464843750000e+00) (107, 3.85477161407470703125e+00) (108, -3.78870153427124023438e+00) (109, -2.24056434631347656250e+00) (110, -3.94035816192626953125e+00) (111, 5.43417835235595703125e+00) (112, -1.55107021331787109375e+00) (113, 6.67387962341308593750e+00) (114, -1.90575599670410156250e+00) (115, 4.41279125213623046875e+00) (116, -7.98932170867919921875e+00) (117, -8.72998332977294921875e+00) (118, -3.02370309829711914062e+00) (119, 5.47043228149414062500e+00) (120, 4.65915870666503906250e+00) (121, -9.04317951202392578125e+00) (122, 5.08417987823486328125e+00) (123, -1.08446311950683593750e+00) (124, 5.60354614257812500000e+00) (125, -3.01867389678955078125e+00) (126, 5.53837871551513671875e+00) (127, -7.11030292510986328125e+00) (128, -9.45948410034179687500e+00) (129, -6.34401893615722656250e+00) (130, 6.25715637207031250000e+00) (131, -8.51437568664550781250e-01) (132, 3.93834304809570312500e+00) (133, -6.86003494262695312500e+00) (134, 7.62821197509765625000e+00) (135, -6.95109367370605468750e+00) (136, -7.18283748626708984375e+00) (137, 9.84838294982910156250e+00) (138, 6.90367698669433593750e+00) (139, 3.41324329376220703125e+00) (140, -2.39218044281005859375e+00) (141, 5.97008419036865234375e+00) (142, -1.15257835388183593750e+00) (143, 6.05674743652343750000e+00) (144, -3.54936599731445312500e-01) (145, 8.16829490661621093750e+00) (146, 4.69540596008300781250e-01) (147, -2.63781070709228515625e+00) (148, 8.21168136596679687500e+00) (149, 7.44583702087402343750e+00) (150, -7.16737890243530273438e+00) (151, -1.25120258331298828125e+00) (152, 8.40265655517578125000e+00) (153, 5.90546321868896484375e+00) (154, 7.66433525085449218750e+00) (155, 4.00620365142822265625e+00) (156, -5.35641908645629882812e+00) (157, 3.20271205902099609375e+00) (158, -2.07735061645507812500e+00) (159, -4.81590318679809570312e+00) (160, -4.73966836929321289062e+00) (161, -5.82019329071044921875e+00) (162, 4.87549972534179687500e+00) (163, -2.41635084152221679688e+00) (164, -2.68022775650024414062e+00) (165, 4.00811195373535156250e-01) (166, -7.75241804122924804688e+00) (167, 4.52171707153320312500e+00) (168, -8.28859615325927734375e+00) (169, 9.15125846862792968750e+00) (170, -2.06504058837890625000e+00) (171, -6.80777549743652343750e-01) (172, 3.14128398895263671875e+00) (173, 6.78237915039062500000e+00) (174, -4.62402820587158203125e+00) (175, -5.23359203338623046875e+00) (176, -5.14215803146362304688e+00) (177, -3.59833192825317382812e+00) (178, 2.12859725952148437500e+00) (179, 1.93572711944580078125e+00) (180, 5.82735538482666015625e+00) (181, 4.96121883392333984375e+00) (182, -9.31547546386718750000e+00) (183, 1.69400691986083984375e+00) (184, 8.66682052612304687500e-01) (185, 8.34885978698730468750e+00) (186, -3.26405954360961914062e+00) (187, 5.51026344299316406250e+00) (188, 1.55157184600830078125e+00) (189, 3.62285995483398437500e+00) (190, -9.30563926696777343750e+00) (191, 6.81190299987792968750e+00) (0, 7.80266571044921875000e+00) (1, -5.07083082199096679688e+00) (2, 3.60658359527587890625e+00) (3, -3.09641838073730468750e-01) (4, -3.20781040191650390625e+00) (5, 8.25816154479980468750e+00) (6, 9.64415359497070312500e+00) (7, -1.49640750885009765625e+00) (8, 7.40942001342773437500e+00) (9, -2.42088556289672851562e+00) (10, 7.82281494140625000000e+00) (11, 2.53076553344726562500e+00) (12, -2.09789562225341796875e+00) (13, -6.80121326446533203125e+00) (14, 4.51046657562255859375e+00) (15, 1.88830471038818359375e+00) (16, 9.04429817199707031250e+00) (17, -5.74229240417480468750e-01) (18, 2.12688446044921875000e-02) (19, 2.33564853668212890625e+00) (20, -5.61301040649414062500e+00) (21, 7.05794334411621093750e-01) (22, -5.97034358978271484375e+00) (23, -8.00012588500976562500e+00) (24, 8.63021278381347656250e+00) (25, -2.70133018493652343750e-01) (26, 7.63936042785644531250e-01) (27, -9.39377498626708984375e+00) (28, 7.78439331054687500000e+00) (29, 1.45829677581787109375e+00) (30, 7.41812705993652343750e+00) (31, -8.84460735321044921875e+00) (32, 6.38746643066406250000e+00) (33, 3.42870807647705078125e+00) (34, -3.72216844558715820312e+00) (35, -6.82034492492675781250e+00) (36, 1.68686962127685546875e+00) (37, -2.21834182739257812500e+00) (38, 1.68324851989746093750e+00) (39, -9.03709411621093750000e-01) (40, 3.50110054016113281250e+00) (41, -4.93936538696289062500e-01) (42, -8.37294387817382812500e+00) (43, 7.86259651184082031250e+00) (44, 2.70485019683837890625e+00) (45, 8.92422866821289062500e+00) (46, 5.94813823699951171875e+00) (47, 1.74914932250976562500e+00) (48, -1.64999961853027343750e+00) (49, -4.03059291839599609375e+00) (50, -5.91520118713378906250e+00) (51, 2.73698997497558593750e+00) (52, 6.67520141601562500000e+00) (53, -1.88554573059082031250e+00) (54, 1.53775405883789062500e+00) (55, -9.60902786254882812500e+00) (56, 7.84432220458984375000e+00) (57, 8.17536544799804687500e+00) (58, -3.66392087936401367188e+00) (59, -8.80295181274414062500e+00) (60, 2.12895393371582031250e-01) (61, -6.24579238891601562500e+00) (62, -1.43223762512207031250e+00) (63, -3.39963912963867187500e+00) (64, 2.51179790496826171875e+00) (65, -1.36972713470458984375e+00) (66, -2.19984054565429687500e-01) (67, -1.13021469116210937500e+00) (68, 4.55225944519042968750e+00) (69, -8.53673648834228515625e+00) (70, -6.23696470260620117188e+00) (71, -1.94664001464843750000e+00) (72, 9.69327926635742187500e-01) (73, 9.59313201904296875000e+00) (74, -4.08404350280761718750e+00) (75, -2.75355529785156250000e+00) (76, 5.53360939025878906250e-01) (77, -8.13590526580810546875e+00) (78, 5.42332744598388671875e+00) (79, -3.13263893127441406250e+00) (80, -2.16649818420410156250e+00) (81, 9.50812721252441406250e+00) (82, 9.60435104370117187500e+00) (83, -5.49129724502563476562e+00) (84, -2.37741851806640625000e+00) (85, -2.40498590469360351562e+00) (86, 2.38556861877441406250e-01) (87, -4.53309679031372070312e+00) (88, -3.65038681030273437500e+00) (89, 9.43434906005859375000e+00) (90, -3.33604812622070312500e+00) (91, 6.56250762939453125000e+00) (92, -9.67115592956542968750e+00) (93, -9.83607292175292968750e-01) (94, -6.83713054656982421875e+00) (95, 7.51175880432128906250e+00) (96, 8.69495391845703125000e+00) (97, 2.94288539886474609375e+00) (98, -6.04432010650634765625e+00) (99, 2.19892501831054687500e+00) (100, 4.40614891052246093750e+00) (101, -5.65237998962402343750e+00) (102, -9.74771404266357421875e+00) (103, 1.28741931915283203125e+00) (104, 1.39016246795654296875e+00) (105, -3.83175802230834960938e+00) (106, -9.50345039367675781250e-01) (107, -7.54188776016235351562e+00) (108, -1.96766281127929687500e+00) (109, -5.52701711654663085938e+00) (110, -6.74526214599609375000e-01) (111, 5.86583805084228515625e+00) (112, -6.01889038085937500000e+00) (113, -1.07017517089843750000e+00) (114, -9.62545776367187500000e+00) (115, 1.60369110107421875000e+00) (116, 6.52483940124511718750e+00) (117, 6.13099098205566406250e-01) (118, 7.07059478759765625000e+00) (119, -7.12554836273193359375e+00) (120, 9.86808776855468750000e+00) (121, -6.26545381546020507812e+00) (122, 9.43696022033691406250e+00) (123, -2.48342037200927734375e+00) (124, 2.75093936920166015625e+00) (125, -7.40017032623291015625e+00) (126, -4.97166109085083007812e+00) (127, 3.97604942321777343750e-01) (128, 5.54271411895751953125e+00) (129, 1.40988349914550781250e+00) (130, -7.40346908569335937500e+00) (131, -5.11360168457031250000e-02) (132, 5.75750350952148437500e+00) (133, -7.15118408203125000000e+00) (134, -2.02782535552978515625e+00) (135, 9.69825553894042968750e+00) (136, 7.61175155639648437500e+00) (137, -5.62600421905517578125e+00) (138, 7.72279357910156250000e+00) (139, 2.83920764923095703125e+00) (140, -1.15302085876464843750e+00) (141, -2.70005226135253906250e+00) (142, 9.07125282287597656250e+00) (143, 2.82808876037597656250e+00) (144, 3.02790355682373046875e+00) (145, 3.28977680206298828125e+00) (146, -5.56822013854980468750e+00) (147, 6.93650627136230468750e+00) (148, -6.09712409973144531250e+00) (149, -8.49762535095214843750e+00) (150, 9.81095695495605468750e+00) (151, 1.09061145782470703125e+00) (152, -4.76307916641235351562e+00) (153, 9.24791717529296875000e+00) (154, 4.79038238525390625000e+00) (155, 7.98785972595214843750e+00) (156, -8.15225315093994140625e+00) (157, -1.15170764923095703125e+00) (158, -1.61453533172607421875e+00) (159, 7.39046096801757812500e+00) (160, 5.04541397094726562500e+00) (161, -6.21457481384277343750e+00) (162, -2.66067409515380859375e+00) (163, 8.02917480468750000000e-01) (164, 3.83081150054931640625e+00) (165, -7.33633327484130859375e+00) (166, 8.11056137084960937500e+00) (167, -7.15212917327880859375e+00) (168, 4.87198448181152343750e+00) (169, 2.65754127502441406250e+00) (170, -3.73949718475341796875e+00) (171, -5.56306028366088867188e+00) (172, -5.86061716079711914062e+00) (173, 2.81250095367431640625e+00) (174, -1.28726959228515625000e+00) (175, -5.44895029067993164062e+00) (176, -3.89772224426269531250e+00) (177, 3.14451122283935546875e+00) (178, -8.51244449615478515625e+00) (179, 5.15365600585937500000e-03) (180, -7.43930816650390625000e-01) (181, -8.70148658752441406250e+00) (182, -8.90423583984375000000e+00) (183, 9.88380622863769531250e+00) (184, -1.35452079772949218750e+00) (185, 9.70295524597167968750e+00) (186, -2.17180538177490234375e+00) (187, -7.60582208633422851562e+00) (188, 9.92698669433593750000e-01) (189, -3.74286842346191406250e+00) (190, 9.78463935852050781250e+00) (191, 8.38389778137207031250e+00) (192, 7.23912620544433593750e+00) (193, -2.87603378295898437500e+00) (194, -8.13184738159179687500e-01) (195, 1.06993865966796875000e+00) (196, -2.12367057800292968750e-01) (197, 9.68798828125000000000e+00) (198, 9.06673431396484375000e+00) (199, 6.82529449462890625000e+00) (200, 2.34552955627441406250e+00) (201, 3.81507587432861328125e+00) (202, 9.65464210510253906250e+00) (192, 6.48491287231445312500e+00) (193, -3.37242317199707031250e+00) (194, -8.57733154296875000000e+00) (195, -8.96403694152832031250e+00) (196, 2.72985458374023437500e+00) (197, 4.56717967987060546875e+00) (198, -7.47648191452026367188e+00) (199, -7.26499176025390625000e+00) (200, -5.21530389785766601562e+00) (201, -6.17796897888183593750e+00) (202, 5.03460979461669921875e+00) (192, -9.02129173278808593750e-01) (193, -5.63153791427612304688e+00) (194, -6.46627235412597656250e+00) (195, -3.03046274185180664062e+00) (196, -3.23735952377319335938e+00) (197, 5.86526870727539062500e+00) (198, 3.50691318511962890625e+00) (199, -3.45271968841552734375e+00) (200, -3.30706739425659179688e+00) (201, 4.65795516967773437500e-01) (202, 3.67124652862548828125e+00) (192, 4.44292545318603515625e+00) (193, -8.46426486968994140625e+00) (194, -6.54112100601196289062e+00) (195, -7.76559066772460937500e+00) (196, 5.45354461669921875000e+00) (197, -9.71582508087158203125e+00) (198, -3.52355623245239257812e+00) (199, -7.31378555297851562500e-01) (200, 2.99411296844482421875e+00) (201, -7.03864288330078125000e+00) (202, 5.89619827270507812500e+00) (192, 4.41678047180175781250e+00) (193, -6.00268030166625976562e+00) (194, 4.48397350311279296875e+00) (195, -6.95964431762695312500e+00) (196, -3.47916269302368164062e+00) (197, 4.70183849334716796875e+00) (198, 8.19802474975585937500e+00) (199, 3.42868804931640625000e-01) (200, 5.19183349609375000000e+00) (201, -2.70410442352294921875e+00) (202, 4.71133136749267578125e+00) 
